entity	w2v_entity_vector
politico	0.3786605894565582	2.8792920112609863	-0.13695158064365387	0.7114676833152771	0.5070165395736694	0.6004199981689453	1.0240380764007568	-0.010900404304265976	-0.06707160174846649	1.766756534576416	0.6640903949737549	0.2165834754705429	-0.8288874626159668	1.228555679321289	1.6709744930267334	-1.5817294120788574	0.21773140132427216	0.9609401226043701	-2.0174336433410645	-0.014375627040863037	-0.3734775483608246	3.241240978240967	2.1167373657226562	1.3670130968093872	-0.022235512733459473	1.0862054824829102	-1.2830009460449219	-1.0032804012298584	0.2903439998626709	-0.6410576105117798	-1.0377132892608643	0.7719860672950745	-1.028790831565857	0.6254394054412842	2.0961177349090576	1.562938928604126	-1.1459391117095947	-0.2420668601989746	-0.731218695640564	0.5696234703063965	1.1700611114501953	1.1232140064239502	-1.079533576965332	-1.6821058988571167	-0.2690502405166626	-0.14999890327453613	0.31067270040512085	-0.8623380064964294	1.458933711051941	1.4022225141525269	1.4678640365600586	-0.952722430229187	0.6399722099304199	-1.3453319072723389	0.8958126902580261	-1.8987305164337158	-1.7801178693771362	-0.10585847496986389	0.6906923651695251	0.9635434746742249	1.0269514322280884	-0.0006735622882843018	0.5933353900909424	1.8381730318069458	0.10473069548606873	-1.0817674398422241	0.5380903482437134	-1.5647841691970825	-0.4787558317184448	-1.283139944076538	-1.5053901672363281	-1.1504755020141602	-0.0036607980728149414	0.6161848306655884	-0.5808786749839783	-0.5343126654624939	-0.5818527340888977	1.4406046867370605	0.4771704077720642	0.24334745109081268	0.026558339595794678	0.17579635977745056	0.012238502502441406	0.9777904152870178	0.8760284781455994	-0.31150320172309875	0.12669673562049866	-2.6189141273498535	-0.06497214734554291	0.7438672184944153	0.6395776271820068	-0.23364228010177612	1.4525890350341797	0.5249536037445068	-1.086423635482788	-0.41281694173812866	0.762271523475647	0.8067371845245361	0.9236401915550232	-0.09027881920337677	-0.8233456611633301	1.9387543201446533	0.036785125732421875	0.6597753763198853	-3.048447608947754	0.3919106721878052	0.1625501960515976	0.40554702281951904	-0.21899518370628357	0.8269814848899841	-0.7440601587295532	-1.2157284021377563	-0.6021357774734497	0.9658663272857666	0.5645707845687866	-1.4085547924041748	2.266312837600708	0.05267680436372757	2.5103089809417725	-1.3810105323791504	-0.2759079337120056	-0.06425392627716064	-0.10971817374229431	2.0511972904205322	2.5695114135742188	1.5508956909179688	0.9458566308021545	2.098010301589966	2.10676908493042	-0.6711111068725586	-0.30339163541793823	1.1589107513427734	0.8459960222244263	-1.4881460666656494	-1.5989184379577637	0.28638115525245667	0.7698315382003784	-1.03825843334198	0.7013513445854187	-0.5574555397033691	2.492563247680664	1.2770428657531738	0.46767300367355347	0.04052925109863281	-2.10919189453125	-0.5649995803833008	0.8750874996185303	-1.2566485404968262	0.37574565410614014	1.200243592262268	-2.1112420558929443	-0.03306320309638977	-1.3031864166259766	0.2110629677772522	0.27567583322525024	-1.165940523147583	-0.9157140851020813	-0.3866320848464966	0.6038511395454407	-0.0650363564491272	0.9672163724899292	0.21982230246067047	0.2608594596385956	-0.4961487650871277	0.00036595389246940613	1.4687600135803223	-0.4106086194515228	-0.427598774433136	-0.09471963346004486	-0.8970469236373901	-0.9018350839614868	0.6189966201782227	1.1225595474243164	2.2267470359802246	1.515310525894165	0.967284619808197	1.307695984840393	0.014094054698944092	0.9188722372055054	0.6387010812759399	2.1828222274780273	-0.7387296557426453	0.4980025887489319	0.12373127043247223	-1.0500177145004272	0.32823967933654785	-0.535715639591217	-0.8731619715690613	0.7963848114013672	-1.1745338439941406	-0.14891929924488068	-0.24403060972690582	1.1276503801345825	-0.005276858806610107	1.427398920059204	-0.7424752712249756	-0.14052130281925201	1.091641902923584	0.6702064871788025	-0.5492138862609863	-1.2802226543426514	-0.2205585241317749	0.2693500518798828	-1.0792326927185059	0.211159348487854	1.0368577241897583	0.5115911960601807	1.3582340478897095	0.45824623107910156	0.51449054479599	-0.932080864906311	1.181877851486206	1.607704520225525	-0.8245123028755188	-0.8178046941757202	-1.155814290046692	-0.7302780747413635	0.37894001603126526	0.9016008973121643	2.732665538787842	-1.0224535465240479	1.7046153545379639	0.7160439491271973	-0.193339541554451	0.3005061149597168	0.3519584834575653	1.1691795587539673	-0.07186602056026459	-0.09557053446769714	1.3567373752593994	-0.6970850229263306	-1.810357689857483	0.1885274350643158	0.08674764633178711	-0.8894578218460083	0.4082163870334625	0.42903798818588257	0.3936641216278076	-0.7231252193450928	-1.6468945741653442	0.6039865016937256	-3.1259665489196777	-1.7180800437927246	-0.7540282607078552	1.8456664085388184	-0.029126256704330444	-1.3790560960769653	-1.0263394117355347	-0.2534591555595398	-0.27218177914619446	2.9161510467529297	0.12341803312301636	-1.062678337097168	0.6542551517486572	-1.1469125747680664	1.0260944366455078	0.7164990305900574	0.3631260395050049	0.02390412613749504	0.40704110264778137	0.23243623971939087	-0.7502367496490479	1.0854682922363281	1.2250568866729736	-0.8951869010925293	-0.4310336112976074	0.9792709350585938	-0.15577134490013123	0.5665419697761536	-0.060083940625190735	-3.127098560333252	1.8794620037078857	-1.7343209981918335	-1.2691954374313354	0.7912636399269104	0.7892259359359741	-0.4460865259170532	-1.070355772972107	-0.0822702944278717	-1.2772563695907593	1.2655370235443115	-0.12653470039367676	-1.8857146501541138	2.571866512298584	0.1424790918827057	0.5372549295425415	1.6550168991088867	1.9197897911071777	-0.4817117154598236	0.5757465362548828	-1.556833028793335	0.9926969408988953	-0.6306981444358826	-0.7338656783103943	0.08420681208372116	-0.0480465292930603	-2.454721212387085	0.5984603762626648	-0.8284183144569397	-0.8718690872192383	
Silvio Berlusconi	-1.6420656442642212	3.3953957557678223	-2.0010483264923096	0.6662991046905518	2.5987532138824463	0.6355041265487671	2.2561028003692627	-0.7132440805435181	-1.5852446556091309	2.6479833126068115	-0.8024849891662598	-0.06370747834444046	-1.0771839618682861	0.8896617889404297	1.2206348180770874	1.077033519744873	-2.552736282348633	1.9690115451812744	0.5046181678771973	-1.1041098833084106	0.17751184105873108	3.7812983989715576	0.7211520671844482	0.7777121067047119	0.4617137610912323	0.09058564901351929	1.5933223962783813	0.05369368568062782	0.1608511507511139	-1.0254719257354736	-0.0746069848537445	1.0557034015655518	-0.4558787941932678	-0.09217079728841782	0.6290152668952942	-0.23035095632076263	-0.1777704507112503	0.7025551795959473	-1.0213608741760254	-1.1234205961227417	0.21545754373073578	0.7070341110229492	1.1607857942581177	-2.1884498596191406	0.19791977107524872	1.361209511756897	-0.7422800064086914	0.12026911973953247	0.7751238942146301	-0.05002704635262489	-0.1350155770778656	-1.929420828819275	0.28135237097740173	0.08068748563528061	-0.3697943687438965	0.6299404501914978	-0.6994802355766296	0.7549009323120117	1.8920133113861084	1.0436909198760986	0.8700188994407654	0.40718743205070496	1.2832412719726562	1.0045424699783325	-0.8720417618751526	-2.872174024581909	-1.0948920249938965	0.6070056557655334	1.1458992958068848	-2.3012986183166504	0.7074418067932129	-1.853335976600647	-0.23323461413383484	-0.9803056120872498	-0.3324846625328064	-1.1816163063049316	0.6606520414352417	-0.25794532895088196	1.228165864944458	-0.8141128420829773	-1.2806369066238403	-0.38532862067222595	0.8921307325363159	0.05297650024294853	2.0979959964752197	0.4595482349395752	-0.6621074080467224	-3.235837697982788	-1.2142289876937866	1.2949029207229614	-1.075687050819397	-1.717626690864563	-2.956864356994629	1.7008856534957886	0.29667943716049194	2.3251821994781494	-0.665777862071991	-0.03984178230166435	2.579704523086548	0.6399908065795898	-2.29427170753479	-0.43964624404907227	-1.3172763586044312	-0.8064791560173035	-1.9642537832260132	0.28854426741600037	0.10457164794206619	0.936718761920929	0.8053074479103088	-0.27199578285217285	-1.1069425344467163	-2.3632397651672363	-1.920931339263916	-0.4048636257648468	-0.039839282631874084	-1.0745506286621094	1.3034930229187012	-0.5549342036247253	0.5973938703536987	-2.3566486835479736	0.3942953646183014	1.1034820079803467	1.983001470565796	1.293021321296692	1.7475417852401733	0.08312396705150604	-0.2588099241256714	2.0829193592071533	0.3297231197357178	-1.385449767112732	-0.3920482099056244	0.27997082471847534	0.7689852118492126	0.359680712223053	1.0212980508804321	0.16615545749664307	-1.5241479873657227	-1.1871272325515747	0.5703930258750916	-0.07220106571912766	0.539942741394043	-0.6787877678871155	-0.5862432718276978	-0.07960597425699234	0.43337902426719666	0.7111529111862183	1.4848812818527222	0.4764402508735657	0.6687235832214355	-0.18045009672641754	-0.13691651821136475	-0.3659123480319977	2.995060443878174	0.26925912499427795	0.145973801612854	-1.6073153018951416	-2.336422920227051	-2.0544323921203613	-0.5919108986854553	-1.827249526977539	-0.3424510657787323	1.0474159717559814	0.34712719917297363	0.9817041158676147	0.4137004315853119	1.4197828769683838	0.6007078289985657	1.5184370279312134	0.773206889629364	-0.026732245460152626	0.19545753300189972	0.5953012108802795	0.7075636982917786	1.3452452421188354	0.21838808059692383	0.34097447991371155	-1.0940876007080078	-0.7512608766555786	-1.4531832933425903	-0.9579076766967773	0.3629094362258911	1.0473345518112183	0.819119393825531	-1.0981441736221313	-1.3713340759277344	0.6571974754333496	-1.5731793642044067	-0.5814771056175232	-0.3784240782260895	-0.5795801877975464	-0.7733969688415527	-0.49787968397140503	-1.8998088836669922	-1.207371473312378	0.8637766242027283	0.8527899980545044	3.4823148250579834	1.4449974298477173	2.0864083766937256	-1.0628424882888794	0.4673183262348175	-0.591130793094635	0.9152995944023132	-4.154289245605469	0.26636791229248047	0.08272287994623184	0.47749677300453186	2.1807334423065186	1.840071439743042	0.2723920941352844	-0.6760640740394592	1.1381250619888306	1.8405417203903198	-2.247952461242676	-0.6369885802268982	-0.30251821875572205	-0.37737569212913513	-1.045409917831421	0.03826881945133209	1.9177985191345215	1.0180643796920776	1.370798945426941	2.2439181804656982	0.06641138345003128	-0.05561032518744469	0.1465194970369339	-0.5294674634933472	2.0613009929656982	0.1717100739479065	-0.3168231248855591	-0.8262497186660767	-0.3104516565799713	0.12006630003452301	-0.026094641536474228	0.7944743633270264	2.18656587600708	1.0621381998062134	-1.6043493747711182	-0.7054540514945984	-0.8562378883361816	0.10311094671487808	-1.1870228052139282	-2.220853805541992	0.7963721752166748	-1.5536876916885376	1.8105318546295166	-1.7826464176177979	-0.7238511443138123	2.2324306964874268	0.038636475801467896	0.6678274273872375	0.548213005065918	-1.3753622770309448	0.47738760709762573	0.4288216531276703	-0.6366189122200012	-0.8915076851844788	-0.3849235773086548	0.17095699906349182	-2.064924478530884	0.7776423692703247	2.724527597427368	1.3687669038772583	-2.4772300720214844	-1.9172675609588623	-1.1116060018539429	3.739863157272339	-1.3794890642166138	0.5482749342918396	2.132642984390259	-2.208258628845215	1.299608826637268	1.076529622077942	-2.623612642288208	-2.042397975921631	-1.1473544836044312	-1.690729022026062	0.08926218748092651	-1.0745092630386353	1.3750660419464111	1.1933033466339111	0.6816818714141846	1.900726079940796	1.0946342945098877	0.9238400459289551	0.7069242596626282	0.12197015434503555	-0.3988032937049866	-0.4751977026462555	-0.9180052876472473	0.43133291602134705	-0.13642066717147827	-0.22995947301387787	-2.428422212600708	-0.6461493372917175	-0.037221021950244904	-1.1256059408187866	2.9085376262664795	-1.2443302869796753	-1.9991183280944824	
Barack Obama	0.6084041595458984	-1.5052599906921387	1.241416573524475	0.4944614768028259	1.3097898960113525	2.015897750854492	0.39575958251953125	1.50955331325531	1.9364118576049805	-0.5575702786445618	0.03516822308301926	1.6715087890625	2.7356019020080566	-1.3002368211746216	-0.33154720067977905	-2.719412326812744	-2.1568071842193604	0.19224052131175995	-0.08786437660455704	-1.3800910711288452	-1.380069613456726	-0.39511770009994507	5.601855278015137	-1.1890982389450073	-0.5912749171257019	2.1607272624969482	0.8297237157821655	-2.1849145889282227	-2.590052604675293	2.1266279220581055	-0.2543807923793793	2.236877918243408	-4.293635368347168	0.825958788394928	1.180096983909607	1.7132197618484497	-0.3109007179737091	-1.1786367893218994	-0.3507564067840576	-2.152911424636841	0.08381343632936478	-0.32636600732803345	0.8166826963424683	-1.2600886821746826	1.6980934143066406	1.2693443298339844	-0.829511821269989	-1.2408198118209839	0.9557551145553589	0.9639167785644531	0.9363206028938293	-1.377272129058838	-2.2816145420074463	-2.024221181869507	1.0777866840362549	0.5666553974151611	-4.469581604003906	1.6134469509124756	2.8473992347717285	-0.6891393065452576	-2.3591666221618652	-1.8344725370407104	2.0181117057800293	-0.11869470030069351	-0.8575747013092041	1.442490816116333	1.4557143449783325	-2.5126028060913086	-0.35965269804000854	-1.737815499305725	-0.10016710311174393	1.0697392225265503	-1.9018101692199707	1.1793540716171265	0.4760214388370514	-1.1307003498077393	-0.5796195864677429	-0.5616878271102905	-0.3543362021446228	-0.539553165435791	2.5523972511291504	0.47011440992355347	-1.635952115058899	-0.4770180583000183	0.6149176955223083	-0.6863821148872375	-3.1964547634124756	-3.2288436889648438	-2.0925393104553223	-1.4811999797821045	-1.6519832611083984	0.9272484183311462	1.4649375677108765	1.172080397605896	-0.44902360439300537	0.7419711947441101	-2.4268391132354736	-0.4734768867492676	0.7621495723724365	-0.3314613103866577	-1.098996877670288	1.6856449842453003	-1.1477998495101929	2.4216926097869873	0.24649062752723694	1.0469411611557007	1.0167560577392578	-0.6253910064697266	-0.1212029829621315	0.4410460293292999	-0.8943718671798706	-3.3788950443267822	-3.089033365249634	-0.6397492289543152	-3.632758855819702	0.10139314830303192	3.582763195037842	1.3736616373062134	1.813662052154541	-0.6825159788131714	0.5188385844230652	-0.7066457271575928	0.7708792686462402	2.4455008506774902	1.415507197380066	2.153249979019165	1.0407207012176514	0.6782775521278381	1.4693043231964111	-0.28641071915626526	0.8744136691093445	-2.1090376377105713	0.3986045718193054	0.42782795429229736	1.507761001586914	1.2009732723236084	-0.9987910389900208	-3.4107182025909424	1.6093332767486572	-0.69090336561203	0.7051032185554504	-0.48215845227241516	1.015432357788086	0.5707061290740967	-0.44068747758865356	-1.8450782299041748	-1.5930919647216797	0.17946764826774597	-1.610780119895935	0.10519632697105408	-3.360208034515381	0.8495052456855774	2.616746425628662	-0.7537081837654114	-0.4182092845439911	0.5277498364448547	-2.4074199199676514	0.6986543536186218	0.1782703697681427	1.1209644079208374	-0.14995881915092468	-1.5196881294250488	0.6750106811523438	1.3531543016433716	-0.5661628246307373	3.179995059967041	-0.9084022641181946	-0.9080178737640381	1.4496800899505615	-3.1548781394958496	-0.7190650701522827	0.9848493933677673	2.8660662174224854	3.59283185005188	-0.11395242065191269	-0.4131266474723816	-0.48853403329849243	-0.0012262463569641113	-0.36786139011383057	1.5891571044921875	-1.9455687999725342	-3.216480255126953	0.9140785932540894	-0.9371720552444458	0.3829096257686615	2.8992702960968018	-2.487858772277832	0.6113725304603577	1.7343858480453491	-0.89200758934021	1.2352627515792847	-1.1823874711990356	-2.6437127590179443	0.6793881058692932	0.9989508986473083	0.7559057474136353	1.4241869449615479	-0.9484177231788635	0.4331364333629608	-1.012360692024231	0.16341529786586761	1.0818591117858887	0.43554067611694336	-0.3146322965621948	2.0105950832366943	0.6412520408630371	1.7184584140777588	0.40521901845932007	1.0412777662277222	-0.720296323299408	4.225309371948242	1.926708459854126	0.18494701385498047	1.0065902471542358	-1.7870213985443115	-0.32830676436424255	0.6501619219779968	-1.1662100553512573	-0.4942253828048706	-1.0490319728851318	-1.3826332092285156	2.7902016639709473	1.5487724542617798	0.8688469529151917	-0.7229335308074951	-1.8551331758499146	-2.749528646469116	0.9130529165267944	-0.2829211950302124	0.16371092200279236	-1.3079804182052612	1.7750202417373657	0.707933247089386	0.5269511938095093	2.6727373600006104	1.3911188840866089	1.1171621084213257	1.1070771217346191	-1.1524394750595093	-1.2114684581756592	-0.15035486221313477	-0.9705377221107483	-1.6059458255767822	2.792773962020874	0.8501518964767456	2.742586135864258	0.9632611274719238	-1.1786625385284424	0.8029686212539673	0.3571542203426361	2.4582033157348633	-0.5113309025764465	-3.75264048576355	0.8782127499580383	-1.9113634824752808	0.10957343131303787	2.497570037841797	-0.5806561708450317	1.6591317653656006	0.005763378459960222	-0.6037032008171082	-0.052409108728170395	-1.2277435064315796	0.3025822937488556	0.8730934858322144	-2.199253797531128	2.867225408554077	1.8490147590637207	-0.34411248564720154	-0.6892884969711304	-4.081945896148682	0.06969839334487915	-1.0163089036941528	-1.2433897256851196	-2.2227463722229004	1.7082871198654175	-3.39009428024292	0.17188364267349243	0.8470794558525085	0.3882870376110077	-1.0668339729309082	-0.1300693303346634	-1.4322017431259155	-0.9415563344955444	0.7856259942054749	0.8259878158569336	-0.20488214492797852	-0.5238214731216431	0.16213655471801758	2.270265579223633	-1.7403398752212524	1.970605731010437	-0.39915192127227783	-2.2086362838745117	-0.45784232020378113	0.0054273055866360664	0.069880910217762	0.7653467059135437	-0.4287291169166565	-1.3466556072235107	
Hillary Clinton	0.38323840498924255	0.7986555695533752	1.3515549898147583	-1.543137550354004	0.846584141254425	1.4027553796768188	0.30542999505996704	0.9279676675796509	-0.37958192825317383	1.736106038093567	0.28148603439331055	0.4523331820964813	1.047970175743103	0.6067473888397217	0.6908722519874573	-2.370208740234375	-2.1573026180267334	-0.3967452049255371	0.4934053122997284	-0.6506988406181335	-0.23294256627559662	-1.4258557558059692	4.042960166931152	-0.10070181638002396	0.22398531436920166	1.7955958843231201	0.9562860131263733	-1.511717677116394	-1.3417282104492188	1.6932268142700195	-0.7065614461898804	1.5040730237960815	-2.966662883758545	-0.2629299759864807	0.11193730682134628	1.447943925857544	0.3167175352573395	-1.1945143938064575	0.46724167466163635	-0.6168406009674072	-0.8421357274055481	-0.6634088754653931	0.10466821491718292	-0.6390583515167236	0.49930185079574585	-0.04491496831178665	-0.829803466796875	-0.254607230424881	2.5090255737304688	2.0365841388702393	0.7288252115249634	1.6689321994781494	-0.5932316184043884	-3.0896146297454834	0.4048618972301483	-0.2621997594833374	-2.5724575519561768	0.6543043851852417	1.9940072298049927	-0.7318171858787537	-1.0731091499328613	-1.8679282665252686	2.057598829269409	0.769447386264801	-1.6357203722000122	1.0039855241775513	1.2844147682189941	0.14063744246959686	-1.0731538534164429	-0.970413327217102	-0.6475435495376587	0.14003095030784607	-1.457428216934204	-0.16590838134288788	0.16702723503112793	0.04010598734021187	-0.7577373385429382	-0.4307897388935089	-0.25515511631965637	0.11263185739517212	0.28806573152542114	-0.8140653371810913	-2.1758460998535156	0.9416943788528442	0.787195086479187	-0.09304951876401901	-5.621237277984619	-0.8391410112380981	-1.447203516960144	-1.403617262840271	0.5684275031089783	-0.0883549153804779	1.603555679321289	1.360559344291687	-0.200290247797966	1.5426071882247925	-1.9587287902832031	0.295255571603775	1.8689897060394287	-0.6921781897544861	0.060126688331365585	3.374072313308716	-2.1030519008636475	1.5124616622924805	-0.935753583908081	-0.44298887252807617	1.606919288635254	0.49221712350845337	0.8097724318504333	0.4443169832229614	-0.5045206546783447	-2.3353800773620605	-1.9258315563201904	-0.7049180865287781	-3.3478026390075684	-1.2950371503829956	0.6754181981086731	0.3000413179397583	1.3700517416000366	-0.9181485176086426	0.5409050583839417	-0.9077292680740356	0.4547431468963623	2.1552348136901855	0.9844864010810852	2.8236520290374756	0.10517259687185287	0.743570864200592	1.6361702680587769	-1.5452038049697876	0.20807954668998718	-0.11456926167011261	0.9002249240875244	1.0777084827423096	1.7058449983596802	-0.008558527566492558	-0.878887951374054	-4.197358131408691	2.121185302734375	0.17614896595478058	1.4066721200942993	-1.6009716987609863	1.8098373413085938	2.0551271438598633	0.7346229553222656	-2.0844337940216064	-0.35298752784729004	-1.8147999048233032	0.5113171339035034	0.32430392503738403	-3.367906332015991	1.0450541973114014	2.647315263748169	0.7792428135871887	-0.6851479411125183	0.2927180528640747	-2.3483548164367676	0.14386717975139618	-1.409244418144226	-1.154584527015686	2.1364381313323975	-0.9940499067306519	0.6700392961502075	0.900658905506134	-0.7954846620559692	3.0739951133728027	-0.5542340278625488	0.837490439414978	-0.6469637155532837	-2.963416576385498	-1.0601012706756592	1.8682451248168945	2.377922773361206	0.26148656010627747	1.2375224828720093	-0.6312247514724731	-2.4130966663360596	1.969908595085144	-0.14777614176273346	0.15179206430912018	0.9237728714942932	-2.1078593730926514	1.782548189163208	-1.0052540302276611	-0.30392834544181824	1.9565417766571045	-1.2824559211730957	1.064030647277832	2.094550132751465	0.9208291172981262	-0.7676213979721069	0.8803417682647705	-0.05151406303048134	0.31059738993644714	2.3429625034332275	-1.004448652267456	0.6688764691352844	-1.2853597402572632	1.9101463556289673	0.05951441824436188	0.23025935888290405	-0.3309714198112488	-0.36239853501319885	-0.7624320983886719	1.4079716205596924	-0.6634016633033752	0.16233834624290466	1.2432271242141724	0.9684203267097473	-0.23099285364151	2.339315176010132	1.6451495885849	-0.9399034380912781	-1.1120353937149048	-0.6420167684555054	-0.1273391842842102	-1.2064838409423828	-0.3912371098995209	-0.45945197343826294	1.4483733177185059	-0.17337976396083832	2.625566005706787	1.1354849338531494	0.3668733537197113	-0.34822309017181396	-2.0750324726104736	-2.3137588500976562	1.3063066005706787	0.5174328088760376	2.0734519958496094	-0.3537656366825104	0.37942540645599365	0.9477677941322327	-0.1941499412059784	3.3323519229888916	2.212761402130127	2.1091299057006836	1.7451019287109375	-0.5154487490653992	0.13704222440719604	1.8564468622207642	0.17410355806350708	-1.1462740898132324	2.485558032989502	1.362774133682251	-0.6405298709869385	0.5563148856163025	-2.3430135250091553	0.3482990860939026	-0.4576489329338074	3.7548770904541016	0.6483312845230103	-1.8422996997833252	1.180806279182434	-1.6939072608947754	0.46350064873695374	1.836421012878418	-0.5588923096656799	1.7038705348968506	-1.2286096811294556	0.2319762408733368	0.2423282414674759	-0.8668225407600403	-0.5281584858894348	1.4660016298294067	0.16852205991744995	2.5186588764190674	1.413609266281128	-1.0958343744277954	-0.7614935636520386	-2.303241014480591	0.4750707447528839	-0.3641456961631775	0.42607253789901733	-1.857650876045227	1.3400506973266602	-2.6694226264953613	-1.4203001260757446	2.2256789207458496	-0.07983823120594025	-1.3094227313995361	0.8372802734375	-1.8741992712020874	-0.02802262082695961	-0.559658944606781	-1.0422475337982178	0.1107059195637703	-0.04216821491718292	-0.3270997703075409	1.0744969844818115	-2.733489990234375	-0.8879525065422058	-2.1950061321258545	-2.0455241203308105	-0.470820814371109	2.3422534465789795	-2.164684772491455	0.7342870235443115	1.0740985870361328	-0.9643157720565796	
Vladimir Putin	-0.678523063659668	1.5448651313781738	0.57687908411026	1.8541357517242432	0.9053923487663269	2.766944646835327	-1.3166394233703613	0.8525846004486084	0.07729271799325943	1.0191168785095215	-0.5467061400413513	0.44792795181274414	-1.379948377609253	-1.9470332860946655	1.52105712890625	-0.14129538834095	-2.760138750076294	1.2621126174926758	0.36638498306274414	-0.37233614921569824	-2.0546631813049316	1.0111148357391357	3.736685276031494	-0.34924355149269104	-1.407179355621338	1.2274327278137207	0.33741864562034607	0.7652202248573303	-0.5914244055747986	-0.36153876781463623	-1.9168452024459839	0.5256506204605103	-4.1641459465026855	0.30573490262031555	0.22158080339431763	2.1870431900024414	-0.02214644104242325	0.10615777224302292	-1.2038395404815674	-1.9616681337356567	0.1923031359910965	0.7288478016853333	1.0498219728469849	-3.8998708724975586	1.9716715812683105	1.5547434091567993	0.5762007832527161	-0.9754401445388794	0.39543262124061584	0.09533242136240005	1.4202814102172852	-0.5752336978912354	-1.3221689462661743	0.09767283499240875	0.5573949813842773	1.6439213752746582	-2.0163841247558594	0.415259450674057	1.6583832502365112	-1.3026481866836548	-1.433635950088501	-1.3173284530639648	2.0498862266540527	-0.791777491569519	1.7506091594696045	-1.4506309032440186	-0.8562417030334473	1.1517680883407593	0.6706545352935791	-2.241234064102173	2.6449787616729736	-0.5040327310562134	-0.3487665057182312	0.12166206538677216	-0.757394015789032	-1.8277075290679932	-0.08960068970918655	-1.547972559928894	0.9764719605445862	-0.24609598517417908	0.10278847068548203	1.4294209480285645	0.03177669271826744	-0.9341685771942139	2.3622617721557617	-0.40643325448036194	-0.9023264050483704	-4.3342084884643555	-1.4408001899719238	2.127485752105713	-3.350234270095825	-0.9175548553466797	-1.8794548511505127	1.170140027999878	-0.18991917371749878	3.3061306476593018	-1.3511457443237305	-0.2854994237422943	1.5653131008148193	0.40478500723838806	0.2961035966873169	-0.39622119069099426	-0.06273690611124039	-0.16029991209506989	1.5304765701293945	1.3857436180114746	0.8889108896255493	-0.7824217081069946	-0.5660948157310486	1.1152734756469727	-1.5672707557678223	-2.9669370651245117	-2.5009889602661133	-3.4618332386016846	-0.6578502655029297	-2.613126516342163	2.196622848510742	1.9891107082366943	-0.2500312924385071	-0.9180540442466736	0.7243767380714417	-1.159402847290039	0.2919195294380188	2.0004327297210693	1.686368703842163	1.2036129236221313	0.6905776858329773	2.2850003242492676	2.8068182468414307	-3.2527642250061035	0.7812743782997131	-0.5606276988983154	1.660947322845459	0.5834361910820007	0.7916446328163147	-0.24226810038089752	-0.6749483346939087	-0.7021153569221497	-0.5255286693572998	-0.29051434993743896	1.0831745862960815	0.39398545026779175	0.8944383263587952	1.2437535524368286	-0.6845842003822327	-2.2304553985595703	1.3259823322296143	0.6265602111816406	-0.12101346254348755	2.20434308052063	-1.3869024515151978	0.38383427262306213	2.414283037185669	-1.7295031547546387	-0.14081446826457977	-0.9646725654602051	-0.9151564240455627	0.7813008427619934	1.404097080230713	3.2498960494995117	0.556786298751831	-0.31320589780807495	-0.5894667506217957	0.8510334491729736	-2.015286445617676	3.0009303092956543	-0.2040829062461853	1.512178659439087	0.29204046726226807	-0.8272690176963806	-0.8479811549186707	0.47189486026763916	2.0444531440734863	0.8845356106758118	0.1276892125606537	-0.18738000094890594	-0.5651891827583313	-0.6103830933570862	1.0365999937057495	-1.0441385507583618	1.3428623676300049	-0.004621007014065981	-0.5892494916915894	-2.3557064533233643	0.43416300415992737	0.7366763353347778	-0.8495965600013733	-1.4778354167938232	2.543677568435669	0.675502598285675	0.6550425887107849	-0.6033331751823425	-3.1640937328338623	-1.5751854181289673	1.545800805091858	1.139332890510559	3.3865559101104736	0.6729654669761658	-0.05475068464875221	-0.6082472801208496	-0.7831664085388184	1.8433880805969238	-1.3102147579193115	-0.16383302211761475	-0.16730496287345886	0.016521576792001724	2.2706751823425293	0.9024461507797241	4.196279048919678	0.35802170634269714	2.453129529953003	0.39298808574676514	1.1986950635910034	-1.3869905471801758	-1.45411217212677	-0.6584951877593994	-0.03399181365966797	0.8951832056045532	-3.0490503311157227	-0.12191817164421082	2.710909605026245	2.98140287399292	1.216286301612854	2.4129788875579834	-0.8275216817855835	-2.6465721130371094	-2.3034255504608154	1.6977306604385376	0.8479288816452026	1.662489891052246	-0.7576212882995605	-1.1404063701629639	-0.16577491164207458	0.25732749700546265	1.521264672279358	2.2385945320129395	2.403947114944458	2.3664512634277344	-2.810293197631836	-2.297297716140747	1.7851308584213257	-1.8593471050262451	-0.43576493859291077	0.6402141451835632	1.186651587486267	0.5717714428901672	0.0403716042637825	-1.4889569282531738	2.5307953357696533	0.059228990226984024	-1.2231276035308838	3.2804811000823975	-1.0597796440124512	0.4127548336982727	-0.26384273171424866	-1.92596435546875	2.1255581378936768	-0.5376186370849609	2.047177791595459	-2.9399569034576416	2.483839988708496	0.5671793222427368	-0.5756545662879944	-0.6841526627540588	-0.24969802796840668	-1.211557388305664	2.7047364711761475	-1.6626172065734863	-0.18399399518966675	0.22435732185840607	-2.6383190155029297	2.8476133346557617	0.2992870807647705	-1.1808117628097534	-1.1954536437988281	-0.8998931050300598	-2.7724831104278564	0.9448235630989075	-3.0832479000091553	-0.8633909821510315	0.31722769141197205	0.032112374901771545	0.24022603034973145	-0.05875261500477791	1.3955082893371582	0.2784351706504822	-0.7232604622840881	1.214036226272583	-0.2867470979690552	1.0962982177734375	-0.7409939169883728	1.3571652173995972	-0.9470491409301758	-1.3793195486068726	-1.6714669466018677	-1.199492335319519	-1.5792300701141357	3.140015125274658	-0.5818405151367188	-1.1219877004623413	
scrittore	-0.8546776175498962	1.1587674617767334	0.6147896647453308	0.5189332962036133	-1.084916353225708	1.841946005821228	1.6019617319107056	0.2068568468093872	-1.7460927963256836	3.7541463375091553	-1.3769623041152954	0.7430726885795593	0.304535448551178	0.31037619709968567	2.206423044204712	-2.3315322399139404	1.2635879516601562	0.775092601776123	-2.2325313091278076	1.5530002117156982	-1.7871193885803223	0.3007470667362213	1.7028151750564575	-0.05948920547962189	-2.041517496109009	0.9402517080307007	-0.9854276776313782	-1.8574904203414917	-0.022301221266388893	-1.4240226745605469	-1.9370414018630981	0.34290793538093567	-0.6791096329689026	1.7848142385482788	2.003561496734619	0.060503650456666946	-1.7765599489212036	0.009320543147623539	-0.8145155906677246	-0.320451021194458	1.1261272430419922	-0.248835951089859	-2.0674309730529785	-0.049843642860651016	0.004333426244556904	-0.7517095804214478	-0.8912908434867859	0.1166272684931755	-0.8954285383224487	1.0381391048431396	-0.7876503467559814	-0.06997295469045639	0.720325231552124	0.5055931210517883	1.0627033710479736	-1.7934976816177368	0.9250094890594482	-0.8480271100997925	-1.084983229637146	0.31138530373573303	1.0549581050872803	1.1564048528671265	-1.624672770500183	-1.0524640083312988	1.1646956205368042	0.24672535061836243	-1.2691919803619385	-0.49913567304611206	0.43921953439712524	0.009904163889586926	0.3734975755214691	-0.5748406648635864	0.9909519553184509	1.752508282661438	-1.8867874145507812	0.9265998601913452	1.3871606588363647	0.9873746037483215	-0.015331118367612362	-1.3091195821762085	-2.4801998138427734	-0.7980371117591858	1.807442307472229	1.207584261894226	1.359025001525879	-1.003442645072937	1.232503056526184	-1.2172157764434814	-1.54277765750885	-0.1718037724494934	0.657034158706665	0.6199654936790466	1.187756896018982	-0.48866409063339233	0.3402401804924011	-3.131089448928833	-1.4063061475753784	0.3739304542541504	-1.3721667528152466	-0.5613473653793335	2.8949685096740723	0.4805297255516052	-0.4510022699832916	1.4655017852783203	-0.9811732769012451	-0.34207823872566223	0.62067711353302	-0.2786775231361389	0.29984787106513977	0.24928145110607147	2.4331820011138916	-0.6494573950767517	0.3269251883029938	-0.42475301027297974	1.684289574623108	-1.295365810394287	0.9504536390304565	0.008978818543255329	0.23694275319576263	0.26465219259262085	1.1929781436920166	-1.1395466327667236	-1.0917551517486572	0.25318196415901184	0.4852786660194397	-0.7798047661781311	0.7087474465370178	0.09818736463785172	0.9299578070640564	0.9984108209609985	-1.1055340766906738	0.8359929323196411	-1.1426342725753784	-1.3888496160507202	-2.377591133117676	-1.539480447769165	2.9119455814361572	-1.0686758756637573	1.9295812845230103	-0.9591454863548279	0.9833993315696716	2.433590888977051	-0.5997586250305176	-1.220881700515747	0.3105814456939697	-0.13448873162269592	1.370348572731018	-2.159473180770874	2.397233724594116	0.4104745090007782	-1.3930079936981201	0.6592687368392944	-1.079316258430481	0.02422328293323517	-0.05348716676235199	-0.24415625631809235	-1.275658130645752	-1.2903800010681152	-1.308972716331482	0.013993562199175358	0.37416037917137146	2.476400136947632	-1.3071337938308716	2.286961317062378	1.266477108001709	0.49824169278144836	-1.0890504121780396	2.3327252864837646	0.4675435721874237	-0.11444117873907089	-0.6344777941703796	0.9003117084503174	0.1418759971857071	-0.2254229485988617	0.01948169805109501	1.0344524383544922	0.4683668315410614	1.1829745769500732	0.15327848494052887	-1.3227238655090332	0.8438476920127869	-1.309415578842163	-1.0647883415222168	1.7827057838439941	-1.3222625255584717	-1.6772189140319824	-1.1247756481170654	-0.6780798435211182	0.3123987913131714	-1.9748749732971191	0.06430619210004807	-2.0196356773376465	0.6658576130867004	-2.160668134689331	0.7515230774879456	-0.4569827616214752	-0.38073819875717163	1.1891876459121704	-1.5351223945617676	3.460413694381714	-1.1813567876815796	-1.382938265800476	-0.21547499299049377	-0.060755956918001175	-1.9942450523376465	-0.45921364426612854	-0.9233601689338684	1.3212244510650635	-1.3970513343811035	0.7431313395500183	-1.4297666549682617	2.1842925548553467	-0.5507042407989502	1.9687414169311523	1.280514121055603	-0.2630143165588379	-0.3840619921684265	-0.5350790023803711	0.11370506137609482	0.8938624858856201	-2.3582470417022705	0.2351437658071518	-1.3149750232696533	1.1181591749191284	0.8260672092437744	-0.025280149653553963	0.10655586421489716	-3.1636149883270264	-1.0912119150161743	-0.08215523511171341	-0.04418734088540077	0.4283826947212219	1.7631038427352905	-0.37629756331443787	-0.3310887813568115	0.03257664293050766	-0.6170672178268433	-0.7071954607963562	-1.5657072067260742	-1.0028172731399536	1.7933275699615479	-1.416812777519226	-3.1281847953796387	1.2479044198989868	1.4768495559692383	-1.8583874702453613	-0.3055081069469452	1.5066145658493042	0.6601739525794983	-1.1214392185211182	4.458526134490967	-0.36338353157043457	0.7147724032402039	-1.0557739734649658	-1.3542499542236328	-0.02913077548146248	-1.671238899230957	-0.3113554120063782	-1.093645691871643	-1.5373378992080688	-1.177775502204895	0.8528613448143005	0.09493323415517807	-1.235547661781311	-1.945997714996338	-0.88111412525177	1.0247653722763062	0.4419580399990082	1.092520833015442	-1.7861945629119873	-2.280217170715332	-0.7782732248306274	-0.6464310884475708	0.9409307837486267	-0.2600799798965454	-1.6454085111618042	-0.8986323475837708	-0.7886673808097839	0.10266841948032379	0.2876971960067749	3.8794353008270264	0.8703022003173828	-2.8526382446289062	2.5060834884643555	0.5931984782218933	-1.7034779787063599	-0.11320871114730835	2.391528606414795	-0.303024560213089	1.9758774042129517	-2.732667922973633	-0.3034094572067261	0.09978314489126205	-0.6924567222595215	2.125195026397705	0.15760335326194763	0.24449118971824646	0.22831152379512787	-0.8850545883178711	-0.8033965826034546	
Sigmund Freud	0.3972792327404022	-0.22368907928466797	1.6598600149154663	0.6567131280899048	0.3921085298061371	1.4797565937042236	0.45840227603912354	-1.4473341703414917	-2.7278387546539307	-1.521630883216858	-0.30275672674179077	1.013626217842102	0.07057376950979233	3.3080883026123047	-1.4199126958847046	-2.959989070892334	-1.138841986656189	1.5432292222976685	-1.5958821773529053	-0.3779457211494446	-0.6144818067550659	-0.7660999298095703	2.2457950115203857	0.10941946506500244	0.9244383573532104	-2.124584197998047	1.2459884881973267	-1.0185617208480835	3.7146859169006348	-1.5788358449935913	-1.1615371704101562	0.3917049467563629	0.362344354391098	1.4447039365768433	0.401305615901947	-0.7855204939842224	-1.4113508462905884	0.045819614082574844	0.8657992482185364	-1.10981285572052	-0.4101347029209137	-1.7466908693313599	-0.5948870182037354	-0.6529937386512756	-0.18474715948104858	-2.0183191299438477	1.1329736709594727	-2.530571699142456	-1.5375494956970215	-0.21555323898792267	0.8244066834449768	0.05918167158961296	2.211695432662964	1.7704463005065918	2.062605142593384	-1.7928720712661743	2.715564250946045	-2.089505195617676	-3.308441400527954	0.031138623133301735	3.0158989429473877	2.9787521362304688	-0.09657379239797592	-1.4163806438446045	0.08309969305992126	0.24842634797096252	-2.2052838802337646	0.6188174486160278	2.2507293224334717	-2.466945171356201	0.87632155418396	0.37029173970222473	0.5663787722587585	-0.6448091864585876	0.5103349685668945	-3.8025641441345215	-1.3347480297088623	-2.390903949737549	1.0226982831954956	-3.587010622024536	-0.9513596892356873	0.8984523415565491	0.8095632791519165	2.9416635036468506	-0.20393314957618713	-0.14061668515205383	3.1952195167541504	0.08575957268476486	-1.6059675216674805	0.43792206048965454	-1.175445556640625	-1.6050642728805542	0.05444268882274628	0.33880797028541565	0.2581917941570282	-1.541210412979126	1.1114546060562134	0.6846322417259216	-1.511167049407959	1.338425874710083	0.9317812919616699	1.9651516675949097	-2.2058236598968506	2.376870632171631	-0.004677868913859129	-0.1356845647096634	1.6525334119796753	-0.3766673505306244	0.6043412685394287	0.9249449372291565	-1.0892502069473267	-1.4684829711914062	-0.45058673620224	-2.359262228012085	0.17101271450519562	-0.956952691078186	-0.37302112579345703	-1.6990870237350464	-0.1710205078125	0.9694995880126953	0.9032370448112488	-1.4762393236160278	-2.9277055263519287	1.2759685516357422	0.6775033473968506	-0.45994070172309875	-2.9965412616729736	0.273036390542984	1.1811590194702148	-0.8035402894020081	0.4744255840778351	-0.7589402794837952	-2.096710681915283	0.03976031020283699	-0.9629603028297424	-0.981639564037323	-0.005529795773327351	-0.8387930393218994	-2.3349368572235107	0.9029882550239563	-0.17369712889194489	0.3571608364582062	0.3545399308204651	0.006618916522711515	1.448491096496582	-0.756493866443634	-0.08627884835004807	0.7506802082061768	2.4783568382263184	-1.8634448051452637	0.17303632199764252	0.6021562218666077	-0.9094517827033997	-0.547403872013092	0.0988556519150734	-0.898040235042572	-0.09220612049102783	-1.9769147634506226	-0.08866830915212631	-0.23726867139339447	0.08473841100931168	1.7878811359405518	-0.8809515237808228	-2.5748863220214844	0.2167857438325882	1.4797829389572144	1.5947926044464111	0.023609595373272896	1.1388407945632935	-0.34494709968566895	2.361248254776001	-0.8912805914878845	-1.757063388824463	0.17961902916431427	0.42707353830337524	-4.229310035705566	-0.7443926930427551	-2.318596839904785	2.159076690673828	-0.8341421484947205	2.6277246475219727	-1.4513533115386963	-1.0771299600601196	-1.4938242435455322	-0.047691091895103455	-0.17333731055259705	-2.7348079681396484	2.45236873626709	1.2681299448013306	0.8008387088775635	1.3160719871520996	-0.36512190103530884	-0.6399167776107788	-0.891554057598114	-1.450222134590149	-2.0249760150909424	1.5730031728744507	1.5899395942687988	0.8297382593154907	0.5917414426803589	-1.4678006172180176	-1.1188197135925293	-1.823555827140808	-0.1569526195526123	1.4717118740081787	-1.3557966947555542	-0.39731231331825256	3.0777010917663574	-0.3376341164112091	-2.636213541030884	1.3993043899536133	1.601867437362671	-0.7567515969276428	1.6149585247039795	2.490652561187744	-0.7978379726409912	-1.8963021039962769	2.343722105026245	-0.1706876903772354	2.6723296642303467	1.1144039630889893	-2.7835938930511475	-0.355378121137619	0.9971879720687866	-0.6105540990829468	0.28822511434555054	-0.7191904187202454	-2.529367446899414	-2.080793857574463	0.5118282437324524	1.7671852111816406	0.49474161863327026	-1.2583420276641846	-2.050394058227539	-0.5968167781829834	0.8055194020271301	0.5334740877151489	-1.1360392570495605	-1.205837368965149	1.2514392137527466	1.006563663482666	-1.230036735534668	-2.2594640254974365	-0.42754730582237244	0.8336973190307617	0.3682093918323517	0.8454880714416504	-2.3774168491363525	-0.5404835939407349	-0.17028865218162537	1.5373121500015259	1.523409366607666	0.8765238523483276	0.8702681064605713	-0.6753717064857483	0.898887038230896	0.19525253772735596	0.6689358353614807	-0.06931193172931671	-2.854975700378418	0.6701788902282715	-0.670257568359375	-2.395421028137207	-1.1853177547454834	-0.9357675313949585	-2.4987077713012695	0.44552093744277954	1.0785291194915771	1.1385197639465332	-1.7187532186508179	0.3412798345088959	0.9085100889205933	-0.2165585160255432	-0.6399633884429932	1.4029608964920044	-2.4727981090545654	-0.7328161597251892	-1.6564842462539673	0.1783217191696167	0.16177932918071747	0.31820806860923767	1.6863590478897095	-0.7594585418701172	2.6401355266571045	0.5131462812423706	-2.7770092487335205	-2.6614112854003906	2.9965498447418213	-0.04172315448522568	-1.5938609838485718	-1.8087513446807861	-1.3458822965621948	0.5989611148834229	-1.5435423851013184	-0.904557466506958	1.813234567642212	0.1782502979040146	0.3940396010875702	0.584873616695404	2.731443405151367	
J.K. Rowling	-0.7309814095497131	1.042891502380371	1.6472567319869995	-0.21184459328651428	0.3279785215854645	2.1100213527679443	0.04253469035029411	1.719089388847351	-0.11501510441303253	3.8609328269958496	1.4115724563598633	1.1804687976837158	0.6890044808387756	-1.1937555074691772	0.007392870727926493	-1.6184343099594116	-0.7347904443740845	2.1380460262298584	-1.1777080297470093	0.45279866456985474	0.4878850281238556	-1.2725422382354736	1.4115930795669556	0.273185133934021	-0.4875084161758423	-0.06529297679662704	-0.5621923804283142	0.31474199891090393	0.3003091514110565	-2.1446237564086914	-1.4261153936386108	-0.09619864821434021	-0.27340295910835266	1.4495052099227905	1.538033366203308	1.3340405225753784	1.129786491394043	0.5461503267288208	-0.4419211447238922	0.02353052608668804	0.6229875087738037	0.2909369170665741	0.7739593386650085	-2.519465684890747	1.945455551147461	1.4644579887390137	-0.16965633630752563	-0.4633830189704895	-0.5856636762619019	-0.6103621125221252	-1.4886255264282227	-1.2158266305923462	-1.1602870225906372	-0.13499203324317932	-0.19321991503238678	-0.029930517077445984	-0.12302543967962265	-0.0035021265503019094	-0.5231621861457825	0.5608988404273987	2.226733684539795	-0.374563604593277	-1.6026135683059692	0.592425525188446	-0.5052711963653564	1.720567226409912	0.43540796637535095	-0.23019354045391083	0.45453765988349915	0.0672973245382309	0.8830417990684509	-1.2013263702392578	-0.1893763542175293	-1.0055310726165771	-1.3250765800476074	0.3195471167564392	-0.7285438179969788	-0.5151156187057495	0.2233046144247055	-1.5383825302124023	-1.1149616241455078	-0.7878832817077637	0.4879273772239685	0.8534204363822937	0.1275937408208847	0.4402698874473572	-1.9311126470565796	-0.2128763645887375	-1.6252750158309937	-0.028930947184562683	0.13710929453372955	0.473991334438324	0.2400965839624405	1.084232211112976	1.9219862222671509	0.6738666296005249	0.09179965406656265	0.741984486579895	-1.914522409439087	-0.1252341866493225	0.6606983542442322	1.204095721244812	-0.16567105054855347	0.19735278189182281	-0.34394893050193787	1.1520973443984985	-0.2074233740568161	-0.3968856632709503	2.3331329822540283	2.123568296432495	-1.3328794240951538	-0.8344664573669434	-0.244690403342247	-0.4082767367362976	1.260352611541748	-0.5700297951698303	0.2696051299571991	-0.3564876616001129	0.08375914394855499	0.5898751616477966	0.6222571730613708	-0.7842721939086914	-0.6701375842094421	0.9534268379211426	-0.980937659740448	0.29632776975631714	-0.7626874446868896	0.4420084059238434	-0.44633084535598755	0.5443894863128662	-0.40813368558883667	-0.4564889669418335	0.8625286221504211	-0.7805092930793762	-0.6353430151939392	-1.4263310432434082	-0.28606489300727844	-1.4821864366531372	0.9207586646080017	-0.8587080836296082	-0.17163531482219696	2.051913261413574	0.2832147181034088	-1.6734129190444946	1.5286797285079956	-1.912078619003296	-0.23262590169906616	-1.171485424041748	0.12099350988864899	-0.7746720910072327	-1.6855753660202026	0.5454265475273132	-0.025657232850790024	1.4393879175186157	-0.7269754409790039	0.9886799454689026	-0.7249168753623962	-0.7927831411361694	-0.4791758060455322	-0.7229630351066589	0.4756913185119629	-0.7746450901031494	-2.3748130798339844	0.8639950752258301	0.818795919418335	0.3295106887817383	-0.27179357409477234	1.9849005937576294	-0.3736315071582794	-1.1653772592544556	1.6510103940963745	0.08986252546310425	0.3333948850631714	-0.3997063636779785	-0.366661936044693	-0.9036511182785034	-0.5669342875480652	1.7617191076278687	1.799347162246704	-1.4533413648605347	-0.03192742168903351	-0.12304741144180298	-0.09381477534770966	0.9938808679580688	0.3048579692840576	2.36446475982666	-0.7145355343818665	-1.1579262018203735	-0.5538219809532166	-1.58051598072052	0.7548139691352844	-0.5560355186462402	-0.3835670053958893	-1.0525590181350708	-1.1593215465545654	0.37937337160110474	0.8469312191009521	-0.7925670742988586	0.08481953293085098	0.003854509210214019	-0.1611720472574234	-0.5973698496818542	0.8502750992774963	-0.2473645806312561	1.1228601932525635	0.054807454347610474	0.16090302169322968	-0.5892831683158875	0.6740202307701111	-2.1004879474639893	0.8389849662780762	2.0641112327575684	0.2719748318195343	-1.7379592657089233	0.42761632800102234	-0.21042083203792572	-0.9004044532775879	0.5529197454452515	-2.3471622467041016	-1.4367125034332275	-0.8347193002700806	1.1675069332122803	-0.4530021548271179	0.18211790919303894	1.024476170539856	0.08022982627153397	-1.989134430885315	-2.4968132972717285	-1.0572829246520996	0.3114752769470215	-0.5157089233398438	1.0558587312698364	1.971966028213501	-1.6753283739089966	-0.089692622423172	1.7297464609146118	-0.9523317217826843	0.5507946610450745	0.46466171741485596	-0.2544701397418976	0.3310772776603699	-1.27072012424469	-1.7810231447219849	2.393303155899048	-0.6484798789024353	0.742053747177124	0.4583130478858948	0.5156568884849548	0.24532631039619446	-0.9523224234580994	1.3314909934997559	-2.6084842681884766	0.4186917841434479	0.7135127186775208	0.35977697372436523	-0.718529462814331	-0.016028041020035744	-0.9679209589958191	0.1924750953912735	-1.7393357753753662	-0.531479001045227	1.1019434928894043	-0.7157999873161316	-1.4197689294815063	-0.8426674604415894	-0.8645918369293213	0.05913987755775452	0.14102038741111755	0.6083872318267822	-1.2017560005187988	-0.6992953419685364	0.2268015593290329	1.060324788093567	1.2599073648452759	-1.5796780586242676	-0.09308025240898132	-0.37728577852249146	-1.4392496347427368	-0.5300767421722412	-0.3890574276447296	0.5284764766693115	-0.9129059910774231	-0.6624823808670044	-0.5037958025932312	0.1865932196378708	0.16354043781757355	-2.5472562313079834	1.2732560634613037	0.7224544286727905	1.0653059482574463	-0.9146896600723267	0.9358330965042114	0.5360307097434998	0.023338964208960533	-2.532487630844116	0.8150244355201721	0.6780790090560913	-1.6755532026290894	-0.23211915791034698	0.4135899543762207	
Ernest Hemingway	-1.9851808547973633	0.11053387075662613	1.9252225160598755	0.12323755025863647	-1.2508234977722168	2.48079776763916	0.6780868768692017	1.8221220970153809	-2.0020198822021484	2.1057863235473633	-1.4771242141723633	-1.0904359817504883	-0.9866184592247009	-0.9764541983604431	0.7619749307632446	-3.798511505126953	-1.1550391912460327	0.8571400046348572	0.4056507647037506	-0.9082568883895874	0.43093371391296387	-0.580448567867279	1.478918433189392	-0.1862301081418991	-0.5097954273223877	-1.2990992069244385	1.7757972478866577	-1.338357925415039	-0.4566769301891327	-1.1023120880126953	-3.0812628269195557	-2.125065326690674	-0.38135698437690735	3.0274317264556885	0.9921514391899109	-1.089717149734497	-1.1086347103118896	0.14338870346546173	0.8536365628242493	-0.13231472671031952	-1.3210939168930054	-0.33686670660972595	-0.6881140470504761	-0.2087278813123703	-0.5441503524780273	-0.5183171629905701	0.5478407740592957	-0.20948874950408936	0.06295083463191986	-0.2881953716278076	1.0363571643829346	-2.0678677558898926	-1.7874162197113037	0.15775500237941742	1.469711422920227	-0.8303647637367249	1.9104043245315552	-1.099813461303711	-0.5182749629020691	0.7646135091781616	-0.3118479549884796	-0.402240127325058	-1.6486434936523438	0.4879421293735504	1.4233018159866333	2.3645970821380615	-2.1571757793426514	-0.3265252411365509	1.8497291803359985	-0.9435259103775024	-0.3139326274394989	-1.787686824798584	0.3165113925933838	1.2678898572921753	-0.698012113571167	1.0933647155761719	0.2620420455932617	-0.2555891275405884	-0.37808817625045776	-0.5427137613296509	-2.262422800064087	1.7287505865097046	-0.9382262229919434	2.0479416847229004	1.0712857246398926	-2.2106845378875732	-0.4783952534198761	0.7610597014427185	-1.5962581634521484	-1.2159777879714966	0.09335383772850037	-0.13701185584068298	0.2543407082557678	-2.6067912578582764	-0.4300037622451782	0.1016639769077301	-1.0756809711456299	1.2450162172317505	-1.7141027450561523	3.8186874389648438	0.7837576270103455	1.3365565538406372	-1.6322892904281616	1.3857046365737915	-0.9320043325424194	0.21077217161655426	-0.6644457578659058	-0.31713563203811646	2.0378103256225586	-0.2974548637866974	1.776608943939209	-0.778511106967926	-0.9652907252311707	-1.7591943740844727	0.5805803537368774	0.3431233763694763	1.0828402042388916	-1.097752571105957	0.4770544767379761	-0.39930421113967896	0.11079832166433334	-0.5096287131309509	-0.28980597853660583	0.5187948346138	0.856630265712738	0.3646816313266754	0.010615553706884384	0.1902807652950287	1.0346325635910034	-0.3836608827114105	-1.5017306804656982	-1.073904275894165	0.6249694228172302	0.38479313254356384	0.0434836745262146	-2.4801197052001953	0.8856294751167297	-1.8546042442321777	1.464627742767334	-0.16660737991333008	-1.3790805339813232	1.606141448020935	-0.11672870069742203	0.25766244530677795	1.3230109214782715	-0.6871370673179626	0.5295512676239014	-2.0158679485321045	0.07930309325456619	-3.6464104652404785	-0.6797009110450745	1.741865634918213	-0.3378824293613434	1.3270193338394165	-1.9956183433532715	-0.8668522834777832	-2.836568593978882	-1.006963849067688	-3.434382915496826	1.2193917036056519	0.5039152503013611	-0.45940130949020386	0.5991088151931763	1.7120949029922485	0.31459540128707886	-0.06441943347454071	-0.4955480992794037	2.6811516284942627	0.6813532114028931	-2.846318483352661	-1.137028694152832	0.507211446762085	0.02020828239619732	-0.8054646253585815	-1.581709861755371	-0.3253664970397949	-1.4389045238494873	-0.9368218183517456	2.2795534133911133	-2.8505613803863525	0.6726752519607544	-1.7385873794555664	-1.803007960319519	-0.36568745970726013	0.8760526180267334	-1.424172282218933	-2.7659261226654053	3.1367335319519043	0.5830947160720825	2.303260564804077	1.406351089477539	-2.172715902328491	3.2600295543670654	-0.993063747882843	1.81770920753479	0.3383499085903168	0.8738353848457336	-1.9025975465774536	-0.194158673286438	1.0410535335540771	-1.551622986793518	-1.8306845426559448	1.228752851486206	0.22863814234733582	-0.3086896240711212	-0.7792341113090515	-1.4009379148483276	1.32536780834198	-0.5437224507331848	-0.9523723721504211	-0.6558441519737244	0.6570780873298645	-0.8645933270454407	0.5097766518592834	1.73212468624115	1.5640103816986084	-0.607561469078064	-1.0768792629241943	-2.4498543739318848	1.0759445428848267	1.4276643991470337	0.9772385954856873	-0.5378761887550354	0.38154909014701843	1.6041086912155151	-0.11053702980279922	0.1627560257911682	-0.016657060012221336	-0.919485867023468	-1.3567355871200562	0.0628812238574028	-0.056739017367362976	0.41874468326568604	-0.2547237277030945	-0.8390679955482483	0.5412999391555786	2.1977481842041016	-1.5121210813522339	-1.7623717784881592	-0.9385818243026733	1.018725872039795	0.2854638695716858	-1.9554290771484375	0.9939002990722656	-0.8594209551811218	-1.1605334281921387	0.8746076226234436	-0.34784525632858276	-0.7991676926612854	-1.0288395881652832	0.6994567513465881	-0.8801798224449158	0.6426873207092285	1.4131269454956055	-0.7829851508140564	0.04057500138878822	0.8571552634239197	0.8757808208465576	1.6059973239898682	-2.482710361480713	0.48914626240730286	0.4531821310520172	-0.4302767217159271	-1.6079717874526978	0.3558378219604492	-1.3461439609527588	-0.6105507016181946	-0.4097878336906433	-0.3018149435520172	-0.389507919549942	-0.23100215196609497	-0.5917218923568726	-0.7638062834739685	-0.9239069223403931	-0.3267313241958618	0.725604236125946	-0.7155312895774841	-1.327466368675232	-0.07621762901544571	-0.08512648940086365	0.951777994632721	1.2208702564239502	-0.6152166724205017	1.0810655355453491	2.3001887798309326	1.2399770021438599	-1.1852636337280273	1.8167167901992798	1.8203227519989014	-1.1874196529388428	-1.2252073287963867	0.7766857743263245	0.3641221821308136	0.01363452896475792	0.30200979113578796	1.393878698348999	2.3481545448303223	0.11094506084918976	-0.7336990833282471	-1.1739691495895386	
William Shakespeare	-1.7490710020065308	-0.37594497203826904	1.3286092281341553	0.1780659258365631	-1.7022933959960938	0.38192543387413025	0.8294757604598999	0.6467569470405579	-1.8385599851608276	1.107525110244751	0.2821377217769623	-0.24039514362812042	0.30544957518577576	-1.0047889947891235	-0.2891017496585846	0.26827695965766907	0.40145227313041687	-0.1774115413427353	2.4743025302886963	-1.5731223821640015	0.5094943046569824	-0.08517299592494965	1.2404553890228271	0.505470335483551	-1.9541308879852295	1.0565710067749023	-0.7410411834716797	-0.4840856194496155	0.9410437345504761	-1.9519888162612915	-0.20361655950546265	-0.2808955907821655	1.0804717540740967	-0.9445406794548035	0.3918834924697876	0.06631781160831451	-1.636350393295288	0.5164811015129089	-0.3541705906391144	-0.6819170713424683	1.402284860610962	-0.3822861313819885	1.1989744901657104	-1.4627184867858887	0.7505119442939758	-2.5250906944274902	-0.42925506830215454	0.5661138296127319	-0.9111168384552002	0.49367016553878784	0.7483147382736206	0.9121319651603699	0.2870609164237976	2.097062110900879	3.6738765239715576	1.6609586477279663	1.8086585998535156	0.7117959856987	-0.9222496747970581	-2.525162935256958	0.7531871795654297	-1.5455094575881958	-0.2821345925331116	0.5036681294441223	-0.2784412205219269	-0.5853562951087952	-0.3806054890155792	2.029449701309204	0.6724796295166016	-1.5240308046340942	-1.4778637886047363	0.774652361869812	-0.12726525962352753	-0.7747220396995544	-1.8263200521469116	-0.189665287733078	1.1145766973495483	-0.6301366686820984	0.12050329148769379	-4.710667610168457	0.2315550297498703	1.3035657405853271	-0.8720821738243103	0.8875630497932434	0.31566494703292847	-1.036570429801941	2.128934621810913	-0.941317617893219	-1.1994454860687256	-1.7767280340194702	-1.7700623273849487	1.4527409076690674	-0.0426759347319603	-1.9976874589920044	-2.4287984371185303	-0.629843533039093	-1.425630807876587	0.028006788343191147	-0.7293627858161926	3.7592644691467285	0.5376612544059753	-0.13878938555717468	-1.7098939418792725	1.6273599863052368	-0.027615755796432495	1.1250344514846802	-1.354174256324768	1.9861918687820435	0.6976240277290344	-0.3357987105846405	-1.9523316621780396	-0.8264162540435791	-0.8212584257125854	0.41275009512901306	1.5923736095428467	0.7828978300094604	-1.2237451076507568	1.265928030014038	-1.3986400365829468	3.1199920177459717	0.830935537815094	-0.7971937656402588	-2.2675933837890625	2.7598016262054443	1.7902905941009521	-0.04066125676035881	-2.8860952854156494	-0.5876706838607788	-1.7026660442352295	-0.5362883806228638	-0.192240908741951	-1.3728580474853516	-0.5303853750228882	0.4676494598388672	-2.509728193283081	-1.3127398490905762	-0.18022169172763824	-3.9007983207702637	2.123239278793335	-3.499345064163208	-2.1047089099884033	0.07059559226036072	1.1377696990966797	0.263773649930954	2.2783255577087402	-2.055675506591797	-0.99384605884552	0.6750684976577759	0.8173653483390808	-1.184869408607483	-1.0279324054718018	0.9934065341949463	-2.483566999435425	1.357913851737976	0.15588031709194183	-0.4626498222351074	-0.5654886364936829	-2.805351972579956	-1.9860223531723022	-0.08408946543931961	1.2045056819915771	1.4088335037231445	-0.34766632318496704	0.810713529586792	-0.4284132122993469	1.1564090251922607	-0.44602444767951965	1.0120042562484741	2.579561471939087	-0.30886808037757874	0.8137010931968689	-0.9312358498573303	0.9474489688873291	-1.9734538793563843	0.531129002571106	-2.3520476818084717	1.0408321619033813	-1.1352150440216064	1.6611528396606445	-0.8418089151382446	0.5831109881401062	0.11722571402788162	0.7830544114112854	-0.8388336300849915	-3.8823728561401367	0.533770740032196	-1.3032605648040771	-1.7734695672988892	-0.6336039900779724	-1.634393572807312	0.2522544860839844	-1.4562963247299194	2.1042122840881348	-0.33401575684547424	-1.6225836277008057	0.2515958249568939	0.12268398702144623	-1.0360058546066284	-1.0845543146133423	1.3627033233642578	-0.9656509757041931	-3.4058310985565186	0.6876806616783142	1.6329777240753174	0.49082332849502563	-1.6000981330871582	-1.5997010469436646	0.8667600750923157	-3.060298204421997	-1.8184922933578491	-3.4715867042541504	0.44966039061546326	0.6373040080070496	-0.6362261176109314	1.223227858543396	1.832079529762268	0.8231390714645386	1.068947672843933	-1.535224199295044	0.3957141041755676	0.8271341919898987	0.29645174741744995	-1.8437273502349854	0.8576816320419312	-0.15516598522663116	0.45441651344299316	-1.904888391494751	-3.760765790939331	0.013764837756752968	-0.0471918024122715	0.5253861546516418	1.7690562009811401	-1.516516089439392	-1.8300371170043945	-2.2998781204223633	1.1342339515686035	-3.635267496109009	1.1056206226348877	0.1423979103565216	-0.6362290382385254	1.5480188131332397	1.2393568754196167	-1.6956385374069214	0.47916537523269653	2.4870357513427734	0.5893218517303467	-1.7769017219543457	-2.109841823577881	-0.31183314323425293	-2.754901647567749	1.9201545715332031	2.7621984481811523	-1.2555288076400757	0.3091384768486023	-0.3900366723537445	0.5661031603813171	-1.2977635860443115	-0.8771228194236755	0.8595343828201294	-3.6761507987976074	-0.29816222190856934	2.130248546600342	1.219348669052124	-1.2729288339614868	-2.088885545730591	-2.0367889404296875	0.6872870922088623	0.43554720282554626	-0.03736855834722519	-1.3005088567733765	0.5823671221733093	1.0734508037567139	-2.5186612606048584	2.675194501876831	-2.8955237865448	-1.0806796550750732	1.6650705337524414	-0.4414813220500946	-1.9046967029571533	-0.7156714797019958	-0.233728289604187	1.372292399406433	-1.627133846282959	1.3230905532836914	-1.7159240245819092	0.2579564154148102	-0.5336515307426453	1.8255292177200317	-0.7845075130462646	0.06445416808128357	-2.3858509063720703	1.364622712135315	3.9403295516967773	-0.8928989171981812	-0.8313143849372864	2.387587785720825	0.46381378173828125	-1.0164283514022827	-3.3754303455352783	0.7738617658615112	
musicista	-0.11636897921562195	-1.0638982057571411	3.7905101776123047	-0.6898148059844971	-1.330948829650879	-1.3611716032028198	1.6986145973205566	0.838675856590271	1.0010677576065063	4.089835166931152	-0.7446759343147278	-0.9207436442375183	1.7991464138031006	-1.822539210319519	1.1423386335372925	-0.3920842111110687	2.636179208755493	-0.23559744656085968	-1.583228588104248	-1.1427481174468994	-1.3835787773132324	1.3321199417114258	0.8670893907546997	-0.46797317266464233	-3.9025418758392334	0.5164185762405396	0.15179771184921265	-2.813589572906494	-0.4425100088119507	0.29654258489608765	-1.4671497344970703	-0.3438408076763153	1.1647255420684814	1.4544551372528076	0.2848343849182129	-1.3127928972244263	-1.8794742822647095	2.0304625034332275	-0.3210516571998596	0.7248067259788513	1.6082921028137207	0.4821526110172272	-0.5486221313476562	-0.3437274098396301	2.062513828277588	-0.013762187212705612	-0.7139248251914978	0.09509220719337463	-0.5881149172782898	1.9173003435134888	-0.16840505599975586	0.7545365691184998	1.457157850265503	0.13797958195209503	2.1285452842712402	-0.582805871963501	1.765288233757019	-3.012341260910034	-1.5268594026565552	-0.393677681684494	-1.09465754032135	1.456896424293518	0.29236456751823425	-1.1907155513763428	-0.45111989974975586	0.8528387546539307	0.11962895840406418	-0.9021811485290527	1.2619247436523438	-1.2613000869750977	0.7657984495162964	-1.1583595275878906	-1.011403203010559	-0.5962756872177124	-3.313117742538452	-0.3997807800769806	-0.9887023568153381	2.0161728858947754	-0.8469487428665161	0.08623883873224258	-0.6151659488677979	-2.0300755500793457	2.2509052753448486	0.8943603038787842	1.2358241081237793	-1.250396490097046	0.7521071434020996	-0.4982927739620209	-0.6096823811531067	-0.8265147805213928	0.17230437695980072	-1.059576153755188	0.5714402198791504	-0.27983933687210083	3.3155078887939453	-1.1561532020568848	-1.1514091491699219	0.7006745338439941	-0.5420430302619934	-0.5681894421577454	1.8995006084442139	-0.3471478819847107	-1.6648646593093872	0.73859041929245	0.43778517842292786	-1.7334504127502441	-0.0865069106221199	-0.3436547517776489	-1.4323285818099976	1.381210207939148	1.8210487365722656	2.540538787841797	1.7474632263183594	-0.4969942569732666	0.3782094717025757	0.3659113943576813	1.212557315826416	0.015389794483780861	0.2281520664691925	-0.4637616276741028	1.4788544178009033	-0.2385508269071579	-0.9804111123085022	1.654073715209961	0.46528807282447815	0.22930574417114258	0.07385250180959702	2.676234722137451	-0.7154150009155273	1.09506356716156	2.2881975173950195	1.1567198038101196	-0.11160536855459213	-0.870588481426239	-1.2543070316314697	1.1704585552215576	2.4639430046081543	2.360393762588501	1.3163108825683594	-1.6294866800308228	-0.7064359188079834	0.09529919922351837	1.2364766597747803	0.39499080181121826	1.082426905632019	1.1702526807785034	-0.5578877329826355	-0.9657008051872253	2.6703414916992188	0.07992284744977951	-0.44035497307777405	-1.5918362140655518	-0.20888186991214752	-0.7329350709915161	2.7487192153930664	-3.2307703495025635	0.34426337480545044	-0.9010978937149048	-0.29058191180229187	-0.013699308969080448	0.7254003882408142	0.5098615288734436	0.661277711391449	1.9248392581939697	-0.38046127557754517	0.3337361216545105	-0.39727672934532166	1.6698174476623535	1.0439574718475342	-0.8309975862503052	-0.7329985499382019	-0.5187421441078186	-1.5528453588485718	1.2650281190872192	0.6061084866523743	1.880849003791809	1.1401574611663818	0.7126060724258423	-0.9346656799316406	-2.376892566680908	-3.695533037185669	0.5005948543548584	-0.9355317950248718	1.716374397277832	1.6390540599822998	2.661519765853882	0.08587419986724854	-2.1986098289489746	-0.023266982287168503	-1.1387380361557007	-0.8009212613105774	-1.845420002937317	0.46488049626350403	-1.1938048601150513	0.15333421528339386	0.40086352825164795	0.39360305666923523	2.1401844024658203	-1.9567123651504517	1.2465876340866089	-1.287854552268982	0.2352023422718048	-1.2666592597961426	-1.8511005640029907	-2.6164681911468506	-1.923620343208313	-2.3287179470062256	-0.3466759920120239	-1.3563488721847534	1.5518221855163574	-2.0714683532714844	2.035485029220581	-0.6370824575424194	1.4946626424789429	2.7250864505767822	1.2984057664871216	1.0741307735443115	0.9455147385597229	3.0028443336486816	-0.04516829177737236	-1.9046626091003418	0.7840958833694458	-3.1009984016418457	1.1627986431121826	1.2768781185150146	1.3278374671936035	-0.2580246329307556	-0.5203882455825806	-2.2782740592956543	-1.6118342876434326	0.6322343945503235	1.042439579963684	1.6394535303115845	-0.38758909702301025	0.643165647983551	-1.9846545457839966	-1.119222640991211	1.2789185047149658	-2.1085903644561768	-3.4247255325317383	0.7072972655296326	0.34591934084892273	-1.801578402519226	-0.03984818980097771	2.673933506011963	-1.2078851461410522	-1.4295196533203125	0.5820533037185669	0.6461933255195618	0.7241015434265137	3.644212245941162	-0.9475844502449036	-0.3742941617965698	-0.55535888671875	-1.7614853382110596	-0.20677386224269867	-3.2366597652435303	0.705160915851593	-1.622371792793274	-0.22778412699699402	0.5637562274932861	1.5268431901931763	-0.10685268044471741	-0.8206886053085327	-2.648007392883301	-1.6987236738204956	0.9991738200187683	0.3995558023452759	-1.8423594236373901	-0.04456881061196327	0.9883028268814087	-0.15830087661743164	-1.9195772409439087	-0.25706109404563904	0.6440730690956116	-0.47919753193855286	-1.776442527770996	-0.03415600582957268	1.3734949827194214	0.0025713045615702868	2.1273930072784424	1.1883583068847656	-2.9175572395324707	-1.879679560661316	0.19924664497375488	-2.0644383430480957	-0.9616075754165649	2.9893620014190674	-0.7863569259643555	1.4973266124725342	0.5414623022079468	0.5025063157081604	1.6838550567626953	-0.21121470630168915	2.080913543701172	-0.035911865532398224	1.8344000577926636	1.1969456672668457	0.14326798915863037	-0.7918726801872253	
Freddie Mercury	-1.606730341911316	1.7352508306503296	0.4634722173213959	0.22473683953285217	1.8224257230758667	0.4558134377002716	0.03523490950465202	0.8131645321846008	1.483735203742981	1.2525159120559692	0.7358511090278625	0.16519753634929657	1.19826340675354	-1.415535807609558	-1.449039340019226	0.4617198407649994	0.6649558544158936	1.6537141799926758	0.5133991837501526	-0.38725054264068604	-0.3708445429801941	0.8027214407920837	1.0295010805130005	-0.9647458791732788	-0.5698177218437195	0.31222298741340637	1.0871185064315796	-0.6459208726882935	-0.12386376410722733	0.1592508852481842	-0.9346815943717957	0.05473446473479271	1.3050137758255005	0.33339205384254456	-1.0603654384613037	-0.7970417737960815	-0.006116434931755066	0.6380102634429932	0.3731063902378082	0.6791542172431946	-1.9324405193328857	-0.7817756533622742	0.5633687376976013	-0.3293696343898773	1.9027414321899414	-0.09076684713363647	-0.37792736291885376	0.7303324341773987	0.17630979418754578	0.9434419274330139	-0.1922311633825302	1.768957495689392	0.5908039808273315	0.1271534115076065	1.7349509000778198	0.2722940742969513	1.6819310188293457	-1.3869013786315918	-0.14398331940174103	0.7134120464324951	-0.5598375797271729	-0.6736939549446106	0.9955735206604004	0.3744056522846222	0.9045276045799255	1.1194653511047363	-1.1094868183135986	0.5353176593780518	0.8635236620903015	0.30777493119239807	-1.0279910564422607	-0.6138420104980469	-0.4378871023654938	-0.07569310814142227	-0.682481586933136	-0.14776551723480225	-1.4371309280395508	0.11056487262248993	1.0156112909317017	1.0499610900878906	-0.47836413979530334	-0.5299786329269409	-0.31755995750427246	1.424607753753662	-1.092453122138977	-3.1162378787994385	-1.4957256317138672	-1.6813253164291382	-0.949949324131012	0.19895592331886292	1.1751372814178467	1.0371571779251099	0.008240964263677597	0.8822896480560303	1.5831166505813599	1.5190397500991821	-0.7234091758728027	-0.20285159349441528	-1.44278883934021	0.38279083371162415	0.25426557660102844	-0.10746826976537704	-1.1257460117340088	0.07114457339048386	0.19760090112686157	-0.42330873012542725	-0.6601841449737549	-0.11301977187395096	-0.19322437047958374	1.18338942527771	-1.2521324157714844	0.4889375865459442	0.2463865578174591	-1.4359155893325806	-0.6852851510047913	0.8422878980636597	-0.5522655248641968	-2.1735568046569824	-0.33463746309280396	-0.4267503619194031	-0.1604299694299698	-0.354108989238739	0.008622855879366398	-0.013968571089208126	-1.7883528470993042	-0.9017956852912903	0.8781533241271973	-1.2946521043777466	-0.35588401556015015	-0.16512683033943176	1.9498707056045532	1.088870882987976	0.3166813850402832	0.35395723581314087	-0.1815040558576584	1.8981157541275024	-0.7907294034957886	1.6608694791793823	0.4173620939254761	-1.7884340286254883	-0.6094614267349243	-1.1368695497512817	2.74019455909729	0.9645922780036926	0.8913469910621643	1.6289104223251343	-0.26880794763565063	2.154034376144409	2.0071604251861572	-1.759042501449585	-0.5411874651908875	-0.3155655264854431	0.15481482446193695	-0.7023216485977173	-0.38563403487205505	-0.5531900525093079	0.815733790397644	-1.319659948348999	-0.39858970046043396	-0.29998457431793213	0.11825815588235855	-0.4211646616458893	-0.41024065017700195	2.165637969970703	-0.3842626214027405	0.7094809412956238	0.5034043192863464	1.4445548057556152	-0.3052694499492645	-2.29839825630188	-1.0110105276107788	-1.1207560300827026	-1.0121277570724487	-0.39250198006629944	0.6029092073440552	0.7894002795219421	-1.0783685445785522	-0.6844749450683594	-0.1966259926557541	-3.3082523345947266	-1.0976558923721313	1.8223705291748047	0.5060089230537415	0.4130021035671234	1.1509579420089722	1.3153430223464966	-0.07710923999547958	0.0734211802482605	-0.6948173642158508	-0.609011173248291	-1.0253362655639648	-0.9746875762939453	0.3587624728679657	-1.615540623664856	-0.3536805808544159	-1.2996820211410522	-0.3153136372566223	-0.5840660929679871	0.53347247838974	-0.3640662431716919	0.034929316490888596	-0.8573451042175293	-1.4788249731063843	-0.8494937419891357	-0.7358894944190979	-0.9838964939117432	-0.183790385723114	1.4479714632034302	0.25470003485679626	-0.6472439765930176	-0.9730397462844849	1.109088659286499	-0.5213512778282166	0.491526335477829	0.7622920870780945	-0.6284406185150146	-0.39533743262290955	0.7001079320907593	-0.14925892651081085	-0.5716081857681274	0.05284672975540161	-0.13984517753124237	-1.4766082763671875	1.0466259717941284	1.5042039155960083	0.890231192111969	0.25641366839408875	0.40358981490135193	0.008827133104205132	0.08626512438058853	-0.8227196335792542	0.4323749840259552	0.21492555737495422	-0.5607318878173828	1.9545034170150757	0.10295037925243378	-2.364093065261841	2.050882577896118	0.031130889430642128	0.06694565713405609	1.2789779901504517	-0.6895642280578613	-1.702533483505249	1.2370268106460571	0.713056206703186	-0.7367104291915894	-1.1193469762802124	-0.23627132177352905	0.25696539878845215	0.5172063708305359	1.2166190147399902	0.035849083214998245	-1.169817328453064	0.755582332611084	0.3688003420829773	-1.4577975273132324	-0.9935038685798645	-0.5522125363349915	-0.3525686264038086	-2.3043060302734375	-0.8418422937393188	2.1606712341308594	0.30143603682518005	-0.5776863694190979	-2.164675712585449	-0.9214224815368652	0.7858348488807678	-0.05192502588033676	-0.8755567669868469	-0.23147115111351013	-0.23267188668251038	1.1516826152801514	-0.381170392036438	-0.2187945544719696	-2.1005711555480957	-0.7271303534507751	-0.8748413920402527	-0.944069504737854	1.2283114194869995	0.9344625473022461	-0.9481950998306274	1.1056948900222778	0.4605313837528229	-0.7021920680999756	1.4346667528152466	-1.3862512111663818	-1.1620831489562988	0.17828652262687683	0.00832608062773943	-0.360262930393219	0.494029700756073	-0.30261656641960144	0.49901339411735535	0.7331381440162659	-1.0792685747146606	3.294036388397217	1.3541847467422485	0.814167320728302	-0.04596421495079994	0.3495287597179413	
Bob Dylan	-1.631306529045105	-0.42722079157829285	2.120884895324707	0.5928210616111755	1.2222574949264526	-0.342965304851532	0.7811008095741272	2.055264472961426	0.8846870064735413	1.347425937652588	-0.902228593826294	-0.14686916768550873	0.8695757985115051	-2.382420301437378	-0.5604400634765625	-1.0636266469955444	0.9187580943107605	1.9431623220443726	-0.37281614542007446	-1.1939773559570312	-1.6069258451461792	-0.0710662230849266	2.6003026962280273	0.05901215970516205	-3.1571004390716553	-0.09929872304201126	-0.2341645210981369	-1.1479169130325317	0.747871994972229	-0.6860151886940002	-3.66961407661438	0.22899357974529266	0.5669234991073608	2.5148134231567383	0.08549109101295471	-1.1151622533798218	1.948202133178711	0.022740449756383896	0.751918375492096	3.244286060333252	1.013063907623291	-0.44518259167671204	-0.1727411299943924	-0.418545126914978	0.33842864632606506	-2.0650241374969482	0.12448906898498535	-0.08962138742208481	0.05646863207221031	1.9008272886276245	0.6064648032188416	0.21299104392528534	2.3187098503112793	0.909417986869812	5.1509222984313965	1.9484047889709473	-0.4219951331615448	-1.0550601482391357	-1.773648738861084	-1.0486764907836914	-1.5353107452392578	-0.17716090381145477	1.068557620048523	-2.030487537384033	-1.1435171365737915	-0.29810047149658203	-1.2374941110610962	0.1915946751832962	1.3599697351455688	-1.56089186668396	0.5251414179801941	-0.5998307466506958	-0.13583560287952423	1.0574731826782227	0.19593165814876556	0.12559528648853302	-0.9812944531440735	-0.7892031073570251	0.20984849333763123	0.02637641318142414	0.516800045967102	-0.9644050002098083	-0.8750625252723694	-0.16204878687858582	1.006417989730835	-2.6557178497314453	0.3093106150627136	-1.0358010530471802	0.45520853996276855	-2.778507709503174	0.4069597125053406	0.5435069799423218	0.5185728073120117	-1.0329008102416992	1.3369896411895752	0.9976679086685181	-0.2970487177371979	0.5915455222129822	-2.5965607166290283	0.6769198179244995	-0.21718333661556244	0.6585681438446045	-0.24877683818340302	0.6570902466773987	1.0804007053375244	-1.6975291967391968	-0.2881757915019989	1.700321078300476	1.052756905555725	1.1158581972122192	-0.11905965954065323	0.4821363687515259	-0.18020476400852203	-1.4280794858932495	-0.5451048016548157	0.45998919010162354	1.371309757232666	-2.051037073135376	-0.9580313563346863	-0.4686923921108246	1.7240073680877686	-0.023008741438388824	-2.0634162425994873	0.3562820851802826	-0.34684428572654724	-1.3147263526916504	0.11558762192726135	1.274627685546875	0.6584075093269348	0.12696567177772522	1.6574524641036987	-1.5016347169876099	0.9309206604957581	-0.07420776039361954	0.35997340083122253	-0.2933017611503601	0.11070352047681808	0.8617135882377625	1.625949740409851	-1.7330659627914429	-1.6728315353393555	-1.6010948419570923	0.676487922668457	1.075070858001709	2.501037836074829	1.1657012701034546	1.5158418416976929	-0.04258843883872032	-0.9973422884941101	-0.8775299191474915	-0.9913955926895142	1.561347484588623	1.256922960281372	-1.0335520505905151	0.844504714012146	-0.620625913143158	-2.380413055419922	-0.025752805173397064	-1.0954582691192627	-0.7471697330474854	-0.38631105422973633	0.06262484937906265	0.6893190741539001	2.3481879234313965	0.1788559854030609	2.0132482051849365	-0.07705323398113251	0.4033900797367096	0.8148840665817261	-0.20417530834674835	-1.0897529125213623	-0.235044464468956	0.1657545119524002	-0.30460357666015625	-0.31212329864501953	1.8636800050735474	-0.2455117255449295	0.8600871562957764	-0.5992467999458313	-4.240673542022705	-0.394467830657959	-1.0132510662078857	0.08360332995653152	-0.04023980349302292	2.959225654602051	1.5074294805526733	0.0787988007068634	-1.9655382633209229	0.9212508797645569	0.11828643083572388	0.6124873161315918	-0.6897778511047363	1.7943323850631714	0.2720670700073242	-0.1506529450416565	-0.22546985745429993	2.179870843887329	-1.176207184791565	-0.9873273968696594	0.5506227612495422	1.4999709129333496	0.7527881264686584	1.7592315673828125	-0.23667596280574799	0.6835065484046936	0.8915053009986877	0.6821172833442688	1.416829228401184	-0.45012587308883667	3.2469911575317383	-0.33119937777519226	0.32232117652893066	-0.22350144386291504	-0.9785684943199158	1.762394905090332	1.1422510147094727	1.6841700077056885	1.3512139320373535	-0.34265509247779846	1.5450414419174194	-0.07383700460195541	-0.5437731742858887	-2.0558815002441406	1.5393693447113037	1.3526954650878906	0.9463211297988892	-0.7923242449760437	0.37494519352912903	-1.7653789520263672	0.03318306431174278	2.2037198543548584	2.4557478427886963	1.3036774396896362	-1.7999321222305298	-0.24464797973632812	-2.7555136680603027	-1.1423888206481934	1.133437156677246	-0.9307646751403809	-0.36089053750038147	0.7053511738777161	-1.7407746315002441	-0.5162792801856995	0.3378463685512543	1.752364158630371	-2.11804461479187	-0.24545565247535706	-1.643978476524353	0.6006772518157959	1.6442760229110718	1.4037277698516846	-0.37114161252975464	-1.6756430864334106	1.3689569234848022	-2.1948962211608887	0.32146909832954407	-0.7748018503189087	-0.5779118537902832	0.545447051525116	-1.2793782949447632	-2.0386199951171875	0.7118642926216125	-1.5589783191680908	-0.0199331883341074	-0.055397264659404755	-2.596010446548462	-0.6894400715827942	0.23132063448429108	-1.8054956197738647	-1.076369047164917	0.6597228050231934	-1.9536243677139282	-0.6254017353057861	-0.6725546717643738	-1.2055050134658813	-1.3978005647659302	0.5538468956947327	-0.698396623134613	-0.8261843323707581	0.9259762763977051	-1.3727595806121826	2.063856363296509	-0.8510120511054993	0.09891901910305023	0.12229719012975693	0.28995686769485474	-0.30153220891952515	-0.5081195831298828	0.997250497341156	0.07050446420907974	0.5462691187858582	-0.5073804259300232	2.4030745029449463	-2.948042631149292	0.9812334775924683	-1.2444854974746704	2.542652130126953	-1.1860644817352295	0.2180766761302948	0.23426538705825806	
Madonna	0.7131595611572266	0.7662484049797058	2.1479551792144775	-0.45497867465019226	-0.34296977519989014	1.6596533060073853	-1.0915682315826416	-0.12849004566669464	-1.0815285444259644	2.5511887073516846	0.5613274574279785	-1.6331168413162231	1.5883651971817017	0.7538352012634277	-0.9734694361686707	-0.6117487549781799	-1.8973056077957153	1.0099139213562012	0.38165298104286194	-1.8871994018554688	-0.9756717085838318	-0.9059523940086365	1.0524653196334839	-1.0582669973373413	-1.5443296432495117	-1.5294080972671509	0.5398014783859253	-1.5149444341659546	-1.0240908861160278	-1.9140642881393433	-0.9076489806175232	-1.125558614730835	0.0387880839407444	1.2886191606521606	0.43553397059440613	-1.518292784690857	2.511516809463501	-0.3757740557193756	0.45803189277648926	-0.4903493821620941	-0.4628516137599945	-0.3362826406955719	0.45896658301353455	-0.5675796866416931	0.5504903793334961	-1.4522429704666138	-0.5871773362159729	1.1204025745391846	0.39532971382141113	1.8420168161392212	-0.13116776943206787	1.335640788078308	0.8007391095161438	0.30019497871398926	1.4488011598587036	-0.14795170724391937	-1.0401798486709595	-1.386176586151123	0.026122793555259705	-0.5216620564460754	0.6861699223518372	1.8029799461364746	0.09142153710126877	-1.6911226511001587	-1.5407813787460327	0.7534011006355286	-4.427870273590088	0.3349900543689728	-0.1754123419523239	-0.12499991059303284	0.002382720587775111	-0.31349968910217285	0.32770106196403503	-0.6023209691047668	0.36703625321388245	-1.6347206830978394	0.37396594882011414	-0.6895284652709961	-2.360208511352539	1.9211684465408325	0.12645235657691956	0.6374601125717163	-1.3375167846679688	0.714497983455658	-1.0860711336135864	-2.8275442123413086	-2.2286183834075928	-0.7130704522132874	-0.437516450881958	0.09792247414588928	1.2293505668640137	-2.2306740283966064	-1.004384160041809	2.3585774898529053	-0.22829104959964752	1.1183099746704102	-0.200651153922081	0.3357439935207367	-0.246885284781456	-1.6024564504623413	-0.6345064640045166	2.449199914932251	-1.2132582664489746	2.6453094482421875	2.260960578918457	-2.5333919525146484	0.10156890004873276	-0.2531466782093048	-1.7585707902908325	0.05980457738041878	-0.11233723163604736	-1.7596443891525269	0.6097038388252258	-1.2173511981964111	-0.05038703605532646	1.6798863410949707	0.38039466738700867	-2.0960867404937744	-1.9753599166870117	-1.3847274780273438	0.23422034084796906	0.38798224925994873	1.2467586994171143	0.3156912624835968	-3.156545639038086	-2.6090168952941895	0.8542406558990479	0.29891398549079895	-0.7907071709632874	-2.521372079849243	3.417950391769409	1.542009711265564	-0.2625422775745392	-0.9224497675895691	-1.1633278131484985	0.7185675501823425	0.008873741142451763	-1.6258209943771362	0.333074688911438	-3.725238084793091	2.095996618270874	-1.492566466331482	2.0835771560668945	-2.108471155166626	-1.0961049795150757	-0.9153183102607727	0.9766132831573486	-1.969732642173767	0.722681999206543	0.8770752549171448	-3.763819932937622	2.4164412021636963	2.0074024200439453	-0.7275699973106384	0.024227499961853027	-1.0543009042739868	1.0540193319320679	-0.3381146490573883	0.5831376910209656	-0.0215278472751379	1.3225723505020142	0.8486893773078918	-1.1223100423812866	0.6621246337890625	-0.15505780279636383	0.5595181584358215	0.849625289440155	0.582468569278717	1.7205051183700562	-0.7255604267120361	-0.08997219055891037	0.5349248647689819	-1.4502111673355103	-0.8157456517219543	0.32614070177078247	2.0004525184631348	-0.5887961387634277	0.18245798349380493	-2.278597116470337	-2.165210008621216	0.024711379781365395	2.20865797996521	1.054848074913025	-0.12300577014684677	1.1282466650009155	1.1262404918670654	1.4224144220352173	1.8298388719558716	-0.8158703446388245	1.585131287574768	-0.3250340223312378	-1.2554312944412231	-1.3824243545532227	-2.2964696884155273	1.0488759279251099	-1.6436291933059692	1.3255079984664917	0.2575984001159668	-0.3577161133289337	0.9940066337585449	2.128606081008911	-0.5646787285804749	-2.3438947200775146	0.2562948763370514	-0.5765650868415833	-1.4921921491622925	-0.2783585786819458	0.5994076132774353	0.4791257083415985	1.426840901374817	0.7696862816810608	1.2127915620803833	-0.211709663271904	2.032844305038452	0.37324416637420654	0.9186460375785828	1.3505587577819824	0.1983652561903	0.6779949069023132	1.1037760972976685	-0.316826730966568	-1.1677395105361938	-0.7818964123725891	0.6853811144828796	-1.4085379838943481	2.6880996227264404	0.12934158742427826	-1.04240083694458	0.845393180847168	0.6595543026924133	-0.8525686264038086	2.7968835830688477	-0.0822053775191307	-3.4626595973968506	2.6081459522247314	1.5945425033569336	-1.413490891456604	0.7603235244750977	-3.436290979385376	2.291865825653076	1.3696355819702148	0.4638786315917969	-1.4239739179611206	1.837702751159668	-0.3901807367801666	-0.4418877065181732	-0.87031489610672	1.6862459182739258	0.7420310974121094	1.5228959321975708	2.9539825916290283	1.2041285037994385	-2.2785120010375977	2.904327630996704	-0.14422917366027832	0.7007891535758972	-1.5788031816482544	-0.6369538903236389	-3.635220527648926	-1.7285312414169312	-1.814036250114441	1.4713579416275024	0.5506539940834045	-0.03535118326544762	-1.173733115196228	0.014359424822032452	2.439708948135376	0.07373593002557755	-1.0592093467712402	-0.8623161911964417	0.040603797882795334	-0.23864197731018066	1.5682411193847656	-0.06350294500589371	-3.7446517944335938	-0.005640428047627211	-1.8554835319519043	0.3061070144176483	0.21291421353816986	-0.24072498083114624	0.9130460619926453	2.5743625164031982	1.7585721015930176	-0.5396974682807922	-0.4320101737976074	-2.751478433609009	0.14885367453098297	-0.20981813967227936	-1.598580002784729	-0.2708006799221039	-0.46188732981681824	0.004204114433377981	-0.5373887419700623	-0.6873647570610046	0.866077184677124	2.053591012954712	1.6318973302841187	0.5180375576019287	-0.8867806792259216	1.3196864128112793	
Wolfgang Amadeus Mozart	-0.18752481043338776	-0.38203349709510803	-0.15276651084423065	0.9203400015830994	-0.6924904584884644	-0.13805563747882843	2.8700339794158936	-0.9182487726211548	-0.6845563054084778	-0.6316406726837158	0.6854649186134338	-1.2444225549697876	1.7095361948013306	-0.40674853324890137	0.7046852111816406	-0.7963969707489014	1.0295683145523071	1.255076289176941	1.5438690185546875	-2.1535727977752686	-1.3881841897964478	0.11220391094684601	1.2066199779510498	1.02255380153656	1.3889344930648804	0.4908074140548706	-2.061183214187622	0.6142191290855408	-1.3204907178878784	0.5070761442184448	-1.3944616317749023	-1.4061734676361084	1.411240577697754	0.4495745599269867	-0.32851967215538025	0.5371927618980408	0.3668591380119324	1.3320119380950928	0.6008530855178833	-0.2084701806306839	0.5950066447257996	-1.3903545141220093	0.2829502820968628	-1.2283391952514648	2.0220787525177	-2.20790958404541	2.4370579719543457	0.7083661556243896	-0.19331282377243042	-0.4185951352119446	0.7659571766853333	1.2345921993255615	-0.31164947152137756	0.8115667700767517	0.8354689478874207	0.13835906982421875	0.17188331484794617	-1.239565134048462	-1.6240177154541016	-1.4317082166671753	0.053792182356119156	-1.3045918941497803	0.6391561627388	-1.7344521284103394	-0.23775330185890198	-0.35919228196144104	-1.05802321434021	-1.2829657793045044	0.3268466293811798	-0.9405732750892639	0.7524709701538086	0.48133304715156555	0.23410077393054962	-0.8204460144042969	-1.1262503862380981	-1.0718470811843872	-0.41979455947875977	0.45025166869163513	-0.6722224354743958	-3.475263833999634	0.41222500801086426	-3.7043046951293945	-0.07082954794168472	1.099779725074768	1.2675389051437378	-2.219464063644409	0.19005094468593597	-0.7775154113769531	-1.83185613155365	0.6984962224960327	-0.8715263605117798	-1.5070555210113525	0.5026044845581055	-1.6449276208877563	0.9527031183242798	-1.5279923677444458	-0.7313386797904968	0.04859338328242302	-0.018035922199487686	1.3252835273742676	0.5205141305923462	0.2619732916355133	-0.6262960433959961	-0.9676506519317627	1.0510424375534058	-2.163071870803833	0.22562040388584137	1.0207957029342651	-0.48448804020881653	-0.08614613115787506	-0.0702349916100502	-1.6658403873443604	-1.8380930423736572	0.10879380255937576	-0.4444044232368469	-1.3364355564117432	-3.768618583679199	-0.9653242826461792	0.7250280976295471	1.4409785270690918	0.010408680886030197	-1.0659722089767456	-1.0114322900772095	1.5061321258544922	-0.11511685699224472	0.2645953297615051	-0.8260769248008728	-0.9084457755088806	0.5332781076431274	-0.2013828158378601	0.3760404586791992	0.8643463850021362	-0.6203197836875916	-0.7867158651351929	-2.0478920936584473	-1.2928125858306885	-0.18656039237976074	-1.8877969980239868	1.7657780647277832	-2.4290647506713867	-0.4545583724975586	-0.9874070286750793	2.1177005767822266	1.470607042312622	0.8967498540878296	-0.6613823771476746	-1.3316550254821777	0.6004568338394165	1.591428279876709	0.35829415917396545	-0.03632462024688721	-0.2749561369419098	-1.4471219778060913	-0.3644951581954956	1.2422901391983032	-0.39116519689559937	-0.2849682569503784	-0.7168876528739929	-1.7425758838653564	-1.170563817024231	0.509914755821228	-0.08078622072935104	-0.05730976536870003	-0.7767402529716492	2.2694127559661865	-0.8443266749382019	0.1957983374595642	1.1475160121917725	1.7760496139526367	-1.8960915803909302	1.1861939430236816	-1.8238919973373413	-0.09311188757419586	-0.9024152159690857	1.2287119626998901	0.43373557925224304	-1.3348716497421265	-1.7086162567138672	-0.003463714849203825	-2.5229244232177734	-1.9824596643447876	0.22235319018363953	1.7515594959259033	-1.71230149269104	0.7532058358192444	1.1591901779174805	-0.957757830619812	-2.2906711101531982	-0.4924875795841217	-0.5017690062522888	0.018561022356152534	-0.942000687122345	1.1857588291168213	-1.3010811805725098	-0.6500727534294128	0.508784294128418	1.7951135635375977	-0.28792130947113037	-0.022212138399481773	-0.1680801659822464	0.7589089274406433	0.05098539963364601	-0.8513053059577942	-1.2199759483337402	0.7624071836471558	-1.4434417486190796	-0.6785435676574707	1.4861422777175903	0.20074813067913055	0.32345014810562134	0.1448347270488739	0.8835592865943909	2.065084457397461	-0.4826744496822357	1.7886595726013184	1.3850563764572144	-0.6798064112663269	0.4319886267185211	0.09364932030439377	0.4742611348628998	-0.8972859978675842	-0.047475334256887436	-0.32990148663520813	1.4404103755950928	-1.2608530521392822	-1.1344801187515259	-0.6549602746963501	-1.0729045867919922	-2.6947391033172607	-3.399376630783081	0.8340550661087036	1.6011635065078735	-2.381925344467163	-1.904091477394104	3.99223256111145	0.043132081627845764	-1.4043861627578735	0.702440083026886	-1.6624078750610352	-0.035807956010103226	0.21588914096355438	0.023022297769784927	-1.915028691291809	1.1246848106384277	-0.14118705689907074	0.9933264851570129	-0.12930084764957428	0.4494911730289459	1.3606666326522827	-0.09626730531454086	-0.3879539370536804	-0.09075066447257996	-1.5907953977584839	-0.8012449145317078	-1.768305778503418	1.4553325176239014	-0.28724586963653564	-0.8643160462379456	-1.698136329650879	-0.8492060899734497	-0.5183818936347961	1.847844123840332	-1.733604907989502	-0.5347890853881836	-2.2595324516296387	0.1673842817544937	1.2624337673187256	-0.5575339794158936	-0.5770072937011719	-1.8515406847000122	1.7193580865859985	1.5630611181259155	0.39027270674705505	0.1813647598028183	0.9423669576644897	-0.4560873210430145	0.9120959639549255	-1.2901084423065186	-1.0180543661117554	-0.6706346869468689	-0.6929629445075989	-0.8570664525032043	1.3370026350021362	0.14455877244472504	-1.6023069620132446	0.8219709992408752	-1.0217379331588745	1.9764889478683472	-3.135735034942627	0.6037242412567139	-1.9742704629898071	3.0993027687072754	1.0933218002319336	-0.4986669421195984	-1.740999460220337	-0.09596025943756104	2.326923131942749	-1.0470339059829712	1.165409803390503	-1.3555753231048584	
attore	0.8661555051803589	1.0187525749206543	1.3073159456253052	0.1495601087808609	0.3183813989162445	-0.8405595421791077	1.5880038738250732	-0.5379474759101868	-0.5315208435058594	3.1567721366882324	-0.6539545059204102	1.1137957572937012	0.6849304437637329	0.6882817149162292	1.717315435409546	-0.09464622288942337	0.84645676612854	-0.35427263379096985	2.1501009464263916	1.263893485069275	-0.12108150869607925	1.46171236038208	1.7755436897277832	-0.8858539462089539	-2.007392406463623	1.7438561916351318	-1.1773288249969482	-1.9659805297851562	1.8534148931503296	1.1240233182907104	-1.752792239189148	-0.45471078157424927	-0.8740993142127991	-1.5249600410461426	-0.3812679350376129	-0.255283385515213	-2.487574815750122	-0.3851192593574524	-1.2947378158569336	0.2955220341682434	0.3783383369445801	-1.488694190979004	-1.0681726932525635	-2.502951145172119	1.2838778495788574	1.7286995649337769	0.41367027163505554	-1.5555883646011353	-1.54198157787323	1.9573508501052856	-2.449779748916626	-0.7185362577438354	1.2896891832351685	-0.027742769569158554	1.3397932052612305	-1.472663164138794	3.6063625812530518	-2.236630916595459	-3.2496283054351807	-0.7806950807571411	0.6419903039932251	1.357248067855835	-1.177648901939392	1.7391928434371948	-0.17744550108909607	-0.439071387052536	-1.0202686786651611	1.1145483255386353	1.2596255540847778	0.628092885017395	-0.41698119044303894	-0.34117141366004944	0.9620777368545532	1.124053955078125	-3.4035916328430176	-1.2248138189315796	1.2107162475585938	-0.5100670456886292	1.9022458791732788	0.557072639465332	-1.8560901880264282	2.0310893058776855	0.42289474606513977	-0.7945740222930908	0.5816698670387268	-1.5081825256347656	1.174126386642456	-0.912263035774231	-1.1837148666381836	-0.49460333585739136	1.6337825059890747	0.7137981057167053	1.0792769193649292	-0.9793397188186646	1.6018480062484741	-1.144696831703186	-1.0984870195388794	-1.457019567489624	0.33798879384994507	1.2128266096115112	0.21695515513420105	1.5104097127914429	-0.8595019578933716	2.133193016052246	-2.121311664581299	0.889469563961029	0.620823085308075	-1.4182206392288208	0.05439089983701706	0.4500081539154053	1.0405904054641724	0.09338786453008652	1.1978929042816162	2.0300965309143066	-0.028241721913218498	-0.6775045394897461	0.12767112255096436	1.6438742876052856	1.4234962463378906	0.5995126962661743	2.150693655014038	-0.4244994521141052	0.28521251678466797	2.886561393737793	-0.3385017514228821	0.9157655239105225	0.38354161381721497	-0.22859972715377808	-1.4624532461166382	2.230214834213257	0.402473509311676	1.0959290266036987	-1.015489101409912	0.8139918446540833	-0.7462003827095032	1.0633609294891357	2.3185620307922363	-0.271441787481308	2.218417167663574	-3.184103012084961	-0.9809176921844482	-0.4605373442173004	1.547579050064087	-0.20498210191726685	0.47353190183639526	0.07459969818592072	-0.749841570854187	0.3460661470890045	3.8574330806732178	-0.23350076377391815	-0.5551403760910034	-1.1848735809326172	-1.2396003007888794	0.2860122621059418	3.584853172302246	-0.6847507953643799	1.822660207748413	0.023699596524238586	-0.4829254448413849	-0.19998466968536377	1.01041841506958	2.369185209274292	0.34392261505126953	1.9461103677749634	-0.22119131684303284	0.9678687453269958	-2.1519863605499268	1.2187906503677368	2.6440021991729736	-1.2623770236968994	-1.6170628070831299	1.3098865747451782	0.02883361279964447	0.05496992915868759	-1.1145744323730469	-0.1642998456954956	1.0377386808395386	1.288673758506775	0.5324517488479614	-0.3177599310874939	-3.7444748878479004	0.615854799747467	0.9423472285270691	1.5311684608459473	-0.7874371409416199	0.6863178610801697	-0.4655108153820038	-2.179368734359741	0.27617645263671875	-0.3433668613433838	-0.39310652017593384	-0.9188777804374695	0.816558837890625	-2.0276107788085938	1.100210428237915	0.5174496173858643	2.158078193664551	0.7967664003372192	-2.4232420921325684	3.6766138076782227	-1.7290593385696411	-2.399052619934082	-1.179445505142212	-1.4730885028839111	-1.4942468404769897	-1.3947962522506714	-2.6956331729888916	0.13589531183242798	-0.06201091408729553	-0.4217207431793213	-1.8304249048233032	1.456741213798523	0.335951566696167	0.6732844710350037	0.6809147596359253	1.0294718742370605	-0.39346256852149963	-0.038246724754571915	1.3583095073699951	-1.9893602132797241	-1.1136327981948853	3.0565271377563477	-2.2749476432800293	2.0203826427459717	0.522666871547699	1.7239903211593628	-0.8174466490745544	-3.0509796142578125	0.48815837502479553	-0.5903645753860474	-0.7483204007148743	0.08884257823228836	3.6584267616271973	-2.191823720932007	0.050425104796886444	-0.38167229294776917	-0.9402240514755249	-0.10863269865512848	-3.1880054473876953	-1.0118308067321777	-1.194558024406433	1.402387022972107	-0.906835675239563	0.20191973447799683	0.5910149216651917	-0.5913798213005066	-0.3007853031158447	1.5542736053466797	0.1917216032743454	0.2422315627336502	3.1930229663848877	1.4188899993896484	-0.21955625712871552	0.6362090110778809	-2.1763393878936768	0.33370521664619446	-0.9260086417198181	0.4853992760181427	-0.44860661029815674	-2.2087008953094482	1.0154629945755005	1.6475998163223267	1.0707206726074219	-1.0520267486572266	-0.8690948486328125	-2.571977138519287	1.1780391931533813	0.7017465233802795	-0.3023604154586792	1.3802683353424072	-1.6520167589187622	1.61997389793396	1.3119910955429077	2.2715556621551514	-0.6986294984817505	-1.6880141496658325	0.5283553004264832	-0.3622139096260071	0.16877445578575134	-0.30257657170295715	3.1914079189300537	1.2619762420654297	-3.776759624481201	0.16075074672698975	2.226440906524658	-1.9597777128219604	-0.9129806756973267	1.441645622253418	-0.9166025519371033	2.212981700897217	-2.5160772800445557	0.21052533388137817	1.745232105255127	0.2203708440065384	1.4696877002716064	1.8818628787994385	2.6835365295410156	1.3283650875091553	-1.1177103519439697	0.02106049656867981	
Quentin Tarantino	0.22310587763786316	0.879469633102417	0.7936464548110962	0.664260983467102	2.3715624809265137	1.505366563796997	-1.0090219974517822	1.378172516822815	-0.6937382817268372	1.0764559507369995	-2.2732203006744385	0.3389413058757782	1.759833574295044	1.3464597463607788	-0.5769902467727661	-0.8535110950469971	0.4748637080192566	1.9599882364273071	0.739544153213501	0.14330138266086578	-0.8295032382011414	1.1131833791732788	1.0428242683410645	0.9459704160690308	-0.3246341049671173	-0.9342293739318848	0.07539887726306915	-3.116454601287842	1.2522754669189453	1.2874829769134521	-2.034018039703369	0.35612115263938904	-1.3328173160552979	1.07525634765625	0.19375017285346985	-0.6019433736801147	0.719485878944397	0.32394343614578247	-1.2212022542953491	0.5644933581352234	-0.06809504330158234	-0.6736801266670227	-0.03607653081417084	-1.859055757522583	-0.18007014691829681	-0.07094382494688034	0.7761809229850769	0.6413975358009338	-1.0042742490768433	-0.4945840537548065	0.12853585183620453	-1.134002685546875	0.34512725472450256	1.082187533378601	0.35923734307289124	0.2997807264328003	2.1247687339782715	0.05805840715765953	-1.7730917930603027	-0.2729912996292114	-0.4861675500869751	1.15909743309021	-1.3660041093826294	1.6775777339935303	-1.0348842144012451	0.6275020837783813	-2.0186214447021484	-1.3924006223678589	0.3618108332157135	-0.597595751285553	1.0078195333480835	-0.4292876422405243	1.3029531240463257	1.1327794790267944	0.4149450957775116	-0.6840874552726746	1.4753142595291138	-2.7236907482147217	1.0156798362731934	1.261533498764038	-0.48971375823020935	0.23721574246883392	-1.3687506914138794	1.2322380542755127	0.8022195100784302	-1.4609298706054688	-1.718151569366455	-1.4307281970977783	-0.24445630609989166	0.5140998959541321	1.5223171710968018	-0.028853897005319595	-0.4403025507926941	-1.2489818334579468	0.4464583694934845	0.8737443685531616	-0.8288440108299255	-0.6873753070831299	-1.4335551261901855	-0.2926364243030548	0.20665718615055084	1.981793999671936	-0.8325005173683167	2.070500612258911	0.15885674953460693	-0.7647099494934082	1.0880919694900513	-1.2535783052444458	2.3257203102111816	-0.961119532585144	0.2734585702419281	-1.7407058477401733	-0.16515561938285828	1.194415807723999	-0.5588526725769043	0.5575495362281799	0.34648463129997253	-0.7426145076751709	-0.7874670028686523	-1.107529640197754	1.1875057220458984	-0.06003566458821297	-0.9735047221183777	0.13748040795326233	0.7260379791259766	-2.468977928161621	0.7495349645614624	-1.018230676651001	-0.4362470507621765	-0.15393054485321045	-0.6223963499069214	0.7858178615570068	1.0077217817306519	1.5928599834442139	-1.7185285091400146	-0.3247990608215332	-0.2907539904117584	-1.317761778831482	2.842008113861084	-1.426594853401184	-0.3267420828342438	0.1612834632396698	0.8014992475509644	1.1616963148117065	0.7778433561325073	-2.489180088043213	0.6440398097038269	-0.9393990635871887	-0.14515121281147003	0.26865842938423157	-1.6487035751342773	1.0963021516799927	-0.7512003779411316	-0.5095407962799072	1.6497260332107544	-0.38035833835601807	-2.044997453689575	0.5113539099693298	-0.1647605448961258	-1.4951106309890747	-0.48606401681900024	0.8151614665985107	1.2933998107910156	0.6593798995018005	0.3545368015766144	2.096097946166992	-0.9957032799720764	1.2888411283493042	1.2554676532745361	2.1203887462615967	-2.687727928161621	0.7317184209823608	-0.2957197427749634	0.4976854920387268	0.06804927438497543	-0.3589029610157013	-0.6310059428215027	1.7008460760116577	-1.8686347007751465	-2.5025858879089355	0.5913975834846497	0.965350866317749	0.1613626778125763	0.36575138568878174	-0.7846831679344177	1.1689718961715698	-0.7183424234390259	0.9261204600334167	0.40573593974113464	-0.017141005024313927	1.426315426826477	-1.1754076480865479	-0.8883191347122192	-0.720848798751831	1.3848905563354492	0.05674489215016365	2.047006130218506	-0.4801500141620636	-1.2796978950500488	3.2233076095581055	0.8689382076263428	-1.8494970798492432	-1.1833258867263794	-0.14983655512332916	-0.10898201912641525	-0.26091405749320984	-1.454050064086914	-0.05662698298692703	0.9650208950042725	0.23974020779132843	-0.42306774854660034	1.034834623336792	1.1084657907485962	2.0883986949920654	0.17207081615924835	2.023455858230591	0.30399760603904724	-0.3679329454898834	0.6870605945587158	0.5036154985427856	1.405665636062622	-0.006648106500506401	-1.5822598934173584	-0.6951662302017212	1.1985056400299072	2.2568209171295166	-1.3594163656234741	-1.5511852502822876	0.12604056298732758	2.6276676654815674	-1.7598450183868408	0.9887620806694031	3.0875871181488037	0.18801721930503845	2.151939868927002	2.72733211517334	-1.4826921224594116	1.5791159868240356	-3.824463367462158	0.27779024839401245	-0.1666720062494278	-0.22073261439800262	-1.7064143419265747	1.9374444484710693	-2.0202953815460205	0.997667133808136	0.9561581611633301	-0.6645490527153015	0.4124731123447418	0.8893969058990479	1.7566407918930054	-1.4277393817901611	0.06615646183490753	0.9823628664016724	-0.8006138205528259	0.3055635094642639	-1.6602543592453003	-0.6391289830207825	0.010148431174457073	-2.830603837966919	-0.40019598603248596	2.860783815383911	-2.007328510284424	-1.3462036848068237	-0.4929463267326355	-2.27180552482605	1.1921466588974	0.5586019158363342	0.10791977494955063	0.43682366609573364	0.571103036403656	2.5052032470703125	0.7732675671577454	1.2218905687332153	0.1676510125398636	-0.4242142140865326	1.6080801486968994	0.5472230911254883	-3.337226629257202	1.4579989910125732	-0.5429874062538147	-1.8355073928833008	-1.153551697731018	-1.350608468055725	1.5125272274017334	-0.1399124562740326	-0.985623300075531	0.7955855131149292	1.3616849184036255	-0.030493980273604393	0.5019051432609558	1.0945794582366943	0.15943323075771332	-0.11500716209411621	1.1774142980575562	1.7124977111816406	1.9845012426376343	-0.7285839915275574	0.5283067226409912	-0.6656927466392517	
