entity	transe_entity_vector
politico	0.08514399826526642	0.17122100293636322	0.03331800177693367	0.03725399821996689	-0.17102700471878052	-0.022241000086069107	-0.03602899983525276	-0.14499199390411377	0.10046499967575073	0.08741699904203415	0.10862000286579132	0.08994799852371216	0.05437900125980377	-0.16708999872207642	0.04946700111031532	-0.0181450005620718	-0.06623099744319916	-0.1444839984178543	-0.022200999781489372	0.09267699718475342	-0.19354799389839172	0.1075109988451004	-0.12381000071763992	-0.040821000933647156	-0.0770770013332367	0.08871500194072723	0.03553399816155434	-0.05460900068283081	0.05145899951457977	-0.06154400110244751	0.15723399817943573	-0.17922499775886536	-0.028082000091671944	0.041790999472141266	-0.05502299964427948	-0.02213899977505207	0.22435100376605988	-0.0017359999474138021	-0.15810400247573853	0.09601700305938721	0.07923199981451035	0.11642500013113022	-0.1340540051460266	-0.12177299708127975	-0.09222500026226044	-0.18396499752998352	0.1321299970149994	0.04643600061535835	0.026743000373244286	-0.08997000008821487	-0.07899399846792221	0.06424999982118607	-0.04192199930548668	0.03152700141072273	-0.0664059966802597	0.111565001308918	-0.0611720010638237	-0.15099599957466125	0.05784299969673157	-0.19352899491786957	-0.0021359999664127827	-0.16021299362182617	0.012742999941110611	-0.041453998535871506	0.02652999944984913	0.1403069943189621	0.03515800088644028	0.013731000013649464	-0.01425199955701828	0.1910099983215332	-0.10005000233650208	0.07544799894094467	0.010250000283122063	-0.2047639936208725	0.041818998754024506	0.009584999643266201	-0.06598000228404999	-0.034008998423814774	-0.097352996468544	0.06705400347709656	0.0050570000894367695	0.0697069987654686	-0.0005119999987073243	0.06216000020503998	-0.2037310004234314	-0.039108000695705414	-0.008046000264585018	-0.09937900304794312	-0.15878799557685852	-0.07638899981975555	-0.01743599958717823	-0.025186000391840935	-0.05204800143837929	-0.046160999685525894	0.16323800384998322	0.1172029972076416	0.04643800109624863	0.07779499888420105	0.12358800321817398	-0.032604001462459564	
Silvio Berlusconi	0.03925900161266327	-0.011475999839603901	0.002993999980390072	-0.02848700061440468	2.5999999706982635e-05	-0.12075000256299973	-0.09498900175094604	0.012161999940872192	-0.010375999845564365	0.07697000354528427	-0.0012580000329762697	0.04618600010871887	0.09993799775838852	-0.013299999758601189	-0.08639699965715408	-0.0751579999923706	-0.10106900334358215	-0.06604000180959702	0.11268799751996994	0.032297998666763306	-0.04232800006866455	0.016845999285578728	0.05715499818325043	0.14783599972724915	0.02116600051522255	-0.0036239998880773783	-0.038123998790979385	-0.12339399755001068	0.0206300001591444	-0.0393109992146492	0.0069240001030266285	-0.026441000401973724	0.008163000456988811	-0.063400998711586	0.07399500161409378	0.08807100355625153	-0.0262410007417202	-0.075484998524189	-0.06688299775123596	-0.08668900281190872	0.020955000072717667	-0.01936499960720539	-0.031088000163435936	0.016047999262809753	-0.060283999890089035	0.04437499865889549	0.03953099995851517	0.006943000014871359	-0.01958799920976162	0.061344001442193985	0.007439999841153622	-0.10171700268983841	0.030604999512434006	0.03500499948859215	-0.0592229999601841	0.018427999690175056	0.049212999641895294	0.054464999586343765	-0.003936000168323517	0.0228860005736351	-0.02254899963736534	-0.04163200035691261	0.03495600074529648	-0.018623000010848045	0.015948999673128128	-0.002437999937683344	0.0634479969739914	-0.06269200146198273	0.04704499989748001	-0.07264400273561478	-0.07382400333881378	-0.07179100066423416	-0.07419600337743759	0.034265000373125076	0.007385000120848417	-0.09003099799156189	0.06875400245189667	-0.08416800200939178	-0.07856199890375137	0.0745910033583641	-0.01194700039923191	-0.003539999946951866	-0.014093000441789627	-0.06831199675798416	-0.0995360016822815	-0.068122997879982	-0.003203999949619174	0.06880400329828262	0.020323999226093292	0.08522100001573563	0.07318399846553802	0.04163200035691261	-0.05724500119686127	0.0734499990940094	-0.05099700018763542	0.06089099869132042	0.06293000280857086	-0.08866599947214127	-0.035617999732494354	-0.0392800010740757	
Barack Obama	-0.007362000178545713	-0.09101399779319763	-0.01388499978929758	-0.06679999828338623	-0.04881799966096878	-0.07566700130701065	-0.02837499976158142	-0.01996699906885624	-0.023670999333262444	0.060534000396728516	-0.013302999548614025	-0.008961999788880348	0.12261199951171875	-0.03932400047779083	-0.05620399862527847	-0.09110099822282791	-0.06730499863624573	-0.0027580000460147858	0.07296200096607208	0.006308000069111586	-0.040911998599767685	0.0039889998733997345	0.03613400086760521	0.07656700164079666	-0.0057069999165833	0.09020800143480301	-0.08082500100135803	-0.09745000302791595	0.06425700336694717	-0.08836299926042557	0.08019799739122391	-0.0670590028166771	0.0033100000582635403	0.024946000427007675	0.04501299932599068	-0.02069699950516224	-0.05342699959874153	0.020044999197125435	-0.051426000893116	-0.03886500000953674	-0.0530720017850399	-0.022755000740289688	0.03993399813771248	-0.013999000191688538	0.05201200023293495	-0.028596999123692513	0.07393600046634674	-0.00585199985653162	-0.0805639997124672	-0.0076060001738369465	0.009743000380694866	-0.04702800139784813	-0.03954000025987625	0.003510999958962202	0.005876000039279461	-0.05548899993300438	0.0746150016784668	0.07630100101232529	0.04338400065898895	0.07022199779748917	0.07078299671411514	-0.02104100026190281	0.03917200118303299	-0.062950000166893	0.08010099828243256	-0.01232600025832653	-0.05705700069665909	-0.036393001675605774	0.04747600108385086	-0.0496629998087883	-0.024560999125242233	-0.046943001449108124	-0.06062699854373932	0.06668300181627274	-0.0585240013897419	-0.05767599865794182	-0.018668999895453453	-0.025933999568223953	-0.07994899898767471	0.09661500155925751	-0.020795000717043877	0.03909999877214432	0.03225700184702873	-0.09582500159740448	-0.1074490025639534	-0.03058299981057644	-0.05157899856567383	-0.022801000624895096	0.046247001737356186	0.10994400084018707	0.06921499967575073	0.04478900134563446	-0.05309300124645233	0.11497499793767929	0.04439299926161766	-0.05801599845290184	0.0871879979968071	-0.03752899914979935	-0.021100999787449837	0.01973400078713894	
Hillary Clinton	0.03739200159907341	-0.06929100304841995	0.005030999891459942	-0.05065000057220459	-0.07794199883937836	0.021789999678730965	-0.0025530001148581505	0.0382860004901886	-0.04600999876856804	0.09641999751329422	-0.0016740000573918223	-0.07194799929857254	0.12919199466705322	0.05141500011086464	-0.077224001288414	-0.09420499950647354	-0.048427000641822815	-0.007703999988734722	0.07726699858903885	0.01117399986833334	-0.05506400018930435	-0.016978999599814415	0.057509999722242355	0.07520700246095657	0.015852000564336777	0.09440299868583679	-0.07327400147914886	-0.10886500030755997	0.05680299922823906	-0.11159399896860123	0.06951600313186646	-0.04533899948000908	0.016656000167131424	-0.012888999655842781	0.029764000326395035	-0.007162000052630901	-0.0736590027809143	0.021702999249100685	-0.07439500093460083	-0.07388799637556076	-0.05209200084209442	-0.027622999623417854	0.03076300024986267	0.006812000181525946	0.018276000395417213	-0.018281999975442886	0.030068999156355858	-0.0074430000968277454	-0.07070399820804596	0.01285099983215332	0.004908999893814325	-0.10113599896430969	-0.0905660018324852	-0.01881200075149536	0.01757499948143959	-0.09775800257921219	0.08298300206661224	0.0485370010137558	0.055674001574516296	0.09345799684524536	0.06663300096988678	-0.03283900022506714	0.04864700138568878	-0.05303899943828583	0.06208699941635132	-0.05968499928712845	-0.03585299849510193	-0.026002999395132065	0.0672139972448349	-0.04954899847507477	-0.0540120005607605	-0.0310479998588562	-0.06567099690437317	0.04971899837255478	-0.060398999601602554	-0.0729219987988472	-0.011919000186026096	-0.0038670001085847616	-0.09175799787044525	0.11067300289869308	0.0263069998472929	0.06419000029563904	0.05326699838042259	-0.110664002597332	-0.1196649968624115	-0.06012500077486038	-0.009600000455975533	-0.048218000680208206	0.06651300191879272	0.10865999758243561	0.09764999896287918	0.05542699992656708	-0.012935999780893326	0.10645300149917603	0.09130299836397171	0.005226000212132931	0.09407299757003784	-0.010592999868094921	-0.007296999916434288	0.04676700010895729	
Vladimir Putin	0.014248999767005444	-0.08515600115060806	0.0086899995803833	-0.046459000557661057	-0.035673998296260834	-0.07222999632358551	0.028738999739289284	0.09992100298404694	-0.013651000335812569	0.04163400083780289	-0.030003000050783157	-0.021528000012040138	0.09661199897527695	-0.03568900004029274	-0.07359600067138672	-0.09143800288438797	-0.06126999855041504	-0.02351599931716919	0.09625300019979477	0.05866000056266785	0.018492000177502632	0.049830999225378036	0.03155500069260597	0.10345999896526337	0.030827000737190247	0.08749999850988388	-0.027000000700354576	-0.11883500218391418	-0.010649999603629112	-0.044130999594926834	0.05929800122976303	-0.08175700157880783	0.0016240000259131193	-0.02528899908065796	0.08225200325250626	0.03946499899029732	0.011881999671459198	0.00736499996855855	-0.08170600235462189	-0.08661500364542007	-0.04597000032663345	-0.010940000414848328	0.060805998742580414	-0.01791900023818016	0.0224239993840456	-0.028661999851465225	-0.010231000371277332	-0.02485099993646145	-0.03744199872016907	0.04195399954915047	-0.07066699862480164	-0.09457799792289734	0.0056050000712275505	0.09449300169944763	-0.07891599833965302	-0.1063380017876625	0.04213700070977211	0.034866999834775925	0.007441000081598759	0.07147099822759628	0.07317099720239639	-0.07374300062656403	0.024692000821232796	0.012331999838352203	-0.02333099953830242	-0.03883200138807297	0.024142000824213028	-0.03160800039768219	0.052418000996112823	-0.09356199949979782	-0.06647200137376785	-0.05789700150489807	0.011123999953269958	0.08423999696969986	-0.04493800178170204	-0.043163999915122986	-0.022765999659895897	-0.0703129991889	-0.06945499777793884	0.10685800015926361	0.0197759997099638	-0.045148998498916626	0.0734269991517067	-0.0779310017824173	-0.10617300122976303	-0.05547099933028221	-0.05028799921274185	0.02313699945807457	-0.028440000489354134	0.07797399908304214	0.09314099699258804	-0.024484999477863312	-0.030886000022292137	0.07743699848651886	-0.04835899919271469	0.0011990000493824482	0.05294699966907501	-0.07635600119829178	-0.015375000424683094	0.0359020009636879	
scrittore	0.05137399956583977	0.02817700058221817	0.06886400282382965	0.18342900276184082	-0.11004599928855896	-0.13544200360774994	0.010293000377714634	0.02280700020492077	0.10417299717664719	0.21206699311733246	-0.00043700000969693065	-0.051653001457452774	0.0585470013320446	-0.15047100186347961	0.0955279991030693	-0.02868100069463253	-0.06538300216197968	-0.024382999166846275	-0.055706001818180084	-0.09553200006484985	-0.018681000918149948	0.012853000313043594	0.04873599857091904	-0.2333270013332367	0.08907599747180939	-0.01591400057077408	0.0138330003246665	-0.17862099409103394	0.05726400017738342	-0.07215599715709686	-0.010851000435650349	-0.1739480048418045	0.03672799840569496	0.20995700359344482	-0.11212799698114395	-0.009988999925553799	0.05502000078558922	-0.03576299920678139	-0.15915800631046295	0.03384700044989586	0.07179000228643417	0.07165499776601791	-0.1069369986653328	0.016006000339984894	-0.09667599946260452	-0.1704549938440323	0.08488500118255615	-0.13223999738693237	0.12570400536060333	-0.05963499844074249	0.1304199993610382	0.20829500257968903	0.04028100147843361	0.046163998544216156	-0.05718500167131424	-0.00443900004029274	-0.0741180032491684	-0.04119899868965149	0.18738099932670593	-0.04900500178337097	0.04041900113224983	0.006527000106871128	0.03488500043749809	0.08982200175523758	-0.12070199847221375	0.026333000510931015	0.06077900156378746	0.08776900172233582	-0.03104499913752079	0.1393910050392151	-0.10541799664497375	0.12710900604724884	-0.009073000401258469	-0.054666999727487564	-0.04569200053811073	-0.09471099823713303	-0.22029699385166168	0.03747100010514259	-0.09123600274324417	0.06750500202178955	-0.038040000945329666	0.17243599891662598	-0.007015000097453594	-0.04472000151872635	-0.21859599649906158	-0.12235700339078903	-0.031964998692274094	0.007007000036537647	-0.06984999775886536	-0.14790000021457672	-0.08972799777984619	-0.06557100266218185	-0.03996900096535683	-0.09393899887800217	-0.006064999848604202	0.03566800057888031	0.03829199820756912	-0.007772000040858984	0.07393799722194672	-0.04478500038385391	
Sigmund Freud	0.036483000963926315	-0.08531299978494644	0.0028299998957663774	-0.004718000069260597	-0.0793910026550293	-0.07292100042104721	0.0005329999839887023	0.03367599844932556	-0.011731999926269054	0.07149799913167953	-0.058233000338077545	-0.005657999776303768	6.000000212225132e-06	-0.008630000054836273	0.004945000167936087	-0.07384300231933594	-0.09214399755001068	-0.02050499990582466	0.03548099845647812	-0.04954700171947479	0.03647900000214577	-0.06686100363731384	0.06317800283432007	0.10098899900913239	0.05052800104022026	0.10221400111913681	-0.016968000680208206	-0.09452199935913086	0.09116599708795547	-0.0620420016348362	-0.001978999935090542	-0.06556600332260132	0.09793899953365326	-0.01693600043654442	0.08108600229024887	0.06776300072669983	0.03683000057935715	0.00317199993878603	-0.07405299693346024	-0.0778139978647232	-0.06108099967241287	-0.06403700262308121	0.031759001314640045	0.027276000007987022	0.041753001511096954	0.009596000425517559	0.009529000148177147	-0.05189700052142143	-0.06457500159740448	0.01432500034570694	0.0652649998664856	-0.03790799900889397	-0.038311999291181564	0.035436000674963	-0.06304699927568436	-0.08207999914884567	-0.005913000088185072	0.08070699870586395	0.07301799952983856	0.11679700016975403	0.06882700324058533	0.02826699987053871	0.11057399958372116	-0.06730300188064575	0.01838199980556965	-0.021769000217318535	0.021441999822854996	0.05654900148510933	0.05744500085711479	-0.05869799852371216	-0.02418299950659275	-0.05521199852228165	-0.049522001296281815	0.01775199919939041	-0.07686199992895126	-0.055403999984264374	0.0022750000935047865	-0.04210599884390831	-0.05035699903964996	0.057144999504089355	0.11763499677181244	-0.025704000145196915	0.11665999889373779	-0.07722499966621399	-0.0653730034828186	0.008268999867141247	0.004861999768763781	0.03714099898934364	0.06941000372171402	0.0281009990721941	0.021994000300765038	0.015561999753117561	-0.06871899962425232	0.10050199925899506	0.02550799958407879	-0.06091199815273285	0.08014299720525742	-0.05086499825119972	-0.044022999703884125	-0.03452000021934509	
J.K. Rowling	0.05506899952888489	-0.04587800055742264	-0.026521999388933182	0.06771600246429443	-0.0656609982252121	-0.05966600030660629	0.018616000190377235	0.04528599977493286	-0.02574400044977665	0.14890700578689575	-0.10279200226068497	-0.0894709974527359	0.10453999787569046	0.037870001047849655	-0.10087800025939941	-0.10233300179243088	-0.022343000397086143	0.03800399973988533	0.08381400257349014	-0.0584850013256073	0.015953000634908676	-0.0166190005838871	0.11997299641370773	0.09179700165987015	-0.058591000735759735	0.08333099633455276	-0.05799899995326996	-0.11782799661159515	0.07943800091743469	-0.1025099977850914	0.03406599909067154	-0.01584099978208542	0.01075000036507845	0.017386000603437424	0.1029060035943985	0.07229500263929367	-0.03991499915719032	0.04398199915885925	-0.060816001147031784	-0.08126900345087051	-0.06262599676847458	0.03207100182771683	0.06496600061655045	-0.0019120000069960952	-0.02700899913907051	-0.05210400000214577	-0.07595700025558472	-0.06978899985551834	0.0036589999217540026	0.031564000993967056	-0.003029000014066696	-0.08468999713659286	-0.0010949999559670687	0.03316599875688553	-0.04553399980068207	-0.10113299638032913	0.055851999670267105	-0.04066900163888931	0.09609899669885635	0.11275099962949753	0.0868690013885498	-0.003066000062972307	0.07822299748659134	-0.014394000172615051	0.10953100025653839	-0.03943200036883354	0.004188999999314547	0.024234000593423843	0.08680099993944168	-0.023416999727487564	-0.04993300139904022	-0.10062199831008911	-0.08518800139427185	0.011920999735593796	-0.12678200006484985	-0.08336500078439713	-0.024772999808192253	-0.013520999811589718	0.019865000620484352	0.07135900110006332	0.050919998437166214	0.033973999321460724	0.08868200331926346	-0.12455999851226807	-0.07556799799203873	-0.0965220034122467	0.012768999673426151	0.018532000482082367	0.10674899816513062	0.07044199854135513	0.01789199933409691	0.016662999987602234	-0.03296700119972229	0.04625000059604645	-0.07006099820137024	-0.026662999764084816	0.09134099632501602	-0.08087000250816345	-0.017566999420523643	0.0069679999724030495	
Ernest Hemingway	-0.013404999859631062	-0.03863700106739998	0.021751999855041504	-0.012656000442802906	-0.08389899879693985	-0.09889300167560577	-0.00686000008136034	-0.02886500023305416	-0.10134200006723404	0.09886399656534195	-0.043682001531124115	-0.0685029998421669	0.11115700006484985	0.011877000331878662	-0.04114999994635582	-0.08665099740028381	-0.05763699859380722	0.05558399856090546	0.055768001824617386	-0.08353299647569656	0.010780000127851963	-0.023621000349521637	0.08071199804544449	0.052949000149965286	0.03286200016736984	0.06837300211191177	-0.04693099856376648	-0.14894799888134003	0.06416700035333633	-0.060106001794338226	0.015499000437557697	-0.07174000144004822	0.07210800051689148	0.0460049994289875	0.022512000054121017	0.009162000380456448	-0.0033829999156296253	0.051368001848459244	-0.0002479999966453761	0.01785700023174286	-0.07497099786996841	-0.016478000208735466	0.05289800092577934	0.026580000296235085	-0.0261400006711483	-0.032287001609802246	-0.04414600133895874	-0.09799999743700027	-0.012907000258564949	0.012335999868810177	0.07594499737024307	-0.03173099830746651	-0.01829800009727478	0.014725999906659126	-0.006628999952226877	-0.09405200183391571	0.08596599847078323	0.06590200215578079	0.09703700244426727	0.09712500125169754	0.09210000187158585	0.00228599994443357	0.0928260013461113	-0.07141400128602982	0.03196299821138382	-0.06017100065946579	-0.02999100089073181	0.02353999949991703	-0.014684000052511692	0.02572599984705448	-0.06746400147676468	-0.061691999435424805	-0.11055000126361847	0.07774800062179565	-0.09324900060892105	-0.02583800069987774	-0.002355000004172325	-0.002517000073567033	-0.0017259999876841903	0.12025299668312073	0.05481300130486488	0.02763500064611435	0.0896650031208992	-0.12198600172996521	-0.08289700001478195	-0.08263999968767166	-0.05333999916911125	0.061014000326395035	0.04120500013232231	0.08968599885702133	0.04424799978733063	0.08534900099039078	-0.035975001752376556	0.032322999089956284	-0.030243000015616417	0.02676600031554699	0.09972000122070312	-0.0869939997792244	-0.04875899851322174	0.025346999987959862	
William Shakespeare	-0.0006329999887384474	-0.06648200005292892	0.0035810000263154507	-0.01696299947798252	-0.056078001856803894	-0.0890979990363121	-0.09950800240039825	0.05376499891281128	0.023660000413656235	0.07954999804496765	-0.030182000249624252	-0.027468999847769737	0.08521900326013565	-0.005177000071853399	-0.037849001586437225	-0.06903199851512909	-0.0738610029220581	-0.049244001507759094	0.09503000229597092	-0.055955998599529266	-0.10517700016498566	-0.05048299953341484	0.09142400324344635	0.12864099442958832	-0.06459499895572662	0.057266999036073685	-0.03226599842309952	-0.13137699663639069	0.08084700256586075	-0.08566900342702866	-0.013929000124335289	-0.043738000094890594	0.03763100132346153	0.03210499882698059	0.015915999189019203	0.06086700037121773	-0.005491999909281731	0.0501910001039505	-0.10174699872732162	-0.06858199834823608	-0.06588699668645859	0.0032949999440461397	0.04981200024485588	-0.027993999421596527	0.012164999730885029	-0.07271900027990341	-0.016587000340223312	-0.09681200236082077	-0.04862099885940552	0.024163000285625458	0.11595100164413452	-0.012544999830424786	0.0017549999756738544	0.046438999474048615	-0.055119000375270844	-0.04428499937057495	0.02034899964928627	0.03735699877142906	0.09857100248336792	0.11507999897003174	0.10978899896144867	0.03384700044989586	0.09814000129699707	-0.05471999943256378	0.11381000280380249	-0.011850999668240547	-0.003220000071451068	0.0464170016348362	0.08132799714803696	-0.047947000712156296	0.006761999800801277	-0.07062400132417679	0.006393000017851591	0.05157700181007385	-0.12590700387954712	-0.08191800117492676	-0.08638499677181244	-0.03599099814891815	-0.05443200096487999	0.0904180034995079	0.04795299842953682	-0.013465000316500664	0.001383999944664538	-0.08197300136089325	-0.07689599692821503	-0.026986999437212944	-0.03436800092458725	-0.0013650000328198075	0.10767100006341934	0.01902800053358078	0.00018000000272877514	-0.01575399935245514	-0.06400199979543686	0.10523899644613266	-0.04786299914121628	-0.030097000300884247	0.06726499646902084	-0.07853599637746811	-0.012469000183045864	-0.057868000119924545	
musicista	0.061861999332904816	0.055867999792099	-0.10001099854707718	0.19084300100803375	-0.03144700080156326	-0.10314600169658661	-0.020409999415278435	-0.103534996509552	0.10807400196790695	0.15345899760723114	0.10575000196695328	0.010060000233352184	0.06791599839925766	-0.0882050022482872	0.08473099768161774	-0.049904998391866684	-0.007147999946027994	0.02967499941587448	-0.014347000047564507	-0.0797870010137558	-0.10885000228881836	0.1197580024600029	-0.0315219983458519	0.027041999623179436	0.0019990000873804092	-0.00317499996162951	0.0382860004901886	-0.15133599936962128	-0.11684600263834	0.058382000774145126	0.1581690013408661	-0.009173999540507793	-0.10311400145292282	0.05234900116920471	-0.19248799979686737	-0.18274100124835968	0.040973000228405	-0.04741000011563301	-0.1544570028781891	0.08177500218153	-0.04068100079894066	0.06358999758958817	-0.0915210023522377	-0.043327998369932175	0.07107599824666977	-0.046215999871492386	0.09482800215482712	-0.021949000656604767	-0.04733400046825409	-0.030006999149918556	0.013284999877214432	0.06929100304841995	0.12516500055789948	0.0033839999232441187	-0.055716998875141144	0.01185499969869852	-0.11340399831533432	-0.14386500418186188	0.18190200626850128	-0.012931999750435352	0.012413999997079372	0.01358100026845932	0.05322499945759773	-0.05348699912428856	0.07547999918460846	-0.023628000169992447	0.1377680003643036	0.15676400065422058	0.008716000244021416	0.0009539999882690609	-0.042135998606681824	0.1834930032491684	0.009549999609589577	-0.05763300135731697	0.0565669983625412	-0.07920999825000763	-0.12529100477695465	0.10647699981927872	-0.11889000236988068	0.07319899648427963	0.08658000081777573	-0.018841000273823738	-0.133432999253273	-0.029895000159740448	-0.09741999953985214	0.04667700082063675	0.1023859977722168	-0.11049699783325195	-0.08094599843025208	-0.0558600015938282	-0.05644800141453743	-0.1502320021390915	0.07185400277376175	-0.22714699804782867	0.019998999312520027	0.14101800322532654	0.03579000011086464	-0.0834989994764328	0.04808900132775307	0.1108269989490509	
Freddie Mercury	0.07464700192213058	-0.06861700117588043	-0.06746599823236465	-0.0164170004427433	-0.06606899946928024	-0.11848899722099304	0.018554000183939934	0.013810000382363796	0.03983199968934059	0.07459700107574463	-0.0340920016169548	-0.0789870023727417	0.08323100209236145	-0.04373199865221977	-0.08649999648332596	-0.09788999706506729	-0.014898999594151974	-0.015003999695181847	0.1165350005030632	-0.10275699943304062	0.0003110000106971711	0.03676699846982956	0.07373300194740295	0.07739199697971344	-0.02371099963784218	-0.018156999722123146	-0.06453300267457962	-0.08420900255441666	-0.009158000349998474	-0.05843900144100189	0.03680200129747391	0.034056998789310455	0.03465599939227104	-0.0437219999730587	0.024150999262928963	0.03376200050115585	-0.04204000160098076	0.021034000441432	-0.09459300339221954	-0.08378800004720688	-0.09126900136470795	-0.05543699860572815	0.09805600345134735	-0.024782000109553337	0.017388999462127686	0.050978001207113266	-0.06988699734210968	-0.030838999897241592	-0.08077400177717209	-0.002930999966338277	0.04009300097823143	-0.09940499812364578	-0.018518000841140747	-0.04163600131869316	-0.05148199945688248	-0.08178199827671051	0.043278999626636505	0.007282999809831381	0.04768500104546547	0.013123000040650368	0.034015998244285583	-0.030733000487089157	0.0676330029964447	-0.08394300192594528	0.1207749992609024	-0.06404899805784225	0.0613659992814064	0.013181000016629696	0.059174999594688416	-0.03304599970579147	-0.05488299950957298	0.04119500145316124	-0.09986799955368042	0.08948200196027756	-0.029982000589370728	-0.10460799932479858	-0.0200009997934103	0.0026149998884648085	-0.01397200021892786	0.09304899722337723	0.043747998774051666	-0.06988299638032913	0.004488000180572271	-0.12027700245380402	-0.040839001536369324	0.06266000121831894	-0.011238999664783478	0.08391200006008148	0.024574000388383865	0.1210779994726181	0.06636600196361542	0.007325000129640102	0.020316999405622482	0.03292499855160713	-0.06395400315523148	0.0007110000005923212	0.012613999657332897	-0.023445000872015953	-0.035190001130104065	0.021307000890374184	
Bob Dylan	0.00820900034159422	-0.0814180001616478	-0.024028999730944633	-0.051197998225688934	-0.04670099914073944	-0.09778700023889542	-0.014151000417768955	-0.055667001754045486	0.027950000017881393	0.09409300237894058	0.05707300081849098	-0.07517699897289276	0.10162100195884705	-0.04976699873805046	-0.08484599739313126	-0.03157699853181839	0.033197999000549316	0.06827899813652039	0.07888200134038925	-0.08616200089454651	-0.027372000738978386	-0.007621999830007553	0.05696899816393852	0.09381700307130814	0.05372200161218643	0.007472999859601259	-0.05793999880552292	-0.10987599939107895	-0.014770000241696835	-0.0768050029873848	0.05010300129652023	0.002933999989181757	-0.000859999970998615	0.00291600008495152	0.012125999666750431	-0.050659000873565674	-0.07147900015115738	0.04203300178050995	-0.1250550001859665	-0.056134000420570374	-0.0510529987514019	-0.05946199968457222	0.056345000863075256	-0.013364000245928764	0.006785000208765268	-0.0012489999644458294	-0.08716899901628494	-0.03165299817919731	-0.10757499933242798	-0.01773899979889393	0.040911998599767685	-0.11053399741649628	0.044769998639822006	-0.004222000017762184	-0.04577900096774101	-0.044732000678777695	0.05683499947190285	-0.029455000534653664	0.08842899650335312	0.09341099858283997	0.08355399966239929	0.01597299985587597	0.04540399834513664	-0.08144400268793106	0.10093799978494644	-0.09677699953317642	0.059397000819444656	0.049600999802351	0.022471999749541283	-0.0787149965763092	-0.0032099999953061342	-0.014883000403642654	-0.03791699931025505	0.048569999635219574	-0.08139500021934509	-0.09077399969100952	-0.04818499833345413	0.018989000469446182	-0.08480499684810638	0.10750100016593933	0.11448899656534195	-0.020176999270915985	0.06772500276565552	-0.12234199792146683	-0.05490799993276596	0.03885800018906593	0.0034570000134408474	0.040143001824617386	0.02122100070118904	0.11547400057315826	0.06166699901223183	0.04023300111293793	-0.009514999575912952	0.08424799889326096	-0.04195500165224075	0.05923600122332573	0.07582499831914902	-0.08434800058603287	-0.04263100028038025	0.052786000072956085	
Madonna	0.008625000715255737	-0.029286999255418777	-0.02991649881005287	0.003060000017285347	-0.03191699832677841	-0.03509700298309326	-0.03643849864602089	-0.030375000089406967	-0.03486350178718567	0.029267501085996628	0.039433497935533524	-0.06781549751758575	0.042798999696969986	-0.03110549971461296	-0.06023550033569336	-0.036182500422000885	0.020557500422000885	-0.011454500257968903	0.054659999907016754	-0.04057750105857849	-0.017839999869465828	-0.03203849866986275	0.03858000040054321	0.03987950086593628	0.049529001116752625	0.005260499194264412	0.016503499820828438	-0.05966600030660629	-0.024791499599814415	-0.06391549855470657	0.027074001729488373	0.005270000081509352	-0.014285000041127205	0.006442999467253685	0.006603000685572624	-0.04108499735593796	-0.03959549963474274	0.026428500190377235	-0.045879002660512924	-0.05356049910187721	-0.03607049956917763	-0.01881049945950508	0.023393500596284866	0.03724899888038635	0.023835498839616776	0.039669498801231384	-0.03492949903011322	0.03693149983882904	-0.042048998177051544	-0.005591998808085918	-0.013062499463558197	-0.04263950139284134	-0.022517500445246696	0.006076999939978123	0.01222699973732233	-0.031021500006318092	0.05531499907374382	-0.010591999627649784	0.03985850140452385	0.03399449959397316	0.02860499918460846	0.01119150035083294	0.011565499007701874	-0.0019999993965029716	0.04665450006723404	-0.014897001907229424	0.02328299917280674	0.023987000808119774	0.01684749871492386	-0.07877099514007568	0.02105950005352497	-0.008729500696063042	-0.043310001492500305	0.05569499731063843	-0.011654000729322433	-0.04879499971866608	-0.04294100031256676	0.018881499767303467	-0.047860000282526016	0.03222750127315521	0.06459499895572662	0.03544199839234352	0.06477899849414825	-0.053929999470710754	-0.01759050041437149	0.0208515003323555	-0.03404400125145912	-0.017923999577760696	0.04705600067973137	0.04867300018668175	0.010154500603675842	-0.03195600211620331	-0.007341500371694565	0.024927999824285507	-0.05107250064611435	-0.02795949950814247	0.01422949880361557	-0.051197998225688934	0.0019514989107847214	0.07216349989175797	
Wolfgang Amadeus Mozart	0.07467100024223328	-0.06483200192451477	-0.06364499777555466	0.04675399884581566	-0.045069001615047455	-0.09409499913454056	-0.0475430004298687	0.036017999053001404	-0.014798000454902649	0.054520998150110245	0.052618999034166336	-0.03062400035560131	0.02389499917626381	-0.048110999166965485	0.008748999796807766	-0.09841399639844894	-0.08615899831056595	-0.016742000356316566	0.06307200342416763	-0.0690929964184761	0.004375999793410301	-0.004679999779909849	0.06991499662399292	0.09027399867773056	0.02762399986386299	0.06139500066637993	-0.07568500190973282	-0.11475499719381332	-0.013786000199615955	-0.049010999500751495	0.013209999538958073	-0.04429500177502632	0.025836000218987465	-0.03587700054049492	0.03838000074028969	0.0969569981098175	0.03634599968791008	-0.04944799840450287	-0.10465099662542343	-0.08640500158071518	-0.04913200065493584	-0.07698799669742584	0.07667600363492966	0.0060339998453855515	0.0629270002245903	-0.067610003054142	-0.044516000896692276	-0.06997799873352051	-0.06122399866580963	0.03901800140738487	0.04360700026154518	-0.08877500146627426	-0.023089999333024025	-0.057399000972509384	-0.049692001193761826	-0.11548800021409988	-0.014185000211000443	0.07795400172472	0.05140800029039383	0.09664099663496017	0.11453399807214737	0.020186999812722206	0.05521000176668167	-0.02436799928545952	0.11439400166273117	-0.025950999930500984	-0.0015620000194758177	0.07431700080633163	0.05117800086736679	-0.03539799898862839	-0.02881699986755848	-0.07687900215387344	-0.09728500247001648	0.03203300014138222	-0.040741000324487686	-0.08978500217199326	-0.004404000006616116	-0.00923100020736456	-0.06068100035190582	0.08747600018978119	0.07225099951028824	0.0042420001700520515	0.027468999847769737	-0.0805319994688034	-0.15520699322223663	0.04623600095510483	0.08538799732923508	0.06990499794483185	0.03392200171947479	0.08895599842071533	0.00939400028437376	0.053530000150203705	0.011176000349223614	0.03931000083684921	-0.022245999425649643	-0.001955999992787838	0.06665000319480896	-0.06812100112438202	-0.087226003408432	-0.018681000918149948	
attore	0.08346399664878845	0.19323399662971497	-9.300000237999484e-05	0.07686199992895126	-0.1470309942960739	-0.1263670027256012	-0.04941999912261963	-0.022238999605178833	0.23168900609016418	0.13449400663375854	0.13472199440002441	-0.01270500011742115	-0.1070059984922409	-0.18325699865818024	0.02123199962079525	-0.04404599964618683	0.042180001735687256	-0.12714099884033203	-0.03386100009083748	-0.06517399847507477	-0.20062099397182465	-0.03696500137448311	-0.05797500163316727	-0.0288309995085001	0.0651789978146553	0.05145600065588951	0.09418699890375137	-0.08615200221538544	-0.10971599817276001	-0.006612000055611134	-0.014271000400185585	-0.00583800021559	-0.11823800206184387	0.10443399846553802	-0.09085500240325928	-0.19707800447940826	0.10740000009536743	0.0117790000513196	-0.11945299804210663	0.017527999356389046	-0.021195000037550926	0.08795899897813797	-0.05433199927210808	-0.16773100197315216	-0.10286000370979309	-0.06517600268125534	0.06038999930024147	-0.07592300325632095	-0.018730999901890755	-0.10226999968290329	-0.09002400189638138	0.14097100496292114	0.12717799842357635	-0.0033499998971819878	-0.006397000048309565	0.15265099704265594	-0.20957499742507935	-0.04647200182080269	0.17604300379753113	-0.03254200145602226	-0.039434999227523804	-0.027098000049591064	-0.12898600101470947	0.021239999681711197	0.04662400111556053	-0.03755899891257286	0.02401600033044815	0.05820000171661377	-0.027746999636292458	0.01030999980866909	0.06764400005340576	0.0024079999420791864	0.04060300067067146	-0.03315399959683418	-0.046484000980854034	-0.07066600024700165	-0.21273499727249146	0.11349199712276459	0.0520239993929863	0.02594899944961071	-0.11170700192451477	0.16597500443458557	-0.06671299785375595	-0.03947899863123894	-0.21653999388217926	-0.007393999956548214	-0.022783000022172928	-0.19029200077056885	-0.05219399929046631	-0.051569998264312744	-0.02529899962246418	-0.107123002409935	0.0842130035161972	-0.21155700087547302	0.032600000500679016	-0.05657099932432175	-0.11200299859046936	-0.06955400109291077	0.15590299665927887	-0.010231000371277332	
Quentin Tarantino	-0.01573600061237812	-0.01604199968278408	0.05211099982261658	-0.007904999889433384	-0.0761210024356842	-0.11599499732255936	-0.02116999961435795	-0.014682999812066555	-0.048615001142024994	0.0984330028295517	-0.02794799953699112	-0.04659799858927727	0.09273499995470047	0.00507699977606535	-0.05939900130033493	-0.04308300092816353	0.015797000378370285	0.009631999768316746	0.10721100121736526	-0.06335700303316116	-0.04043300077319145	0.0005760000203736126	0.08595199882984161	0.1216059997677803	0.08460400253534317	-0.0056859999895095825	-0.03842899948358536	-0.14018799364566803	-0.0695749968290329	-0.03670800104737282	-0.026266999542713165	-0.0476749986410141	-0.043692998588085175	0.02000799961388111	0.025613000616431236	0.04835699871182442	0.025296000763773918	0.015248999930918217	-0.01714799925684929	-0.03817500174045563	-0.07293099910020828	-0.04947099834680557	0.07499600201845169	0.0072650001384317875	-0.022520000115036964	0.03003299981355667	-0.0787310004234314	-0.02199600078165531	-0.06918100267648697	0.02370399981737137	0.008741999976336956	-0.07056300342082977	0.02173200063407421	0.07763899862766266	0.011216999962925911	-0.10115700215101242	0.05695100128650665	0.057927001267671585	0.07102099806070328	0.08122500032186508	0.09134499728679657	0.016604000702500343	0.044794000685214996	-0.07148800045251846	0.08701100200414658	0.04742500185966492	0.04597499966621399	-0.042475998401641846	0.05881499871611595	-0.019990000873804092	0.042732998728752136	-0.013402000069618225	-0.07178500294685364	0.0581509992480278	-0.09043700248003006	-0.04729799926280975	-0.0419050008058548	-0.03453399986028671	-0.06270600110292435	0.10749100148677826	0.003172999946400523	0.0026779999025166035	0.01205699983984232	-0.1077129989862442	-0.07274699956178665	-0.030695000663399696	0.001462999964132905	0.012779000215232372	0.021649999544024467	0.056804999709129333	0.07261700183153152	0.07153499871492386	0.010936000384390354	-0.019936999306082726	0.043758999556303024	0.016419000923633575	0.10069400072097778	-0.0688140019774437	-0.07063700258731842	0.06846799701452255	
Scarlett Johansson	0.00521499989554286	-0.005369000136852264	-0.0015800000401213765	-0.01634800061583519	-0.0686120018362999	-0.10287699848413467	-0.07430599629878998	0.0014459999511018395	0.02321700006723404	0.12279099971055984	-0.03554699942469597	-0.026319999247789383	0.10214199870824814	-0.015308000147342682	-0.05209000036120415	-0.06851000338792801	0.0074430000968277454	0.025697000324726105	0.10927300155162811	-0.03716399893164635	-0.03930399939417839	-0.04316899925470352	0.02878900058567524	0.11964300274848938	0.01167600043118	0.08753500133752823	-0.007255000062286854	-0.11913499981164932	-0.01846499927341938	-0.10066000372171402	0.02676199935376644	0.03988900035619736	-0.05269800126552582	-0.06072799861431122	-0.026135999709367752	-0.08083900064229965	-0.04023699834942818	0.04391099885106087	-0.07022500038146973	-0.08479399979114532	-0.10257399827241898	-0.08820699900388718	0.029788000509142876	-0.007569999899715185	-0.0007650000043213367	0.00013800000306218863	-0.029469000175595284	0.008627999573946	-0.08593200147151947	-0.05113000050187111	-0.07657500356435776	-0.12274400144815445	0.01719599962234497	-0.024073999375104904	0.01572900079190731	-0.014657000079751015	0.029678000137209892	0.07802899926900864	0.062449000775814056	0.07194100320339203	0.0010260000126436353	0.02145100012421608	0.01362599991261959	-0.010471999645233154	0.07621899992227554	-0.04422599822282791	0.01075000036507845	-0.029095999896526337	0.024397000670433044	0.039292000234127045	-0.0010999999940395355	-0.003025999991223216	-0.10754100233316422	0.032770998775959015	-0.05368899926543236	-0.06384900212287903	-0.03910500183701515	0.05781500041484833	-0.023865999653935432	0.09217099845409393	-0.008357999846339226	0.035287998616695404	0.05796600133180618	-0.13442200422286987	-0.0863099992275238	-0.007356999907642603	-0.013369999825954437	-0.03916899859905243	0.059153001755476	0.09516199678182602	0.11250399798154831	0.05528600141406059	0.04130300134420395	-0.03655900061130524	0.000661000027321279	-0.023211000487208366	0.09924700111150742	-0.05557800084352493	-0.01432000007480383	0.05531400069594383	
Marylin Monroe	0.05841900035738945	0.014074999839067459	0.0014179999707266688	-0.02662000060081482	-0.09814099967479706	-0.10155999660491943	-0.06125500053167343	-0.03315199911594391	-0.008956000208854675	0.11901699751615524	0.019206000491976738	-0.06069900095462799	0.058051999658346176	-0.09041000157594681	-0.08363000303506851	-0.061831001192331314	-0.014147999696433544	-0.038906000554561615	0.1118210032582283	-0.028718000277876854	-0.034154001623392105	-0.03635900095105171	0.06269299983978271	0.11381600052118301	0.01876799948513508	0.0447239987552166	0.07487600296735764	-0.11924999952316284	-0.02065799944102764	-0.1025250032544136	0.03186799958348274	-0.04299800097942352	0.060791999101638794	0.032072000205516815	0.04663899913430214	-0.030084000900387764	-0.03351600095629692	0.10312999784946442	-0.08763699978590012	-0.04607899859547615	-0.10140000283718109	-0.061489999294281006	0.06678599864244461	-0.020160000771284103	0.029218999668955803	-0.0370279997587204	-0.07836800068616867	-0.0663670003414154	-0.10012699663639069	-0.02810399979352951	0.013098999857902527	-0.05225599929690361	-0.020003000274300575	-0.010014000348746777	0.0405610017478466	0.03470899909734726	-0.03792199864983559	0.07214000076055527	0.10715900361537933	0.10639800131320953	0.06758899986743927	0.06334999948740005	0.0499190017580986	-0.08432800322771072	0.058031998574733734	-0.07510600239038467	0.023250000551342964	0.04801199957728386	0.025491999462246895	-0.021258000284433365	0.02406499907374382	-0.0697610005736351	-0.04630500078201294	0.06921499967575073	-0.08293599635362625	-0.08180200308561325	-0.06773199886083603	-0.001420999993570149	-0.021438000723719597	0.08712700009346008	-0.029492000117897987	0.07447899878025055	0.07041899859905243	-0.11079899966716766	-0.09524500370025635	-0.03065500035881996	-0.04928100109100342	-0.05544399842619896	0.07844199985265732	0.09066499769687653	0.09023900330066681	0.00013099999341648072	0.04260199889540672	0.05457000061869621	-0.017427999526262283	-0.0261049997061491	0.06681700050830841	-0.08225999772548676	0.02646699920296669	0.06665399670600891	
Woody Allen	-0.020829999819397926	-0.013361000455915928	0.04015899822115898	0.047791000455617905	-0.05720499902963638	-0.11347699910402298	-0.08133599907159805	-0.00671500014141202	-0.06275299936532974	0.10199800133705139	-0.04414699971675873	-0.043331000953912735	0.04083999991416931	-0.03550399839878082	-0.053164999932050705	-0.09966100007295609	-0.014058000408113003	0.02455100044608116	0.0799660012125969	-0.07299699634313583	-0.021219000220298767	-0.05534999817609787	0.058993998914957047	0.12474799901247025	0.09622900187969208	0.06268399953842163	-0.05841999873518944	-0.1404239982366562	-0.016488999128341675	-0.07460000365972519	-0.035287000238895416	-0.0644339993596077	-0.03147200122475624	0.015344000421464443	0.004435000009834766	-0.04076100140810013	-0.06164100021123886	0.06694500148296356	-0.044360000640153885	-0.07412000000476837	-0.0915130004286766	-0.011024000123143196	0.024997999891638756	0.03238600119948387	0.011044000275433064	-0.006548999808728695	-0.0785209983587265	0.005805000197142363	-0.07253199815750122	-0.004286999814212322	0.06302099674940109	-0.06179700046777725	-0.0025740000419318676	-6.600000051548705e-05	0.031619999557733536	-0.07731200009584427	0.03642300143837929	0.042851999402046204	0.06350100040435791	0.10703399777412415	0.09227000176906586	0.08957699686288834	0.045184001326560974	-0.04786999896168709	0.10915999859571457	-0.0009130000253207982	0.026864999905228615	-0.045228999108076096	0.013154000043869019	0.014188000001013279	-0.012035000137984753	-0.009455000050365925	-0.0942310020327568	0.0573510006070137	-0.07834000140428543	-0.08058200031518936	-0.06362400203943253	-0.0014140000566840172	-0.02961999922990799	0.060809001326560974	0.0018820000113919377	0.0727040022611618	0.0444209985435009	-0.08258000016212463	-0.005011000204831362	-0.049254000186920166	-0.04337500035762787	0.0389150008559227	0.07862299680709839	0.0793910026550293	0.05435999855399132	0.06407400220632553	-0.01145199965685606	-0.020410999655723572	-0.06045199930667877	0.028589999303221703	0.050383999943733215	-0.09959299862384796	-0.07336200028657913	0.0757490023970604	
stato	-0.07522200047969818	-0.07958800345659256	0.17562100291252136	0.03338199853897095	0.023719999939203262	-0.015298999845981598	-0.09224200248718262	0.06945700198411942	0.08976799994707108	-0.04965699836611748	0.09505300223827362	0.11966600269079208	0.14507600665092468	-0.0009740000241436064	0.09031900018453598	-0.10198099911212921	-0.08184900134801865	-0.024741999804973602	-0.05217299982905388	0.07563500106334686	-0.0632459968328476	-0.0395440012216568	0.016933999955654144	0.09328900277614594	-0.035061001777648926	0.027313999831676483	0.018834000453352928	-0.059046998620033264	0.15122899413108826	-0.08630599826574326	-0.086558997631073	-0.08778700232505798	0.19055700302124023	0.15155400335788727	-0.031001999974250793	-0.011586000211536884	0.05601099878549576	-0.00662099989131093	-0.1635410040616989	-0.043637000024318695	-0.0029780000913888216	0.17898599803447723	-0.10774099826812744	-0.0403750017285347	0.09846500307321548	-0.16357100009918213	0.20378999412059784	-0.034651998430490494	0.03170400112867355	-0.08856000006198883	0.05443999916315079	0.11365000158548355	0.063571996986866	0.10013200342655182	0.023082999512553215	-0.14185400307178497	-0.14583399891853333	0.017696000635623932	0.06581699848175049	0.053954001516103745	-0.008369999937713146	0.061044998466968536	0.17719300091266632	0.060492001473903656	0.09218200296163559	0.0639289990067482	0.11805299669504166	0.08384600281715393	0.07767599821090698	-0.0758180022239685	0.13170099258422852	0.11784999817609787	0.11175700277090073	0.05465399846434593	0.07915300130844116	-0.09408800303936005	-0.20993399620056152	0.08902300149202347	-0.1401659995317459	-0.020173000171780586	0.12395799905061722	-0.0667169988155365	0.09365300089120865	0.061507001519203186	-0.30996599793434143	0.12769299745559692	-0.0674239993095398	-0.13807499408721924	-0.06184599921107292	-0.10564299672842026	0.008932000026106834	-0.09917899966239929	-0.09192000329494476	0.143995001912117	0.11724700033664703	-0.0720750018954277	0.035349998623132706	0.09137599915266037	0.10650099813938141	0.0033420000690966845	
Spagna	-0.09266100078821182	-0.03623099997639656	0.02430799975991249	-0.02026199921965599	0.10890299826860428	-0.08801999688148499	-0.11719000339508057	0.06235000118613243	0.11209999769926071	-0.07902400195598602	0.1655540019273758	0.11545900255441666	0.07349400222301483	0.1134599968791008	0.08418799936771393	-0.13684800267219543	0.010312999598681927	-0.06713400036096573	-0.04578600078821182	0.023615999147295952	-0.17063599824905396	-0.14077399671077728	-0.005276999901980162	-0.07850000262260437	-0.06786300241947174	-0.028057999908924103	0.15127000212669373	-0.13484099507331848	0.08719000220298767	0.0731939971446991	-0.12996900081634521	-0.007608999963849783	-0.014063999988138676	0.05931000038981438	0.0681840032339096	0.0395519994199276	0.11313299834728241	-0.005772999953478575	-0.11703400313854218	0.011039000004529953	-0.020312000066041946	0.08992700278759003	-0.14729200303554535	0.08032400161027908	-0.020735999569296837	-0.04251300171017647	0.11400499939918518	0.09698700159788132	0.04862000048160553	-0.027109000831842422	-0.03790700063109398	0.06308700144290924	0.2364410012960434	0.14640699326992035	0.05443299934267998	-0.2448520064353943	-0.005994999781250954	0.13599500060081482	0.009026999585330486	0.14111800491809845	0.07403600215911865	0.017545999959111214	0.11030299961566925	0.002148000057786703	0.2210489958524704	0.1954050064086914	0.049334000796079636	0.012548999860882759	-0.040428999811410904	0.019137000665068626	0.011121000163257122	0.20673799514770508	0.14943400025367737	0.09119199961423874	0.035401999950408936	0.047651998698711395	-0.013651000335812569	-0.04868299886584282	-0.010587000288069248	-0.06893099844455719	0.047474998980760574	0.009769000113010406	0.05833899974822998	0.051865000277757645	-0.16352899372577667	0.1772110015153885	-0.08465699851512909	-0.04719400033354759	-0.04373599961400032	0.013860000297427177	-0.08361600339412689	-0.1079540029168129	-0.061156999319791794	0.20628699660301208	0.13555899262428284	-0.06911300122737885	0.10630500316619873	0.01863499917089939	0.029510999098420143	0.09828600287437439	
Israele	-0.02162100002169609	-0.07206200063228607	0.05213899910449982	0.11784400045871735	-0.006632000207901001	0.022258000448346138	-0.1384660005569458	-0.006000999826937914	0.1486169993877411	-0.06993799656629562	0.12257400155067444	0.031024999916553497	0.12610800564289093	0.03034600056707859	0.00571299996227026	-0.04710200056433678	-0.024762999266386032	0.032485999166965485	0.09191799908876419	0.039379000663757324	-0.03509699925780296	-0.050627999007701874	-0.10464700311422348	0.06464199721813202	0.03542400151491165	-0.08236800134181976	0.18760499358177185	0.04235199838876724	0.24902699887752533	-0.08841300010681152	-0.16195400059223175	0.030706999823451042	-0.09123100340366364	0.13403600454330444	0.05319700017571449	0.06284800171852112	0.1158289983868599	-0.03919199854135513	-0.054262999445199966	-0.03867499902844429	-0.08000600337982178	0.030299000442028046	-0.01294699963182211	0.16477900743484497	0.0024610001128166914	-0.1559869945049286	0.11189500242471695	-0.06789799779653549	-0.00419900007545948	-0.02390100061893463	-0.0565360002219677	0.09488800168037415	0.15860000252723694	0.17787399888038635	0.1386139988899231	-0.12423399835824966	-0.04348300024867058	0.08975300192832947	-0.055535998195409775	0.13413000106811523	0.16173799335956573	-0.009897000156342983	-0.03489699959754944	0.1308470070362091	0.239096999168396	0.0818210020661354	0.1443440020084381	0.01097899954766035	-0.043928999453783035	-0.17700700461864471	0.07175400108098984	0.09829100221395493	0.16813600063323975	0.0871329978108406	0.0932610034942627	-0.07893499732017517	-0.10254000127315521	0.014604000374674797	-0.07799600064754486	-0.1259250044822693	0.03223999962210655	-0.0853549987077713	0.12427700310945511	0.12347400188446045	-0.21172499656677246	0.002070999937132001	-0.029177000746130943	0.06719200313091278	-0.017436999827623367	0.07561600208282471	-0.043919000774621964	-0.05959000065922737	0.06281399726867676	0.09967400133609772	-0.022979000583291054	-0.15970200300216675	-0.026440000161528587	0.08978000283241272	0.05499500036239624	0.049320001155138016	
Germania	-0.04120099917054176	-0.1593260020017624	-0.06793499737977982	-0.01999799907207489	-0.09087099879980087	-0.08084999769926071	-0.1295730024576187	0.13373500108718872	0.10782299935817719	-0.2027599960565567	0.11860000342130661	0.009727000258862972	0.07513699680566788	0.07780999690294266	0.12077999860048294	-0.014151999726891518	-0.08453500270843506	-0.11712300032377243	0.07195799797773361	-0.06031699851155281	-0.018024999648332596	-0.06927599757909775	-0.05264899879693985	0.023887999355793	0.003369000041857362	0.01724899932742119	0.12088900059461594	0.0032649999484419823	0.07401099801063538	-0.06694400310516357	-0.1521099954843521	-0.04943900182843208	-0.014310000464320183	0.04773499816656113	0.04128300026059151	0.038832999765872955	0.10311099886894226	-0.10038100183010101	-0.10824800282716751	-0.16181200742721558	0.001560000004246831	-0.010168000124394894	0.022772999480366707	0.033027999103069305	0.08557099848985672	-0.09400100260972977	0.23699599504470825	0.012400999665260315	0.07937099784612656	0.027576999738812447	0.11852800101041794	0.05384200066328049	0.07799799740314484	0.20614099502563477	0.05957299843430519	-0.18940900266170502	-0.09644000232219696	-0.005779999773949385	0.07877399772405624	0.13906699419021606	0.19708600640296936	-0.11971300095319748	0.05220299959182739	0.05387600138783455	0.24043400585651398	0.1355919986963272	0.09166400134563446	0.09036000072956085	-0.06070699915289879	-0.06491699814796448	0.005553000140935183	0.13030700385570526	0.12434100359678268	-0.11957599967718124	0.09787700325250626	-0.007786000147461891	-0.1995130032300949	0.04772400110960007	-0.0784590020775795	-0.1412689983844757	0.20365099608898163	-0.08240199834108353	0.0228899996727705	0.10333400219678879	-0.06310400366783142	0.051288001239299774	-0.032492998987436295	0.04924299940466881	-0.019669000059366226	0.05391500145196915	-0.04479900002479553	-0.15129999816417694	-0.043467000126838684	0.05471299961209297	0.061521001160144806	-0.19030900299549103	0.13308200240135193	-0.0004079999926034361	-0.05607900023460388	0.007278999779373407	
Regno Unito	-0.10454700142145157	-0.07578500360250473	0.13205300271511078	0.09855200350284576	-0.034240998327732086	-0.010808000341057777	-0.0003020000003743917	0.0668950006365776	0.18034900724887848	-0.11521100252866745	-0.009333999827504158	-1.9999999949504854e-06	0.08564800024032593	-0.012044000439345837	-0.007207000162452459	-0.06561599671840668	0.11609199643135071	0.016933999955654144	0.010437999852001667	0.05473000183701515	-0.15020400285720825	-0.13443799316883087	0.04862599819898605	0.03482599928975105	-0.10882099717855453	0.05861400067806244	0.13228799402713776	0.006008000113070011	0.1735910028219223	-0.09531500190496445	-0.05195700004696846	0.141525000333786	0.06344900280237198	0.14542099833488464	0.07838399708271027	0.03100699931383133	-0.020813999697566032	0.04842500016093254	-0.08807499706745148	-0.08099199831485748	-0.08421500027179718	0.08679500222206116	-0.0005409999866969883	0.05292600020766258	0.11261600255966187	-0.15648199617862701	0.2478400021791458	0.06689400225877762	0.04116399958729744	-0.13255199790000916	0.13106800615787506	-0.001243000035174191	0.19369900226593018	0.05736200138926506	0.009003999643027782	-0.19505000114440918	-0.15084600448608398	-0.043786000460386276	-0.01712699979543686	0.07014200091362	0.08833900094032288	-0.08409400284290314	0.1270270049571991	0.04517599940299988	0.2387170046567917	0.187049999833107	-0.03456199914216995	0.13166899979114532	0.039347000420093536	-0.07336100190877914	0.10209599882364273	0.24046500027179718	0.06594599783420563	-0.04814799875020981	-0.06823699921369553	-0.05843999981880188	-0.10054700076580048	-0.021184999495744705	-0.02171199955046177	-0.14632199704647064	0.21112799644470215	-0.15212400257587433	0.06978099793195724	0.06426499783992767	-0.10497099906206131	-0.006587999872863293	-0.04483700171113014	0.05485500022768974	0.08843699842691422	0.05585699900984764	-0.15126900374889374	-0.06701499968767166	0.02332499995827675	0.0737370029091835	-0.06962399929761887	-0.02529899962246418	-0.047582000494003296	0.01196100004017353	0.04438899829983711	0.014436000026762486	
citt	-0.07656600326299667	-0.02565000019967556	0.1839199960231781	-0.09258899837732315	0.11317399889230728	-0.056063998490571976	-0.08277799934148788	0.1057019978761673	-0.0306209996342659	0.12941700220108032	0.06111599877476692	0.03285700082778931	-0.026688000187277794	-0.12737199664115906	0.13973399996757507	-0.004594999831169844	0.027654999867081642	0.06446799635887146	0.024972999468445778	-0.09111899882555008	-0.0031109999399632215	-0.02392599917948246	-0.06558199971914291	0.16701799631118774	0.14134399592876434	-0.11446099728345871	-0.022254999727010727	-0.05192499980330467	0.14606299996376038	-0.11491700261831284	-0.096949003636837	0.043462999165058136	0.0772790014743805	0.12195900082588196	-0.06402400135993958	0.03678499907255173	0.04713999852538109	0.05658100172877312	-0.11169999837875366	-0.01950100064277649	0.09902700036764145	0.1313219964504242	-0.09995900094509125	-0.04365900158882141	0.1188649982213974	-0.06075200065970421	0.20366400480270386	-0.06639000028371811	-0.0032760000322014093	-0.003645000047981739	0.1180030032992363	0.1353529989719391	0.2229429930448532	-0.0021669999696314335	0.04978099837899208	-0.17756399512290955	-0.10614900290966034	0.03729400038719177	-0.06673700362443924	0.033782001584768295	-0.14425399899482727	0.16090799868106842	-0.027670999988913536	0.040011998265981674	0.0831340029835701	-0.08988100290298462	0.11239100247621536	0.09300299733877182	0.04339199885725975	0.0911950021982193	0.13626499474048615	0.11524499952793121	-0.07886999845504761	0.09826099872589111	0.051288001239299774	-0.05207499861717224	-0.1607780009508133	0.12226799875497818	-0.1289609968662262	-0.011394999921321869	0.044606998562812805	-0.032214000821113586	-0.04075999930500984	0.02843499928712845	-0.2539379894733429	0.09424799680709839	-0.07176300138235092	-0.17108400166034698	-0.07198800146579742	-0.17851300537586212	-0.07139399647712708	-0.11685699969530106	-0.10278700292110443	0.12394300103187561	-0.05522900074720383	0.005152000114321709	0.04382900148630142	0.1437470018863678	0.14448300004005432	-0.014419999904930592	
Roma	-0.09312599897384644	0.05631199851632118	0.033295001834630966	-0.0015170000260695815	0.0654740035533905	-0.04207799956202507	-0.11943800002336502	0.03752800077199936	0.11484900116920471	-0.025415999814867973	0.1493390053510666	0.11919400095939636	0.04785099998116493	0.03107300028204918	0.029147999361157417	-0.029519999399781227	-0.039726998656988144	-0.10729199647903442	0.08637300133705139	-0.023082999512553215	-0.06229700148105621	-0.12395499646663666	-0.06243399903178215	0.044829998165369034	-0.13142499327659607	-0.03222399950027466	0.06274499744176865	-0.04098699986934662	0.23533399403095245	-0.03262000158429146	-0.1679230034351349	0.02828799933195114	-0.08630900084972382	0.01527899969369173	0.015434999950230122	0.09726499766111374	-0.0003530000103637576	-0.07957600057125092	-0.05136600136756897	-0.009507999755442142	0.06164899840950966	0.10147199779748917	-0.10076499730348587	0.06999599933624268	-0.010692000389099121	-0.08132699877023697	0.22110100090503693	0.033562999218702316	0.04328799992799759	0.0476440005004406	0.11656799912452698	0.055378999561071396	0.16991600394248962	0.0761450007557869	0.0677189975976944	-0.043324001133441925	-0.1555269956588745	0.07923299819231033	-0.04940500110387802	0.1253259927034378	0.09201499819755554	0.14535699784755707	-0.13934600353240967	0.1140580028295517	0.1861419975757599	0.06868000328540802	0.03428199887275696	0.022127000615000725	-0.0731860026717186	-0.016116000711917877	-0.03353099897503853	0.03160800039768219	0.08833000063896179	0.043894000351428986	0.1008870005607605	-0.10361099988222122	-0.04049300029873848	0.06302300095558167	0.05695600062608719	-0.10247699916362762	0.08807499706745148	-0.036657001823186874	-0.04023699834942818	0.06163499876856804	-0.2510319948196411	0.025645999237895012	-0.0009449999779462814	0.021006999537348747	0.027236999943852425	-0.14030300080776215	-0.06968899816274643	-0.08934099972248077	0.05040299892425537	0.08205199986696243	-0.16875100135803223	-0.06325200200080872	0.01222699973732233	-0.02964399941265583	-0.019533000886440277	0.0036639999598264694	
Parigi	-0.04126400128006935	0.002102999947965145	0.10555700212717056	0.05359499901533127	-0.07096099853515625	0.019353000447154045	-0.11431299895048141	0.14028799533843994	0.0037609999999403954	-0.016116999089717865	0.13406099379062653	-0.0007989999721758068	0.0494999997317791	0.08376699686050415	0.10591399669647217	-0.021508000791072845	-0.015212000347673893	0.044780001044273376	-0.035652998834848404	0.03796999901533127	0.023655999451875687	-0.1603419929742813	-0.08955799788236618	0.11360999941825867	-0.07994700223207474	-0.08892499655485153	0.1037210002541542	0.00698699988424778	0.21052399277687073	-0.09725700318813324	-0.19753199815750122	-0.029691999778151512	-0.018859000876545906	0.06153300032019615	-0.012032999657094479	0.09596099704504013	-0.01761999912559986	-0.038364000618457794	-0.04503000155091286	-0.010491999797523022	-0.021276000887155533	0.029440000653266907	-0.09435000270605087	0.018052000552415848	-0.038332000374794006	-0.09337600320577621	0.18465399742126465	0.051166001707315445	-0.012214000336825848	0.04036799818277359	-0.04120299965143204	0.03346100077033043	0.12218300253152847	0.08004599809646606	-0.010329999960958958	-0.19378599524497986	0.007201999891549349	0.0015350000467151403	0.006688999943435192	-0.012505999766290188	0.08924800157546997	0.15608499944210052	-0.06334300339221954	0.05954600125551224	0.25029700994491577	0.10957299917936325	0.0009720000089146197	0.10335599631071091	-0.0558370016515255	-0.04730499908328056	-0.013888999819755554	0.10353399813175201	0.0851759985089302	-0.035819001495838165	-0.003068000078201294	0.05955800041556358	-0.17921799421310425	0.07236000150442123	-0.101951003074646	-0.09038800001144409	-0.008119000121951103	-0.002908000024035573	0.024429000914096832	0.0995820015668869	-0.26056399941444397	0.13971099257469177	-0.017434999346733093	0.033573001623153687	0.07378499954938889	-0.12320800125598907	-0.08261699974536896	-0.015437999740242958	0.06156200170516968	0.09397999942302704	-0.10145000368356705	-0.12193900346755981	-0.011927999556064606	-0.011486000381410122	-0.013993999920785427	0.057548001408576965	
New York	-0.14366699755191803	-0.129039004445076	0.04291300103068352	0.045472998172044754	-0.04736899957060814	-0.006616000086069107	-0.12234000116586685	0.038398999720811844	-0.02277900092303753	-0.14349299669265747	0.07434900104999542	0.03917599841952324	0.05867400020360947	0.06790900230407715	0.054614000022411346	0.003154000034555793	0.05176899954676628	0.09026499837636948	-0.0060339998453855515	-0.013220000080764294	-0.09288100153207779	-0.16884799301624298	-0.05437000095844269	0.12801800668239594	0.02033100090920925	0.045591000467538834	0.10700300335884094	-0.03514799848198891	0.21274399757385254	-0.11941500008106232	-0.16370299458503723	0.005133999977260828	-0.1006999984383583	0.13278700411319733	-0.04382000118494034	-0.059262000024318695	-0.02462100051343441	0.038123998790979385	0.025645000860095024	-0.012234999798238277	-0.09648100286722183	-0.010617000050842762	-0.024577999487519264	0.13583199679851532	0.13258099555969238	-0.08103899657726288	0.16860300302505493	0.07595600187778473	-0.0018500000005587935	-0.022969000041484833	0.11605700105428696	0.09862499684095383	0.16698899865150452	0.07794299721717834	0.1150289997458458	-0.1881050020456314	-0.07191099971532822	0.09129100292921066	0.04579399898648262	0.12701399624347687	0.1097249984741211	0.16877199709415436	-0.08405900001525879	-0.001259000040590763	0.26700299978256226	0.06428500264883041	0.040449000895023346	0.06456899642944336	-0.13275399804115295	-0.0246799997985363	0.028000999242067337	0.1719769984483719	0.14158600568771362	0.02278600074350834	-0.060081999748945236	-0.05857099965214729	-0.15123899281024933	0.16459499299526215	-0.11097600311040878	-0.11434199661016464	0.07897000014781952	0.007096000015735626	0.018484000116586685	0.10278300195932388	-0.22844600677490234	0.009840999729931355	-0.15057100355625153	-0.06600300222635269	0.0706619992852211	-0.06011499837040901	-0.06278599798679352	-0.046105001121759415	0.06744399666786194	0.10006000101566315	0.011057999916374683	-0.1217690035700798	0.13248400390148163	-0.023447999730706215	-0.023802999407052994	0.13052499294281006	
Amsterdam	-0.05849799886345863	-0.07612299919128418	-0.056644000113010406	0.118476003408432	-0.04333899915218353	-0.00923100020736456	0.04127800092101097	0.14430899918079376	0.0018550000386312604	-0.060145001858472824	0.13138499855995178	-0.02298000082373619	0.0770459994673729	0.07221200317144394	-0.008620000444352627	0.016774000599980354	-0.011963999830186367	0.011905999854207039	0.08086299896240234	0.011606000363826752	0.009855999611318111	-0.108474001288414	-0.07472900301218033	0.07022900134325027	-0.06323900073766708	0.03793900087475777	0.06608600169420242	0.018904000520706177	0.04524099826812744	-0.1002580001950264	-0.11366499960422516	0.09756799787282944	0.014667999930679798	0.07181999832391739	0.01449699979275465	0.10508999973535538	0.060453999787569046	0.07188999652862549	-0.06384900212287903	-0.05252800136804581	0.04945699870586395	0.12014099955558777	-0.11822099983692169	0.0878629982471466	-0.011101000010967255	-0.0805170014500618	0.1487639993429184	0.04434899985790253	0.0030060000717639923	0.05926499888300896	0.04946700111031532	0.12889699637889862	0.15927499532699585	0.07758499681949615	0.06731099635362625	-0.17283500730991364	-0.12485700100660324	0.10373099893331528	-0.030585000291466713	0.11271599680185318	0.08258099853992462	0.09360399842262268	-0.021020999178290367	0.05021100118756294	0.15105800330638885	0.14091700315475464	0.10397499799728394	-0.0061039999127388	-0.013425000011920929	-0.0851690024137497	-0.005415999796241522	0.0726810023188591	0.09717799723148346	0.0037040000315755606	0.00164899998344481	0.032979998737573624	-0.033872999250888824	-0.0024999999441206455	-0.0921500027179718	-0.04557200148701668	0.055709999054670334	-0.1402599960565567	-0.06268999725580215	0.06896299868822098	-0.09970699995756149	0.03620599955320358	-0.00024199999461416155	-0.0569010004401207	-0.08236700296401978	-0.1352040022611618	-0.10436099767684937	0.04775099828839302	0.08174599707126617	0.03830299898982048	-0.12248200178146362	-0.12251900136470795	-0.02677600085735321	0.1436389982700348	0.02515600062906742	0.08281300216913223	
corso d'acqua	-0.033160001039505005	-0.00304899993352592	0.062199998646974564	0.0031419999431818724	-0.025116000324487686	-0.09261699765920639	-0.019565999507904053	0.0668879970908165	-0.026662999764084816	0.09621600061655045	0.1184139996767044	0.07051700353622437	0.002435999922454357	-0.03646500036120415	0.10097499936819077	-0.08862599730491638	-0.05871399864554405	-0.010823000222444534	-0.04032900184392929	0.007930000312626362	-0.059255000203847885	-0.07785599678754807	0.02361300028860569	0.015877999365329742	-0.08857099711894989	-0.015323000028729439	-0.020533999428153038	-0.1048939973115921	0.02975899912416935	-0.16041399538516998	-0.03030100092291832	-0.05688000097870827	0.05146399885416031	0.13250599801540375	0.03043000027537346	-0.05655600130558014	0.0064199999906122684	-0.011704999953508377	-0.16498200595378876	0.054763998836278915	0.15275000035762787	0.170633003115654	-0.06351800262928009	-0.1072390004992485	0.06114400178194046	-0.11607900261878967	0.11204300075769424	-0.13182300329208374	-0.023773999884724617	-0.07067999988794327	0.006897000130265951	0.08416499942541122	0.15257899463176727	-0.055298998951911926	-0.07574500143527985	-0.06294000148773193	-0.11039700359106064	-0.058329999446868896	0.06285499781370163	0.049288999289274216	-0.0852380022406578	-0.11814899742603302	0.029145000502467155	0.06390800327062607	-0.10369499772787094	-0.03577300161123276	0.08470399677753448	0.11760000139474869	0.04111500084400177	0.017204999923706055	-0.04926000162959099	0.0788159966468811	0.009353999979794025	0.03328999876976013	0.07969699800014496	-0.0793989971280098	-0.18097299337387085	0.09912600368261337	-0.024109000340104103	0.044891998171806335	0.06753700226545334	0.008894000202417374	-0.003705000039190054	-0.005417000036686659	-0.2712630033493042	0.12569299340248108	-0.028442999348044395	-0.10576900094747543	-0.10687000304460526	-0.04509799927473068	-0.1397709995508194	-0.041467998176813126	-0.03515300154685974	0.05262799933552742	0.0327409990131855	-0.061246998608112335	0.05512600019574165	0.06793899834156036	0.07423300296068192	-0.08561000227928162	
Mar Mediterraneo	-0.00788000039756298	-0.036173999309539795	-0.002718999981880188	-0.023540999740362167	0.09564399719238281	0.025800999253988266	-0.10349000245332718	0.031734999269247055	0.023768000304698944	-0.0869859978556633	0.09696999937295914	0.0912960022687912	-0.05411899834871292	0.036958999931812286	0.06509000062942505	-0.042146001011133194	-0.0414390005171299	-0.04882200062274933	0.052838001400232315	0.031078999862074852	-0.1508910059928894	-0.044879000633955	-0.003924000076949596	0.12788599729537964	-0.11291500180959702	-0.028609000146389008	-0.0024500000290572643	-0.040759000927209854	0.05477000027894974	-0.12253899872303009	-0.10073799639940262	0.032614998519420624	0.09175600111484528	0.08058600127696991	0.042440999299287796	0.10919100046157837	0.22609299421310425	-0.008449000306427479	-0.10373499989509583	-0.051371000707149506	0.051690999418497086	0.15491800010204315	-0.08347699791193008	-0.02099600061774254	-0.010565999895334244	-0.08974400162696838	-0.06018799915909767	-0.049229998141527176	0.03042300045490265	-0.018259000033140182	-0.07046200335025787	-0.042086999863386154	0.02338699996471405	0.052983999252319336	0.04217499867081642	-0.04000699892640114	-0.06479799747467041	0.11783800274133682	0.04263100028038025	0.13143199682235718	-0.01718599908053875	0.001693999976851046	-0.09618999809026718	0.10432899743318558	0.30231499671936035	0.13495799899101257	0.048271000385284424	0.022818999364972115	-0.11333099752664566	-0.010742000304162502	-0.06569699943065643	-0.013176999986171722	0.1146709993481636	0.04157799854874611	-0.034883998334407806	-0.06300800293684006	-0.1366879940032959	0.09246200323104858	0.002234000014141202	0.0403130017220974	0.062438998371362686	-0.04641199856996536	-0.05888399854302406	0.03618599846959114	-0.1687619984149933	0.0739390030503273	-0.07542700320482254	-0.011873000301420689	0.009685000404715538	-0.09310100227594376	-0.10789000242948532	-0.10458900034427643	-0.012760999612510204	0.24583099782466888	-0.07931900024414062	-0.06267700344324112	0.027499999850988388	0.03527199849486351	0.07062099874019623	0.06166699901223183	
Oceano Atlantico	-0.01799199916422367	-0.03992300108075142	-0.03335300087928772	0.0011259999591857195	0.05693700164556503	-0.008054999634623528	-0.0424249991774559	0.0074339997954666615	0.03904400020837784	-0.10145500302314758	0.0768439993262291	-0.0013439999893307686	-0.07305700331926346	0.09271600097417831	0.079025998711586	-0.06357400119304657	-0.03441400080919266	-0.0012870000209659338	0.04298600181937218	0.05934400111436844	-0.14872899651527405	0.020323999226093292	0.02878200076520443	0.10762500017881393	-0.1083580031991005	0.0017630000365898013	0.006446999963372946	-0.030660999938845634	0.058435000479221344	-0.09358199685811996	-0.10778500139713287	0.039538998156785965	0.09396100044250488	0.1120700016617775	0.04051699861884117	0.09189700335264206	0.12152799963951111	0.04906199872493744	-0.1187169998884201	-0.08032199740409851	0.04693799838423729	0.1616249978542328	-0.06569399684667587	0.010869000107049942	0.025691000744700432	-0.0643090009689331	-0.03946800157427788	-0.021051999181509018	0.010734000243246555	-0.07296500355005264	-0.007561999838799238	-0.02553199976682663	0.029879000037908554	-0.00419300002977252	0.07635600119829178	-0.03728900104761124	-0.07842999696731567	0.12079399824142456	0.056248001754283905	0.10614199936389923	-0.0029800001066178083	0.002116000046953559	-0.11738999933004379	0.08691299706697464	0.33866700530052185	0.12105999886989594	5.2999999752501026e-05	0.06677299737930298	-0.11366699635982513	-0.0059529999271035194	-0.06257300078868866	0.009982000105082989	0.16704800724983215	0.030153999105095863	-0.06787700206041336	0.018549000844359398	-0.16548700630664825	0.13380199670791626	-0.010285000316798687	-0.008630000054836273	-0.03622199967503548	-0.07080899924039841	-0.06241700053215027	0.08370800316333771	-0.12096499651670456	0.06820400059223175	-0.09826300293207169	-0.01751299947500229	-0.023586999624967575	-0.06897400319576263	-0.10197100043296814	-0.107853002846241	0.08322499692440033	0.1075270026922226	-0.08401700109243393	-0.043223001062870026	0.07581000030040741	0.015196000225841999	0.09100200235843658	0.06113399937748909	
Nilo	0.024536000564694405	-0.04066900163888931	-0.05353900045156479	0.001917000045068562	0.02888300083577633	0.08716099709272385	-0.058212000876665115	0.09482599794864655	0.02798300050199032	-0.07972799986600876	0.06288199871778488	0.07648199796676636	-0.03369000181555748	-0.005710999947041273	-0.001521000056527555	-0.04002099856734276	-0.0005990000208839774	-0.055647000670433044	0.09362100064754486	0.027584999799728394	-0.050011999905109406	-0.03720699995756149	-0.040151000022888184	0.1322139948606491	-0.1055769994854927	0.01773799955844879	0.0006859999848529696	-0.01103300042450428	0.07206899672746658	-0.10983200371265411	0.01913600042462349	-0.017816999927163124	0.06625600159168243	0.08599600195884705	0.013757999986410141	0.10852000117301941	0.11001499742269516	0.03909600153565407	-0.11429399996995926	0.005882999859750271	0.05465399846434593	0.1084280014038086	-0.05530200153589249	0.0012080000014975667	0.0003389999910723418	-0.09083999693393707	-0.07131200283765793	-0.08121799677610397	0.05744500085711479	0.0023980000987648964	-0.053644001483917236	0.10134600102901459	0.025025000795722008	-0.047981999814510345	0.04196999967098236	0.040456999093294144	-0.06742800027132034	0.07260999828577042	-0.052083998918533325	0.09577400237321854	0.03920000046491623	0.016959000378847122	-0.06788700073957443	0.07470399886369705	0.10447199642658234	0.07274699956178665	0.04671899974346161	0.08761599659919739	-0.012842000462114811	-0.028432000428438187	-0.006643000058829784	-0.014302000403404236	0.0959940031170845	0.009564000181853771	-0.03669000044465065	-0.06866499781608582	-0.1181349977850914	0.10274100303649902	0.026221999898552895	-0.010178999975323677	0.025415999814867973	-0.09360600262880325	-0.0493910014629364	0.09126400202512741	-0.042677998542785645	0.07404299825429916	-0.03190299868583679	-0.014299999922513962	-0.02303200028836727	-0.1408189982175827	0.003341000061482191	-0.04447700083255768	-0.030476000159978867	0.040045998990535736	-0.08142899721860886	-0.07771000266075134	-0.009929999709129333	0.04413599893450737	0.056543998420238495	0.04428999871015549	
Oceano Pacifico	-0.11781100183725357	-0.021897999569773674	0.025684000924229622	-0.036076001822948456	0.02305700071156025	0.055493999272584915	-0.0030900000128895044	0.0075240000151097775	0.030918000265955925	-0.09652800112962723	0.09544999897480011	-0.007521000225096941	-0.04987499862909317	0.03919899836182594	0.03798700124025345	-0.030592000111937523	-0.030108999460935593	0.015622000209987164	0.0791110023856163	0.05598599836230278	-0.10616099834442139	0.05511099845170975	-0.0036180000752210617	0.12672199308872223	-0.10165999829769135	0.03922000154852867	-0.02609900012612343	0.0029589999467134476	0.03903999924659729	-0.09126599878072739	-0.10346999764442444	-0.018945999443531036	0.07661700248718262	0.12236999720335007	0.030623000115156174	0.062477000057697296	0.08895400166511536	0.025484999641776085	-0.11799699813127518	-0.040543001145124435	0.055066999047994614	0.1420149952173233	-0.058006998151540756	0.0015180000336840749	0.023749999701976776	-0.029032999649643898	-0.03351600095629692	-0.04912399873137474	-0.030479000881314278	-0.08240099996328354	-0.006862999871373177	-0.005394000094383955	-0.01816999912261963	0.03238900005817413	0.08065000176429749	0.018610000610351562	-0.09355399757623672	0.1122329980134964	0.05647699907422066	0.08300799876451492	0.008076000027358532	0.024070000275969505	-0.11342599987983704	0.08946099877357483	0.306753009557724	0.11798500269651413	0.06992200016975403	0.061802998185157776	-0.12930800020694733	-0.014414999634027481	-0.05397700145840645	-0.011973000131547451	0.12899799644947052	0.0581279993057251	-0.0722069963812828	-0.000450999999884516	-0.1427759975194931	0.14484399557113647	0.02616499923169613	-0.0755859985947609	0.013643999584019184	-0.04372899979352951	-0.035996999591588974	0.02252900041639805	-0.112527996301651	0.09008300304412842	-0.12514899671077728	-0.06420200318098068	-0.02226400002837181	-0.06567899882793427	-0.030554000288248062	-0.09306000173091888	0.05476300045847893	0.10030999779701233	-0.0805250033736229	-0.0565590001642704	0.06730499863624573	0.001967000076547265	0.0778840035200119	0.020222000777721405	
monumento	-0.062137000262737274	0.17563599348068237	0.029041999951004982	-0.000699999975040555	0.02007799968123436	-0.14325599372386932	0.039503999054431915	0.08465699851512909	0.0027409999165683985	0.07999400049448013	0.10779000073671341	0.14315900206565857	-0.012732000090181828	-0.021133000031113625	-0.010634999722242355	-0.03365100175142288	-0.09788099676370621	-0.0506649985909462	0.022168999537825584	-0.0466729998588562	-0.07461400330066681	-0.06435099989175797	-0.07122699916362762	0.00648299977183342	0.058970000594854355	0.03665899857878685	-0.045719001442193985	-0.12820400297641754	-0.004106000065803528	-0.036371998488903046	-0.0009619999909773469	-0.020312000066041946	0.06836500018835068	0.04942400008440018	-0.017103999853134155	0.035569000989198685	0.0905579999089241	-0.02092600055038929	-0.012450999580323696	0.1279900074005127	0.09233500063419342	0.13649499416351318	-0.08711499720811844	0.015433999709784985	-0.015348999761044979	-0.00532800005748868	0.00392200006172061	-0.024768000468611717	0.00926900003105402	-0.009304000064730644	-0.03430899977684021	0.09557600319385529	0.08195299655199051	0.002669000066816807	0.03174399957060814	-0.10279399901628494	-0.079475998878479	0.04091300070285797	-0.06013600155711174	0.07525999844074249	-0.14655600488185883	0.05819199979305267	0.003438000101596117	0.046126000583171844	-0.07146400213241577	0.025318000465631485	0.04283599928021431	0.10763200372457504	0.07708700001239777	0.15181900560855865	-0.059011999517679214	0.11486200243234634	-0.09133899956941605	0.17229300737380981	0.0885310024023056	0.011850999668240547	-0.08407100290060043	-0.010777000337839127	0.038982000201940536	0.0786060020327568	0.12390299886465073	-0.0019549999851733446	0.11282200366258621	-0.0006500000017695129	-0.08780600130558014	0.024153999984264374	-0.09083300083875656	-0.06616199761629105	-0.10679399967193604	-0.13548800349235535	-0.12878000736236572	-0.10205099731683731	-0.1000870019197464	-0.015417000278830528	0.03840100020170212	0.0041600000113248825	-0.08072999864816666	0.13343699276447296	0.13066700100898743	-0.06756400316953659	
Torre di Pisa	-0.06555300205945969	-0.018466999754309654	-0.018133999779820442	0.04794900119304657	-0.048257000744342804	-0.0423550009727478	0.05680299922823906	0.04691699892282486	0.08561599999666214	-0.03755199909210205	0.06181599944829941	0.06854300200939178	-0.0761990025639534	0.0325470007956028	-0.03193400055170059	0.03641299903392792	-0.02957100048661232	-0.09897799789905548	0.026666000485420227	-0.056102998554706573	-0.09718900173902512	-0.026813000440597534	-0.053766001015901566	-0.006211999803781509	-0.05295899882912636	0.008576000109314919	0.058883000165224075	-0.011012000031769276	-0.004157999996095896	0.045527998358011246	-0.06194499880075455	0.03539599850773811	-0.06746400147676468	0.009984999895095825	-0.03682100027799606	0.06095999851822853	0.00821600016206503	0.0012509999796748161	0.00868299975991249	-0.010792000219225883	-0.0458110012114048	0.07931199669837952	-0.0333079993724823	0.03914500027894974	-0.0675399973988533	-0.05703800171613693	-0.0018129999516531825	0.004219000227749348	0.03586899861693382	0.052494000643491745	-0.035440001636743546	0.04427500069141388	-0.027094999328255653	0.051858000457286835	0.07049600034952164	0.0832040011882782	-0.06852699816226959	-0.02580299973487854	-0.09152500331401825	0.09666600078344345	0.024228999391198158	0.05436500161886215	-0.026681000366806984	0.09626100212335587	-0.004801999777555466	0.03958100080490112	-0.028512999415397644	0.022112999111413956	0.004585999995470047	-0.003097000066190958	-0.06270799785852432	-0.014481999911367893	0.009983999654650688	-0.016015000641345978	0.07222899794578552	-0.035190001130104065	-0.008422999642789364	-0.011218000203371048	-0.006045999936759472	-0.02329999953508377	0.039778999984264374	0.019148999825119972	-0.051589999347925186	0.006386999972164631	-0.0031820000149309635	0.028284000232815742	-0.02035200037062168	0.0760049968957901	0.024754000827670097	-0.04944999888539314	-0.09746599942445755	-0.06225699931383133	0.06857900321483612	-0.06892599910497665	-0.05555899813771248	-0.08609700202941895	-0.014329999685287476	0.011571000330150127	-0.009542999789118767	0.0067010000348091125	
Stonehenge	-0.042642999440431595	-0.04653000086545944	-0.026220999658107758	0.03927300125360489	-0.06029900163412094	0.05603799968957901	-0.006264000199735165	0.08095499873161316	0.09509799629449844	-0.03338199853897095	0.006994999945163727	0.04828200116753578	-0.04901299998164177	0.07135800272226334	-0.019872000440955162	0.0411980003118515	0.029663000255823135	-0.068340003490448	0.03073900006711483	0.03870699927210808	-0.1178790032863617	-0.1178010031580925	0.047540001571178436	0.0654970034956932	-0.07082600146532059	0.03139600157737732	-0.010936999693512917	0.01795100048184395	0.01768999919295311	-0.0364999994635582	-0.034313999116420746	0.0531340017914772	-0.010595000348985195	0.033918000757694244	-0.047157999128103256	0.02546199969947338	0.030520999804139137	0.0648920014500618	0.0392489992082119	0.05519799888134003	-0.03224100172519684	0.05390800163149834	0.039514001458883286	0.03175000101327896	0.006990999914705753	-0.06237500160932541	-0.03995500132441521	0.02849699929356575	6.399999983841553e-05	-0.08434200286865234	0.023888999596238136	0.015039999969303608	0.05945799872279167	0.056800998747348785	0.013523000292479992	0.06692100316286087	-0.07130900025367737	0.01998800039291382	-0.03989600017666817	0.0600459985435009	0.03723800182342529	0.01645199954509735	0.008861999958753586	0.05215499922633171	0.09591999650001526	0.06563100218772888	-0.03553900122642517	0.10471600294113159	0.03502200171351433	-0.033247001469135284	-0.07304300367832184	0.03726400062441826	-0.012299999594688416	-0.040532998740673065	0.008949000388383865	-0.01220100000500679	-0.058389000594615936	-0.03928299993276596	0.020382000133395195	0.009037000127136707	0.09044499695301056	-0.05879500135779381	-0.08928000181913376	0.05243299901485443	0.004883000161498785	0.023029999807476997	-0.07654199749231339	0.020305000245571136	0.05113900080323219	-0.08539900183677673	-0.04301299899816513	-0.02471799962222576	0.02863599918782711	-0.02667500078678131	-0.08045800030231476	-0.02214900031685829	0.02201700024306774	0.0822720006108284	0.03929100185632706	-0.035645999014377594	
Sagrada Familia	-0.041127998381853104	0.12279800325632095	-0.04680100083351135	0.017142999917268753	-0.024008000269532204	-0.0346050001680851	0.01655000075697899	0.035248998552560806	0.05143500119447708	0.057349998503923416	0.08939100056886673	0.10040300339460373	-0.030513999983668327	0.06579499691724777	-0.04632800072431564	0.01177200023084879	-0.032496001571416855	-0.06704799830913544	0.04641399905085564	0.03869299963116646	-0.09152399748563766	-0.018794000148773193	-0.019876999780535698	0.04603800177574158	-0.053164999932050705	0.04428499937057495	0.08771300315856934	-0.04988100007176399	-0.02624399960041046	0.053794000297784805	-0.011276000179350376	0.018664000555872917	-0.08332599699497223	0.029903000220656395	0.01106099970638752	0.08505599945783615	0.09769900143146515	0.012254999950528145	0.07025399804115295	0.05147400125861168	0.008574999868869781	-0.0302559994161129	-0.02790299989283085	0.06153000146150589	-0.050119999796152115	-0.005367000121623278	-0.09998899698257446	0.09125900268554688	0.04597700014710426	0.016445999965071678	-0.043832000344991684	0.00215999991632998	-0.024769999086856842	-0.011351999826729298	0.06499899923801422	-0.03391199931502342	-0.052643999457359314	0.05439399927854538	-0.08039700239896774	0.12160199880599976	-0.0025820001028478146	0.011881999671459198	-0.06438100337982178	0.058701999485492706	-0.004922000225633383	0.10288099944591522	-0.028248000890016556	0.053943000733852386	-0.06834100186824799	-0.014658999629318714	-0.11100400239229202	0.07396099716424942	-0.05388500168919563	0.003249000059440732	0.04056600108742714	-0.0019650000613182783	0.03298399969935417	-0.04523700103163719	-0.005555000156164169	-0.04781299829483032	0.05992500111460686	-0.003223000094294548	-0.029051000252366066	0.0030249999836087227	-0.05950799956917763	0.018326999619603157	-0.08499500155448914	0.030006999149918556	-0.02813900075852871	-0.0077680000104010105	-0.07600300014019012	-0.05170400068163872	0.007822999730706215	-0.057277001440525055	-0.0479080006480217	-0.0764010027050972	-0.011226000264286995	0.032464999705553055	0.059039000421762466	0.03547900170087814	
Macchu Picchu	-0.002899999963119626	-0.012608000077307224	-0.030626999214291573	0.05242700129747391	-0.023017000406980515	0.03805699944496155	0.038353998214006424	0.056095998734235764	0.06857500225305557	-0.03413499891757965	0.023181000724434853	-0.01470400020480156	-0.04777999967336655	0.07669200003147125	-0.00572500005364418	0.05693000182509422	0.021018000319600105	-0.07749500125646591	0.07529699802398682	0.004131000023335218	0.014763999730348587	0.03247499838471413	-0.05900000035762787	-0.0011680000461637974	-0.030957000330090523	-0.01587500050663948	0.017451999709010124	0.06163699924945831	3.300000025774352e-05	0.015697000548243523	-0.05045799911022186	0.016631999984383583	-0.044300999492406845	0.03910300135612488	-0.04828200116753578	0.0712829977273941	0.05837700143456459	0.0397379994392395	0.07480999827384949	0.003763000015169382	0.03306899964809418	-0.004472000058740377	0.0412600003182888	0.050939999520778656	-0.02994699962437153	-0.04895700141787529	0.023632999509572983	-0.03836100175976753	0.03069699928164482	-0.05128199979662895	-0.037067998200654984	0.06084899976849556	-0.02901099994778633	0.07078500092029572	-0.032510001212358475	0.08303999900817871	-0.09426599740982056	-0.017274999991059303	-0.05411100015044212	0.05922799929976463	-0.04759800061583519	-0.025915000587701797	-0.026081999763846397	0.08622299879789352	-0.008844000287353992	0.04739399999380112	-0.03634300082921982	-0.040355000644922256	0.06283599883317947	-0.07284100353717804	-0.07285299897193909	0.028510000556707382	0.028257999569177628	0.03392999991774559	-0.00329799996688962	0.032141998410224915	-0.05769500136375427	0.01939300075173378	0.0074880002066493034	-0.01234500017017126	0.059748001396656036	-0.013066000305116177	-0.06732700020074844	0.035666998475790024	0.08763200044631958	-0.021561000496149063	-0.07985399663448334	-0.049320001155138016	-0.015216000378131866	-0.06819900125265121	0.0705379992723465	-0.03813000023365021	0.0029430000577121973	-0.009754999540746212	-0.020029999315738678	-0.0721609964966774	-0.0016029999824240804	0.02723100036382675	0.026621999219059944	0.05860200151801109	
