entity	w2v_entity_vector
politico	-0.6551536917686462	0.16603226959705353	-2.2010340690612793	-1.6143031120300293	-1.1936535835266113	1.0677160024642944	-0.6477352380752563	0.7305421233177185	0.21509398519992828	-1.4791884422302246	-0.9076617956161499	0.8114585876464844	2.328639030456543	1.8355540037155151	2.1690948009490967	-1.5522419214248657	1.8198555707931519	-0.7787136435508728	-0.12071272730827332	0.2393982857465744	2.5349316596984863	0.5833560824394226	1.0590176582336426	1.2005447149276733	0.848939836025238	0.9402697086334229	-0.7498631477355957	0.8883728384971619	1.5913844108581543	-1.9795715808868408	0.6216263771057129	-0.8822352886199951	0.023861853405833244	0.6158791184425354	0.48063912987709045	-1.4441888332366943	2.440246343612671	1.6907719373703003	3.7569162845611572	0.9561648964881897	-2.7767832279205322	-0.1099306121468544	1.8035783767700195	-3.743718385696411	-0.4440123736858368	-2.011202573776245	-2.393073081970215	-0.36749160289764404	-0.14137612283229828	0.6678588390350342	0.1786983758211136	0.4862406253814697	-1.9762403964996338	-0.7347629070281982	-0.5628246068954468	0.8709554076194763	-0.4181433618068695	0.5289210081100464	-1.3182587623596191	0.8358719944953918	-0.3281494677066803	-1.809164047241211	1.1685905456542969	0.8538159132003784	-0.16155652701854706	1.657380223274231	-1.0690304040908813	0.14046937227249146	-1.3112274408340454	-1.952257513999939	1.9271571636199951	0.8040869235992432	3.1148202419281006	-2.7725048065185547	-0.6797654032707214	1.2459545135498047	1.5917044878005981	-0.21730972826480865	0.26819077134132385	0.18854612112045288	-0.5586718320846558	-1.3101434707641602	0.42379021644592285	0.012085490860044956	-0.6211273074150085	-0.29005327820777893	-0.2525957524776459	-0.0732181966304779	-0.4746757745742798	1.329990267753601	-0.04639328643679619	0.40176859498023987	0.3232837915420532	-1.2976433038711548	1.6045773029327393	0.024379633367061615	-1.8687105178833008	-0.02059059403836727	-1.3397945165634155	-1.0396113395690918	0.5179173946380615	-1.6315375566482544	1.4445427656173706	1.6914774179458618	-1.8863619565963745	0.6513000726699829	-0.02651715837419033	0.22741498053073883	1.9533356428146362	-0.274494469165802	-0.025804825127124786	1.2149503231048584	1.5900589227676392	0.9386765956878662	0.7443979978561401	1.584436297416687	0.21428366005420685	-1.0980486869812012	-0.2993210256099701	-0.5365914106369019	0.4543335437774658	0.274474173784256	0.1809011548757553	-0.600155770778656	1.552918791770935	-0.28631648421287537	1.729936957359314	0.057266321033239365	-1.040973424911499	0.19560983777046204	0.9741128087043762	0.14288412034511566	0.7366693019866943	0.05968286097049713	-1.3459383249282837	0.282683789730072	-2.6528847217559814	-1.7393847703933716	1.8325965404510498	-0.4216983914375305	2.441466808319092	2.8490097522735596	0.1411215364933014	-1.5323102474212646	-1.4464757442474365	0.19299201667308807	-0.07253965735435486	-1.546760082244873	-1.67250394821167	-0.7782596349716187	-0.21802031993865967	0.01604784093797207	-0.18657967448234558	1.2846064567565918	-0.30920422077178955	-0.035532597452402115	0.4999184310436249	-1.7663698196411133	0.3673415184020996	-0.7707467079162598	-1.134834885597229	2.007344961166382	-1.8519355058670044	2.0359158515930176	0.8778582811355591	1.1491994857788086	-0.7968647480010986	1.6698999404907227	1.147047519683838	-1.175092101097107	0.14449447393417358	-0.2421611249446869	1.9301687479019165	1.0947932004928589	-0.27379822731018066	-0.287302166223526	-0.5027486681938171	0.22212788462638855	-0.7364515066146851	0.19707967340946198	-1.4431272745132446	0.02976672351360321	-2.1761088371276855	-3.059556722640991	-0.9090593457221985	-0.3536502420902252	-0.47206810116767883	-0.7382586002349854	-0.8229295611381531	-1.9042892456054688	-0.7641876339912415	0.47761091589927673	-0.7411729097366333	-3.1630094051361084	1.749837875366211	-0.3781428635120392	-0.20958848297595978	0.4263707101345062	-0.9039340615272522	0.40614837408065796	1.327966570854187	-0.8979135155677795	-0.9716241359710693	-0.24748371541500092	-1.024341344833374	1.5588151216506958	-1.910295009613037	2.25299072265625	-1.218493103981018	0.22281025350093842	-1.9883153438568115	-2.9248743057250977	-0.14803586900234222	-1.4066722393035889	-0.6552011966705322	1.8635132312774658	-2.025364398956299	-3.8270649909973145	2.547630786895752	-0.021937016397714615	-2.839055299758911	-1.0453708171844482	-0.8442972898483276	-0.7357962131500244	1.0658124685287476	-0.8411918878555298	3.9482545852661133	-1.0468435287475586	-0.14606699347496033	0.6592592597007751	-0.8327159881591797	0.7234634757041931	1.5663143396377563	2.260591506958008	1.146525502204895	-1.1385020017623901	-0.722815215587616	0.9339514970779419	3.147294521331787	-0.5828269720077515	1.1052836179733276	1.7060223817825317	-0.6784744262695312	1.3041876554489136	-0.276152104139328	-0.8415695428848267	-1.2560045719146729	-0.530643880367279	-1.7270538806915283	-1.685617446899414	2.191420078277588	-0.3129262626171112	-2.3024821281433105	-0.37191537022590637	2.164461851119995	0.29153233766555786	0.920259416103363	1.109613299369812	-0.8842602372169495	0.9035903811454773	-2.2411422729492188	-1.9430230855941772	-0.35440000891685486	0.9419022798538208	-0.6831494569778442	0.5358833074569702	0.3473496735095978	0.09346576035022736	-1.444699764251709	-0.0441901721060276	-1.6615889072418213	-0.37689900398254395	1.731091856956482	0.1849965900182724	0.3654967248439789	1.1181435585021973	-1.2549164295196533	-1.5160048007965088	0.6413167119026184	1.5552740097045898	-0.2990100681781769	-1.0096763372421265	1.227496862411499	-0.63544762134552	-0.5260787606239319	2.3447604179382324	-0.15678295493125916	0.9586541652679443	0.8455235362052917	-0.19635438919067383	-0.021312423050403595	-0.6452012062072754	-1.7147047519683838	-0.9167252779006958	-0.3354484736919403	-0.32194358110427856	-1.1654917001724243	2.0820796489715576	-0.7639015316963196	-1.8199939727783203	
Silvio Berlusconi	0.26305505633354187	-0.8540174961090088	-0.7253010869026184	-1.1206740140914917	-0.49185702204704285	1.910928726196289	-2.1900382041931152	1.3936556577682495	1.7726162672042847	0.352701336145401	0.03004474751651287	-1.6321673393249512	-0.010820447467267513	2.424323081970215	-0.7332037091255188	1.8532406091690063	-1.1105375289916992	-0.7439197301864624	1.3093780279159546	-0.8571781516075134	1.73403799533844	-1.2061591148376465	-3.986372947692871	-0.44465622305870056	-0.7482342720031738	0.18929383158683777	-0.9209653735160828	2.3385748863220215	0.006184370722621679	1.3064006567001343	0.47302988171577454	1.3169358968734741	1.8865886926651	2.8772096633911133	2.667489767074585	-1.6462595462799072	-0.24367712438106537	2.1620187759399414	2.466118812561035	0.18923991918563843	-2.779111623764038	-0.45697158575057983	2.9431991577148438	-1.5370539426803589	-2.9123332500457764	-2.4164092540740967	-0.47075316309928894	1.029154896736145	0.26433655619621277	-0.0016856358852237463	-2.1308305263519287	2.927267551422119	-3.128920078277588	-1.7178382873535156	-0.32604995369911194	1.006067156791687	0.8871476054191589	1.3913047313690186	0.2360796481370926	-0.30589237809181213	1.3773764371871948	-0.6819285750389099	2.499087333679199	-2.0745038986206055	1.500898838043213	0.04388028383255005	-0.6492148637771606	0.35497164726257324	1.2659372091293335	2.4738616943359375	-0.07699564844369888	1.1319371461868286	0.8382788896560669	-0.9784895777702332	1.1395087242126465	0.6974292993545532	0.8474867939949036	0.029216976836323738	-1.4335769414901733	-0.6033452153205872	-0.14148586988449097	-0.8403829336166382	0.27928340435028076	1.2186286449432373	-0.8584151864051819	3.537113666534424	0.20929497480392456	0.6435699462890625	0.4091707170009613	-0.26518040895462036	-0.8046908974647522	-0.9686724543571472	-0.5259941816329956	0.5649906992912292	-0.4839192032814026	2.124711751937866	0.5410805344581604	-0.8896883130073547	0.44722864031791687	-1.3899931907653809	1.1048829555511475	0.19641534984111786	-2.360661745071411	3.280445098876953	-0.214445099234581	2.9038050174713135	0.7065277099609375	-1.5632643699645996	3.8012168407440186	1.0618921518325806	1.8424057960510254	0.7474722266197205	0.12034731358289719	0.16319149732589722	-3.3383991718292236	1.9964125156402588	-0.8715879917144775	-0.09986602514982224	0.6347187757492065	0.2683510482311249	-0.04395570605993271	-0.129624605178833	0.37805870175361633	1.4365445375442505	2.142023801803589	2.83400297164917	0.282298743724823	1.9339091777801514	-1.515416145324707	2.093353748321533	1.5638388395309448	1.632167935371399	-0.35675564408302307	-0.23746147751808167	-1.0302761793136597	1.2124680280685425	-1.8777620792388916	-2.980315685272217	1.5268405675888062	0.15489503741264343	0.48710498213768005	1.1763569116592407	-1.7393600940704346	1.849875569343567	-0.8602340221405029	1.988271951675415	-0.014064171351492405	-1.0865739583969116	-1.3713622093200684	-1.8892076015472412	-1.2999252080917358	0.9540073275566101	0.2705046534538269	2.731973171234131	1.7211568355560303	-0.6311389803886414	-1.3952754735946655	-0.3620642423629761	3.2761759757995605	1.4735052585601807	0.45268481969833374	0.6986318826675415	-0.5620721578598022	2.1862120628356934	1.1341619491577148	1.8887239694595337	-0.29639002680778503	0.5294536352157593	0.7419887185096741	1.028210163116455	-0.4816403388977051	0.7348089218139648	0.7073092460632324	-2.508608341217041	-0.6164770126342773	0.35758933424949646	-0.57386314868927	3.0848336219787598	1.6033235788345337	0.26790085434913635	-1.9957610368728638	0.9812399744987488	-1.3094085454940796	-1.8757834434509277	1.1700769662857056	2.499709367752075	0.5330119132995605	0.8261387348175049	1.4638824462890625	0.008993729948997498	0.5060558915138245	0.8624318242073059	1.0702546834945679	-0.45783522725105286	-1.226720929145813	-1.2017781734466553	1.0122982263565063	-0.4333944022655487	-0.3498920798301697	0.4704160690307617	-0.2086189240217209	-2.826012134552002	0.7250937223434448	-0.5406940579414368	4.037500381469727	0.9507299661636353	-1.093578577041626	2.9534411430358887	-2.2300050258636475	-1.7838739156723022	0.6372950673103333	-0.4496237635612488	-1.5266648530960083	-0.1386583000421524	1.2883051633834839	-2.1204426288604736	-1.5747264623641968	1.1594641208648682	2.730170488357544	-0.6070277094841003	-1.0659972429275513	-3.274503707885742	-2.2316970825195312	-2.0057871341705322	-1.2737737894058228	-1.4897348880767822	3.883613109588623	-0.32774439454078674	-0.861912190914154	1.748323917388916	0.665291428565979	1.3456616401672363	-1.6258713006973267	0.8491986393928528	-0.700781524181366	0.8965054750442505	-2.389878511428833	0.475821852684021	1.5217739343643188	-2.0999720096588135	0.5508546829223633	0.955354630947113	-0.48074328899383545	-0.2014094442129135	2.739164352416992	-0.8870380520820618	-2.1769886016845703	0.30257153511047363	-2.098850965499878	-0.3101958632469177	1.808903694152832	-1.4343540668487549	-0.358693391084671	-0.9747133255004883	-0.6404976844787598	1.0229920148849487	0.4174838066101074	1.074508547782898	0.14604009687900543	-0.326194703578949	0.5973935723304749	-0.5535317659378052	-0.5511240363121033	-1.6791491508483887	-0.5347184538841248	-0.05926961824297905	-0.7318545579910278	-1.508949875831604	1.3691917657852173	-2.8612451553344727	-0.8524118065834045	0.8906573057174683	-0.047081317752599716	-0.8845206499099731	1.3989238739013672	1.7581562995910645	0.2530386447906494	-2.3655436038970947	0.687770664691925	-1.5428142547607422	-1.9679185152053833	-2.872927665710449	-0.566502034664154	-1.0006294250488281	0.3987676501274109	0.43847209215164185	1.5576608180999756	-1.113694429397583	1.5090885162353516	-2.2497551441192627	1.742483139038086	0.33876481652259827	-3.0981924533843994	-0.7453887462615967	-0.22543518245220184	1.3955166339874268	-0.9210281372070312	2.1308839321136475	-0.43409472703933716	-0.0684172660112381	
Barack Obama	1.6210577487945557	-1.8635393381118774	0.3862391412258148	-2.423232078552246	1.330710530281067	-0.3116585910320282	-1.540281891822815	-1.2620782852172852	-0.4080882668495178	2.5211894512176514	-1.1103404760360718	-0.9418219923973083	2.076936721801758	2.9731082916259766	0.0032539048697799444	-0.5437537431716919	-0.9229066967964172	-0.5085466504096985	-1.331523060798645	0.5387038588523865	2.022075653076172	-0.3069685101509094	-3.4956343173980713	0.017328044399619102	-1.7062578201293945	-0.08741369843482971	0.20547403395175934	0.7557222247123718	-0.06141357123851776	1.3299343585968018	1.0871148109436035	-0.5869531631469727	-0.5782554149627686	1.3862934112548828	0.42885246872901917	-0.03197788447141647	-0.389352411031723	0.017620371654629707	0.2456672191619873	0.8310301303863525	-1.6908304691314697	-0.596355140209198	0.9211089015007019	-2.204495429992676	-0.07962757349014282	-1.8919565677642822	-0.5759201049804688	-1.9586169719696045	1.737569808959961	0.1508132666349411	-0.09201493859291077	2.9540507793426514	-1.9292343854904175	0.07547178864479065	-1.164717435836792	0.613750696182251	-1.4288510084152222	1.8233137130737305	-1.2081427574157715	-0.34336110949516296	0.9772101044654846	-1.5579776763916016	2.874073028564453	0.7416346073150635	-1.4996753931045532	0.3314054310321808	-0.5534970760345459	-1.0184942483901978	1.4414103031158447	1.189212679862976	0.5659337639808655	-0.8648896813392639	0.7011452913284302	0.31291916966438293	0.7388963103294373	2.5908429622650146	-0.4633179008960724	0.7618428468704224	-1.9087799787521362	-0.03379116952419281	-1.145234227180481	-1.628441572189331	-0.5826874375343323	0.6528820395469666	1.8752009868621826	0.22701364755630493	-0.26277104020118713	0.6037014126777649	0.2636371850967407	-0.01691124401986599	-2.116947889328003	1.560625433921814	-1.4548234939575195	1.8879460096359253	0.1840476542711258	1.2286427021026611	0.3300223648548126	2.496826171875	1.4840607643127441	1.0924699306488037	1.0490174293518066	1.1373392343521118	-0.5098589658737183	0.6832776069641113	-1.080315351486206	0.08010827004909515	-0.4879826307296753	1.0061458349227905	1.8279303312301636	0.3645220994949341	-0.009581842459738255	0.7609538435935974	0.8748534917831421	2.7506048679351807	0.5332869291305542	0.5952112674713135	1.0251991748809814	-1.2555819749832153	-0.3977140188217163	-1.5477969646453857	-1.2796066999435425	-0.5246078968048096	-0.21689465641975403	1.7691367864608765	1.8454254865646362	2.3024919033050537	-0.9396886825561523	2.647383213043213	0.4094366431236267	-0.9850628972053528	1.3245904445648193	0.3647918105125427	-0.20642560720443726	1.3259658813476562	1.0126409530639648	0.3512089252471924	-1.6649467945098877	0.01972031407058239	2.3971333503723145	1.9676649570465088	-0.09348243474960327	-1.9253977537155151	0.18475109338760376	-0.6423044204711914	0.6660779714584351	1.331502079963684	2.3573155403137207	-0.9187988638877869	-0.1104535236954689	-1.2446808815002441	-1.6073095798492432	-0.7739468216896057	-0.6033607125282288	2.310549259185791	1.9872149229049683	-1.0739208459854126	0.2845178544521332	-0.5750396847724915	-0.37362203001976013	-0.6170355081558228	0.9164828658103943	0.3550332188606262	1.9599889516830444	1.7913278341293335	0.773227334022522	2.407909631729126	-0.675264298915863	-0.25731563568115234	2.519727945327759	3.2645211219787598	-0.8268697261810303	1.777326226234436	0.3755455017089844	-1.4845539331436157	0.4637112021446228	0.7928082942962646	-2.8930275440216064	2.2607638835906982	1.3557342290878296	0.8000484704971313	-2.8737592697143555	1.3539448976516724	-0.0449879951775074	-0.029851317405700684	-0.9599319696426392	1.908939242362976	0.2581580877304077	-1.2393643856048584	-1.4176849126815796	0.46406298875808716	1.716292381286621	0.38690871000289917	0.2703283727169037	-0.12464317679405212	0.2017577886581421	0.6657211780548096	-0.9508803486824036	1.204473614692688	0.3374994099140167	-1.0744093656539917	-1.1635804176330566	-1.3354954719543457	-2.3218674659729004	0.07516217231750488	1.9793946743011475	1.9819307327270508	-1.1398543119430542	-0.022459957748651505	-0.5061360001564026	-0.1346256136894226	0.688093900680542	1.6589958667755127	-3.6039559841156006	0.18213729560375214	0.14706481993198395	0.26003068685531616	-0.2866562306880951	-0.5017181038856506	2.3546831607818604	-0.36165449023246765	-0.3472153842449188	-2.3559582233428955	-0.4009358882904053	1.2566386461257935	-0.07807427644729614	-2.6317014694213867	1.0441384315490723	-0.029452873393893242	0.018802015110850334	0.5156686902046204	-0.743722140789032	0.2363939732313156	2.743743896484375	-0.007145908195525408	-1.251861810684204	-0.8706969022750854	0.5919781923294067	-1.7301533222198486	0.935457706451416	-2.5544350147247314	-1.2708704471588135	0.9844433665275574	-0.042147181928157806	0.8383861780166626	3.7738614082336426	0.911884605884552	1.3366492986679077	0.8816331624984741	-0.38626378774642944	-0.13323186337947845	0.4605587124824524	-1.6575483083724976	-0.6220840811729431	1.4072076082229614	-1.136705756187439	-0.09140955656766891	-0.6009009480476379	0.4522686004638672	-0.15628604590892792	2.6403744220733643	-0.7918727397918701	-2.1892080307006836	0.9757878184318542	-1.0987030267715454	-0.26249057054519653	-0.20314234495162964	-1.9020103216171265	-0.38118112087249756	-0.6236212253570557	-2.2368016242980957	-0.4976285398006439	-1.6503804922103882	-2.9307942390441895	-0.9784680008888245	1.5318940877914429	0.02552977204322815	-1.0986671447753906	-2.149047374725342	2.434708833694458	-0.9439701437950134	-0.21869195997714996	-1.9675712585449219	-1.546633243560791	-0.6942822933197021	-0.4347369372844696	0.2691863775253296	1.759992003440857	-3.3945891857147217	-0.452441543340683	0.0965954065322876	0.23123662173748016	1.4430127143859863	-1.9985783100128174	0.10438381880521774	0.7994278073310852	1.3035039901733398	-0.4089544117450714	1.6859256029129028	0.6729684472084045	-1.77265202999115	
Hillary Clinton	0.88651043176651	-0.655867874622345	0.7854888439178467	-1.2148725986480713	0.5501041412353516	0.3701176643371582	-0.8339788317680359	-0.41980311274528503	-0.3625469207763672	0.6183760166168213	-0.36664411425590515	-1.3868842124938965	1.7371852397918701	2.240462064743042	0.1898001879453659	-0.6791781187057495	-0.1354205161333084	-0.21159879863262177	-0.9145910143852234	-0.5251949429512024	1.2696343660354614	-0.22905877232551575	-1.6319626569747925	0.5829184651374817	-1.082595705986023	1.0097105503082275	0.2391381561756134	1.3982242345809937	0.6370428204536438	0.8073949217796326	-0.03880305215716362	-0.6972261071205139	-0.30519989132881165	1.1412919759750366	0.11648084223270416	0.42907118797302246	0.13446283340454102	-0.15188027918338776	0.15215590596199036	1.0698230266571045	-0.35523155331611633	-0.23670388758182526	1.0723240375518799	-1.5426263809204102	0.7257022261619568	-1.8047525882720947	-0.825592577457428	-0.8731529712677002	0.7237595319747925	0.4940025508403778	-0.46676644682884216	2.268812417984009	-1.7257933616638184	0.549896776676178	-1.4312855005264282	-0.2606108784675598	-1.1486644744873047	0.24644620716571808	-0.7120721936225891	-0.2621007561683655	0.6538417339324951	-1.32774817943573	1.519728422164917	1.0996233224868774	-1.0989621877670288	0.18014001846313477	-1.0543338060379028	-0.9190621972084045	0.3465566039085388	0.5416022539138794	-0.03524210676550865	-0.41282927989959717	0.4377410411834717	0.576603353023529	0.3167088031768799	1.3021937608718872	-0.04485491290688515	0.5094906091690063	-1.1598625183105469	-0.022634724155068398	0.2905741333961487	-0.6632095575332642	0.34755271673202515	0.4050401449203491	0.6639442443847656	0.332491397857666	0.37257885932922363	-0.10298877209424973	-0.345829576253891	-0.5679084062576294	-1.2436062097549438	0.4925478398799896	-0.8918702006340027	0.6156402230262756	-0.03803381696343422	0.9525951147079468	-0.1994059979915619	2.103361129760742	0.8183524012565613	0.31832000613212585	0.06341017782688141	0.11674061417579651	-0.5397951006889343	0.5468644499778748	-0.18442189693450928	0.6424940228462219	-0.6535808444023132	-0.08596932888031006	2.3937008380889893	0.464250773191452	0.010882209986448288	0.41465258598327637	0.14469686150550842	1.9672706127166748	0.2487030327320099	0.21484598517417908	1.4467520713806152	-0.541668713092804	0.5062001347541809	-0.42174625396728516	-0.8747429251670837	0.19303780794143677	-0.771263062953949	1.6853559017181396	0.34521743655204773	1.9100444316864014	-0.64858478307724	2.282294750213623	0.3557516634464264	-0.9707533717155457	1.359033226966858	0.43566033244132996	-0.2439466416835785	-0.07174816727638245	0.2356603443622589	-0.461282879114151	-1.6586971282958984	-0.08020937442779541	2.0227129459381104	1.0860748291015625	0.07532576471567154	0.15736845135688782	-0.47530317306518555	-0.6449419260025024	-0.32712727785110474	0.19632476568222046	1.1280879974365234	-1.2000937461853027	0.08373486250638962	-0.10456337034702301	-0.831311047077179	-0.03818751871585846	-1.0158625841140747	1.180130958557129	1.847978949546814	-0.8816733956336975	0.3879905343055725	0.24546760320663452	-0.1515243798494339	-0.14422033727169037	0.2130240648984909	0.4630657136440277	0.8557447195053101	1.240849256515503	0.25062042474746704	2.5446317195892334	-0.7678888440132141	0.0036678602918982506	1.590269923210144	2.094407320022583	-1.2838692665100098	1.494301438331604	0.34065768122673035	-0.22036805748939514	0.7194445133209229	-0.8841940760612488	-1.5880690813064575	0.9386301040649414	0.9046175479888916	0.7194483876228333	-1.2702524662017822	1.2981805801391602	-0.5545603632926941	-0.15178410708904266	-0.7893296480178833	1.249445915222168	-0.13102513551712036	-1.2976583242416382	-1.3377996683120728	0.47329744696617126	1.4964313507080078	-0.2979547679424286	0.315866082906723	-0.6225904226303101	0.3024364113807678	-0.14624957740306854	-0.4524199366569519	0.2354883998632431	-0.9467507600784302	-0.46040329337120056	-0.22388118505477905	-0.9550102353096008	-0.8177823424339294	-0.13426131010055542	1.0722097158432007	1.3220152854919434	-0.1720564365386963	0.30840998888015747	-0.022453615441918373	-0.2409253865480423	0.9960559606552124	0.35373392701148987	-2.357060432434082	-0.14808371663093567	-0.27311277389526367	-0.15979745984077454	-0.2866324782371521	-0.7751420736312866	1.3260518312454224	-0.537747323513031	-0.1927177608013153	-1.2194368839263916	-0.46149173378944397	0.6682441234588623	0.567555844783783	-1.813032627105713	0.5420094132423401	0.02177240699529648	0.3524564504623413	0.4057299494743347	-0.7085684537887573	0.6191518902778625	1.5160998106002808	0.19237808883190155	-0.7122785449028015	-1.2211171388626099	0.23866808414459229	-0.4345378279685974	0.9279025197029114	-1.598885416984558	-0.3841729164123535	-0.4192753732204437	0.8293529748916626	1.0856963396072388	2.1352038383483887	0.5663289427757263	1.050173282623291	0.12515105307102203	-0.2590640187263489	-0.04131069406867027	0.2927813231945038	-0.9702579975128174	0.15009622275829315	0.7344838976860046	-0.27006861567497253	0.3973575532436371	0.5487428307533264	-0.26931530237197876	0.7310599684715271	1.347555160522461	0.07447174936532974	-1.6279277801513672	0.5667605996131897	-0.4228639602661133	1.2468113899230957	0.07859648019075394	-0.6716288924217224	0.23486843705177307	-0.17074599862098694	-1.2629287242889404	0.2377789467573166	0.0188099667429924	-2.402204751968384	-1.2495297193527222	1.8221008777618408	0.17332610487937927	-1.3112236261367798	-1.0930694341659546	1.0866179466247559	-0.14887334406375885	0.2930370271205902	-0.9033613204956055	-1.0530195236206055	-0.12586915493011475	-0.22238969802856445	0.38154932856559753	1.748721718788147	-1.7948776483535767	-0.9926536083221436	0.05163221433758736	0.06511043012142181	1.0460299253463745	-0.9364909529685974	-0.6346365809440613	0.7523067593574524	0.19346439838409424	-0.04338431358337402	1.0579952001571655	0.3093911409378052	-0.5449886918067932	
Vladimir Putin	1.97420072555542	-2.3755085468292236	0.2289634793996811	-1.1769548654556274	1.5381718873977661	0.7862511873245239	-1.3281874656677246	-0.10900061577558517	0.6735002994537354	3.0212602615356445	-0.013530454598367214	-0.8080631494522095	0.8556499481201172	1.4666184186935425	1.3634257316589355	-2.008552074432373	-0.6580412983894348	-0.40498465299606323	1.0080771446228027	0.3093411326408386	0.48019224405288696	0.08886182308197021	-2.0145187377929688	-0.2771624028682709	-0.17878448963165283	0.7287753224372864	0.12031303346157074	2.058974266052246	0.6058775782585144	1.3899716138839722	0.498285710811615	-0.32576441764831543	-0.015937933698296547	-0.6078733801841736	1.5817811489105225	-0.22990496456623077	1.0824650526046753	-0.0032798214815557003	0.5187932252883911	-0.8847883939743042	-0.3362812399864197	-0.04345160350203514	3.299292802810669	-2.292703628540039	0.08743412792682648	-1.4165946245193481	-0.3765551745891571	-0.9341682195663452	1.1592625379562378	0.031247368082404137	0.7023327350616455	-0.03457998111844063	-0.8320431709289551	-0.502583920955658	-0.4100421965122223	-0.8822986483573914	-1.3453572988510132	-0.076889269053936	-0.3725583255290985	-0.9198030233383179	0.03965892642736435	-0.48538199067115784	1.4390071630477905	0.204239621758461	0.455027312040329	1.3778038024902344	-1.231209635734558	-0.16970013082027435	-0.6882180571556091	1.9210999011993408	0.2716926038265228	-0.3461848795413971	-0.08190715312957764	-0.6126499772071838	-0.24668695032596588	0.794244647026062	-0.8231794834136963	1.2070318460464478	0.44954970479011536	-0.6549655199050903	-0.05331350490450859	-1.2201403379440308	-0.805301308631897	-0.034229639917612076	0.7550002932548523	0.44023439288139343	-0.38273635506629944	-1.1055431365966797	0.9458979368209839	0.9020369052886963	-0.7119850516319275	-0.4949236512184143	-0.8678482174873352	1.6875594854354858	-0.3394235074520111	1.491697072982788	0.6285804510116577	1.1607331037521362	0.5749791860580444	-0.8394331932067871	1.1343953609466553	-0.9320783615112305	-1.6458587646484375	0.5739988684654236	-0.6491662859916687	-0.6329715251922607	1.432295322418213	1.6645088195800781	1.6397720575332642	-0.6415508985519409	-0.4242002069950104	-0.0940336063504219	0.4582873582839966	1.6992653608322144	0.8051699995994568	0.9246547818183899	0.927746057510376	-0.18883907794952393	0.6044248938560486	-0.15775063633918762	-1.220628261566162	-0.3962539732456207	-1.3214426040649414	1.3428006172180176	1.2469794750213623	0.3729827105998993	-0.12050271034240723	3.6651055812835693	0.06478974223136902	1.776138424873352	1.3264390230178833	0.35947757959365845	0.978568434715271	1.1542097330093384	1.2561413049697876	0.14905551075935364	-0.25787556171417236	-0.26746922731399536	0.7196603417396545	1.6475658416748047	0.20709915459156036	-1.1618540287017822	1.372951865196228	0.36665448546409607	0.2733668386936188	-0.21406804025173187	2.3264105319976807	-1.370611310005188	-1.1729437112808228	0.6579456329345703	-1.8594952821731567	-0.008509991690516472	-0.4898951053619385	0.3142244517803192	-0.4134470224380493	-1.139696717262268	0.07891365885734558	-1.1966803073883057	1.487979531288147	-0.01778966560959816	0.2646888196468353	0.8931050300598145	0.7285870909690857	1.2479298114776611	-0.3655785024166107	3.1861631870269775	-0.9123756885528564	0.807165265083313	0.8624715209007263	0.9981573820114136	-0.943286657333374	1.3349072933197021	0.4936506152153015	-1.1221153736114502	-0.09146945178508759	0.20246481895446777	-1.267266035079956	2.4302687644958496	2.2475645542144775	1.5182076692581177	-0.8349511623382568	1.454653263092041	0.15850482881069183	-1.3111704587936401	0.20219121873378754	1.7973936796188354	-0.25354328751564026	-1.1663641929626465	-0.026143670082092285	1.0343754291534424	0.502382755279541	1.7433596849441528	0.4369538128376007	-2.205171823501587	-0.6961454749107361	1.4144330024719238	0.1270706057548523	2.726423501968384	-1.5428828001022339	-0.5960311889648438	-0.6687101125717163	-1.2971690893173218	-2.9454615116119385	1.1976747512817383	2.838352918624878	2.0884387493133545	-0.2330496460199356	0.09426655620336533	-1.0991833209991455	-1.4129220247268677	0.4112794101238251	-0.4923624098300934	-1.1397708654403687	-0.21088658273220062	1.603958010673523	-0.7346963882446289	-0.4575537145137787	-0.3391008973121643	1.5932130813598633	0.1179003044962883	-1.477109432220459	-2.9438302516937256	-0.5589796304702759	-0.6104034781455994	-0.4002053141593933	-0.5954158902168274	2.646059274673462	-0.20846331119537354	-0.8236448764801025	0.4155222177505493	0.931943953037262	0.5237269997596741	2.991032838821411	0.38818979263305664	-1.263837456703186	0.7662926912307739	-0.45673447847366333	-0.5608025789260864	0.5167526602745056	-0.7984037399291992	-1.1950091123580933	1.2574604749679565	0.03801994398236275	1.0239039659500122	1.2545292377471924	-0.5488106608390808	0.9003022313117981	-0.07399989664554596	-0.7471395134925842	1.3085262775421143	1.7294365167617798	-1.9618210792541504	-0.013178573921322823	-0.6200310587882996	-0.6228364706039429	0.384960800409317	1.2159727811813354	-0.06900341063737869	0.9291036128997803	1.8820140361785889	-1.7625391483306885	-1.3847845792770386	0.6899829506874084	-0.6764811277389526	-0.8453553915023804	-0.048188671469688416	-0.6945051550865173	-1.1312429904937744	-0.3691738545894623	-3.790679693222046	0.3241961896419525	-0.10489679872989655	-0.5753345489501953	-0.8452397584915161	1.496238350868225	-1.0096166133880615	0.24241486191749573	-3.6551244258880615	0.8068034648895264	0.011295930482447147	-0.35716506838798523	-2.6282074451446533	1.345414400100708	0.746898889541626	0.8796833753585815	0.6842007040977478	2.3473780155181885	-3.3231890201568604	1.735932469367981	-0.4093804359436035	0.081316277384758	0.14806045591831207	-2.753988265991211	-0.14605562388896942	0.5812756419181824	2.2420995235443115	0.054819319397211075	2.8259541988372803	0.20516736805438995	-0.7464988827705383	
scrittore	0.17274624109268188	1.0825474262237549	-1.081499457359314	0.3630877137184143	-1.5490978956222534	-1.2765486240386963	0.8540661334991455	0.19643628597259521	0.9140859246253967	-0.012547630816698074	-0.2536276578903198	-0.02633441798388958	0.5231530666351318	-2.705920457839966	2.5312368869781494	-1.5446629524230957	0.055310193449258804	1.2762669324874878	-0.7424264550209045	0.6863226890563965	-1.1116397380828857	0.06156652793288231	-0.9428002834320068	0.024441147223114967	0.256766676902771	-0.6750571131706238	-1.9822851419448853	-1.5123897790908813	0.3159255087375641	-0.8222512006759644	1.463994026184082	-0.2778770625591278	0.09374160319566727	-1.4008219242095947	0.1026928499341011	0.6455479264259338	0.3685842752456665	0.17396223545074463	0.835578978061676	2.993438959121704	2.534022569656372	1.323246955871582	0.8808611631393433	-0.5065661668777466	-0.8207405805587769	-1.5080066919326782	-1.7378995418548584	-2.1871137619018555	1.2907112836837769	-1.3809332847595215	-1.152910828590393	-0.8303559422492981	-0.9407379627227783	1.1447727680206299	-0.7344489693641663	1.4202834367752075	0.06895407289266586	-0.5297486782073975	-0.3156593441963196	-1.4693784713745117	-0.905839204788208	-0.15580961108207703	1.2547237873077393	0.676441490650177	0.6111822724342346	0.25323688983917236	-0.39563876390457153	-2.1054024696350098	-1.297637939453125	-2.5503909587860107	2.131662130355835	-1.4308984279632568	2.1185946464538574	-0.8738163113594055	-0.30933311581611633	0.8728542923927307	2.4930901527404785	1.9550741910934448	0.13071465492248535	-2.8208043575286865	-2.115675926208496	0.753030002117157	-0.5664772987365723	0.17318961024284363	0.08540802448987961	-0.8330634832382202	0.7424100637435913	1.101524829864502	-2.0599136352539062	-2.8292465209960938	2.526658296585083	-0.7811763882637024	-1.4502239227294922	-0.7241348028182983	0.633978009223938	-1.2160999774932861	0.5211988091468811	2.5346782207489014	-1.0233337879180908	0.6704138517379761	1.7803736925125122	-0.7878866195678711	-0.036325301975011826	0.2608886957168579	-2.9507758617401123	-0.9255915880203247	-0.7620739340782166	-0.845941424369812	-0.8890538215637207	0.29266488552093506	2.255211353302002	-1.2046514749526978	0.5443673729896545	0.5370601415634155	0.8727278709411621	-0.9650717973709106	2.0542314052581787	-1.1204187870025635	-1.8024585247039795	0.3703721761703491	0.08772261440753937	-0.5249636769294739	-0.6619113683700562	0.11175813525915146	1.4106608629226685	-1.4651511907577515	-1.703452229499817	-1.680019736289978	-1.020799994468689	1.0443134307861328	1.3554378747940063	1.3913965225219727	1.0204100608825684	2.2735378742218018	-2.953202486038208	2.560333490371704	-3.1708638668060303	-2.6751577854156494	0.7235215902328491	-0.5648982524871826	-0.5092917084693909	2.3866584300994873	-1.8396341800689697	-2.6555912494659424	-1.0095750093460083	0.0170596856623888	-0.42604783177375793	0.6265056729316711	1.6274582147598267	-3.0081284046173096	0.5372278690338135	0.7925796508789062	-0.4808295965194702	-1.2542364597320557	-2.0861079692840576	2.1673877239227295	0.995904803276062	1.7287850379943848	0.29478099942207336	0.3170722723007202	-1.323110580444336	2.751009225845337	-0.10010180622339249	0.30690479278564453	-2.062375545501709	0.13900192081928253	-1.3039047718048096	1.1882941722869873	1.9863511323928833	0.2821817100048065	0.031492747366428375	-0.07427699863910675	0.42265012860298157	1.0703010559082031	0.7615976929664612	-2.3806002140045166	0.09635410457849503	0.8415986895561218	-0.4125119745731354	0.20280516147613525	0.7471438646316528	-2.9408440589904785	-0.1385875642299652	-0.4256637394428253	-0.3237243592739105	2.296865940093994	-1.0425996780395508	0.29312875866889954	-1.330249547958374	3.0060410499572754	0.4732851982116699	-1.0907753705978394	0.4296649694442749	-2.037294387817383	0.3839676082134247	-0.31587862968444824	1.4150997400283813	0.9408589601516724	-2.6585183143615723	-0.2850174605846405	1.4333651065826416	-0.004491688683629036	-0.20107682049274445	0.2947687804698944	1.44918954372406	-0.6180585622787476	-1.4933027029037476	-1.0786291360855103	-0.6511300802230835	-0.6441030502319336	0.4979128837585449	-0.5519052743911743	-1.8189762830734253	-1.2528496980667114	-1.1584224700927734	-0.6324176788330078	-1.1523441076278687	-0.9278591275215149	2.16520357131958	2.794191360473633	0.010425447486341	0.5296623110771179	0.3938679099082947	0.880789577960968	-0.2624182403087616	0.050857063382864	0.2952103018760681	0.8170535564422607	-0.6161772608757019	-1.8800386190414429	-0.03553597256541252	0.013005826622247696	-0.07345202565193176	-0.23800024390220642	1.2406105995178223	3.4252588748931885	-0.5772473216056824	1.1848372220993042	1.3024559020996094	-0.8086076974868774	0.1851544976234436	-0.6784607768058777	-0.9716275930404663	-0.6881366968154907	-1.3434113264083862	0.6672224402427673	0.5342732667922974	-1.5917255878448486	-1.513595700263977	-0.9177840352058411	1.6748995780944824	-1.3190455436706543	-0.886667788028717	2.082265615463257	-0.057136617600917816	0.4898107945919037	-0.35073167085647583	-1.5731663703918457	-2.1254794597625732	0.5262469053268433	-0.44047680497169495	-1.4898639917373657	1.5625191926956177	-0.2666873633861542	0.06694637984037399	-0.4671158194541931	-0.12045858055353165	-2.661137580871582	0.4283680319786072	0.1472913920879364	0.7592966556549072	-2.0471811294555664	-2.0962703227996826	1.35871160030365	2.2224535942077637	-1.8209196329116821	-0.1135968565940857	-0.5577099919319153	0.99381023645401	0.4206733703613281	1.0375962257385254	-1.41066575050354	1.145105242729187	1.6578080654144287	0.12590071558952332	2.0216212272644043	-1.202221155166626	2.6858818531036377	-0.3939654231071472	2.0469982624053955	-0.36883366107940674	-0.5782140493392944	-1.4310557842254639	-0.7128788828849792	-0.32617369294166565	1.7367128133773804	0.04062090814113617	-0.6319218277931213	0.522132158279419	0.5020328164100647	
Sigmund Freud	0.4001331031322479	0.5281786322593689	-1.534561038017273	-1.1917669773101807	0.47552064061164856	1.1791715621948242	2.4663054943084717	0.20824584364891052	2.144482135772705	-1.3762707710266113	1.3301717042922974	0.6995478272438049	-1.4250807762145996	-0.9690694212913513	1.2737579345703125	-1.8473799228668213	-1.718651533126831	0.6007932424545288	2.410419225692749	2.4091525077819824	1.0633156299591064	0.6965124607086182	-0.43611764907836914	1.0241023302078247	-1.096514105796814	2.8792061805725098	1.0551567077636719	-1.6902707815170288	1.5798386335372925	0.9722847938537598	-1.1050294637680054	0.010290930978953838	1.870863676071167	-1.3339687585830688	-0.546717643737793	0.9678651094436646	-2.079061269760132	1.9976576566696167	-0.348296582698822	1.6038743257522583	-0.004834320396184921	1.5747607946395874	1.243157982826233	-0.7827848792076111	-0.04218866303563118	-0.8911782503128052	-1.9121633768081665	-3.676513195037842	1.5528721809387207	-0.5344997644424438	-2.1985321044921875	0.1482415795326233	0.09793204814195633	-0.3043684661388397	-0.30013009905815125	0.8969692587852478	0.6767667531967163	-1.3073474168777466	0.053175732493400574	0.5431363582611084	-1.1130986213684082	0.23006519675254822	-1.2829432487487793	3.3403592109680176	0.4096754789352417	0.8759233951568604	0.3227720856666565	0.3674205243587494	-0.5279337167739868	-1.2369041442871094	3.577091693878174	-2.6988065242767334	2.2621941566467285	-0.9010027647018433	-0.39174267649650574	-1.8003017902374268	0.6635887622833252	-1.6679770946502686	1.118518352508545	-1.1606113910675049	-2.2293639183044434	-0.44916656613349915	-1.0572739839553833	-1.1506996154785156	1.0144624710083008	-1.188897967338562	0.3712003529071808	1.2191942930221558	0.8872466683387756	0.655703604221344	2.471446990966797	0.13729698956012726	0.11106348037719727	-1.230490803718567	0.750994861125946	-0.0961807370185852	0.08928027749061584	0.9868090748786926	2.9126014709472656	0.2390374392271042	0.34057775139808655	0.9785768985748291	-0.003479322185739875	2.6707794666290283	-1.3792321681976318	1.6216106414794922	-0.4084928333759308	-0.9109156131744385	-0.8003354072570801	0.5677928924560547	2.1811461448669434	-0.7881900668144226	-0.7689327597618103	2.2634177207946777	0.5785195231437683	2.7767958641052246	0.030401619151234627	-1.511900544166565	-0.03618980571627617	-0.6930609345436096	0.4018157720565796	0.3623720407485962	0.4541747272014618	0.6082215309143066	-1.208885908126831	1.1176561117172241	0.0807085633277893	0.6123197078704834	-0.8210523128509521	1.7150887250900269	2.177783489227295	1.036799430847168	1.6195921897888184	-0.24059529602527618	-3.1307713985443115	-0.020072931423783302	-0.9406046867370605	-1.8289930820465088	1.339249849319458	-1.3853731155395508	1.9459911584854126	1.908778190612793	1.2891734838485718	-0.4693717956542969	0.31889235973358154	-1.108354091644287	2.3398516178131104	0.3319561779499054	0.37588876485824585	-1.823625922203064	-0.49614620208740234	-1.043088674545288	-0.6464920043945312	1.1885582208633423	-1.5933339595794678	0.6001846194267273	0.9575063586235046	0.33443886041641235	0.9541842341423035	0.35350558161735535	-0.4649505019187927	3.2941672801971436	0.427136093378067	0.3787733018398285	2.0385520458221436	-0.9412512183189392	-1.3998942375183105	2.4966042041778564	0.049004748463630676	-0.8054946660995483	-0.5614174604415894	0.9951139688491821	-1.4026172161102295	0.9676976203918457	0.513587474822998	-1.166719913482666	-0.4381653070449829	0.7489075064659119	0.004708833061158657	-1.6032770872116089	0.12558849155902863	0.2958110272884369	0.7244266271591187	-0.12202714383602142	0.40854084491729736	1.989854097366333	0.09065672755241394	0.11139672249555588	-0.5976343154907227	1.4927947521209717	2.815338134765625	0.2583000361919403	1.3207510709762573	0.6091684699058533	0.554526150226593	-1.4085642099380493	0.5901862382888794	-0.7004762291908264	0.24983710050582886	-0.6482697129249573	-0.4860600531101227	-1.93294358253479	1.1214244365692139	-1.0965430736541748	-0.19683116674423218	-1.0135836601257324	-1.4216234683990479	1.0592890977859497	0.4184108078479767	-0.9723930954933167	1.5265722274780273	-0.9292495250701904	2.73026704788208	-0.8413511514663696	-0.3328559100627899	-0.25208210945129395	-0.20519989728927612	1.7636529207229614	1.0553842782974243	0.9960715174674988	0.10061526298522949	2.206380605697632	-1.143251895904541	1.2376060485839844	-0.2221323549747467	-1.0041751861572266	1.5944899320602417	-0.3846537172794342	0.07058022171258926	-0.8134154677391052	0.14407044649124146	0.5226741433143616	-0.5192694067955017	-0.6260077953338623	-0.9983915686607361	2.44529128074646	-1.5470936298370361	0.6775543093681335	-0.46913760900497437	-3.1359243392944336	0.29300743341445923	1.4524065256118774	1.1091749668121338	0.12291313707828522	-3.4454505443573	0.4349701702594757	-0.40578946471214294	-2.3283841609954834	-0.20665936172008514	-2.3555338382720947	1.3587714433670044	-0.5766549706459045	-1.7000855207443237	1.205852746963501	-1.6672688722610474	0.6316214799880981	-1.0894334316253662	0.18530306220054626	-1.0499632358551025	-0.503860354423523	-2.366798162460327	0.026908578351140022	-1.5290091037750244	1.0373305082321167	-1.2437959909439087	1.1803805828094482	-0.7314859628677368	-0.99053555727005	-1.7559378147125244	0.38898494839668274	-0.19939647614955902	0.017044035717844963	-0.7203410267829895	0.8563093543052673	-0.949001669883728	-2.188772201538086	0.4121320843696594	0.05131164938211441	1.839175820350647	0.6227020621299744	0.20036758482456207	-0.8839789628982544	-0.8202720880508423	1.4513133764266968	-2.2901625633239746	1.9849793910980225	-0.4993151128292084	1.7639957666397095	1.039493203163147	-1.2856777906417847	-1.275306224822998	0.5668125748634338	2.3196864128112793	0.15803635120391846	-0.11392922699451447	1.992173194885254	1.1689079999923706	0.5147473812103271	1.3413779735565186	0.8330620527267456	
J.K. Rowling	0.195545494556427	-0.7247045040130615	0.3402034342288971	0.4650534391403198	0.7719393372535706	-0.8284589648246765	-0.1783606857061386	0.10246938467025757	0.9506800174713135	0.8013479113578796	0.11161834746599197	-0.9262493252754211	-1.206230878829956	-0.4004976451396942	-0.9501535296440125	-1.195401668548584	-0.5060046911239624	0.37249913811683655	-0.23194536566734314	0.680489718914032	-0.5119933485984802	-0.8111234307289124	-1.2053552865982056	-0.11581191420555115	-0.9580614566802979	-0.14190438389778137	0.09352005273103714	-0.9570364952087402	-0.17650200426578522	-0.5144195556640625	-0.10435910522937775	0.308045893907547	1.1573388576507568	-0.11189728230237961	0.8677039742469788	-0.011448968201875687	-0.1135852187871933	-0.8264424800872803	0.12840543687343597	1.60878324508667	0.5474111437797546	0.12240033596754074	0.3957802355289459	-0.05762120336294174	0.20924250781536102	0.10579922795295715	-0.20871086418628693	-0.4761420488357544	0.16462723910808563	0.11545613408088684	-0.49005237221717834	-0.817251443862915	-0.8458569645881653	1.0705729722976685	-0.0971132293343544	0.11147268861532211	0.2697165608406067	0.4758518934249878	-0.26263105869293213	-0.9805573225021362	0.993377149105072	-0.9764416217803955	-1.2481660842895508	0.18925601243972778	0.22051070630550385	-0.7292771339416504	-0.03813972324132919	-0.762963056564331	-1.2924047708511353	-0.9970678687095642	-0.15249775350093842	-0.814721941947937	1.0555273294448853	-0.19476671516895294	0.49561160802841187	0.46400097012519836	0.6738383769989014	0.6045919060707092	0.6561439037322998	-0.9841955304145813	-1.5308679342269897	-0.33244234323501587	-0.1773652285337448	1.1003628969192505	-0.4535761773586273	0.5966328978538513	0.7635080218315125	0.3260493576526642	0.7418248653411865	-1.1677606105804443	1.0156623125076294	0.2976223826408386	-1.0252572298049927	-0.27812907099723816	0.9360234141349792	-1.191757082939148	0.4490186274051666	-0.2304101139307022	0.020385606214404106	1.0934088230133057	-0.22591306269168854	0.18569150567054749	-0.5464087128639221	-0.42142453789711	-0.28274795413017273	0.0406985878944397	-0.44658711552619934	0.0057652778923511505	-0.5635582208633423	1.3059649467468262	-0.2930692732334137	0.5235666632652283	0.7576630115509033	1.0968027114868164	0.5017648935317993	-0.4593574106693268	0.02496163547039032	0.21680933237075806	-0.8172286152839661	-0.7174529433250427	-1.2193163633346558	-0.46646788716316223	-0.8111392855644226	1.5144449472427368	0.40479788184165955	0.28294578194618225	0.04084207862615585	0.7435519695281982	-0.9271532893180847	0.5260838866233826	0.802168607711792	0.06976598501205444	0.6010599732398987	-0.2539183795452118	-0.6819959878921509	0.7508347034454346	-1.022139310836792	0.38433659076690674	0.0974845141172409	-0.8871180415153503	-0.6124563217163086	0.6493881344795227	-0.17529919743537903	-0.052773747593164444	-1.4313379526138306	-0.7601873874664307	0.5399201512336731	-0.5289034247398376	0.3936138153076172	-0.8084025979042053	0.5084580779075623	-0.3102046847343445	-0.7162889838218689	0.4075930714607239	0.872704029083252	-0.06488946080207825	-0.3639775514602661	0.038690485060214996	-1.1215391159057617	0.3402484953403473	-0.2029566466808319	0.9035261869430542	0.0020980273839086294	-0.6061299443244934	-0.36299481987953186	0.5101572871208191	-0.8368597030639648	-0.17068907618522644	1.4163669347763062	1.0532422065734863	0.7593291997909546	0.4825540781021118	0.7691242098808289	0.6427274942398071	-0.34690171480178833	-0.5236022472381592	-0.24761436879634857	0.3505719304084778	1.2963122129440308	0.12721818685531616	0.09689580649137497	-0.9628762006759644	0.26970282196998596	-0.22458016872406006	0.976646363735199	2.2567224502563477	0.01909136213362217	0.8384049534797668	0.21553455293178558	0.3047425448894501	-0.23263809084892273	-0.7508413195610046	0.08396792411804199	0.13316260278224945	-0.5659278631210327	-0.3738073408603668	0.5689194202423096	0.34162262082099915	-0.7390170693397522	-0.7526437044143677	0.0009717949433252215	-1.2227705717086792	-0.7279702425003052	-0.5831943154335022	0.6241954565048218	-0.2436639815568924	-0.4268551170825958	-0.6674965620040894	0.5701837539672852	0.292370080947876	2.649197578430176	0.43842148780822754	-1.322555661201477	-0.09479387104511261	0.04517542943358421	-0.990180253982544	-0.4791966378688812	1.385330319404602	1.3144292831420898	0.07354047894477844	-1.3153949975967407	-0.8260065317153931	-0.8728688359260559	0.2956748604774475	0.3040788173675537	-0.4654320776462555	0.534905195236206	-0.7768710851669312	-0.10719694942235947	0.40239885449409485	0.8425584435462952	-0.15970931947231293	-0.04236842319369316	-0.5784028172492981	0.1590048372745514	0.35100847482681274	0.7664325833320618	-0.8628464937210083	-0.32276415824890137	0.6230571866035461	0.424003005027771	-0.45644238591194153	0.5601816177368164	0.13587629795074463	0.35526493191719055	0.9050930738449097	0.15477412939071655	-0.2865075469017029	-0.6935170292854309	-0.07855463027954102	-0.7413625121116638	-0.22974777221679688	-0.36120885610580444	0.7039574384689331	-1.7847542762756348	1.2600071430206299	0.4355311691761017	0.3073464632034302	-0.5810849666595459	-1.206031322479248	-0.3940392732620239	-0.7321566343307495	1.4359878301620483	-0.11119356006383896	0.081667460501194	0.027741730213165283	-0.0072194840759038925	-0.47069287300109863	-1.02090585231781	-0.44716015458106995	0.4465489387512207	-0.6728219389915466	-0.46658334136009216	-0.35991132259368896	1.069387674331665	0.4063622057437897	0.38474005460739136	0.40433773398399353	0.7344370484352112	-0.05622221156954765	0.794948399066925	0.02503013238310814	-0.2900148034095764	0.9386360049247742	-0.4531523883342743	-0.04435141384601593	0.8630740642547607	0.7353742122650146	-0.02701444923877716	-0.13077953457832336	-0.7263998985290527	0.6739165186882019	0.8930326104164124	-0.1328694224357605	-0.22923880815505981	0.24998590350151062	0.5347715616226196	-0.3063087463378906	0.5712124705314636	-0.8353162407875061	
Ernest Hemingway	0.17770040035247803	0.023179704323410988	-0.053919631987810135	0.6734679937362671	-0.13157717883586884	0.07201119512319565	0.5482546091079712	0.2207205444574356	1.224295973777771	-0.20778921246528625	-0.5425572395324707	0.8979634642601013	-0.549304187297821	-0.04488902911543846	0.21652238070964813	-0.9948915839195251	-0.3192731738090515	0.1313260793685913	-1.2843618392944336	1.4376429319381714	-0.4713555574417114	0.7964924573898315	0.32772111892700195	0.29295897483825684	0.513817310333252	-0.42109861969947815	0.3745495676994324	-0.9502816200256348	0.31216683983802795	0.7808025479316711	0.6552655100822449	0.017466973513364792	0.4320748448371887	-0.42614737153053284	-1.5797905921936035	1.085105538368225	0.8685411810874939	1.3942049741744995	0.2083180993795395	1.3368935585021973	0.3690521717071533	0.7674818634986877	1.2820870876312256	0.20356224477291107	-0.1233627125620842	-1.2597846984863281	-1.127255916595459	-1.394170880317688	0.025483008474111557	0.46752724051475525	-1.7793312072753906	-0.12619051337242126	0.05598566308617592	0.9507666230201721	0.233867347240448	1.026037335395813	-0.5269949436187744	-0.38892677426338196	0.24785590171813965	-1.319248914718628	-0.477584570646286	-0.2258245348930359	1.3612549304962158	-0.42927905917167664	1.2845429182052612	-0.9936829209327698	0.7097828388214111	0.48730242252349854	-1.9865961074829102	-1.040743350982666	0.5140925049781799	-1.4348537921905518	1.7675670385360718	0.3731442391872406	0.5131399631500244	0.7550884485244751	0.9712728261947632	0.4335592985153198	-0.9324540495872498	-1.6811281442642212	-0.9457874894142151	0.8281994462013245	-1.1724491119384766	0.9212115406990051	0.11430560797452927	0.0887591540813446	1.8119598627090454	1.2479275465011597	-2.7708356380462646	-2.089651107788086	1.1829146146774292	0.0706641674041748	-0.30709877610206604	-1.242838740348816	0.31246650218963623	-1.7457841634750366	1.0142483711242676	1.8094840049743652	0.3711141049861908	-1.10258948802948	1.063520908355713	0.7779273986816406	0.8269545435905457	0.9209725260734558	-1.2472463846206665	-0.10967355221509933	-0.6122902631759644	-0.8132239580154419	1.0585300922393799	0.1953619420528412	0.4453836977481842	-0.4233599603176117	0.025573763996362686	1.4363893270492554	1.803698182106018	-0.6884177923202515	0.7499130368232727	-0.2579275369644165	-0.30595239996910095	0.2609370946884155	-1.6499375104904175	0.14340390264987946	0.43005549907684326	0.7976217865943909	0.05815347656607628	0.12314096093177795	-2.203338861465454	-1.4603536128997803	0.04531513527035713	-0.14532789587974548	0.3332391679286957	1.253823161125183	1.3241485357284546	1.3697541952133179	-0.3528193533420563	-0.7363216280937195	-0.945161759853363	-1.065030813217163	0.5832001566886902	-1.24821138381958	0.08964154869318008	1.2154265642166138	0.3616168200969696	-0.9518279433250427	0.1368173211812973	-1.0495665073394775	-0.887402355670929	1.348069190979004	1.0158659219741821	-2.8962056636810303	-0.2360830456018448	-0.3131510317325592	-0.862579882144928	0.5485491752624512	-0.4512777328491211	0.8831454515457153	-0.02982703410089016	0.9628247022628784	0.2636302411556244	0.7287144064903259	-0.5086805820465088	2.4015541076660156	1.1098023653030396	0.22644688189029694	-0.41559696197509766	-0.7077043652534485	-1.4855765104293823	0.9329468011856079	1.4621959924697876	1.1839970350265503	-0.5445957779884338	1.0633916854858398	-1.0308767557144165	0.5993219614028931	-0.7585012912750244	-1.1541029214859009	-0.6240466237068176	0.14405035972595215	0.3840561807155609	0.2293369024991989	0.048107534646987915	-1.7196699380874634	0.10028805583715439	0.5643005967140198	-0.07293127477169037	1.3316994905471802	-0.2365022450685501	1.210721731185913	-0.29784321784973145	2.096912384033203	0.8645798563957214	-0.1847810000181198	1.5066732168197632	-0.06217234209179878	-0.46613961458206177	0.7877986431121826	0.5136634707450867	0.8038421273231506	-0.858391523361206	0.4328162670135498	-0.2359626442193985	-1.558506965637207	0.9389976859092712	-1.82651686668396	0.9600602984428406	0.39624080061912537	-0.2744087874889374	-0.1834677755832672	0.6267582178115845	-0.11531751602888107	0.9606665372848511	0.447075754404068	-1.4000685214996338	-0.3298593759536743	-0.8010997772216797	-0.6752369999885559	-0.1603306382894516	0.19177532196044922	1.118432879447937	1.0513017177581787	-0.8925008773803711	1.0451087951660156	0.6401113867759705	1.0831940174102783	0.34069833159446716	-0.14758625626564026	0.46901312470436096	0.4285011291503906	-0.2750070095062256	1.0249422788619995	0.426457017660141	0.9769344329833984	0.22391675412654877	-1.749596357345581	-0.570586621761322	1.718483805656433	-1.428888201713562	0.10041166096925735	1.5234007835388184	-0.5315008759498596	0.5999853014945984	0.049493417143821716	-0.06785418093204498	-0.236117422580719	-1.3119760751724243	0.8603997230529785	1.6775768995285034	-0.8964315056800842	-0.3804698586463928	-0.6473350524902344	0.8133941292762756	-0.5054318904876709	-0.5447447299957275	1.4144352674484253	-0.9678202271461487	1.0460375547409058	-0.08867887407541275	-1.4690444469451904	-1.0782593488693237	0.844414234161377	-0.6172781586647034	-2.6746747493743896	-0.3813255727291107	-0.808708667755127	1.5560259819030762	1.0647944211959839	0.15632924437522888	-1.4841039180755615	0.6773790717124939	0.7908996939659119	0.7047922015190125	-0.5200016498565674	-1.448412537574768	0.43158769607543945	1.1781224012374878	-1.209734559059143	0.12605887651443481	0.5198545455932617	2.0169715881347656	0.7148577570915222	0.3522008955478668	-0.11112082004547119	0.5081862211227417	2.686966896057129	-0.15959161520004272	0.8717166185379028	-0.4719058871269226	1.666142463684082	-1.2029165029525757	0.8150979280471802	-0.0873013362288475	-0.26230695843696594	0.5544180274009705	-0.24735283851623535	0.43601489067077637	1.873090386390686	0.10486485809087753	-1.3984235525131226	1.1893160343170166	-0.06559280306100845	
William Shakespeare	0.3369806408882141	-0.5574256777763367	-1.4234825372695923	2.4082047939300537	0.6524094939231873	-0.9538500308990479	1.7880204916000366	1.4605286121368408	1.1736533641815186	2.3729357719421387	1.171992301940918	0.4926680028438568	-0.4692499041557312	-0.24045993387699127	-0.7458150386810303	-0.5511042475700378	-0.8761757016181946	4.012335300445557	-0.08170821517705917	-0.4152175784111023	-1.2153507471084595	-1.3196330070495605	2.5418777465820312	1.1697626113891602	-0.9769406914710999	-1.2656898498535156	-1.0582088232040405	-0.7149727940559387	1.3620996475219727	1.0226737260818481	0.5016006231307983	-0.8246476054191589	0.09592732787132263	-2.9605112075805664	-0.36809077858924866	-0.1361018568277359	-0.9897871017456055	0.3644152283668518	-0.39927324652671814	2.92095685005188	0.8389179110527039	1.9259014129638672	0.6264176964759827	-0.45014190673828125	-2.861497640609741	-1.4635233879089355	-1.3951493501663208	-2.1325252056121826	0.21298903226852417	0.013820240274071693	-1.9354768991470337	-1.13602876663208	-0.5980734825134277	1.912184476852417	-1.3812589645385742	0.2130117416381836	0.937049150466919	-2.188654661178589	-1.174291729927063	0.9631959795951843	1.3535434007644653	0.14138133823871613	-2.3584353923797607	0.7021816372871399	1.6787532567977905	-1.8900452852249146	0.450077086687088	-0.08353886753320694	-0.20128704607486725	-1.4783375263214111	-1.2675986289978027	0.03947262093424797	0.8515375852584839	-0.1423882097005844	-2.55739426612854	-0.9405582547187805	-0.49923697113990784	0.5817162394523621	-0.255089670419693	-0.6988214254379272	-1.624084711074829	2.003056049346924	0.44813358783721924	0.2448141872882843	-0.9346066117286682	-0.02682282216846943	4.564550876617432	-1.906367301940918	-2.180783271789551	-2.725998640060425	-0.3896125853061676	-2.9313228130340576	-1.4369397163391113	-0.1397104114294052	1.3143095970153809	-2.051327705383301	1.3875396251678467	0.9361053109169006	-0.047746963798999786	-0.9960594773292542	-0.3897627890110016	1.3304946422576904	0.6815884709358215	-1.327966332435608	2.8779096603393555	0.8968928456306458	-0.24585294723510742	-0.2533436119556427	0.7059422135353088	2.7787814140319824	-0.3479667007923126	2.487348794937134	2.3246099948883057	-0.19637086987495422	2.644810676574707	-0.18837055563926697	2.0792293548583984	-0.09961297363042831	-0.5919597744941711	-0.5681036114692688	0.042115986347198486	0.08187424391508102	-0.8320632576942444	1.2326416969299316	-0.2754003703594208	-0.12444670498371124	-1.8317997455596924	-2.0024633407592773	-1.5112406015396118	1.2445428371429443	0.05630842223763466	-0.05310983955860138	-0.0988803282380104	1.5989153385162354	-4.07293701171875	0.2160186767578125	-1.8201415538787842	-1.2413333654403687	-1.777347207069397	0.33002257347106934	2.343592882156372	2.2185373306274414	0.5513994097709656	-1.728865146636963	-0.344206839799881	-0.8305412530899048	-0.6071993708610535	0.9794228672981262	0.40869516134262085	-2.275731325149536	0.6748138070106506	1.2980412244796753	-2.094827175140381	0.6363378763198853	-2.5250279903411865	-0.8798162937164307	0.7866402268409729	2.108985185623169	-0.529554545879364	-0.25705909729003906	-1.5048707723617554	0.3809812664985657	-1.0552979707717896	-0.24173422157764435	0.45457330346107483	-1.8789050579071045	-1.7069828510284424	0.5929633378982544	0.914649486541748	-2.4625213146209717	-0.8315401673316956	-0.7374163866043091	-4.20487642288208	0.21388892829418182	-2.6707026958465576	-2.4247677326202393	-1.3563536405563354	-0.367352157831192	-0.0547749400138855	-0.8156527280807495	1.4930322170257568	-0.8342260718345642	0.28879138827323914	-2.4813973903656006	2.317385196685791	2.664630889892578	0.13654077053070068	3.559250831604004	1.552163004875183	-1.8372042179107666	2.222996950149536	-1.955145001411438	-0.38913843035697937	0.3683241009712219	-1.6732640266418457	1.5831022262573242	2.313736915588379	-1.2402788400650024	0.8736433982849121	2.038800001144409	-2.1709625720977783	-0.6629089117050171	-0.7874899506568909	-1.3525341749191284	1.8697097301483154	-0.9610005617141724	1.236599326133728	-2.769524574279785	-0.8658127784729004	-0.31891900300979614	2.8906211853027344	0.15154136717319489	-0.061573438346385956	1.2274242639541626	0.490500807762146	-0.5432798266410828	0.5815685987472534	-1.1525282859802246	0.7824612259864807	-0.4827607572078705	-0.34143224358558655	1.6790555715560913	-0.3365637958049774	1.4377260208129883	-0.25731799006462097	-0.4713520407676697	2.258967876434326	1.4129027128219604	1.4638032913208008	0.9530220031738281	0.23560425639152527	1.3852596282958984	-0.492036908864975	-0.45637038350105286	-0.27591416239738464	2.0768258571624756	-1.9852373600006104	2.046274185180664	-1.5504928827285767	0.819916307926178	3.590397834777832	-0.22345592081546783	-0.2542829215526581	-0.9362787008285522	-0.8645035624504089	1.3126693964004517	1.7681840658187866	-1.0961977243423462	-2.0124623775482178	-0.5873334407806396	-1.1778285503387451	0.9863131642341614	-1.0028880834579468	1.7468438148498535	-1.0093170404434204	1.2022957801818848	0.3359931707382202	1.4209775924682617	-0.7664963603019714	0.32839977741241455	-0.8781236410140991	-1.5331472158432007	0.9802610874176025	0.9060863256454468	-1.4942117929458618	2.360673666000366	0.4237993359565735	-1.3293201923370361	-1.41575288772583	1.427021861076355	0.09481671452522278	-0.07879184931516647	0.457571804523468	0.8942766785621643	1.032824158668518	0.27195364236831665	-0.5548833608627319	-0.8300692439079285	2.098792314529419	-0.41782140731811523	2.4809517860412598	-1.5295372009277344	-0.6878204345703125	0.2975808084011078	-0.9764754176139832	1.1577842235565186	0.4671688675880432	2.0395796298980713	0.4801507294178009	-0.048641715198755264	0.881281316280365	0.5015661120414734	-0.318619042634964	-0.8550461530685425	2.7700841426849365	0.2837631404399872	3.542806625366211	0.006974976044148207	-0.43979114294052124	-1.73749840259552	
musicista	-1.6475818157196045	1.0659980773925781	-0.9959573745727539	-0.4864257574081421	-1.4013423919677734	-0.5833386182785034	1.5521358251571655	0.9309564828872681	0.8458421230316162	-0.4187358319759369	0.4928003251552582	-2.35994029045105	-1.2128829956054688	-0.6291333436965942	-0.3427557051181793	-0.4936603009700775	0.1646132469177246	1.5038946866989136	-0.8995211124420166	-1.983705997467041	-0.7097917795181274	0.3181576430797577	0.7800683379173279	0.28533080220222473	1.3411654233932495	-2.1630403995513916	-0.14074759185314178	-0.3503650426864624	-0.6246181726455688	1.2825816869735718	-0.3420120179653168	-0.25483790040016174	-0.22344692051410675	-1.1377475261688232	-0.13185453414916992	1.5187994241714478	-0.8144084811210632	1.345042109489441	1.2386078834533691	2.2936043739318848	1.4194098711013794	2.2371673583984375	0.31977277994155884	0.6802169680595398	2.2571516036987305	-0.3186299204826355	1.5152926445007324	-2.427046060562134	2.43509578704834	-0.22300855815410614	-1.275406837463379	1.2996912002563477	-1.1940648555755615	0.23864306509494781	-2.588653802871704	-0.0640430822968483	0.6029646992683411	1.2772517204284668	1.5924062728881836	-0.5512747764587402	0.05784032121300697	0.06318265199661255	-0.24477718770503998	-1.5442081689834595	-0.018926145508885384	1.5632497072219849	-1.7840611934661865	-2.2264649868011475	-0.658371090888977	0.05222862958908081	1.8671098947525024	-0.09921380877494812	0.6250097155570984	0.004145167768001556	0.8159621357917786	0.157682403922081	-0.7421784996986389	1.9265888929367065	1.6712452173233032	-0.14881156384944916	-0.2735421061515808	0.9900554418563843	0.7055927515029907	-0.0819990485906601	0.08815949410200119	0.05107259005308151	1.1059823036193848	-0.9542784094810486	0.17286337912082672	-1.8187382221221924	2.3680131435394287	0.16500049829483032	-1.964012861251831	1.1551278829574585	-0.2579059898853302	-0.6045041084289551	-0.5368373394012451	2.3386600017547607	0.75938880443573	1.7287812232971191	-0.6997467279434204	-0.2487582266330719	-1.625848650932312	2.031719446182251	-2.6796610355377197	0.7712273597717285	-0.43021437525749207	-0.9379863142967224	0.9336729049682617	-0.842322051525116	0.6388192772865295	-1.0341006517410278	-1.3943898677825928	1.276292085647583	3.0070722103118896	-0.38736438751220703	2.2731807231903076	0.463235467672348	-0.5139975547790527	-0.9413006901741028	-0.061299584805965424	-0.4909866154193878	-0.41905808448791504	0.1893872618675232	0.5473719835281372	-0.4725900888442993	0.3069780170917511	-0.8138755559921265	0.8714884519577026	0.27719971537590027	-1.7528784275054932	-1.4476654529571533	-1.0128942728042603	2.7148542404174805	-3.514953374862671	1.406766414642334	-2.0612447261810303	-2.1733686923980713	1.8594292402267456	-0.3261353075504303	1.3083891868591309	2.9195125102996826	0.41098839044570923	-0.017403874546289444	1.6158069372177124	-1.3590818643569946	0.56549072265625	0.5997679233551025	1.832801342010498	-1.0286670923233032	0.8663676977157593	-0.9870200753211975	1.185302734375	-0.13326285779476166	-1.0515137910842896	1.8266477584838867	0.4683128297328949	-0.687279462814331	-0.35291409492492676	-0.17049258947372437	0.5138727426528931	0.7430587410926819	-0.22585740685462952	-2.408081293106079	-1.5173017978668213	1.138381838798523	-1.3044949769973755	0.9101376533508301	1.7759008407592773	-0.8384084701538086	-1.539911150932312	1.0970072746276855	0.17475885152816772	1.7266579866409302	1.0371373891830444	-3.355069160461426	2.1322314739227295	0.41652190685272217	0.16515228152275085	-1.0494258403778076	0.5275366902351379	0.03591243177652359	-0.28540903329849243	-0.6683176755905151	-0.35591569542884827	-0.3515060842037201	-1.1528576612472534	0.41267478466033936	-1.7931890487670898	0.8054162263870239	0.9607465863227844	-1.5044130086898804	-0.877561092376709	-0.9376160502433777	1.2474665641784668	0.6598076820373535	1.64164400100708	-1.6241227388381958	-1.3490275144577026	-1.5462666749954224	0.2535369396209717	0.27897030115127563	0.16134679317474365	-0.8637986779212952	-0.767146110534668	-1.623862385749817	-0.22632165253162384	-1.0188661813735962	-0.057234298437833786	-0.0942656397819519	-1.622570276260376	-2.6516072750091553	0.5439946055412292	1.6735807657241821	-0.9962495565414429	-2.005821943283081	-0.17774707078933716	-0.4608108699321747	0.4143317639827728	2.0649659633636475	1.7527472972869873	-0.09085278958082199	0.09826263785362244	0.007585939019918442	-2.6949214935302734	0.9360588788986206	0.08531909435987473	-0.48355239629745483	-2.134544849395752	-0.6229677796363831	0.6610999703407288	0.15803168714046478	-0.8653839230537415	-1.200200080871582	0.958814799785614	1.171695351600647	-1.5553548336029053	-1.892980933189392	2.1682419776916504	-1.6339412927627563	-0.5444275736808777	-1.5321160554885864	-1.4973255395889282	-0.24839183688163757	0.6178839206695557	-1.2939249277114868	1.275784969329834	0.07418268918991089	-0.44442275166511536	1.1066019535064697	0.75103360414505	-1.5139286518096924	-1.2896531820297241	3.8709793090820312	-0.36763375997543335	1.7159518003463745	1.3938640356063843	-2.442883253097534	-1.424290657043457	2.4643120765686035	-1.9114909172058105	0.19724367558956146	-0.2075236290693283	0.2784075140953064	-0.2956506907939911	0.4593091607093811	-0.5914824604988098	-0.532355785369873	0.4188687205314636	0.835433840751648	-1.3804298639297485	-3.2780303955078125	-0.7251957058906555	0.7718618512153625	1.9497554302215576	0.19399791955947876	-0.8834481835365295	0.5185782313346863	0.7771010994911194	-2.6972782611846924	-0.5275360941886902	-0.18586444854736328	0.322744756937027	-0.8384069204330444	-0.4037589132785797	-0.3389507532119751	-0.5147827863693237	-0.19472575187683105	-1.393142580986023	0.882097065448761	-0.5790404677391052	0.3005533218383789	-1.0815826654434204	0.8045505881309509	-1.6764216423034668	1.3841146230697632	0.4672105014324188	0.07092192769050598	0.48757490515708923	0.3204978108406067	
Freddie Mercury	-0.7868876457214355	-0.529278039932251	0.06622142344713211	0.004461850505322218	0.4138455092906952	0.35264328122138977	0.5926830768585205	0.47408220171928406	0.9840488433837891	-0.025552619248628616	-0.7479507923126221	-0.3771703243255615	-1.3363374471664429	0.1336563378572464	-0.24555251002311707	0.6851377487182617	-1.5082608461380005	1.3677393198013306	-0.28721681237220764	-1.1558263301849365	-0.512199878692627	1.21269953250885	-0.43373870849609375	-0.7590554356575012	0.9756631851196289	-1.1699306964874268	-0.7931411266326904	-0.17564517259597778	-0.9675491452217102	0.8798272609710693	-0.5926573276519775	0.814612090587616	1.1672673225402832	-0.20972532033920288	-0.19621069729328156	0.3602520823478699	-0.3796941339969635	-0.48338383436203003	-0.730508029460907	1.653398871421814	-1.7308928966522217	0.6785200238227844	0.5826457738876343	1.0704108476638794	0.949979841709137	-1.9544360637664795	1.1228989362716675	-1.791134238243103	0.6434314846992493	0.35498446226119995	-1.4310247898101807	0.5246559977531433	0.0884174033999443	0.5615707635879517	-1.2544422149658203	-0.57196044921875	-0.013604354113340378	0.7030919790267944	0.9849331378936768	0.5098675489425659	0.07486998289823532	-0.6856434345245361	0.5617029666900635	0.25111520290374756	0.41765204071998596	0.3732674717903137	0.3318385183811188	-0.1393381804227829	-0.8727385401725769	0.6365852355957031	-0.70664381980896	0.25497791171073914	1.6256574392318726	1.0946565866470337	0.8777471780776978	0.7623509764671326	-0.203908309340477	0.11623059213161469	1.5221872329711914	-0.27643218636512756	-0.5407494902610779	0.8950531482696533	0.4587365686893463	-0.005433589220046997	0.39751487970352173	-0.16077053546905518	0.8106217384338379	0.6807994246482849	0.48656660318374634	-0.7946059107780457	0.9820939302444458	0.8957584500312805	0.49046581983566284	-0.2910979986190796	-0.6926502585411072	0.5569464564323425	-0.29444026947021484	1.7385894060134888	0.3428540527820587	0.8278025388717651	-0.5279020667076111	1.2428128719329834	-1.174422264099121	1.7585954666137695	0.618847668170929	0.02549220435321331	-0.29926109313964844	-0.0037100804038345814	0.4923466145992279	0.8883135318756104	0.7498188018798828	0.28218892216682434	-0.331365704536438	1.4334412813186646	0.842149019241333	0.4211450517177582	0.9800519943237305	-0.22509193420410156	-0.3484514653682709	-0.27607083320617676	-0.668024480342865	-0.49087437987327576	-0.28489550948143005	0.8414585590362549	-0.39630571007728577	-0.28192856907844543	-0.35584431886672974	1.2493841648101807	0.5680269598960876	0.01083558239042759	-1.6421164274215698	0.6441361308097839	-1.8576821088790894	0.18683862686157227	-1.6027626991271973	-0.2395300269126892	-1.4710501432418823	-0.3506036400794983	0.7623670101165771	0.7154240608215332	0.9186546802520752	0.3563374876976013	0.6120127439498901	-0.09387849271297455	0.7983112335205078	-0.0866677537560463	0.3157249093055725	-0.6648986339569092	0.4071238934993744	-0.521544337272644	0.9458227753639221	-1.2092359066009521	0.022168245166540146	0.44779789447784424	-0.534168004989624	0.17038294672966003	0.6091476082801819	1.1011621952056885	-1.2221885919570923	0.16062913835048676	-0.4801967740058899	-0.3082265257835388	-1.005976915359497	-0.36141932010650635	-0.9695433974266052	1.6573067903518677	0.2664930820465088	-0.0739690512418747	1.1782255172729492	1.2384724617004395	-0.5320979356765747	0.46378347277641296	-1.156899333000183	-0.023133309558033943	-0.8855586051940918	-0.5323241949081421	0.5932045578956604	1.1679916381835938	-0.16290460526943207	-0.5232553482055664	-0.45715367794036865	0.6329570412635803	-0.08897367119789124	-0.31261372566223145	0.6955955028533936	-0.1353943645954132	-0.939489483833313	0.5746706128120422	1.3473721742630005	0.5650700330734253	0.16362445056438446	-0.7227724194526672	0.11210981011390686	0.3192184269428253	-0.5178067088127136	0.9357420802116394	0.11841918528079987	-0.5538577437400818	0.6801996231079102	-0.9170147776603699	-0.2472362369298935	-1.1226387023925781	0.057243648916482925	-1.1590070724487305	0.6092590093612671	-1.016516089439392	-0.4205681085586548	0.27223238348960876	1.149326205253601	-0.016400331631302834	0.3779759407043457	-0.9698507785797119	-0.9003318548202515	0.5741674900054932	-0.6511985063552856	-1.222022533416748	0.6047624349594116	0.6142570972442627	-0.05551014468073845	1.5076229572296143	-0.4786434471607208	-0.6507315039634705	-0.3717188537120819	0.2809755504131317	-1.787559986114502	1.0878803730010986	0.1804657131433487	-0.41343432664871216	0.7666170001029968	1.6484171152114868	0.603363573551178	0.7091166973114014	-0.8784389495849609	-1.2087987661361694	0.7153561115264893	-0.4135057330131531	-0.49217554926872253	-0.6472185850143433	0.8296388983726501	0.2675109803676605	-0.44302958250045776	-1.0931611061096191	-0.0034637493081390858	-0.10212911665439606	0.7514911890029907	0.05189812183380127	0.24086999893188477	-0.327996164560318	0.7741007804870605	0.5779761672019958	-1.068608045578003	-1.0415091514587402	-0.6677077412605286	0.6912581920623779	-1.6559243202209473	0.185374915599823	1.2269847393035889	-0.5564576387405396	-0.15800243616104126	0.7188499569892883	-0.5074747800827026	-0.5506881475448608	0.43714839220046997	1.037388801574707	2.088496685028076	0.06533896178007126	0.5194439888000488	-1.0874879360198975	-0.8335508108139038	-0.007884187623858452	0.09593535959720612	0.06831115484237671	-0.7166919112205505	-0.10427048802375793	1.3346391916275024	0.7271515727043152	0.5874089598655701	0.5129988789558411	-0.21192525327205658	-0.47454631328582764	-0.5101607441902161	0.05062244087457657	-0.5775960683822632	-1.1060250997543335	-0.18806377053260803	-1.4406092166900635	0.8726187944412231	-1.4861972332000732	-1.1411627531051636	-0.8026886582374573	-0.4905569553375244	1.0504964590072632	0.076195128262043	0.15175671875476837	0.4003168046474457	1.61699640750885	0.9843533635139465	1.0796821117401123	0.056047096848487854	-0.13315293192863464	
Bob Dylan	-1.2454333305358887	-0.28415486216545105	-0.8439316153526306	0.8699780106544495	-1.3470394611358643	-1.9432049989700317	0.5457665324211121	-0.341329425573349	1.5730060338974	-1.1245473623275757	-0.3428683578968048	-0.5649154186248779	0.17165446281433105	0.7368047833442688	-1.1472159624099731	-0.34948477149009705	-0.31744295358657837	-0.00828550010919571	-1.3100579977035522	-0.39404383301734924	-0.6635765433311462	1.8249982595443726	0.39853134751319885	0.4802623987197876	0.14621584117412567	-1.7548489570617676	-1.1498860120773315	-0.898330569267273	1.2720367908477783	2.615612268447876	-0.6106405258178711	0.2885363698005676	0.5911293625831604	-1.1267006397247314	0.564961314201355	2.586879253387451	-0.03051692619919777	1.9569185972213745	-0.9785149097442627	3.1319632530212402	-1.9524439573287964	0.11216641962528229	1.095058798789978	-0.9701518416404724	1.8744431734085083	-2.273699998855591	0.4651942551136017	-2.3883183002471924	0.9536697864532471	0.21107453107833862	-1.4818060398101807	1.4829199314117432	0.6460366249084473	1.1128134727478027	-1.4962427616119385	0.18316207826137543	0.43363282084465027	0.49271857738494873	1.5026862621307373	-1.9227573871612549	0.18375425040721893	-0.27501216530799866	1.1699669361114502	1.769423484802246	-0.9010903835296631	-0.6706045866012573	-0.11585116386413574	-0.011737133376300335	-0.8101146817207336	0.018524734303355217	0.09282819926738739	-1.3231511116027832	1.9010133743286133	2.1187477111816406	1.050037145614624	0.6383047699928284	-1.6923072338104248	1.664964199066162	-0.9045522809028625	0.545230507850647	-1.4586399793624878	0.7215757966041565	-0.5135979056358337	0.4556264579296112	0.37006479501724243	-0.7155912518501282	1.0473281145095825	-0.4450705647468567	-1.8133207559585571	-2.027111291885376	0.4966823160648346	-1.0885162353515625	0.740628719329834	0.40477144718170166	-0.3166870176792145	0.15294131636619568	0.8919628858566284	2.969074010848999	2.1082992553710938	0.6076284050941467	-1.5014147758483887	1.3022750616073608	0.5282648205757141	3.530245304107666	-0.6820330023765564	-0.7462847828865051	-1.6989357471466064	0.43185392022132874	1.7985745668411255	0.7875196933746338	3.221588373184204	-0.12980014085769653	-1.5243474245071411	1.4225499629974365	2.1937742233276367	-1.1059041023254395	0.9489324688911438	-2.9613656997680664	-3.0892794132232666	0.7756317257881165	-0.22461974620819092	1.0312398672103882	0.3287813067436218	-0.3328664302825928	-1.0786293745040894	1.11378014087677	-2.6571550369262695	0.9747047424316406	0.12724457681179047	-0.8050797581672668	-2.7921080589294434	-0.4922640919685364	0.31276649236679077	-0.10287424176931381	-1.25035560131073	-1.468505859375	-3.021696090698242	-0.7933500409126282	3.0086252689361572	1.8834949731826782	0.5625123977661133	1.4697941541671753	1.264926791191101	0.9164554476737976	2.2086925506591797	-0.395580917596817	-0.1278054416179657	0.9825122356414795	1.4636460542678833	-2.381478786468506	1.2013180255889893	-1.3251831531524658	-0.4179181456565857	0.8130462169647217	0.47827252745628357	0.665787935256958	-0.4501940608024597	-1.3403562307357788	-1.1301449537277222	-0.6109623908996582	-2.1476404666900635	-0.08083221316337585	-0.48959630727767944	-0.6585961580276489	-1.5305325984954834	1.4008573293685913	-0.5350646376609802	0.5274617671966553	2.8214993476867676	0.5742358565330505	-2.4918429851531982	1.0476936101913452	-0.6298935413360596	-0.08979202806949615	0.06726635247468948	-0.35126832127571106	0.45668086409568787	0.8296099901199341	1.3108758926391602	0.9495258331298828	-0.6537017822265625	1.2524900436401367	1.243520736694336	-0.7247700691223145	0.25981369614601135	-0.6395619511604309	-2.334261417388916	1.1902469396591187	-0.1806497871875763	1.7209933996200562	-0.28972792625427246	-1.45594322681427	-0.6481294631958008	0.404098778963089	0.5516889691352844	2.696775436401367	1.0218664407730103	-1.3317567110061646	0.8663582801818848	0.39209023118019104	-0.0011702547781169415	-1.7848695516586304	0.6445139646530151	-1.7258230447769165	0.9226614832878113	0.2681240141391754	-1.8901926279067993	-0.2759629786014557	0.9107133746147156	0.6000016331672668	0.6879993677139282	-1.7775092124938965	-1.8712306022644043	1.5490680932998657	-2.404567241668701	-1.4981752634048462	1.6800285577774048	0.44832903146743774	0.49053141474723816	-0.8205661773681641	-0.8152971267700195	0.7131760716438293	-1.308651328086853	-0.27254414558410645	-1.2405962944030762	1.3184081315994263	0.5914266705513	-0.1840939223766327	0.7891458868980408	1.4501839876174927	1.4406403303146362	3.0316245555877686	-2.553208827972412	-3.0906033515930176	1.2907596826553345	-0.767983078956604	-0.8448354005813599	-0.736788809299469	2.7734038829803467	0.14860054850578308	0.3395835757255554	-0.08595713973045349	0.004361561965197325	-0.4459346532821655	1.654763102531433	1.2538585662841797	1.552117943763733	-1.1330125331878662	0.6241474747657776	0.9462928771972656	-1.933685541152954	-1.119181513786316	-0.0930442214012146	2.475825786590576	-1.9153059720993042	1.7917702198028564	0.994661271572113	-0.08566097915172577	-0.7522649168968201	2.409444808959961	-1.1249675750732422	-1.0681378841400146	0.3505902886390686	0.9604421257972717	0.8756998181343079	0.5955400466918945	-0.5822040438652039	-2.351065158843994	-1.095412254333496	-0.31507372856140137	-0.10489322245121002	0.8540785312652588	-1.319703221321106	-0.8447912335395813	1.6406468152999878	-0.15670382976531982	1.032050371170044	1.147314429283142	2.374814748764038	-0.6174404621124268	-0.040161047130823135	-2.421854257583618	-0.5352004170417786	-0.956771194934845	-0.7616340517997742	-1.674666404724121	-1.1637020111083984	0.17080560326576233	-0.4529615044593811	-0.5919268131256104	0.7677534222602844	1.234724521636963	-0.18164312839508057	0.8370960354804993	0.36309608817100525	2.014845848083496	1.4360072612762451	-0.6788809299468994	-0.7240809202194214	1.6064467430114746	
Madonna	0.14413566887378693	-1.5462064743041992	-1.492437481880188	-2.129917860031128	2.250704526901245	0.06963431090116501	0.011216171085834503	-0.12499891966581345	0.3904772996902466	-1.405525803565979	-0.6142055988311768	0.017813444137573242	-1.1885894536972046	-1.493669867515564	-1.0586127042770386	-0.821120023727417	-0.3740578889846802	2.3052852153778076	0.10852890461683273	-1.6292439699172974	1.895701289176941	0.12430715560913086	-0.8096691966056824	-1.8951560258865356	-0.459796667098999	0.9509841799736023	0.18045496940612793	0.31760913133621216	-1.8589006662368774	2.9787933826446533	-0.325033038854599	-0.5218186378479004	-1.5518503189086914	-0.19144439697265625	1.470481276512146	2.678675413131714	1.0495578050613403	0.4913656413555145	0.027427395805716515	1.6297941207885742	-1.1289020776748657	2.7756073474884033	-1.6436976194381714	1.3944779634475708	1.656424880027771	-1.3641692399978638	1.0142028331756592	0.11026954650878906	1.6201882362365723	-1.3176566362380981	-1.3038454055786133	0.2887246310710907	0.116585373878479	0.8816807866096497	-1.2977453470230103	1.5321727991104126	0.5732177495956421	0.121743343770504	0.46292781829833984	-0.6238004565238953	-1.6229848861694336	-0.6695504784584045	2.0673561096191406	-1.2687585353851318	-1.390844702720642	1.3809336423873901	2.2786097526550293	1.1730622053146362	1.265336513519287	3.0053417682647705	0.22396034002304077	1.3095561265945435	-1.3695203065872192	2.3713343143463135	1.4766244888305664	0.1945122927427292	1.7121930122375488	0.5613296627998352	1.5748971700668335	-0.3639845550060272	-0.05950484797358513	0.5015156269073486	-0.4020775854587555	0.3691073954105377	-1.2052943706512451	0.6263861656188965	-0.8048748970031738	-0.45054304599761963	0.3360055685043335	-1.0664660930633545	-0.22363100945949554	1.2895392179489136	-0.48461294174194336	-1.1301862001419067	-1.1251792907714844	1.64584219455719	0.5803725719451904	0.7023158669471741	-0.6447063684463501	0.10319014638662338	-0.8901698589324951	-0.387178510427475	-1.3165863752365112	0.21395456790924072	1.5905675888061523	0.289813756942749	1.46342933177948	0.19659830629825592	1.6474961042404175	-1.0860029458999634	-0.6552411913871765	1.625599980354309	-0.2952312231063843	0.1638626605272293	0.365791916847229	-1.9408797025680542	1.536638855934143	0.015947341918945312	0.9635267853736877	0.7650780081748962	0.09172042459249496	0.29004648327827454	-1.4023386240005493	1.5349969863891602	2.6994469165802	1.2324018478393555	0.7696232795715332	-0.18936125934123993	-0.9289238452911377	0.422641396522522	1.2692763805389404	0.5633570551872253	0.12294331938028336	1.0688978433609009	-1.655084490776062	0.20676393806934357	-2.3977773189544678	-0.04860303923487663	1.5992120504379272	2.3936822414398193	-0.04379761219024658	0.20644702017307281	-0.21874535083770752	0.33050501346588135	1.2556513547897339	0.6524158120155334	0.7438170909881592	1.835866093635559	-0.4988900125026703	0.4364367723464966	1.6254831552505493	-0.6880114078521729	-0.6028745174407959	0.24360989034175873	0.7910945415496826	-1.2798333168029785	1.5538097620010376	1.4499831199645996	-0.5291889309883118	0.829251766204834	-0.7100154757499695	0.4789677560329437	1.442463994026184	-0.08933323621749878	0.6458460688591003	0.5491564869880676	1.0495760440826416	-0.8347999453544617	1.6868032217025757	0.3496284484863281	0.21639211475849152	-0.8613330721855164	-1.3573650121688843	0.6695701479911804	1.036007285118103	0.4580516815185547	-1.5648036003112793	1.1593073606491089	1.3486595153808594	0.26094600558280945	-0.4896710216999054	-0.6510526537895203	0.0051061310805380344	-1.0624583959579468	0.12885648012161255	-1.364776611328125	-2.3432776927948	0.9040369391441345	0.12686334550380707	1.2033803462982178	1.5302495956420898	-0.7665892243385315	1.2584223747253418	2.5784265995025635	0.14057208597660065	-0.20155946910381317	-2.44928240776062	0.061101216822862625	-0.029427429661154747	2.9150142669677734	0.2869594097137451	0.040577907115221024	0.47844603657722473	0.6690699458122253	0.22042322158813477	-1.695773959159851	-0.6554340720176697	-0.6081025004386902	2.3796422481536865	0.1526864767074585	0.8330259919166565	-0.0981765016913414	-0.693932294845581	0.20034421980381012	-0.4003325402736664	-0.6973740458488464	0.25414976477622986	1.9718775749206543	-0.916034460067749	-0.7038062214851379	-1.6755781173706055	0.9853307604789734	-0.8261100649833679	-0.0882006511092186	-1.8403072357177734	-1.296766757965088	-0.8827688097953796	-0.6203657388687134	0.6272823214530945	0.18329359591007233	-0.808326005935669	-1.2249059677124023	-0.4110642969608307	-1.1381887197494507	1.4234099388122559	0.48726513981819153	-1.2706598043441772	-0.8022408485412598	2.1542513370513916	0.5448159575462341	1.140184998512268	-0.08426997810602188	0.3915750980377197	-0.8015062212944031	-0.12126120179891586	0.013798515312373638	-1.0864198207855225	0.42725417017936707	1.5970333814620972	1.8598703145980835	-1.5895241498947144	-2.449678421020508	2.072035074234009	-0.336662620306015	-0.7751819491386414	-0.7126252055168152	3.118591547012329	-1.41304349899292	0.05470426008105278	-0.22990810871124268	-2.5673882961273193	0.4756368398666382	1.8650871515274048	-0.47591352462768555	1.1904999017715454	-0.6858108043670654	-2.6413462162017822	0.4522671401500702	0.29164692759513855	-1.067078948020935	1.1300930976867676	0.49348628520965576	0.25927507877349854	-1.521419882774353	-2.9695005416870117	-0.06599859148263931	1.213474154472351	1.7346028089523315	-0.7078502178192139	-2.7689263820648193	0.4344257414340973	0.7484899163246155	-2.0472829341888428	0.26764631271362305	2.14642596244812	-0.35931268334388733	0.9199392795562744	-0.20483367145061493	1.0523699522018433	-0.9411283135414124	1.4675369262695312	-0.3358337879180908	0.09698247909545898	0.636492908000946	-0.01831723004579544	0.5338233113288879	1.2426563501358032	-0.3814629018306732	-0.4370900094509125	0.8705702424049377	
Wolfgang Amadeus Mozart	-1.70293390750885	-0.0694672241806984	-2.7455272674560547	-1.34552001953125	-0.2064250111579895	-0.6250199675559998	0.9525687098503113	0.5326708555221558	-1.1766138076782227	0.4259786903858185	1.3055800199508667	-1.5996211767196655	-0.561396062374115	0.47167882323265076	1.0233708620071411	-1.7529895305633545	-1.7632780075073242	1.0140807628631592	1.2873539924621582	-0.6605079770088196	-1.675072431564331	-3.2369985580444336	1.2261497974395752	1.7031352519989014	0.07055914402008057	-2.1781065464019775	-1.3369500637054443	-0.859294056892395	0.954024612903595	1.2557429075241089	-0.01108136773109436	-0.5863795280456543	1.0107324123382568	-1.1867667436599731	0.8177022933959961	-0.26120463013648987	-1.6383161544799805	-0.7912508249282837	0.16530054807662964	-0.9280964136123657	0.6889623999595642	2.1538164615631104	-0.11376603692770004	-0.7100281119346619	0.8686732649803162	0.9852157235145569	0.258716881275177	-1.0664522647857666	2.6189370155334473	-1.4332306385040283	-0.7966005802154541	2.24715256690979	1.4863133430480957	-1.4989854097366333	-0.4718899726867676	-0.7096080780029297	-0.7147615551948547	-2.3089394569396973	-0.7274305820465088	-0.1434488445520401	-1.3841038942337036	-1.2276699542999268	0.6255320310592651	1.8051903247833252	-1.1198993921279907	0.15954720973968506	0.1516391932964325	1.3807016611099243	0.35846155881881714	-0.37760069966316223	0.10379735380411148	0.39922481775283813	1.4406723976135254	-0.8137161731719971	-0.08263897895812988	-2.4865851402282715	0.31656622886657715	2.347175121307373	0.31143927574157715	0.2702265679836273	-0.27721917629241943	0.5344542264938354	-0.6268132925033569	0.09206560999155045	-1.5508581399917603	1.793313980102539	1.5189616680145264	0.3575384318828583	0.4526614546775818	-0.3375186026096344	-0.4704328775405884	-0.659487783908844	-3.0426251888275146	0.10150857269763947	1.1105475425720215	-3.8236920833587646	-0.5051214694976807	0.9507600665092468	-0.2071394920349121	-0.2528890073299408	-0.44891583919525146	0.5454261898994446	-1.5281223058700562	-0.2534472942352295	0.113826222717762	1.1084316968917847	-1.0629196166992188	-1.8507604598999023	0.6209200620651245	0.24351532757282257	0.0634426698088646	-1.048112154006958	-1.2056374549865723	0.26753199100494385	2.9847099781036377	-0.48098477721214294	0.8500033020973206	0.45172300934791565	-0.5059359669685364	-2.030818223953247	0.019929619506001472	-0.2982231080532074	-0.1713757961988449	-0.07329125702381134	0.571438193321228	-0.016564683988690376	-0.07667093724012375	0.957553505897522	-1.2026809453964233	1.0727388858795166	0.034732282161712646	-1.0906803607940674	-1.3620105981826782	0.45844337344169617	-0.9569538831710815	-0.1680172234773636	-0.8290635347366333	-1.3187530040740967	0.3303143382072449	0.4263627827167511	1.3120492696762085	1.9448132514953613	1.5231950283050537	0.29939526319503784	1.173134684562683	0.46275898814201355	2.5250144004821777	-0.11369975656270981	0.8121300935745239	-0.3053114414215088	1.4389077425003052	-2.7425124645233154	2.2732443809509277	0.4913308620452881	-1.2401078939437866	-0.5983765125274658	-2.1177217960357666	1.1988999843597412	0.7563128471374512	-0.40567395091056824	-1.4960129261016846	-1.0033531188964844	-0.1483849287033081	-2.6137936115264893	-0.6868239045143127	0.2427050769329071	-0.26384299993515015	-0.5480931401252747	1.22904372215271	-2.142063617706299	-2.3428902626037598	0.9167183041572571	-1.6348799467086792	0.3135816156864166	-3.751601219177246	-2.086407423019409	-0.48521581292152405	0.49037984013557434	1.339706301689148	-2.0791313648223877	0.649377167224884	1.8209176063537598	-0.3728941082954407	-1.8727868795394897	0.23963864147663116	-2.4468955993652344	1.5569852590560913	0.0382334366440773	-0.47198569774627686	1.3213646411895752	0.8103305101394653	-1.3521640300750732	2.1704256534576416	-1.061815857887268	1.0048147439956665	-0.3919658064842224	1.1729488372802734	-1.3822554349899292	-1.0868635177612305	0.4053187072277069	-0.19886501133441925	-0.577457070350647	0.154330313205719	-1.2102677822113037	1.1439317464828491	-0.9408624768257141	1.2854241132736206	-1.103399634361267	0.9829887747764587	-2.2276158332824707	0.07463297992944717	-0.8654599189758301	0.8132340312004089	1.5195698738098145	-0.9528090953826904	-1.3632596731185913	-0.13356268405914307	1.3902839422225952	-0.279651015996933	0.6039136052131653	-0.6156129837036133	-0.2260066121816635	-3.0452072620391846	1.2503300905227661	-1.9638720750808716	1.3454411029815674	0.16753849387168884	0.8439266681671143	-0.3902228772640228	1.1759119033813477	0.8868421912193298	1.9578580856323242	-0.8711967468261719	-1.0145583152770996	-0.8763442039489746	0.08807114511728287	-1.2209107875823975	-0.2037038952112198	-0.955826997756958	-1.2571574449539185	-0.4649835228919983	-0.5196980834007263	-0.14084969460964203	-1.1176201105117798	-0.14036023616790771	-1.502299189567566	0.9758991599082947	0.753774881362915	0.08874237537384033	2.2192509174346924	0.09490679204463959	-1.3096930980682373	-0.3154198229312897	1.9974373579025269	-0.5255787968635559	2.59738826751709	1.6837890148162842	1.5440021753311157	-0.07906634360551834	1.0859795808792114	-1.651021122932434	-0.33888113498687744	0.6421861052513123	0.6444701552391052	-1.9939321279525757	0.8580632209777832	0.8698566555976868	0.633341908454895	-0.29541727900505066	0.1676022708415985	-2.4884703159332275	-2.256403684616089	-0.20870690047740936	0.5623276829719543	-0.4549945294857025	0.5002080202102661	1.1881054639816284	-0.13015030324459076	0.6932241320610046	-0.9614691734313965	2.3444042205810547	-3.033114194869995	-0.4784572422504425	0.035062164068222046	-0.39992600679397583	-0.5133534669876099	2.366154193878174	0.2911822199821472	-1.331760048866272	0.02586520090699196	-1.4710851907730103	0.020447729155421257	-0.003998337313532829	-0.39315611124038696	1.4429930448532104	4.169943809509277	1.2709308862686157	-0.5697877407073975	-0.46520909667015076	-0.8929150104522705	
attore	0.05877004191279411	-0.2112170308828354	-1.487392544746399	-0.4436165988445282	-0.16290709376335144	1.6225998401641846	0.6943044066429138	0.4721926748752594	0.05660555511713028	0.07676050066947937	1.5131338834762573	0.8494560718536377	-0.6997316479682922	-0.9516484141349792	-0.6549297571182251	-0.008970053866505623	0.5076932907104492	1.4457733631134033	-0.7510017156600952	-1.555966854095459	-1.8018546104431152	1.6512895822525024	0.941076934337616	1.2531362771987915	-0.1933024525642395	0.503273606300354	-0.5827866196632385	-0.11466687172651291	-0.25521335005760193	-1.397918701171875	0.615628719329834	-1.5696685314178467	0.15106675028800964	2.2603321075439453	-2.233616352081299	-0.07364922016859055	-1.0824564695358276	0.4794591963291168	1.685844898223877	2.085097074508667	1.2715659141540527	-0.31810837984085083	0.0611238032579422	1.9831910133361816	0.8549674153327942	-1.3311347961425781	-1.6785330772399902	-2.561708688735962	1.8657318353652954	-0.2486276924610138	-2.478975534439087	1.3183926343917847	0.3585537374019623	1.4766268730163574	-0.9604488611221313	-0.4463714063167572	-0.47457385063171387	1.9602694511413574	-1.4657729864120483	1.846807599067688	0.9431955218315125	-1.1492129564285278	-1.1771419048309326	-0.9120650887489319	1.7345209121704102	0.6129468083381653	-2.1999659538269043	-1.7775501012802124	0.31050169467926025	-0.9356015920639038	1.1707096099853516	-0.002097800374031067	-0.2659735679626465	1.0451406240463257	0.693851888179779	-1.1659845113754272	-0.4749952256679535	1.014967441558838	-0.4085347056388855	-1.582374095916748	-3.939636468887329	0.42495840787887573	2.1245172023773193	-1.1596859693527222	2.454277753829956	-0.37523460388183594	1.0316855907440186	-0.6388265490531921	-2.3698360919952393	-2.1228201389312744	2.1756985187530518	0.2756154239177704	0.17611689865589142	-0.662681519985199	1.293372392654419	1.2441513538360596	0.37309348583221436	0.5327438116073608	0.18647201359272003	0.8913566470146179	-0.6396048069000244	1.7162283658981323	-1.4369244575500488	2.370875358581543	-1.1053762435913086	1.5050272941589355	-0.6037094593048096	-1.12592351436615	2.396383047103882	0.8079233169555664	1.1741999387741089	-0.5256083011627197	-0.5832862854003906	0.44161295890808105	1.196332573890686	0.8437334299087524	2.858614206314087	3.121544361114502	0.6443265080451965	-1.0916283130645752	1.4307973384857178	-4.715094566345215	-2.7726755142211914	1.0494881868362427	0.5836433172225952	-1.2012219429016113	-1.4980385303497314	0.48153990507125854	-0.38747239112854004	2.4807069301605225	0.14426054060459137	-0.42845621705055237	-1.3775495290756226	-0.656027615070343	-3.4243433475494385	1.1404951810836792	-1.8747234344482422	-1.8930432796478271	0.6791163682937622	-0.03910558670759201	0.5680810809135437	0.997649610042572	0.2724306881427765	-0.5552228093147278	0.20642980933189392	0.7073227763175964	-1.9851229190826416	1.7857651710510254	1.893682599067688	-0.5802830457687378	0.2462729960680008	0.6626672148704529	-1.240871548652649	0.5838673710823059	1.3074764013290405	0.21418814361095428	2.6396117210388184	0.8931975960731506	-0.9688231945037842	1.0384888648986816	1.614221215248108	2.210088014602661	-0.3182308077812195	-1.8627426624298096	-0.08829229325056076	0.6697779893875122	-0.36839333176612854	0.5358898639678955	1.8919788599014282	-0.19564177095890045	-0.44176629185676575	1.361357569694519	1.2465465068817139	-1.2468675374984741	2.196181535720825	-3.1438052654266357	0.30608323216438293	0.8100719451904297	1.8059724569320679	0.19682525098323822	-0.7614142298698425	-0.7567855715751648	-0.007444741670042276	-0.59709233045578	-0.32091620564460754	0.7454906105995178	-0.31159543991088867	0.878272294998169	-0.87009596824646	-0.3578874170780182	2.2460484504699707	-1.6482163667678833	-1.0185378789901733	1.571999430656433	-0.4696887731552124	0.5730919241905212	2.882345199584961	-2.328197956085205	-1.26111900806427	0.2164587676525116	-0.38427984714508057	-1.0686924457550049	-1.0060955286026	-0.381115198135376	-0.5034647583961487	-3.3257994651794434	0.4790191948413849	-2.8376471996307373	-0.4621252715587616	-0.541598379611969	1.09182870388031	-0.3334816098213196	-0.6426853537559509	2.571225643157959	0.2815706431865692	-0.9563944339752197	1.3733693361282349	-1.2781389951705933	-0.046841904520988464	2.1908979415893555	-0.11148345470428467	0.06676685810089111	0.005212219897657633	0.8940830230712891	-1.2123888731002808	-0.5918428301811218	1.3557209968566895	-0.8226470947265625	-1.9443873167037964	-0.03051498346030712	-0.17754106223583221	-0.8135207295417786	-0.3160393536090851	-0.6542266011238098	0.5994765162467957	1.7442549467086792	-1.5477633476257324	-0.15386325120925903	0.9959589838981628	-1.6203981637954712	-0.10900512337684631	-0.5736806988716125	-1.2330964803695679	0.69130939245224	-0.19899392127990723	-1.4202709197998047	0.7571449875831604	-0.5249301791191101	-0.86046302318573	0.30353179574012756	1.2155811786651611	0.2789323627948761	-1.238433599472046	3.682189702987671	0.45620855689048767	0.45005151629447937	-0.7914706468582153	-1.2491981983184814	-2.280160903930664	1.3204067945480347	-1.4307526350021362	-0.27412480115890503	-0.40023231506347656	-0.8828497529029846	-0.01145316381007433	0.011482110247015953	0.13506025075912476	-0.48896417021751404	-1.2029030323028564	0.6223223209381104	0.24061396718025208	-2.109612464904785	-0.6712608337402344	0.2476373016834259	2.3156139850616455	0.16318653523921967	0.5821563601493835	-1.9171407222747803	1.333119511604309	-1.1170258522033691	0.43358975648880005	0.763975203037262	-0.31706297397613525	2.244687795639038	0.38962942361831665	2.901538848876953	0.9078184962272644	-1.444946527481079	-3.328900098800659	1.7900402545928955	1.1830841302871704	0.7607954144477844	-1.1699059009552002	-0.7510969638824463	0.19446800649166107	0.5235185027122498	-0.20099319517612457	-0.05351501703262329	0.11322394758462906	-1.0229666233062744	
