entity	wikipedia2vec_entity_vector
politico	-0.4683043658733368	-0.046936627477407455	-0.15005339682102203	-0.042152393609285355	0.3632870614528656	0.0510249137878418	0.8014185428619385	-0.2584172189235687	-0.34445351362228394	-0.004797804169356823	0.2951776087284088	-0.3024819791316986	-0.28788280487060547	-0.5045350193977356	0.47641122341156006	-0.13729026913642883	-0.04588000103831291	0.3195666968822479	0.07862737029790878	0.2095133364200592	0.19081689417362213	0.2531983256340027	-0.08530524373054504	0.13484972715377808	0.16945266723632812	0.4061489403247833	0.0875808373093605	0.28037846088409424	0.02929782122373581	0.21058210730552673	-0.13896024227142334	0.20710094273090363	0.7398200035095215	0.36719998717308044	-0.25899937748908997	0.20422741770744324	0.3501558005809784	-0.11996107548475266	0.05633675679564476	0.2785731256008148	-0.197427436709404	0.7667909860610962	-0.2916333079338074	-0.18018798530101776	0.44448089599609375	0.29674187302589417	0.132582888007164	-0.10390593111515045	0.31251153349876404	0.3161449134349823	-0.07896187156438828	-0.27079614996910095	0.5129144787788391	-0.022102490067481995	0.0434480756521225	0.3083069324493408	-0.46904367208480835	-0.3905613124370575	-0.012898959219455719	0.14463986456394196	-0.42803770303726196	-0.29657092690467834	-0.375060498714447	-0.05339760333299637	-0.27172064781188965	-0.49016785621643066	0.8142968416213989	-0.328204482793808	-0.5445033311843872	0.14128431677818298	-0.36123034358024597	-0.19707468152046204	-0.593675971031189	-0.341352641582489	-0.5853411555290222	-0.2240452915430069	-0.045891694724559784	0.5452805161476135	-0.08396182954311371	0.34780582785606384	0.012369398958981037	-0.00521735567599535	0.05001317337155342	-0.4259512424468994	-0.3404506742954254	0.7412461638450623	0.15781544148921967	0.32300111651420593	-0.26624596118927	0.24872352182865143	0.30757850408554077	0.05467759817838669	0.10621664673089981	-0.6254909634590149	0.06753001362085342	0.6662074327468872	0.24343034625053406	0.22090831398963928	0.24197059869766235	0.27972912788391113	0.32996946573257446	-0.15158212184906006	0.24457994103431702	-0.06878115981817245	0.3772936463356018	0.13830025494098663	0.264832466840744	-0.38679367303848267	0.48588982224464417	0.2189091444015503	0.5921498537063599	0.013373548164963722	-0.5201442241668701	-0.17737920582294464	-0.3389912545681	0.07335975021123886	0.38739219307899475	0.07140949368476868	-0.25580963492393494	0.5446603894233704	0.22077834606170654	-0.6416847705841064	-0.11488835513591766	-0.06517861038446426	-0.19631104171276093	-0.32435739040374756	0.3220469057559967	0.14766737818717957	0.2758329212665558	0.08424313366413116	0.035543542355298996	0.15327735245227814	-0.10001235455274582	-0.3083699941635132	-0.01292865164577961	-0.08601155877113342	-0.06635862588882446	0.25567567348480225	-0.037970345467329025	-0.17970776557922363	-0.3730026185512543	0.19063809514045715	0.2642613649368286	-0.3212276101112366	-0.43117275834083557	-0.6281766891479492	-0.19000567495822906	0.44503912329673767	0.1084953099489212	0.6724224090576172	-0.06459830701351166	0.3428625166416168	-0.28478294610977173	0.1261494755744934	0.0270925872027874	-0.06842619925737381	-0.11253762990236282	0.3619323968887329	-0.07119879871606827	-0.3479553759098053	-0.38694095611572266	-0.49653956294059753	0.44654932618141174	-0.26169613003730774	0.7783886194229126	-0.003189865266904235	-0.6405051946640015	0.3197938799858093	-0.06031418219208717	0.09156599640846252	-0.3837776482105255	0.29182755947113037	-0.10886745154857635	0.3459479808807373	0.20055529475212097	0.02602194808423519	-0.09948872774839401	0.06397063285112381	-0.07991700619459152	-0.29368218779563904	0.39701396226882935	0.07879731059074402	0.11310131847858429	0.5237034559249878	-0.2876027524471283	0.5219235420227051	-0.7450968027114868	-0.06227238103747368	0.3093487322330475	-0.1962277740240097	0.2662332355976105	-0.22852882742881775	0.23031282424926758	0.24745872616767883	0.28596949577331543	0.685615062713623	0.8855827450752258	0.18291591107845306	0.7152838110923767	0.18912073969841003	0.24350707232952118	-0.19727469980716705	-0.0432933010160923	0.06575509905815125	0.4110618233680725	-0.19496206939220428	0.19249172508716583	0.01680215820670128	-0.13932864367961884	-0.07243683934211731	-0.557710587978363	0.2636509835720062	-0.3467594385147095	0.4987831711769104	-0.16137555241584778	-0.2935886085033417	-0.12035971134901047	0.025598695501685143	0.03230205550789833	0.3080741763114929	0.26392653584480286	0.08157368749380112	-0.48975104093551636	0.3070738911628723	-0.023074354976415634	0.3785567283630371	0.5770354270935059	0.18033237755298615	0.04394340142607689	0.16873574256896973	0.38087427616119385	0.05760093405842781	-0.6688997745513916	-0.2655222415924072	-0.01994665339589119	0.021377744153141975	0.0657542496919632	0.019637927412986755	0.11981525272130966	-0.21738547086715698	0.37576502561569214	-0.3144282400608063	0.0405840165913105	0.28148752450942993	-0.5649197697639465	0.17458826303482056	-0.5203220248222351	0.5957288146018982	0.043744828552007675	-0.38908371329307556	0.548270046710968	-0.395727276802063	-0.31801265478134155	0.004895184654742479	-0.38243526220321655	-0.4174805283546448	-0.7989271879196167	-0.09607923775911331	0.577843427658081	0.6465356945991516	0.1953871250152588	-0.010205741040408611	0.35427841544151306	0.1694682240486145	0.2082071453332901	-0.16235105693340302	-0.1917237937450409	0.13007058203220367	0.16705456376075745	-0.1872228980064392	-0.11984606087207794	-0.05020805075764656	-0.0009454343235120177	0.5199096202850342	0.1767592430114746	0.13947515189647675	0.35075053572654724	-0.579597532749176	0.35245493054389954	-0.7410054206848145	-0.20085406303405762	-0.3544445037841797	-0.016841722652316093	0.33414000272750854	0.2406054586172104	0.03231886774301529	-0.09081922471523285	-0.26994630694389343	-0.4023069441318512	0.609379231929779	-0.004056472331285477	-0.08634427189826965	-0.1625225841999054	0.12541146576404572	0.25678128004074097	0.07224917411804199	-0.10590317845344543	0.6857759356498718	0.4655894935131073	0.22853906452655792	
Silvio Berlusconi	-0.14333395659923553	-0.6964976191520691	-0.7286171913146973	0.014187616296112537	-0.7516421675682068	0.559411883354187	0.6471472382545471	-0.5784779191017151	-0.7406452894210815	0.3871650993824005	0.899348795413971	-0.3629849851131439	0.7990968823432922	-1.056960940361023	0.21569377183914185	0.7489377856254578	0.37427765130996704	0.41531533002853394	0.08817732334136963	0.5336272120475769	-0.3153530955314636	0.7111513018608093	-0.012899956665933132	0.7402076125144958	-0.20760202407836914	0.41820576786994934	0.12714789807796478	0.03949461504817009	-0.6874958872795105	-0.3087858259677887	0.21823017299175262	-0.6607178449630737	-0.047282569110393524	0.18521904945373535	-0.8200846910476685	0.059120453894138336	-0.08946407586336136	0.5109154582023621	-0.8837002515792847	-0.248401939868927	-0.24058382213115692	0.062354668974876404	-0.8753138184547424	0.3081093728542328	-0.027125835418701172	-0.6823352575302124	-0.5373057723045349	-0.32072514295578003	-0.33660057187080383	0.17675329744815826	0.4295869469642639	-0.7262709736824036	-0.2598641812801361	-0.7970128655433655	0.7016268968582153	0.5589884519577026	-0.13342858850955963	0.008081127889454365	0.8263450264930725	-0.14723171293735504	-0.027239209040999413	0.1735825091600418	0.1955241858959198	0.16234958171844482	-0.3553115427494049	-0.34902307391166687	0.13648539781570435	0.22984954714775085	-0.13719768822193146	0.19080699980258942	0.5590905547142029	-0.39425840973854065	-0.7682090401649475	-0.3747406303882599	0.4813675284385681	-0.47343453764915466	-0.38121551275253296	-0.01018134132027626	-0.4436088502407074	-0.1365138590335846	0.31804490089416504	0.06405449658632278	0.404416561126709	0.6698217988014221	0.5716661810874939	0.4302908480167389	-0.14256705343723297	-1.3918917179107666	-1.0078500509262085	0.01614518277347088	-0.1680276095867157	0.7117269039154053	0.3038442134857178	0.1149485856294632	0.1828332245349884	0.020763900130987167	-0.036898910999298096	0.05164593085646629	-0.3023102581501007	-0.3993449807167053	-0.0422094501554966	0.21909140050411224	0.2855478823184967	0.12414553016424179	0.11150454729795456	0.4885800778865814	0.2989056408405304	-0.5714733004570007	0.5421669483184814	0.40175241231918335	0.630599856376648	-0.6377876400947571	-0.07079025357961655	-0.9856969118118286	0.08381069451570511	0.5197728276252747	0.3016892373561859	0.21054357290267944	-0.21064329147338867	0.18219397962093353	-0.461392879486084	0.13088157773017883	-0.3913324475288391	-0.4273361563682556	0.4169940650463104	0.8329080939292908	-0.6106340885162354	-0.17059952020645142	0.2278221994638443	-0.4338795840740204	-0.44157955050468445	-0.2576846182346344	0.5499778389930725	0.5235474705696106	-1.5322037935256958	-0.04439729079604149	0.1147153303027153	-0.5050379037857056	-0.0789250060915947	-0.010697674937546253	0.31922662258148193	0.43738576769828796	-0.24579620361328125	-0.22658230364322662	-1.0006011724472046	-0.3890625536441803	0.061001405119895935	0.5796297192573547	-0.06370800733566284	-0.12328013777732849	-0.47351792454719543	0.03597523272037506	-0.18380461633205414	0.8937572836875916	-0.2470945566892624	-0.6391738057136536	-0.4819546937942505	0.3271627128124237	-0.48580047488212585	-0.09607517719268799	0.49805113673210144	0.23528897762298584	-0.010865210555493832	0.36484235525131226	1.3860605955123901	-0.5849511027336121	-1.1190773248672485	1.1743693351745605	0.35293564200401306	-0.3676609992980957	0.2252867966890335	0.5375428199768066	-0.9304940104484558	0.284560889005661	-0.4867844581604004	0.3915557861328125	-0.034348227083683014	-0.5562528967857361	-0.8846139311790466	0.541678786277771	0.367203027009964	0.23127304017543793	0.14480769634246826	0.14964739978313446	-0.3963749408721924	0.33782249689102173	-0.12035377323627472	0.4946039021015167	0.05078498646616936	-0.5029447674751282	-0.25641897320747375	0.22927424311637878	-1.4079481363296509	-0.01557188667356968	-0.444965124130249	-0.6888942718505859	0.6294761300086975	0.021880848333239555	1.0214332342147827	0.07023967057466507	0.25901153683662415	-0.012092146091163158	0.4593055546283722	-0.8329852819442749	-0.2154671549797058	-0.9087159037590027	0.152027428150177	-0.24019958078861237	1.0455561876296997	0.2686866223812103	-0.045895252376794815	1.3779809474945068	0.8605275750160217	-0.25370335578918457	0.6010115146636963	0.7280858159065247	0.0852164551615715	0.47487872838974	-0.1360914707183838	-0.7066342830657959	0.331560343503952	1.1120697259902954	-1.2051136493682861	-0.11481941491365433	-0.4089317321777344	0.17123696208000183	0.2062000036239624	0.6419219970703125	-0.13123860955238342	-1.506048321723938	0.27296826243400574	0.1358075588941574	0.040980130434036255	-0.2168961465358734	0.008623111061751842	-0.28846412897109985	-0.18840816617012024	0.026936564594507217	0.4711015820503235	0.248702734708786	-0.03599568083882332	-0.1361244171857834	-0.29478174448013306	-0.344542920589447	0.10457088053226471	-0.23247885704040527	-0.035089366137981415	0.3323215842247009	-0.24014759063720703	0.01912752538919449	0.2335120141506195	-0.4016364812850952	-0.4412199556827545	0.4067979156970978	-0.4416724741458893	-0.02922091633081436	-0.21101275086402893	-0.30686524510383606	-0.5365249514579773	1.923211932182312	0.7682655453681946	0.5417459607124329	-0.20435482263565063	-0.2138049602508545	-0.5256366729736328	-0.19849294424057007	-0.5926873087882996	0.3225451409816742	-0.3858613967895508	0.04975549131631851	0.5192021131515503	0.3375990092754364	0.1222710907459259	-0.37983372807502747	0.26487791538238525	0.06680284440517426	0.5925997495651245	-0.7204654216766357	0.9048296809196472	0.30493468046188354	0.11102048307657242	-0.2532787621021271	0.2270725816488266	0.23337101936340332	0.3938024044036865	-0.2978949248790741	-0.6222293376922607	0.9144874215126038	-0.35476067662239075	0.14221155643463135	-0.30017098784446716	0.32103633880615234	-0.9226290583610535	-0.29211679100990295	-1.1055959463119507	-0.9448821544647217	0.3150278925895691	0.5424562096595764	0.6533234715461731	0.20773328840732574	
Barack Obama	0.8819169998168945	-0.21793246269226074	-0.8110134601593018	0.06815791875123978	-0.28279832005500793	0.10447129607200623	0.4018941819667816	-0.6506083011627197	-0.29128333926200867	-0.01506548747420311	0.9077005982398987	-0.6090825200080872	0.7991592884063721	-0.6700586080551147	-0.0024109934456646442	0.32426726818084717	0.5243242979049683	-0.13851487636566162	0.6677644848823547	0.9442699551582336	-0.2574230432510376	-0.40520942211151123	-0.7442770004272461	1.3544654846191406	-0.72266685962677	0.15195558965206146	0.44244682788848877	0.6253178119659424	-0.34555935859680176	0.050915494561195374	-0.3335130214691162	-0.699353039264679	0.1592528223991394	0.5724344849586487	-0.3768846392631531	1.1954196691513062	-0.4773639440536499	0.10271883010864258	-1.0092731714248657	0.43256688117980957	1.097251296043396	0.42279326915740967	-0.16248755156993866	-0.5300441384315491	-0.28737446665763855	-0.9309839606285095	-0.8699274063110352	-0.22235596179962158	-0.2602747976779938	0.19507570564746857	0.5891196131706238	-0.6787533760070801	0.32091155648231506	-0.4317421615123749	0.3211173117160797	-0.3639230728149414	0.6668339967727661	-0.3991776704788208	0.3228282928466797	-0.4305850565433502	1.0275952816009521	-0.11343371868133545	-0.2558583915233612	1.1173758506774902	0.049585793167352676	-0.1250862181186676	0.3082238435745239	-0.36559292674064636	-0.14207099378108978	-0.7846572995185852	0.057805683463811874	-0.22732876241207123	0.14860139787197113	-0.39714717864990234	0.31238022446632385	-0.3385171592235565	-0.274278849363327	-0.3294815719127655	-0.7559256553649902	0.4237438142299652	0.2888956367969513	0.2857426404953003	0.1332952380180359	1.3240294456481934	-0.48501136898994446	0.29459553956985474	1.2587331533432007	-0.10311508178710938	-0.6868112683296204	0.5742189884185791	-0.2792642116546631	-0.4168790578842163	0.3676101565361023	-0.04183519259095192	0.3395703434944153	-1.099514365196228	0.30207011103630066	0.6056032180786133	-0.06072266027331352	-0.5464183688163757	-0.3344672918319702	-0.32479944825172424	-0.04197575896978378	0.02536608837544918	0.22442421317100525	-0.49326643347740173	-0.49489107728004456	-0.33472907543182373	0.08698441833257675	0.17000839114189148	1.4273957014083862	-0.42714786529541016	-0.4566749334335327	-0.4687524437904358	0.4193665683269501	0.2350357472896576	0.409784197807312	-0.4400888681411743	0.8768380284309387	-0.05209660902619362	-0.3961286246776581	-0.32523617148399353	0.0632646232843399	-1.1620808839797974	-0.17379966378211975	0.35290759801864624	-0.215905100107193	-0.8502836227416992	0.26148107647895813	-0.3433515727519989	0.266081303358078	-0.4316693842411041	-0.4862942695617676	-0.08762182295322418	-0.9484515190124512	-0.7343840003013611	-0.17602789402008057	-0.528229296207428	-0.433603972196579	-0.6472915410995483	-0.5294063687324524	0.6087479591369629	0.04354701191186905	-0.42526066303253174	-0.49647000432014465	-0.3439739942550659	0.0435698963701725	0.6680358052253723	0.2012365758419037	0.4835576117038727	-0.8552220463752747	-1.2337563037872314	-0.04204634949564934	-0.6185118556022644	-0.7808422446250916	0.6132904291152954	0.46362680196762085	0.7071419358253479	-0.0953005701303482	-1.449061393737793	-0.2892676889896393	0.7466002702713013	0.5024620294570923	0.1733182668685913	0.5582746267318726	-0.15529540181159973	-0.09696231037378311	0.37107664346694946	-0.4817203879356384	-0.9107164144515991	0.028343943879008293	0.9744287133216858	-0.9378147721290588	0.9455357789993286	-0.8834801912307739	0.2579038739204407	0.4312761127948761	0.1428302824497223	0.006332514341920614	-0.27104756236076355	-0.4666726887226105	-0.2566913664340973	-0.3752387464046478	-0.2995453476905823	-0.11706765741109848	0.615403413772583	0.3629966974258423	0.24883025884628296	-0.06421591341495514	-0.9046509861946106	0.09055033326148987	-0.1003807932138443	-0.17719919979572296	-0.5802735686302185	0.6372911334037781	-0.44983264803886414	0.07331131398677826	0.5988791584968567	1.0966964960098267	0.7991243004798889	-1.0559494495391846	-0.7113909721374512	-0.8319892287254333	-0.18896661698818207	0.36133986711502075	-0.4079112410545349	0.5300933122634888	-0.9144393801689148	0.37920159101486206	0.7006233334541321	-0.4799940586090088	0.2278221845626831	-0.21847069263458252	-0.16163532435894012	0.7257779240608215	-0.5868821740150452	0.019989347085356712	-0.06809259951114655	-0.6626856923103333	-0.7289661169052124	-0.28011295199394226	0.009630424901843071	-0.08249596506357193	-0.5499690771102905	-0.38486403226852417	0.06372157484292984	1.5687512159347534	0.48965349793434143	0.24346187710762024	-1.2703038454055786	-0.24771113693714142	0.008286009542644024	0.2427470088005066	-0.6343830227851868	-0.5602262616157532	0.2831464111804962	-0.8090240955352783	-0.42685064673423767	-0.28049927949905396	0.8483743667602539	0.38078436255455017	0.5573998093605042	0.032554250210523605	0.8970285058021545	0.5648136734962463	-0.5679894685745239	-0.6720988750457764	-0.24023036658763885	-0.3990689814090729	-0.6085332036018372	0.005940364208072424	0.7466249465942383	0.3251863420009613	-0.21208485960960388	0.004811489954590797	0.741486668586731	0.01759273000061512	0.9067771434783936	0.41551902890205383	0.8323270082473755	-0.5860945582389832	0.3475950062274933	0.08054160326719284	0.20488083362579346	0.01919598877429962	0.15719689428806305	0.3037422001361847	0.2013748288154602	0.5157744288444519	-0.05319744348526001	-1.452418565750122	0.323720246553421	-0.08555189520120621	0.8317724466323853	0.042757391929626465	1.0551822185516357	-0.7101585268974304	-0.6407010555267334	0.7198482751846313	-0.45488807559013367	1.1206027269363403	-0.4455074071884155	-1.1623389720916748	0.43147140741348267	0.9510776400566101	-0.7304972410202026	-1.3250147104263306	0.6814493536949158	-0.34072378277778625	-0.032482683658599854	-0.09600719064474106	0.9914810657501221	0.06934917718172073	1.1352131366729736	-0.4159245789051056	0.08015361428260803	0.44773948192596436	0.11767741292715073	1.6660685539245605	-0.13541732728481293	
Hillary Clinton	0.5707220435142517	-0.7994346022605896	-0.14805330336093903	0.7165490388870239	0.2375452220439911	0.9725227952003479	0.47565725445747375	-1.2276724576950073	-0.7183007001876831	0.517985463142395	0.25207987427711487	-1.0426321029663086	0.6939039826393127	-1.3351049423217773	0.023194512352347374	0.7319503426551819	-0.5544382333755493	0.08235470950603485	1.060219645500183	0.1909555196762085	0.4364922344684601	0.6502365469932556	-0.7214537262916565	0.8191238045692444	0.2420356273651123	-0.22126971185207367	-0.09130982309579849	0.00222541531547904	0.07662384957075119	0.19266556203365326	-0.4131416976451874	0.04289587587118149	0.8743920922279358	-0.1060248464345932	-0.6894341111183167	0.5232840776443481	0.07451294362545013	0.26547035574913025	-1.0824536085128784	0.8323948383331299	0.5133771896362305	0.23092837631702423	-0.40631103515625	-0.1843651384115219	-0.8335001468658447	-0.34039756655693054	-0.4298730194568634	-0.13670645654201508	-1.0407651662826538	-0.3498969078063965	-0.06040116399526596	-0.7682861089706421	-0.09284813702106476	-0.8107917904853821	0.573531448841095	0.9581142663955688	0.9044351577758789	-0.4439438283443451	0.26970455050468445	-0.03868378698825836	-0.3184252679347992	0.45955514907836914	-0.39375805854797363	0.06055322289466858	-0.8082101345062256	-0.15364670753479004	-0.03117191791534424	-0.37836793065071106	0.5854223370552063	0.643173098564148	-0.8146553039550781	0.06666342914104462	-0.2651028633117676	-0.49625539779663086	0.3378167748451233	0.12819333374500275	-0.39284875988960266	-0.1631457656621933	-0.927884578704834	-0.7800328731536865	0.3145861327648163	-0.8571051359176636	0.17889747023582458	1.2356641292572021	0.10380946844816208	-0.3108487129211426	0.86164391040802	0.16488705575466156	-0.8349804878234863	-0.4493691921234131	-0.1564483344554901	0.6274669766426086	0.17669042944908142	-0.5932166576385498	0.18552488088607788	-0.09701144695281982	0.7398168444633484	0.10037050396203995	-0.013806954957544804	-0.7930042743682861	0.2910252809524536	-0.3874468505382538	0.1472853273153305	0.07285522669553757	0.08413711190223694	0.5194226503372192	-0.820526659488678	-0.13061556220054626	0.2912445664405823	-0.21265366673469543	1.538020133972168	-1.008419156074524	-0.9788566827774048	-1.294729232788086	0.16615621745586395	-0.15385039150714874	1.0027116537094116	-0.7747385501861572	0.652681827545166	0.8601383566856384	0.33606600761413574	-1.351050853729248	-1.273188591003418	-0.5689046382904053	0.3162408769130707	0.28648239374160767	0.2819150984287262	-1.0011652708053589	-0.023205991834402084	-0.775007426738739	-0.09917580336332321	-0.10308807343244553	0.44824060797691345	-0.4500775933265686	-0.029375268146395683	0.23388205468654633	0.43537795543670654	0.14687441289424896	-0.08835744112730026	-0.154190331697464	-0.321220725774765	0.2074611335992813	0.5659242868423462	-0.060712702572345734	-0.19967564940452576	-0.7937629222869873	-0.3975231349468231	0.10351083427667618	0.7719928622245789	-0.40614432096481323	-1.0208929777145386	-2.1921188831329346	-0.07360723614692688	-0.3610630929470062	-0.1696893870830536	0.43889176845550537	0.7901149988174438	0.6537250280380249	-0.07354193925857544	-0.667744517326355	-0.4850620925426483	0.9731941819190979	0.1674519032239914	-0.5466201901435852	0.017466258257627487	-0.41203925013542175	-0.13232940435409546	0.03366156667470932	-0.39833855628967285	-0.5374950766563416	0.6088663339614868	0.6015027165412903	-0.6035541892051697	0.9112211465835571	-1.2470285892486572	0.13915100693702698	-0.43291860818862915	-0.4818001687526703	-0.6629626750946045	-0.8328431844711304	0.15001048147678375	-0.35103368759155273	-1.444813847541809	0.5635947585105896	-0.01189190149307251	0.6480032801628113	-0.591096043586731	0.5052124857902527	0.22532422840595245	-0.1905244141817093	-0.302127867937088	0.21193058788776398	-0.0010438667377457023	-0.55301833152771	0.44046467542648315	0.4190804958343506	0.37311166524887085	0.5720128417015076	1.0683867931365967	0.654499888420105	-1.0548303127288818	0.7234750986099243	-0.5597898960113525	0.28479787707328796	0.18242566287517548	-0.0643882006406784	1.0147972106933594	-0.10467682778835297	0.42696982622146606	1.1068907976150513	-0.8230659365653992	0.38894104957580566	-0.4781336486339569	-0.28773513436317444	0.09812716394662857	-0.3857361078262329	-0.4070972204208374	-0.15797989070415497	-0.7575031518936157	-0.7100251317024231	-0.3074421286582947	0.047653678804636	0.4354191720485687	-0.7842323184013367	0.37208038568496704	-0.2572464048862457	0.8646377325057983	-0.08456342667341232	0.5223335027694702	-1.0866252183914185	0.9351723790168762	-1.3742876052856445	0.16653336584568024	0.38628971576690674	-0.027136817574501038	0.5333739519119263	-0.7172866463661194	0.8122389316558838	-0.24978874623775482	-0.01667925715446472	-0.04862884059548378	-0.13413801789283752	0.10751640796661377	0.0670757070183754	-0.06091250479221344	0.0400167778134346	-0.6970594525337219	0.6147779226303101	-0.32571664452552795	0.15158846974372864	0.01625681482255459	0.9622505307197571	-0.39199137687683105	-0.2858211100101471	-0.377407044172287	0.998420774936676	-0.5091161131858826	0.5247482061386108	0.5582141280174255	0.29228508472442627	-0.16773012280464172	0.4775214195251465	0.16029717028141022	0.1768890619277954	0.06739947944879532	0.4101050794124603	0.061847079545259476	0.7026727795600891	0.16209881007671356	0.6190624237060547	-1.3013927936553955	0.5866277813911438	-0.3403349220752716	0.20124249160289764	0.5551576614379883	0.9777185320854187	-0.04519176110625267	0.16835683584213257	0.2617569863796234	-0.31116440892219543	0.512847900390625	-0.05333896353840828	-0.19905436038970947	0.5269182324409485	-0.4372030198574066	-0.3666733205318451	-0.5208614468574524	-0.03736673295497894	-0.11010073125362396	-0.9447468519210815	-0.3615947961807251	0.7839349508285522	-0.4428250193595886	0.7807316780090332	0.025188589468598366	-0.46565011143684387	0.0894489660859108	1.119454026222229	0.6990929841995239	-0.3134019672870636	
Vladimir Putin	-0.10419313609600067	0.03494665026664734	-0.6446393728256226	0.13137009739875793	0.02891654148697853	-0.8650332689285278	0.41868311166763306	-0.6249860525131226	-1.0351825952529907	0.2435227483510971	-0.1034393236041069	-0.420889675617218	0.6321995854377747	-0.7093402147293091	0.7240490317344666	0.23837019503116608	0.8617808222770691	0.8825477957725525	-0.027911098673939705	0.6300134062767029	-0.048703331500291824	0.05510373041033745	-0.18394072353839874	0.5331808924674988	-0.27841001749038696	-0.27597323060035706	0.8370938301086426	0.20859254896640778	0.6260319948196411	1.380255103111267	0.0895756408572197	-0.308508038520813	0.6990546584129333	-0.1290738731622696	-0.2923499047756195	0.1048000156879425	-0.28528469800949097	0.10486054420471191	-0.22677281498908997	0.09000633656978607	0.955264687538147	-0.07693485915660858	-0.5531049370765686	-0.8974882364273071	0.2964283227920532	-0.9218026995658875	-0.5042154788970947	-0.5066525340080261	-1.382949948310852	-0.7403455972671509	0.41236940026283264	-0.2128019630908966	-0.4983842074871063	-0.7125664353370667	-0.6262480020523071	-0.06741541624069214	-0.09908442944288254	-0.09643413871526718	0.3792727291584015	0.6487688422203064	-0.5469329357147217	0.3569962978363037	-1.1992828845977783	0.488558828830719	-0.4703465700149536	0.2691347599029541	-0.013155450113117695	-0.3606703281402588	0.13842476904392242	-0.14466984570026398	0.2807310223579407	0.8091204762458801	-0.9880744814872742	-0.771121621131897	0.4688861072063446	0.5297874808311462	-0.3398917615413666	-0.5857099294662476	-0.6983152031898499	-0.24534323811531067	-0.7753730416297913	-1.2436641454696655	0.21518337726593018	-0.0986165776848793	0.2356569617986679	-0.1015034168958664	0.8837723731994629	-0.9508183002471924	-0.2814635634422302	0.737360954284668	-1.1842880249023438	1.0674132108688354	-0.22455035150051117	0.5265350341796875	0.7551624178886414	-0.4860341250896454	-0.4874098598957062	0.027649609372019768	-1.0707604885101318	-1.780411720275879	-0.18821769952774048	0.34318292140960693	-0.48885074257850647	0.8280346989631653	0.20667730271816254	0.20683427155017853	0.36613336205482483	-0.36182141304016113	0.5152146816253662	0.36452406644821167	0.4794270396232605	0.20654456317424774	-0.2873671352863312	-0.6220412254333496	0.09466966241598129	0.31676986813545227	0.4720901548862457	-0.11062362790107727	0.4933861792087555	0.23805981874465942	-0.4114024341106415	-0.5217581987380981	0.03806699067354202	-0.6443494558334351	0.3955431580543518	0.7690525054931641	-1.2378008365631104	-0.3427332639694214	0.09730813652276993	-0.816898763179779	1.2799816131591797	-0.5717807412147522	0.19033439457416534	-0.521363377571106	-1.1133941411972046	-0.5157754421234131	-0.6472617983818054	-0.03065541759133339	0.4305592179298401	-0.35097435116767883	-0.7627421021461487	-0.08979206532239914	-0.5368645787239075	-0.04042080044746399	0.07221277058124542	0.4608566164970398	-0.1626322716474533	-0.13156704604625702	-0.866902768611908	0.3153330087661743	-0.9468086361885071	-0.37762749195098877	0.6217038631439209	1.0855317115783691	-0.8286576867103577	-0.3001096546649933	0.08416695147752762	0.14239372313022614	0.44414427876472473	-1.152489185333252	-0.4814663231372833	0.43492287397384644	0.16227662563323975	0.6283729076385498	1.3144949674606323	-1.2967016696929932	1.3438842296600342	0.8796372413635254	0.5091816186904907	-0.6392307877540588	-0.24314464628696442	0.6590930819511414	-0.19177038967609406	0.7368049025535583	-0.34021249413490295	0.3766024708747864	-0.5429086685180664	0.6627724766731262	-0.8538953065872192	-0.20832695066928864	0.15287774801254272	-0.3422617018222809	-0.39395779371261597	0.7132372856140137	0.5324624180793762	0.7120716571807861	0.1674489825963974	0.0028443261981010437	0.2248292714357376	-0.9455060362815857	-0.8734790682792664	0.24095818400382996	-0.07244580239057541	-0.01082258578389883	0.4602021872997284	-0.7284205555915833	0.3821069598197937	0.6230822205543518	0.81184983253479	0.7385411858558655	-0.11017744243144989	0.055477242916822433	-1.441226840019226	-0.24284927546977997	-0.3224373459815979	-0.44527918100357056	0.011983606033027172	-0.4747093617916107	0.7494584321975708	0.27799972891807556	0.1533195823431015	0.5797080993652344	-0.12475703656673431	-0.7742379903793335	0.22420264780521393	-0.7854585647583008	-0.2918030023574829	0.3444401025772095	-1.1303666830062866	0.11637488752603531	-0.414900541305542	0.7101866602897644	0.0895925909280777	0.5431244969367981	0.6791156530380249	0.146012544631958	0.7856143116950989	0.3247319459915161	0.7453005909919739	-0.8182056546211243	0.918148398399353	-0.2804080843925476	-0.2497316598892212	0.17545998096466064	0.32874569296836853	0.9011573791503906	-0.779325544834137	0.5047630667686462	0.07643898576498032	0.574131429195404	0.43448805809020996	0.2722468078136444	-0.8363103270530701	0.25700250267982483	0.031732842326164246	-0.08397846668958664	-0.5201427936553955	-0.11862761527299881	-0.3880402743816376	-0.1296311914920807	0.5604644417762756	0.7008577585220337	0.041675467044115067	0.11340326070785522	-1.2166144847869873	-0.22279265522956848	-0.43238380551338196	0.6502366065979004	0.4934517443180084	0.6052865982055664	0.4315420985221863	0.8702419996261597	0.08835580199956894	0.5247396230697632	-0.22295473515987396	0.2718529999256134	-0.18538391590118408	0.1492018699645996	-0.5034582018852234	0.21517780423164368	-0.6679880619049072	0.285685271024704	-0.12359560281038284	-0.7808932662010193	0.3436852991580963	0.446933388710022	0.1485721319913864	0.5895758271217346	0.2040066123008728	0.3961291015148163	-0.18380211293697357	-0.13009357452392578	0.22146116197109222	0.14497444033622742	0.5682094693183899	-0.9677903056144714	-1.1246358156204224	-0.08956851810216904	0.7507882118225098	0.4965193271636963	-0.17305585741996765	-0.4519117474555969	-0.5209183096885681	0.39734944701194763	0.35089752078056335	0.3636190891265869	-0.9905190467834473	0.6022452712059021	0.5486028790473938	0.6081500053405762	
scrittore	-0.5969725251197815	-0.2854011058807373	-0.7694994211196899	-0.06631244719028473	0.5514271855354309	0.1101466566324234	0.0373418852686882	0.18447436392307281	0.23368768393993378	0.38807615637779236	0.25443968176841736	0.2258465588092804	0.11150956153869629	-0.5165620446205139	-0.22408686578273773	0.030323917046189308	-0.10550850629806519	0.6930575370788574	0.3984163999557495	-0.0932241678237915	-0.26112762093544006	-0.48013177514076233	-0.11141320317983627	-0.2650582790374756	0.22753214836120605	0.21140500903129578	0.03774629905819893	-0.22095781564712524	0.18380160629749298	-0.30303046107292175	0.13874705135822296	-0.02544170245528221	0.19103851914405823	0.31223031878471375	0.028487324714660645	-0.003881976706907153	-0.12025617063045502	-0.0269225612282753	0.16856452822685242	0.08214705437421799	-0.6605743765830994	0.15347948670387268	-0.3253174126148224	0.3127528131008148	0.27002954483032227	0.16589674353599548	-0.006744104903191328	0.4160638153553009	0.13898466527462006	0.5332756638526917	-0.14995220303535461	0.1043604388833046	-0.010929781012237072	0.1270214468240738	0.051313892006874084	0.12015585601329803	0.31565406918525696	-0.24247965216636658	0.31402215361595154	-0.47685694694519043	-0.4604615867137909	-0.382546067237854	-0.05365445092320442	0.15427084267139435	-0.3421810567378998	-0.30862122774124146	0.16460971534252167	-0.6449296474456787	-0.29277053475379944	-0.12918499112129211	-0.8296459913253784	-0.1641562283039093	-0.2996462881565094	-0.7304551601409912	-0.036838825792074203	0.12779304385185242	-0.20607277750968933	0.38831907510757446	-0.34665805101394653	0.27181532979011536	0.3143689036369324	0.08853007107973099	0.6706438660621643	-0.40018928050994873	0.3246024549007416	0.28250208497047424	0.3109147846698761	-0.008632750250399113	-0.39522260427474976	0.28723812103271484	0.5084397196769714	0.4932229816913605	0.25063440203666687	-0.42011794447898865	0.7073391079902649	0.444975882768631	0.7005515098571777	-0.10357335209846497	-0.008450101129710674	-0.10044912248849869	0.0412643700838089	-0.3954046666622162	0.5496084094047546	0.23922762274742126	0.3596703112125397	0.03121139667928219	0.19546043872833252	-0.2491227686405182	-0.19389107823371887	0.10941513627767563	0.44807735085487366	0.23279698193073273	-0.3081193268299103	-0.19815346598625183	-0.14708051085472107	0.3012767434120178	0.05485052242875099	-0.6449491381645203	-0.9128015637397766	0.4391625225543976	0.15655572712421417	-0.43878912925720215	0.013464529998600483	0.08464130759239197	0.3594982922077179	-0.20935554802417755	-0.20844174921512604	0.1734103560447693	0.12009873986244202	0.17750775814056396	-0.4489743113517761	0.292184442281723	-0.38024553656578064	-0.4291090667247772	-0.3336215913295746	-0.6016915440559387	0.03316449746489525	0.7073131203651428	0.3067827522754669	-0.24406595528125763	-0.22010724246501923	0.13305051624774933	0.35644155740737915	-0.03986254706978798	-0.3067096471786499	-0.4787368178367615	0.11114183068275452	-0.02688281051814556	-0.11372843384742737	0.4639451205730438	-0.06843806803226471	-0.31460335850715637	-0.8780924081802368	-0.2082669734954834	-0.058878470212221146	-0.15166355669498444	0.23868390917778015	0.3954890966415405	-0.09824282675981522	0.013498740270733833	-0.027257686480879784	-0.23348720371723175	0.21284054219722748	0.15486766397953033	0.6216713786125183	-0.24087508022785187	-0.45087388157844543	0.16479893028736115	-0.3766607940196991	-0.33332934975624084	-0.04746609553694725	0.4121364951133728	-0.39668574929237366	-0.12046557664871216	-0.239543616771698	0.10059161484241486	-0.2666797637939453	-0.017468320205807686	0.060236796736717224	-0.4136289358139038	0.3166384696960449	-0.3274346590042114	0.45512720942497253	0.009023386053740978	-0.17666654288768768	0.38081321120262146	-0.12294154614210129	0.3574320673942566	0.4290691912174225	0.05095868930220604	0.21086038649082184	-0.26982128620147705	0.33954328298568726	-0.06507938355207443	0.252232164144516	0.591830849647522	0.6510509848594666	0.37982597947120667	-0.014503476209938526	0.28399309515953064	0.21580389142036438	-0.17937128245830536	-0.4245487153530121	-0.2046322226524353	-0.37480634450912476	0.33211520314216614	0.32684841752052307	0.10976757854223251	0.09444877505302429	-0.16134263575077057	-0.04363127425312996	-0.1440293788909912	-0.12746016681194305	0.26962435245513916	0.15741805732250214	-0.494340717792511	-0.26075050234794617	-0.20829500257968903	-0.24696214497089386	-0.20746465027332306	-0.020750459283590317	-0.1618722677230835	0.3157803416252136	-0.050386346876621246	0.3272530138492584	0.237527534365654	0.7467666268348694	-0.07078176736831665	0.1536824107170105	0.056509993970394135	0.41641101241111755	-0.10893256217241287	-0.5512486100196838	-0.12195580452680588	-0.012626612558960915	-0.5081315636634827	-0.6191335916519165	-0.13391752541065216	-0.2290753275156021	-0.07578808814287186	0.0018454833189025521	-0.64299076795578	0.4653857946395874	0.35369640588760376	0.03351263329386711	-0.14283783733844757	-0.3660467565059662	0.45366621017456055	0.1952047497034073	-0.16033513844013214	0.15085943043231964	-0.20432454347610474	-0.0767841562628746	-0.42937177419662476	0.307120680809021	-0.8301613330841064	-0.5211659073829651	0.4163089394569397	0.46604591608047485	0.8991648554801941	0.04497595503926277	-0.36537477374076843	0.41126754879951477	-0.43455564975738525	0.5787140727043152	-0.18536671996116638	0.24740996956825256	0.1115570142865181	0.11625570058822632	-0.5742051005363464	0.15932723879814148	0.4471915066242218	-0.13946758210659027	0.23825402557849884	0.19851915538311005	-0.05958772823214531	0.012399783357977867	-0.45470428466796875	-0.001886045909486711	-0.27408337593078613	-0.5648050904273987	-0.7119019627571106	-0.1981063336133957	-0.11259589344263077	-0.25133514404296875	0.40929949283599854	-0.012053987942636013	-0.015490572899580002	-0.6269403100013733	0.39278391003608704	0.3845974802970886	-0.44449734687805176	-0.3456732928752899	-0.25192081928253174	0.688255250453949	0.29163047671318054	0.00021564686903730035	0.7834982872009277	-0.31714898347854614	0.21444003283977509	
Sigmund Freud	0.5184352397918701	-0.1854279786348343	-0.5409101247787476	-0.09682619571685791	-0.18817338347434998	-0.2679937481880188	-0.03435294330120087	0.2333904355764389	0.4848865270614624	-0.8963449001312256	-0.3812565207481384	-0.03222748637199402	-0.5292583107948303	-1.337956428527832	0.05712411180138588	1.1078317165374756	-0.26055997610092163	0.1901637464761734	-0.3001489043235779	-0.45499348640441895	0.2676413059234619	-0.10882487148046494	0.07020435482263565	-0.41274845600128174	-0.2534153461456299	0.32984763383865356	-0.12062694877386093	0.5375320315361023	-0.4241877496242523	-0.42462387681007385	0.15663152933120728	-1.1544147729873657	-0.1981799453496933	-0.39783549308776855	-0.8279774188995361	0.43278375267982483	0.15400701761245728	-0.14963820576667786	0.5206425786018372	-0.1827681064605713	0.7884373068809509	0.3004630208015442	0.21505986154079437	-0.09467015415430069	0.4901870787143707	-0.5951771140098572	-0.3506782054901123	0.13421468436717987	0.09356082230806351	0.5466341972351074	-0.871582567691803	-0.5471538305282593	-0.3562174439430237	-0.15226934850215912	-0.32227373123168945	0.542201817035675	0.5017969012260437	0.5730710029602051	0.3625953197479248	-0.23220932483673096	0.7929441928863525	0.13950765132904053	-0.40354517102241516	0.5880510807037354	0.026412419974803925	0.08336132019758224	-0.3484296500682831	-0.6620626449584961	-0.07885555177927017	0.42279401421546936	0.2267174869775772	0.23102213442325592	-0.26909977197647095	-0.29113808274269104	0.3543097674846649	0.08833975344896317	-0.1682291328907013	-0.27048924565315247	-0.5868129730224609	-0.394319623708725	-0.2014453411102295	-0.5006054639816284	-0.4450967609882355	-0.40037643909454346	-0.8161399364471436	-0.4747466742992401	0.6122840046882629	0.032995522022247314	0.3591770827770233	-0.49237915873527527	-0.1692371517419815	0.12643849849700928	-0.36510249972343445	-0.9223103523254395	0.6281779408454895	-0.5088035464286804	0.19987213611602783	0.6750792264938354	-0.001276293653063476	-0.6413314342498779	0.9760376214981079	0.21797411143779755	0.5795619487762451	0.5084593892097473	-0.6252109408378601	-0.2920556962490082	-0.29451504349708557	0.31306761503219604	-0.29295334219932556	0.24164247512817383	0.18647341430187225	-0.2892119884490967	-0.3214249610900879	-1.1398762464523315	0.58103346824646	0.6704989671707153	0.7319349050521851	0.029710911214351654	0.5880587697029114	-0.08062507212162018	-0.5073819160461426	0.3288522958755493	0.13398785889148712	-0.2693352699279785	0.06187679246068001	0.5642913579940796	0.41686809062957764	0.6991967558860779	0.07709480822086334	-0.41161221265792847	-0.2348802387714386	-0.5301788449287415	0.10559472441673279	0.7741655111312866	-1.0401395559310913	1.0102626085281372	0.8002974390983582	0.0315016470849514	0.452688068151474	-0.6708707213401794	-0.5023394823074341	-0.1646084040403366	-0.6530803442001343	0.5411299467086792	-0.714664876461029	-0.6739923357963562	0.38476744294166565	-0.8019047379493713	0.3447766900062561	0.3743216395378113	0.013308153487741947	0.03140875697135925	-0.656749427318573	0.922261118888855	0.3261481821537018	0.014388293959200382	-0.06648489832878113	0.43893614411354065	-0.8540725708007812	-0.47450175881385803	0.39456304907798767	-0.39442068338394165	0.7517083287239075	-0.5958905220031738	0.30293941497802734	-0.45448577404022217	0.06804223358631134	0.056198496371507645	-0.8641098141670227	-0.7414453625679016	-0.3963715434074402	0.12401275336742401	-0.8997613787651062	0.9707352519035339	-0.15172196924686432	0.17221052944660187	-0.36469605565071106	0.3781302273273468	-0.09722808003425598	-0.4972667992115021	0.04653944820165634	0.7279510498046875	-0.09200513362884521	0.02401292510330677	0.7594833970069885	-0.3372310400009155	-0.3927619457244873	-0.159641832113266	0.11944694817066193	0.1735437661409378	-0.8700496554374695	0.1371668130159378	0.4035031497478485	-0.8370531797409058	0.6622207760810852	-0.07640033215284348	0.3744841516017914	-0.23782344162464142	0.2877180576324463	-0.24458014965057373	0.2279767245054245	-0.40718168020248413	0.09733373671770096	-0.5584848523139954	-0.1154223307967186	-0.2916872799396515	0.015890516340732574	-0.26352179050445557	0.1908339112997055	0.41026565432548523	-0.11291757225990295	-0.10490325838327408	-0.06998810172080994	0.07172250747680664	0.5871750116348267	-0.24535048007965088	0.40410926938056946	0.17352744936943054	-0.8026853203773499	-0.147836372256279	-0.35111233592033386	-0.07154291123151779	0.20573872327804565	-0.4976067841053009	-0.2432495504617691	0.49309632182121277	0.37720969319343567	-0.1502920389175415	1.221942663192749	-0.37188610434532166	0.5243384838104248	-0.2630884647369385	-0.36308979988098145	0.3263298273086548	0.031142594292759895	0.23225943744182587	-0.6211349964141846	0.459545761346817	0.44959208369255066	0.05043027177453041	0.024610357359051704	-0.5360292196273804	0.1404557228088379	0.26072636246681213	0.23487956821918488	-0.4458342492580414	0.08892116695642471	0.26502519845962524	0.3433179557323456	-0.0842425748705864	0.5165550708770752	0.44536858797073364	0.6095168590545654	-0.0724005475640297	-0.41815388202667236	0.16907072067260742	-0.3193691670894623	-0.37709563970565796	-0.8127737045288086	0.5032318234443665	0.4514482617378235	-0.31559059023857117	-0.03783288598060608	-0.31240275502204895	0.1319476068019867	-0.0017178681446239352	0.07313302904367447	0.2813504636287689	-0.38383784890174866	-0.6240763068199158	0.17792454361915588	0.49185416102409363	-0.2882412374019623	0.07855171710252762	-0.3154495358467102	0.25291454792022705	-0.015539760701358318	0.17841488122940063	0.824009120464325	-0.09747665375471115	-0.7306368350982666	-0.5965604186058044	-0.20717503130435944	0.2795676290988922	0.31304821372032166	0.5864419341087341	0.16967223584651947	0.3113963305950165	0.02707364223897457	0.1155390739440918	0.5020785331726074	-0.7884487509727478	-0.010582697577774525	-0.034045927226543427	0.11218971014022827	-0.7305356860160828	0.2782207131385803	0.5093719959259033	0.38123366236686707	0.5065159201622009	
J.K. Rowling	0.37791287899017334	-0.943767786026001	-0.7271120548248291	-0.1848752796649933	0.6130725741386414	0.44596636295318604	0.011354928836226463	-1.047519326210022	-1.1760797500610352	0.32389575242996216	0.7196992039680481	-0.43198084831237793	-0.35354331135749817	-0.1503187119960785	-0.22438107430934906	-0.4705798029899597	-0.9183126091957092	-0.19828003644943237	0.32397645711898804	0.09956014901399612	-0.33939871191978455	-0.20314140617847443	0.31091493368148804	-0.3962356746196747	-0.2664922773838043	-0.041089218109846115	0.5100616216659546	-0.2274361252784729	-0.186765655875206	-1.2333197593688965	0.814529538154602	0.1383008062839508	-0.2551952004432678	0.4076559841632843	-1.071619987487793	-0.2933458089828491	-1.2101528644561768	0.2639254629611969	-0.3040260374546051	0.04717198386788368	-0.4647427499294281	-0.24642467498779297	-0.02516549825668335	-0.7609833478927612	-0.36613357067108154	-0.6557261347770691	-0.6980302929878235	0.5750613808631897	-0.34365805983543396	-0.560146689414978	-0.5998836755752563	-0.02487329952418804	-0.5334846377372742	-0.9594863057136536	-0.18692977726459503	-0.7661560773849487	0.28864485025405884	0.32018420100212097	0.2504079341888428	-0.8190428614616394	0.13906057178974152	-0.6040498614311218	-0.015436110086739063	-1.2900235652923584	-0.7308425903320312	0.5568575263023376	-0.5052262544631958	0.2622840106487274	-1.2339198589324951	-0.029257722198963165	0.15769131481647491	-0.2113146185874939	-0.6727531552314758	-1.4742538928985596	0.5966987013816833	-0.27282780408859253	-1.2690975666046143	0.01467126328498125	-0.8098164200782776	0.3924282491207123	-0.4221314787864685	-0.051292527467012405	-0.0956803485751152	0.49796390533447266	0.40318793058395386	-0.5360721349716187	1.287634015083313	-0.5196877121925354	-0.2917855679988861	0.4951470196247101	1.2397465705871582	0.041502147912979126	0.34378743171691895	0.6635869741439819	-0.04766647890210152	1.1043823957443237	-0.2564849555492401	0.23032444715499878	0.4833565652370453	0.17619173228740692	-0.6581498980522156	-0.30829918384552	0.1310700625181198	-0.029275713488459587	-0.02700434811413288	0.5360044836997986	-0.49509376287460327	0.27347519993782043	0.2173166573047638	0.7571192979812622	0.1607014238834381	-1.2007256746292114	-0.5262486338615417	-0.3824673891067505	0.3204694092273712	0.40585145354270935	-0.060703277587890625	0.2988280653953552	-0.4503254294395447	0.7459784150123596	-0.10695798695087433	1.0557293891906738	-0.4434601366519928	-0.6365525126457214	0.9678859114646912	0.451785147190094	-1.149971604347229	0.07952800393104553	1.0386664867401123	-0.07993034273386002	0.14834323525428772	0.10902493447065353	1.1177691221237183	-0.4224953353404999	-0.26120343804359436	0.8515112400054932	-0.13757918775081635	0.8801549673080444	-0.23484598100185394	-0.8493199348449707	0.44220253825187683	-0.07248469442129135	-1.0477209091186523	0.020557492971420288	0.590926468372345	0.1420028805732727	0.1345720738172531	0.4198937714099884	-0.6864814758300781	0.7612481117248535	0.6086357831954956	-0.2580791115760803	0.09769394993782043	0.31450340151786804	0.4754772484302521	-0.39722803235054016	0.5429812073707581	1.2122185230255127	1.4376529455184937	-1.0394890308380127	-0.978705883026123	0.043534476310014725	-0.8231703639030457	0.6397106051445007	0.711887001991272	-1.6867848634719849	0.31885191798210144	-0.11703896522521973	-0.7187965512275696	-0.744486391544342	-0.10346625000238419	0.22214630246162415	0.2279762625694275	0.38210970163345337	-1.1961501836776733	-0.0026403481606394053	0.08881332725286484	0.04603723809123039	-0.40083321928977966	0.16079947352409363	0.14009997248649597	-0.047109849750995636	-0.40376386046409607	0.3954014778137207	0.8250430822372437	0.43743404746055603	0.4267755448818207	-0.3095163106918335	0.057631850242614746	-0.3735363185405731	-0.3638273775577545	-0.6180790662765503	0.4768253266811371	-1.063747763633728	-0.17195196449756622	0.8093081712722778	0.01722029224038124	0.378981351852417	1.268938422203064	0.3709070384502411	-0.001288200612179935	-0.143582284450531	-0.6393001079559326	-1.1804391145706177	0.025762442499399185	1.252320408821106	0.3259875774383545	0.9081563949584961	-0.19558249413967133	0.5477247834205627	-0.12978026270866394	0.6748818755149841	0.2773011028766632	0.10618406534194946	0.08269906044006348	-0.500487208366394	0.3243745267391205	0.4314694404602051	-0.75731360912323	-0.41454359889030457	-0.5272333025932312	0.09841587394475937	0.7391160130500793	-0.33201488852500916	0.23341001570224762	1.3299452066421509	1.3275048732757568	-0.456343412399292	0.2512199580669403	-0.009845282882452011	0.18828512728214264	0.5455750226974487	0.025088276714086533	-0.5836473703384399	0.025703271850943565	-0.5833619832992554	-0.7462016940116882	0.0971762165427208	0.3776474595069885	0.6078144311904907	0.17556153237819672	-0.20363324880599976	0.290597528219223	0.16538695991039276	-0.058424241840839386	-0.3692750632762909	-0.2699836194515228	0.004660013131797314	-0.43457669019699097	-0.1186625063419342	-0.17745092511177063	0.15201032161712646	0.007161510642617941	0.6764272451400757	0.7205939888954163	1.4565188884735107	-0.5220361948013306	0.4908997416496277	0.12684892117977142	0.5687950849533081	-0.34072744846343994	0.6898935437202454	-0.6582923531532288	-0.221785306930542	0.09541041404008865	-0.7067806720733643	-0.4739740490913391	0.6084421873092651	-0.13358791172504425	-0.4967522919178009	0.19769947230815887	1.3984736204147339	0.515773355960846	-0.6328979134559631	-0.05415159836411476	0.3552960753440857	0.13741879165172577	0.019545849412679672	0.417309045791626	1.449349284172058	0.3506816625595093	-0.2797553241252899	-0.0021580923348665237	-0.29762470722198486	-0.034057505428791046	0.11767643690109253	-0.030700525268912315	-0.22632017731666565	-0.4424636960029602	-0.3087237477302551	0.7781444787979126	-0.9233117699623108	0.023144913837313652	0.46366241574287415	-0.07695145159959793	0.08075999468564987	0.6959520578384399	0.33559197187423706	0.16636930406093597	-1.0393027067184448	
Ernest Hemingway	-0.587225079536438	-0.30591052770614624	-0.5214566588401794	0.1475002020597458	0.2713528573513031	0.10540193319320679	0.28341424465179443	-0.17113105952739716	-1.636855959892273	-0.319516658782959	-0.07544800639152527	0.4856135845184326	1.2414835691452026	-0.4946833550930023	0.636062502861023	1.2039741277694702	0.6171392798423767	0.864814817905426	0.41838231682777405	-0.53798907995224	1.046008825302124	-1.2470154762268066	-0.198470801115036	-0.5541560649871826	0.5546849966049194	0.2182704508304596	0.7882130742073059	-1.6667364835739136	-0.3601008355617523	-0.3902190029621124	-0.5654003620147705	-0.014876307919621468	-0.26473939418792725	-0.31321901082992554	0.30535632371902466	0.6492473483085632	-1.8362981081008911	-0.5536535382270813	-0.37632128596305847	0.38308700919151306	1.1128264665603638	0.7258220314979553	-0.5367584824562073	0.607481062412262	0.4793316125869751	-0.03776997700333595	-0.02934308722615242	1.6711158752441406	-0.5839532613754272	-0.16753551363945007	-0.41427260637283325	-1.2267941236495972	-0.31063559651374817	0.3002077043056488	-1.2257492542266846	-0.19180768728256226	1.2024509906768799	-0.3986290693283081	0.9319661855697632	-0.8944036364555359	0.43274813890457153	0.7047274708747864	-0.0002302630600752309	0.5054616928100586	-0.6782771944999695	0.8769179582595825	0.3873017430305481	-1.0925657749176025	-0.4081292748451233	-0.3654952645301819	-1.5274310111999512	0.5750555992126465	0.527664303779602	-0.3117726445198059	-1.750478982925415	1.3742001056671143	-0.40963637828826904	-0.3805637061595917	-0.783088743686676	-0.30206626653671265	-0.0190863236784935	0.23984010517597198	-0.0527881421148777	-0.36594653129577637	0.4505685865879059	-0.5183735489845276	0.5039361715316772	0.35093963146209717	-0.24218033254146576	0.33502545952796936	0.7978087067604065	0.655479907989502	-0.049139149487018585	-1.459712266921997	0.23177233338356018	-0.4533713459968567	0.8965240716934204	-0.33745476603507996	-1.4003386497497559	-0.00047325677587650716	1.0633964538574219	0.05524377524852753	0.7111935615539551	0.5239778161048889	0.4194154739379883	0.2649249732494354	0.24558241665363312	-0.388386070728302	0.46888798475265503	0.3337863087654114	0.6945708394050598	-0.8040621876716614	-0.2895400822162628	-0.8903086185455322	0.40108075737953186	0.3088913559913635	-0.20837925374507904	0.8320128917694092	0.4418538808822632	0.4648990035057068	-0.699812650680542	-0.5098602175712585	-0.47102516889572144	-0.3188090920448303	0.6902289986610413	0.9064731597900391	0.6591444611549377	-0.2583208680152893	1.1521753072738647	-0.22094333171844482	0.08964157849550247	-0.07951225340366364	0.900784969329834	0.2722014784812927	0.06396959722042084	-0.4458594024181366	-0.1820545494556427	0.4148654639720917	0.15110397338867188	-0.6269109845161438	-0.24597005546092987	-0.1598839908838272	-0.29180487990379333	-0.08636254072189331	-0.33648428320884705	-0.8947238326072693	-0.06988117843866348	0.2637423276901245	0.10522826761007309	-0.8122565150260925	0.44673776626586914	-1.022860050201416	-0.45734110474586487	0.723759651184082	0.39594316482543945	0.9131276607513428	-0.035977233201265335	0.833850085735321	-0.11962803453207016	0.060371559113264084	-0.2696370482444763	0.5296405553817749	0.32904165983200073	-0.38297605514526367	0.8360254764556885	-0.5976161360740662	-0.054503049701452255	0.014132525771856308	-1.2666308879852295	-0.511780321598053	-0.2601276636123657	1.0672467947006226	-1.002079725265503	-0.4508150517940521	-0.5236244797706604	-1.0052675008773804	-0.08836095780134201	0.13724654912948608	1.299810767173767	0.45823588967323303	-0.8238653540611267	0.3184959590435028	0.41628098487854004	-0.42292508482933044	-0.7237066030502319	0.37515759468078613	0.3903615474700928	-0.006579611450433731	0.6400187015533447	0.005338408052921295	-0.9315035939216614	-0.10801667720079422	-0.12283971905708313	-1.0047663450241089	-1.2711740732192993	0.36582180857658386	-0.3977048099040985	-0.7022097110748291	1.0683388710021973	0.367305725812912	0.11607608944177628	0.5356262922286987	0.196869358420372	-0.08226761966943741	-0.3850290775299072	0.09036758542060852	0.22665095329284668	0.14528214931488037	-0.03598736226558685	0.46619710326194763	-0.1047561839222908	-0.6653013825416565	-1.037543535232544	0.19456236064434052	-0.7004481554031372	-0.06005707010626793	-0.4033229351043701	0.806272566318512	-0.9755231142044067	-0.6891013979911804	-0.8255655765533447	-0.32681939005851746	0.5714684724807739	0.8598094582557678	0.3090991973876953	-0.5518381595611572	0.1502029448747635	-0.4141666889190674	0.41449877619743347	-0.5531682372093201	-0.08188578486442566	-0.8038012385368347	0.7473882436752319	-0.9840698838233948	0.28636085987091064	-0.3014412522315979	-0.1696484535932541	-0.5105799436569214	-0.6521594524383545	0.4454841911792755	-0.3181093633174896	-0.8628003001213074	-1.1749746799468994	0.8040764331817627	1.2503622770309448	-0.036523472517728806	0.3454042673110962	1.296677827835083	-0.328480064868927	1.0465130805969238	-0.3493758738040924	-0.32799723744392395	-0.11102454364299774	-0.7199902534484863	-0.45107895135879517	-0.05739595741033554	-0.47667983174324036	-0.020043369382619858	-0.32534080743789673	0.09812375903129578	-0.04800436645746231	0.06792592257261276	-0.3870602548122406	-0.8319911956787109	-0.49696090817451477	0.31998851895332336	0.19976754486560822	0.6451619863510132	-0.38986775279045105	-0.4412096440792084	0.23738037049770355	0.3742251396179199	-0.6506413817405701	0.16006335616111755	-0.2150551974773407	-0.0777282789349556	-0.29220297932624817	-0.6714687943458557	0.5855398178100586	0.10877905786037445	0.3056859076023102	-0.38797110319137573	-1.0634888410568237	-0.5965116024017334	-0.7200736403465271	1.0678452253341675	-0.4054713845252991	-0.3636898696422577	-0.21108518540859222	0.6073436141014099	1.08963942527771	-0.6629922986030579	-0.3927074074745178	-1.144739031791687	0.7275921106338501	0.2626805901527405	-0.6807137727737427	0.2439139485359192	0.4808555245399475	0.18389920890331268	
William Shakespeare	-0.5485352873802185	-0.7065343856811523	-0.18313436210155487	-0.6625434756278992	0.631415069103241	0.40476715564727783	-0.1339358538389206	-0.9026694893836975	-0.964879035949707	0.4531703591346741	-0.032943468540906906	0.007245287764817476	-0.4120413064956665	-0.36353933811187744	-0.2381322830915451	0.3908858299255371	0.5287876129150391	0.4362671673297882	-0.24559950828552246	0.00124903186224401	-0.009569069370627403	-0.23362554609775543	0.6595162749290466	-0.5072864294052124	-0.3073355555534363	-0.2500111758708954	0.37113553285598755	-0.45894655585289	-0.26385498046875	-0.8786296844482422	0.023711739107966423	-0.6393454670906067	-0.23694753646850586	-0.014176107943058014	-0.1378868818283081	0.08463163673877716	-0.13316777348518372	0.14521223306655884	-0.20967702567577362	-0.3610042631626129	0.13262216746807098	0.6522247791290283	-0.41296499967575073	-0.348004013299942	0.36744821071624756	-1.12949800491333	0.08075793087482452	-0.013815462589263916	0.8052793145179749	-0.14913536608219147	-0.20685671269893646	-0.965178906917572	-0.427677720785141	-0.5027194619178772	-0.3458387553691864	0.11613920331001282	-0.11831296235322952	-0.4213324189186096	0.269754022359848	0.19131603837013245	0.08599022030830383	0.34967654943466187	-0.8426363468170166	0.6922054886817932	-0.5699312090873718	-0.16238777339458466	0.29838255047798157	0.30273380875587463	-0.049134448170661926	-0.39370501041412354	0.1948835551738739	0.5266352891921997	-0.9556030035018921	-0.5971574783325195	-1.1922093629837036	0.30259308218955994	-0.6858751177787781	1.3546819686889648	-0.3901752829551697	-0.13138648867607117	-0.12498906254768372	-0.3680487275123596	0.5226568579673767	-0.2113279402256012	0.14777101576328278	0.23790507018566132	0.5011647939682007	-0.3816356062889099	-0.08080970495939255	-0.2534779906272888	0.23989175260066986	0.48534509539604187	-0.14857475459575653	-0.4801592528820038	0.15394167602062225	-0.70054030418396	1.0324435234069824	-0.6927530765533447	0.2425670623779297	-0.3471580743789673	-0.17952527105808258	-0.1330038160085678	-0.10631705820560455	1.040886402130127	0.09303263574838638	0.6919050216674805	0.2726409137248993	-0.34158656001091003	0.06615056842565536	0.4456782341003418	-0.4171263575553894	-0.33423858880996704	0.21316200494766235	-0.6192237734794617	0.5397317409515381	0.20726512372493744	-0.177286759018898	0.855572521686554	0.24177716672420502	0.3675171136856079	0.82694011926651	0.7406803965568542	-0.37057819962501526	0.027247991412878036	0.824111819267273	-0.32318809628486633	-0.1846550852060318	-0.2581840753555298	-0.9063052535057068	-0.31307950615882874	0.15594379603862762	-0.5006417036056519	-0.16254186630249023	0.45008689165115356	0.16850432753562927	-0.13002151250839233	-0.6870022416114807	0.8449041247367859	1.2104134559631348	-0.18740642070770264	-0.1348402053117752	0.05789928883314133	0.09136682748794556	-0.43144315481185913	-0.18066002428531647	-0.5124161839485168	-0.3123151361942291	-0.6171929240226746	0.5711100101470947	0.8010792136192322	-1.3759406805038452	-0.2786518633365631	-0.1526433527469635	-0.21908044815063477	-0.617451012134552	0.23830989003181458	0.22010375559329987	-0.704168438911438	0.39299526810646057	-0.871573805809021	-0.08721662312746048	0.2856172025203705	0.023316919803619385	0.4070906341075897	0.5796366930007935	-0.18303950130939484	0.03695486858487129	-0.47931188344955444	-0.0726161003112793	-0.20784468948841095	-0.1924155205488205	0.19604451954364777	-0.6705834269523621	-0.3715784549713135	-0.306129515171051	0.06395863741636276	0.23620188236236572	0.1479564905166626	0.41354766488075256	0.055720362812280655	-0.3003973960876465	0.18361102044582367	-0.49389541149139404	0.5379688143730164	-0.2867480516433716	-0.34720003604888916	-0.23796842992305756	0.02876904048025608	0.03613775968551636	-0.30008354783058167	0.07558280974626541	-0.27286431193351746	-0.03711149841547012	-0.5975779891014099	0.19815830886363983	-0.03581579029560089	0.000293096003588289	-0.16008132696151733	0.7813454866409302	0.24416200816631317	-0.5858736634254456	-0.5113237500190735	0.12545955181121826	-0.39694398641586304	-0.2354852557182312	-0.0546613484621048	0.4057200253009796	-0.21744516491889954	0.6864075660705566	-0.13774624466896057	0.11880538612604141	-0.21281558275222778	-0.5307567715644836	-0.3008621633052826	-0.687360405921936	-0.24090144038200378	-0.2556852400302887	0.6659812927246094	-0.4843951463699341	-0.34693005681037903	-0.589330792427063	0.500338077545166	-0.1281684935092926	-0.3602204918861389	0.29693299531936646	0.5536357760429382	1.1062859296798706	0.027751808986067772	0.2812742292881012	-0.12055686861276627	-0.31199902296066284	-0.5761680006980896	-0.328062504529953	0.43412020802497864	-0.08998654037714005	0.09204363822937012	-0.17757879197597504	0.11564189940690994	0.45256003737449646	0.5039196610450745	-0.1759905368089676	-0.49396711587905884	-0.28810977935791016	0.22984887659549713	0.08454051613807678	0.14297176897525787	0.5092220306396484	-0.36604058742523193	0.031107494607567787	-0.3298344314098358	0.708261251449585	0.3871084153652191	0.47834569215774536	-0.46706435084342957	0.4601580500602722	-0.21715699136257172	-0.17868651449680328	-0.32268381118774414	-0.14448420703411102	0.2810835838317871	0.41640937328338623	-0.2939850986003876	0.36203503608703613	0.4416173994541168	-0.285697877407074	0.24839435517787933	-0.46557319164276123	0.5678908228874207	-0.025371992960572243	-0.5020959377288818	0.11823207885026932	0.3003430962562561	-0.14386798441410065	-0.4688699543476105	-1.2052487134933472	0.17730654776096344	-0.7524701356887817	-0.7370973825454712	0.9489770531654358	0.6555202603340149	-0.05385744199156761	-0.188674196600914	0.4658600091934204	-0.4812399744987488	0.1496693342924118	0.8589594960212708	0.8163130283355713	-0.01986008696258068	-0.13423871994018555	-0.11134173721075058	-0.1493666023015976	-0.0552024319767952	0.24917420744895935	-0.47524216771125793	0.3494546413421631	0.14120431244373322	-0.3591281771659851	0.20950058102607727	0.8142703175544739	0.09387174248695374	
musicista	-0.2341000884771347	-0.019108859822154045	-0.32926657795906067	-0.17956872284412384	0.5742714405059814	-0.4562382400035858	0.5836765766143799	-0.03011387400329113	0.40663838386535645	0.0066628302447497845	-0.15179035067558289	0.4496862590312958	0.4347115457057953	-0.3341203033924103	0.1674308180809021	-0.05899491533637047	0.47171807289123535	0.18846870958805084	-0.004288073163479567	0.10185766220092773	0.12839891016483307	-0.3217335641384125	-0.12501169741153717	0.0740036815404892	0.48760390281677246	-0.02914663404226303	0.22448097169399261	0.6026054620742798	0.49240168929100037	-0.042777955532073975	0.3025237023830414	0.14368416368961334	0.2892293930053711	0.3394089341163635	0.09599459171295166	0.21130779385566711	0.1455337107181549	0.1379321962594986	0.04314277321100235	-0.19688881933689117	-0.24145694077014923	0.28909048438072205	-0.27953609824180603	0.12276341021060944	-0.06507326662540436	0.07455857843160629	0.005807092878967524	-0.16921693086624146	0.5986797213554382	0.12662988901138306	-0.35218772292137146	-0.23312924802303314	0.10252384841442108	-0.370962530374527	-0.6278544068336487	0.2930586040019989	0.1863725185394287	-0.25710171461105347	0.01808370091021061	-0.24320638179779053	0.0844302549958229	-0.0722636952996254	0.018111184239387512	0.1810845285654068	-0.6385996341705322	0.21232308447360992	0.28741586208343506	-0.47658103704452515	-0.7491042017936707	-0.00026967807207256556	-0.6616252660751343	0.2356310337781906	-0.6902188658714294	-0.23908159136772156	-0.2582041025161743	0.35842233896255493	-0.02339470386505127	0.23172639310359955	-0.287445604801178	0.4875759184360504	0.36796319484710693	-0.6050089597702026	0.17147205770015717	-0.37255334854125977	0.7124538421630859	-0.03523930162191391	0.2986437976360321	0.049677204340696335	-0.23470373451709747	-0.11593054980039597	0.40678519010543823	0.27293848991394043	0.3819029629230499	-0.6008970737457275	0.6896280646324158	0.07509604096412659	0.18683266639709473	-0.3776259422302246	0.32257625460624695	-0.1441941261291504	0.04600967839360237	-0.09182211011648178	-0.020129017531871796	-0.053600240498781204	0.10621707141399384	0.46305984258651733	0.2534979283809662	0.043397847563028336	0.06922230124473572	0.3157055079936981	0.15709641575813293	-0.046794090420007706	-0.42543426156044006	0.03990376368165016	-0.22138017416000366	-0.3201030492782593	-0.4321712255477905	0.5191848278045654	-0.6891606450080872	0.25485771894454956	-0.1601671725511551	-0.06351178884506226	0.10378503054380417	-0.015507395379245281	0.30356690287590027	-0.08096394687891006	0.09669733047485352	0.15486867725849152	-0.23201552033424377	0.10367884486913681	-0.33417809009552	0.21903932094573975	-0.5184526443481445	-0.21663522720336914	-0.3278653919696808	-0.049422312527894974	0.12960529327392578	0.3943866491317749	-0.07076793909072876	-0.2970520555973053	-0.21331509947776794	0.5672293901443481	-0.02568529173731804	-0.3612600564956665	-0.24508309364318848	0.21868953108787537	0.045469000935554504	0.5192660093307495	0.5189738273620605	-0.08207593858242035	-0.34053927659988403	0.005623314529657364	-0.7229659557342529	-0.0632329136133194	-0.14756222069263458	-0.32860881090164185	0.205791175365448	0.46401599049568176	0.4587501585483551	0.013075247406959534	0.08070077747106552	0.2601960599422455	0.2993895709514618	0.290962815284729	0.3785020112991333	-0.08501993864774704	-0.049474555999040604	0.27199187874794006	-0.37530431151390076	-0.3454531133174896	-0.1620287448167801	-0.2243375927209854	-0.4934813678264618	0.0728672593832016	-0.5428065657615662	-0.009642161428928375	0.15228265523910522	-0.0014311149716377258	-0.11079038679599762	-0.22201712429523468	-0.27475693821907043	-0.0857703760266304	-0.2980489730834961	0.32685625553131104	-0.3045889735221863	0.6015347838401794	-0.34139955043792725	0.03306550160050392	0.3927774727344513	-0.1531611979007721	0.1574619710445404	-0.312954306602478	0.30991965532302856	-0.026277609169483185	0.4612715542316437	0.4347935616970062	0.7667784690856934	0.11899719387292862	-0.00036191061371937394	0.014215999282896519	0.38083896040916443	0.33903440833091736	-0.3063013255596161	-0.15749704837799072	0.14470434188842773	0.49814993143081665	0.17542193830013275	-0.15671813488006592	0.48662909865379333	-0.06724444031715393	-0.47410398721694946	-0.043400805443525314	0.205257385969162	0.089993916451931	-0.0440964438021183	-0.3679749667644501	0.224000483751297	0.06792688369750977	-0.04645376652479172	-0.25300028920173645	0.17893333733081818	0.16725075244903564	-0.058816198259592056	-0.4326223134994507	-0.3562348783016205	-0.16044233739376068	0.377948522567749	0.3874974846839905	0.2497032731771469	-0.13727402687072754	0.30450406670570374	-0.22916071116924286	-0.7242534160614014	-0.2996925711631775	-0.3485429883003235	-0.408977210521698	-0.6572888493537903	0.10555686801671982	-0.0698278546333313	-0.05350464954972267	-0.17139039933681488	-0.07146900147199631	0.19553212821483612	0.33819159865379333	-0.31870827078819275	0.31327173113822937	-0.02401166409254074	0.49022388458251953	0.47136810421943665	-0.0982760488986969	-0.21602191030979156	-0.10022793710231781	-0.16168424487113953	-0.15028025209903717	-0.014029636047780514	-0.6898236870765686	0.2641282379627228	0.18006053566932678	0.19545242190361023	0.23051926493644714	-0.18065471947193146	0.5940535068511963	0.3902551233768463	0.03811288997530937	0.297489732503891	0.02716561034321785	-0.054853346198797226	0.4242396354675293	-0.02162943035364151	-0.33849334716796875	-0.6428371667861938	0.027422934770584106	0.2910428047180176	0.2647865414619446	0.3320934772491455	-0.39787715673446655	0.04411228746175766	-0.15277433395385742	0.11614076793193817	-0.8677286505699158	-0.001239253906533122	-0.3923739790916443	-0.06773610413074493	0.11512213945388794	0.3038472831249237	0.08552509546279907	-0.3356916010379791	-0.23925219476222992	-0.07524559646844864	0.658675491809845	0.23512516915798187	-0.2555335462093353	-0.006628819275647402	-0.07340587675571442	0.16423895955085754	0.4159737527370453	0.20114195346832275	0.5457364916801453	0.12629933655261993	0.5359570980072021	
Freddie Mercury	-0.04125208780169487	-0.16421252489089966	-0.1514190435409546	-0.2838656008243561	-1.5770241022109985	-0.8308324217796326	0.5857723951339722	-0.3630408048629761	0.02143673226237297	0.015842255204916	0.4471878409385681	-0.4972870945930481	0.16751153767108917	0.0049580237828195095	-0.3155982196331024	0.44037848711013794	-0.08096795529127121	0.672688901424408	-0.4482131600379944	0.05615133047103882	0.13931620121002197	-0.7099750638008118	-0.7824591398239136	0.021167531609535217	-0.03636927530169487	-0.03695705160498619	0.3113569915294647	0.04625323787331581	0.03855731338262558	0.029943449422717094	0.4561578929424286	-1.1421247720718384	-0.43326878547668457	0.7619531154632568	-0.10087867826223373	0.14306889474391937	-0.4262438416481018	0.06834743171930313	-0.2309689074754715	0.8757542967796326	0.8511887788772583	0.5388771891593933	0.17556101083755493	0.666267991065979	-1.4912364482879639	-0.5048141479492188	-0.8934835195541382	-0.8005637526512146	-0.27956244349479675	-0.3819078803062439	0.006252321880310774	-0.29184192419052124	-0.7217162251472473	0.2483615130186081	0.03375978395342827	1.681717038154602	0.042812325060367584	0.03302377089858055	-0.07970249652862549	0.04384668543934822	0.25207847356796265	0.06176462024450302	0.03066609986126423	0.0915583074092865	-0.1833837777376175	1.4281718730926514	0.2606916129589081	0.7985209226608276	-0.44669193029403687	-0.5867760181427002	-0.6484181880950928	0.7739352583885193	-0.6410754323005676	-1.085322618484497	-0.2976202666759491	-0.06761112064123154	0.19591188430786133	-0.9710228443145752	-1.3526639938354492	-0.3099258542060852	0.050375476479530334	-0.0670456513762474	0.5170894265174866	-0.14697493612766266	0.5945270657539368	-0.5258824825286865	-0.4104146361351013	-0.36128291487693787	-0.7226641178131104	0.5252580046653748	0.21283453702926636	-0.09888551384210587	0.31709879636764526	0.04566482827067375	0.0693240761756897	-0.6251504421234131	-0.6325844526290894	-0.07408138364553452	-0.5917266011238098	-0.3594561815261841	0.0679357722401619	0.25106504559516907	-0.18336105346679688	0.5679783225059509	-0.7516696453094482	0.5138011574745178	0.11630599200725555	0.4855296015739441	0.1870657056570053	0.10830182582139969	1.3631154298782349	0.034965630620718	0.16870807111263275	-0.43983909487724304	1.7537989616394043	-0.05018013343214989	0.4904746115207672	0.5659709572792053	-0.23270483314990997	0.44256824254989624	-0.10842747986316681	0.4163181781768799	0.06835143268108368	0.1250847727060318	0.41204798221588135	0.14984995126724243	-0.9031524062156677	1.3322248458862305	-0.6446297764778137	-0.658402681350708	-0.10757649689912796	-0.23802047967910767	-0.5980492234230042	0.8238875269889832	-0.2973977327346802	0.6240119338035583	-0.7826224565505981	-0.3751794397830963	-0.43495649099349976	-0.631168007850647	-0.5786937475204468	-0.14046280086040497	-0.4535652995109558	0.5717982649803162	-0.9327717423439026	0.44207489490509033	0.23820175230503082	-0.7820613384246826	0.44598934054374695	0.2968892753124237	-0.7365580797195435	-0.710716724395752	-0.13426922261714935	0.5514088869094849	-0.5863352417945862	0.031008927151560783	0.8635892868041992	0.1202746257185936	0.15584059059619904	-0.8133022785186768	-0.012749319896101952	-0.0054864222183823586	0.1688995659351349	0.5013391971588135	0.44047996401786804	-0.1999303698539734	0.6279590725898743	-0.26985979080200195	-0.5483410954475403	-0.8966841101646423	-0.15092748403549194	-0.7411165237426758	0.2757367491722107	0.3972371518611908	-1.2358969449996948	0.4821368455886841	-0.11976650357246399	-0.6377176642417908	0.26871222257614136	1.0807602405548096	-0.18502041697502136	0.2640240788459778	-0.6520726084709167	1.7964563369750977	0.30743399262428284	-0.173234224319458	-0.04770500957965851	0.4071723520755768	0.5494909286499023	-0.076762355864048	0.9243305325508118	0.13665413856506348	-0.04055701196193695	-0.28913578391075134	0.7898876667022705	0.18125857412815094	-0.6105769872665405	-0.13116322457790375	-0.11809567362070084	0.15817414224147797	-0.2126777172088623	0.9116902947425842	0.3693983554840088	-1.1955065727233887	-0.39011844992637634	0.2504211366176605	0.5604651570320129	0.2505636513233185	1.4028128385543823	0.02006732113659382	0.1329261064529419	0.7881996035575867	0.07683329284191132	-0.26455432176589966	-0.5982212424278259	0.8675945997238159	-0.47066548466682434	0.8046395182609558	-0.6761344075202942	-1.3378726243972778	0.24459172785282135	0.11740919947624207	0.38072800636291504	-0.2532729506492615	-0.0562477745115757	-0.24145178496837616	0.5696066617965698	0.22704926133155823	-0.551373302936554	-1.206692099571228	-0.2699255347251892	0.012997849844396114	0.14054419100284576	0.9624548554420471	0.17277967929840088	1.0462738275527954	-0.4231783151626587	0.44918113946914673	0.09123502671718597	0.8752840161323547	0.22583000361919403	-0.5645095705986023	0.15070341527462006	1.7991540431976318	0.16231633722782135	0.29729706048965454	0.03324241191148758	-0.6984502077102661	0.6629840135574341	0.5811326503753662	0.17200124263763428	0.5495847463607788	-0.01288730837404728	-0.13721609115600586	0.434411883354187	0.7628084421157837	0.32363027334213257	0.6887509822845459	0.0914212241768837	0.15516988933086395	1.017615795135498	0.2839386761188507	0.198515847325325	0.2607560157775879	0.5112658739089966	-0.11859501153230667	0.02514311671257019	0.49084365367889404	0.1029442548751831	0.04455845057964325	-0.4616643190383911	0.7480379343032837	-0.1864527463912964	-0.27837079763412476	-0.4245810806751251	-0.09578682482242584	-0.7770567536354065	-0.5657346844673157	1.195241928100586	-0.05976187437772751	-0.48456984758377075	0.20445607602596283	0.018506843596696854	-0.6231924295425415	-0.4300202429294586	0.37798061966896057	-0.7601028084754944	-0.5599102973937988	-0.667807936668396	0.8010098338127136	0.4977279007434845	-0.4537937045097351	-0.4237934350967407	-0.47991490364074707	-0.7376751899719238	0.5010793209075928	0.40542691946029663	0.23858880996704102	0.6154838800430298	0.04131237789988518	
Bob Dylan	0.01868676021695137	-1.033277988433838	-0.5733204483985901	-0.19607998430728912	0.0021585579961538315	-0.04998611658811569	0.08006229251623154	-0.17971883714199066	-0.07193617522716522	-0.4554421007633209	-0.2672998309135437	-0.8064851760864258	0.22562913596630096	-0.2627418339252472	-0.7016268372535706	-0.24632692337036133	0.2515978515148163	0.8291275501251221	-0.5848401784896851	0.9743667244911194	0.9786074757575989	-1.3847925662994385	-0.5776394605636597	-0.09882233291864395	0.255504310131073	0.10902978479862213	-0.19041769206523895	-0.4643738567829132	-1.1392121315002441	-0.3588583469390869	0.01958126574754715	-0.2928295135498047	-0.22556628286838531	0.4679221212863922	0.7958421111106873	0.373629629611969	-0.2861017882823944	-0.048930395394563675	0.08487125486135483	-0.3028135299682617	0.2073470950126648	0.08594424277544022	-0.07406406849622726	-0.13001611828804016	0.7702392935752869	-0.4305010735988617	-0.3232010006904602	0.5664343237876892	-0.5588411092758179	-0.7995867729187012	0.5959718823432922	-0.5530785918235779	-1.0568801164627075	0.7019867897033691	0.34121668338775635	0.48169469833374023	0.5398785471916199	-0.22125737369060516	0.5107970833778381	-0.35974887013435364	0.6267715692520142	-0.8318998217582703	0.013333242386579514	0.21143990755081177	-1.075981616973877	0.43729788064956665	0.4849870800971985	-0.48212677240371704	-0.1943499892950058	0.14141659438610077	-0.15228153765201569	0.33447298407554626	0.3728530704975128	-0.21615274250507355	-0.23908734321594238	-0.12499924749135971	0.6224807500839233	0.0641566812992096	-0.8750703930854797	-0.09936971962451935	0.6478857398033142	-0.5500926971435547	-0.4740099012851715	-0.12163758277893066	0.08495685458183289	-0.02753802016377449	0.027868634089827538	-0.6403341293334961	-0.44872936606407166	-0.05385197699069977	0.2614385783672333	-0.31584808230400085	0.1138458177447319	-0.2783973813056946	-0.36243581771850586	-0.39812546968460083	-0.36984366178512573	0.6124264597892761	-0.66701740026474	-0.785239577293396	0.6438790559768677	0.3682876527309418	0.44465065002441406	0.7985882759094238	-0.19531546533107758	0.31120696663856506	0.34177887439727783	0.003495776792988181	-0.40462231636047363	0.27495744824409485	0.7953111529350281	-0.47133868932724	-0.17604343593120575	-0.032716378569602966	0.0038780809845775366	0.4688853621482849	0.2154092937707901	-0.6720803380012512	0.6135485172271729	1.2652008533477783	-1.3001227378845215	0.33139705657958984	-0.04815150052309036	-0.46720898151397705	0.8317276835441589	-0.5088622570037842	0.7721030116081238	-0.1407884806394577	-0.3614768087863922	-0.3461934030056	-0.5128666162490845	-0.7559235692024231	-0.43870410323143005	0.32206645607948303	-0.14868870377540588	0.20891709625720978	-0.33104369044303894	-0.17952634394168854	-0.48119160532951355	-0.4919314980506897	-0.7588015794754028	0.988900363445282	-0.43917080760002136	-0.2079794853925705	-0.23155002295970917	-0.09797628223896027	-0.029167260974645615	-0.1332320123910904	-0.2657443881034851	1.134087085723877	0.14258567988872528	0.2869017720222473	0.3985059857368469	-0.13297952711582184	-0.7634594440460205	-0.09291214495897293	0.0733126848936081	0.05453171208500862	-0.4750284254550934	-0.21044282615184784	0.7511951327323914	0.4716595411300659	-0.519601583480835	1.293901801109314	1.1484692096710205	0.22634387016296387	-0.3394381105899811	-0.19669827818870544	-0.5998393297195435	-1.2793468236923218	0.04677032306790352	0.17567549645900726	-0.1500220000743866	0.09464560449123383	-0.8647927641868591	-0.8036521673202515	0.40803635120391846	-0.084291011095047	1.1682230234146118	-0.19890457391738892	-1.4845746755599976	0.46542683243751526	-0.8655566573143005	0.8207271099090576	0.10300533473491669	-0.15763071179389954	0.1689748913049698	-0.2682482898235321	-0.4304000437259674	0.14828060567378998	0.0843828022480011	-0.21466436982154846	-0.03994975611567497	0.03049451671540737	-0.06456847488880157	-0.20139464735984802	0.7096872329711914	-0.5755904316902161	-0.36575180292129517	0.7882291674613953	0.13262665271759033	0.43615150451660156	-0.30954211950302124	0.5646912455558777	-0.024216074496507645	-0.3355628550052643	-0.028018979355692863	-0.31352025270462036	1.2750014066696167	0.03236648067831993	-0.5356191396713257	0.8420174717903137	-0.1082407534122467	-0.8883215188980103	0.3978848457336426	-0.19755558669567108	-0.48570147156715393	0.39570388197898865	-1.2783734798431396	0.05327429249882698	-0.3350802958011627	0.4041139781475067	0.4627181589603424	0.5551831126213074	-0.07284707576036453	-0.5158959031105042	-0.42042481899261475	0.3790169656276703	-0.3227248191833496	-0.5606733560562134	0.362581342458725	-0.7743510007858276	0.4839209318161011	-0.5250441431999207	-0.024534890428185463	0.06869819760322571	-0.09498866647481918	0.45413655042648315	0.161232590675354	0.3799251914024353	0.3650926947593689	-0.49534398317337036	0.06108889356255531	0.7266910076141357	0.240352064371109	-0.2032119780778885	-0.015599237754940987	0.5106896758079529	-0.019360806792974472	-0.33076244592666626	-0.42320987582206726	-1.020301103591919	-0.05098329484462738	-0.01673496887087822	0.4204883575439453	0.27906134724617004	0.644612193107605	-0.3381166160106659	-0.457985520362854	0.13445046544075012	-0.36252057552337646	0.13294942677021027	0.07769991457462311	-0.32141658663749695	-0.14111055433750153	-0.22903309762477875	0.272087037563324	-0.2734999358654022	-0.33383724093437195	0.1275826245546341	-0.7849909663200378	0.5297107100486755	-0.6439051032066345	0.13298512995243073	-1.2653154134750366	0.17857730388641357	0.6618878841400146	-0.09548930078744888	0.9025060534477234	0.3137202262878418	-0.22807525098323822	-0.012241624295711517	-0.8656572699546814	0.21417364478111267	0.16202056407928467	-0.36146849393844604	0.10479288548231125	-0.7480230927467346	-0.20848913490772247	0.21256527304649353	0.2875307500362396	-0.09105999022722244	0.3699210584163666	0.31538623571395874	0.6150102615356445	0.03386619687080383	0.4451383650302887	0.5167457461357117	0.7534376978874207	-0.23222601413726807	
Madonna	-0.6178939938545227	-1.3367232084274292	-0.14823900163173676	-0.5336810946464539	0.6677997708320618	0.025717563927173615	-0.29915183782577515	-1.1092921495437622	-0.8131408095359802	0.4368866980075836	0.13324663043022156	0.3187914192676544	0.2640308737754822	-0.3375033736228943	0.3883628249168396	0.33614906668663025	-0.5365005731582642	0.43373599648475647	-0.5201717019081116	-0.9242026209831238	0.11442536860704422	-0.570671796798706	-1.2809937000274658	0.41224348545074463	-0.4518910348415375	-0.241781085729599	-0.35264351963996887	-0.980762779712677	-0.480692058801651	0.23572294414043427	-0.6300772428512573	-0.1308356374502182	0.32388800382614136	0.3704228699207306	-0.7567100524902344	-0.05962719768285751	-0.34071478247642517	0.3460751473903656	0.1413249522447586	-0.7232455015182495	0.01583155058324337	-0.30961331725120544	-0.44171255826950073	-0.18753516674041748	-0.12311668694019318	0.1350506842136383	-0.22195294499397278	-0.36865392327308655	-0.39879700541496277	0.10841649025678635	-0.01593981683254242	0.2479647994041443	-1.2278306484222412	-0.4304777979850769	0.4170756936073303	0.4910990297794342	0.5390167236328125	0.11844579130411148	-0.2721531391143799	0.3677990436553955	0.7432079315185547	-0.4794055223464966	-0.40588733553886414	-0.4434291422367096	-0.35006099939346313	1.0413743257522583	0.22059489786624908	0.29259926080703735	0.2019253373146057	0.2888832688331604	0.78733891248703	-0.5693143606185913	-0.4237080216407776	-0.5188248753547668	-0.5202783942222595	0.7742868065834045	0.6967234015464783	0.19782859086990356	-1.232894778251648	-0.46684226393699646	0.8798612952232361	-1.2134971618652344	-0.26924821734428406	0.008319977670907974	0.22976651787757874	-0.5335055589675903	0.8435039520263672	-0.5037323236465454	-0.6727304458618164	-0.03565489873290062	0.38578560948371887	0.35119524598121643	-0.15237760543823242	-0.7294238805770874	-0.2652415335178375	0.17388616502285004	-0.7231449484825134	1.0554920434951782	0.13684017956256866	-0.5634534358978271	0.8471415042877197	-0.5553233027458191	0.49137261509895325	0.9437737464904785	-0.6141488552093506	0.5480417609214783	0.06357172131538391	-1.1835895776748657	-0.17937767505645752	0.18190760910511017	0.6821537613868713	0.07813945412635803	-0.11311215162277222	-1.0189659595489502	-0.20716753602027893	0.1988508105278015	-0.06827683746814728	-0.32331833243370056	-0.022947466000914574	-0.053422655910253525	-0.6262743473052979	-0.11383847892284393	-0.13576623797416687	-0.20175722241401672	-0.1924198716878891	0.5312983989715576	-0.09177451580762863	-0.04758622497320175	-0.34989723563194275	-0.38478103280067444	-0.06266246736049652	0.6297361254692078	0.093461774289608	1.2422876358032227	-0.008637586608529091	0.16823457181453705	0.1254039704799652	-0.025965195149183273	-0.8088074326515198	-0.8819153308868408	0.08854285627603531	0.5240272283554077	0.5863734483718872	-0.2784982919692993	0.09408587217330933	-0.013806581497192383	0.14727109670639038	0.514002799987793	0.2804284691810608	0.9538055062294006	-0.15533305704593658	-0.6833657026290894	0.12928250432014465	0.42102035880088806	-0.1963244378566742	-0.05268470197916031	0.5596696138381958	1.1001436710357666	-0.34403273463249207	-0.3498685657978058	-1.4523000717163086	-0.4437524974346161	0.44057318568229675	-0.5930902361869812	0.6873432993888855	0.5851046442985535	-0.2689606845378876	-0.5888608694076538	-0.02857695147395134	-0.5489742755889893	0.3218850791454315	0.8571048378944397	-0.29478922486305237	-0.13089828193187714	0.034180350601673126	0.3125963807106018	-0.31057918071746826	0.42748984694480896	0.20240415632724762	0.8743405342102051	-0.34877514839172363	0.29633745551109314	-0.8118041157722473	0.6592308878898621	-0.09782473742961884	0.20313340425491333	0.9708840847015381	-0.22032198309898376	0.1773986518383026	0.1966748833656311	-0.4162907004356384	-0.2710910141468048	0.40638992190361023	-0.5013083815574646	-0.2033722698688507	-0.4332413077354431	0.2726741135120392	-0.3552471995353699	-0.3551250398159027	0.4989517331123352	0.013033914379775524	0.22272083163261414	-0.5586820244789124	-0.27773401141166687	-0.601237952709198	0.8813022375106812	0.7577831745147705	0.4428603947162628	0.6821717619895935	0.11143893748521805	-0.25893113017082214	0.5277760624885559	0.9529972076416016	-0.631688117980957	0.05382613465189934	0.8645581603050232	0.42287325859069824	0.6221886873245239	-0.046332720667123795	-0.07279649376869202	0.2661857306957245	-0.1928313672542572	-0.17357707023620605	-0.2543095350265503	0.03767979145050049	-0.17527030408382416	0.36340200901031494	-0.37463757395744324	0.1998887062072754	-0.5162339806556702	0.5959992408752441	-0.11918932944536209	0.06803563982248306	0.39771464467048645	0.209709033370018	0.34333041310310364	-1.8851253986358643	0.9844453930854797	0.1125943511724472	1.5660532712936401	-0.8276605606079102	-0.3262975513935089	-0.11431825160980225	1.4109163284301758	-0.5720208883285522	0.1188783198595047	-0.6830641627311707	0.05688203126192093	0.5441994667053223	0.19716385006904602	0.6819084882736206	0.11340806633234024	-0.4475308954715729	0.09972543269395828	0.6038797497749329	1.0446066856384277	0.4551027715206146	-0.25330907106399536	-0.7227978110313416	0.7198901176452637	-1.0693213939666748	0.14988002181053162	-0.23433759808540344	-0.6100171208381653	-0.11563649028539658	-0.5317397713661194	-0.3233255445957184	-0.14436839520931244	-0.04720627889037132	0.532265305519104	-0.5471140146255493	0.3619197607040405	-0.6140518188476562	-0.39541998505592346	0.08575607091188431	0.21385063230991364	-0.19686178863048553	-0.7614848613739014	0.39917460083961487	0.34665146470069885	-0.5140055418014526	0.2257455438375473	0.04674435034394264	0.43776431679725647	-0.22877271473407745	-0.20117896795272827	-0.940005898475647	-0.7662360072135925	-0.5201574563980103	0.7030146718025208	0.9700925350189209	-0.3840160667896271	-0.24561503529548645	0.48677024245262146	0.10903921723365784	-0.4631367623806	0.1697882115840912	1.2647558450698853	1.75418221950531	0.26365798711776733	
Wolfgang Amadeus Mozart	0.457369327545166	0.08386331796646118	-1.1029536724090576	0.08611993491649628	0.5828007459640503	-0.8384926319122314	0.06800192594528198	-0.19765989482402802	0.359233558177948	0.22916868329048157	-0.1829042136669159	0.33436739444732666	0.1475595384836197	-1.427032470703125	0.3163156807422638	0.9405185580253601	0.8566396832466125	0.5158804059028625	-0.8621234893798828	-0.3863457441329956	0.33976221084594727	-0.3879687786102295	-0.10527051985263824	0.06288941949605942	-0.3605712950229645	0.1887308657169342	0.7066416144371033	-0.5311143398284912	0.06254196912050247	-0.32515421509742737	-0.5409066081047058	-0.12878547608852386	0.4595284163951874	0.47123464941978455	-0.484791100025177	0.4716619849205017	-0.3067936599254608	0.4283255636692047	-0.584536075592041	0.02066650800406933	0.5462514758110046	0.20947566628456116	-0.5135183930397034	-0.4212174117565155	-0.6741927862167358	-0.8371086716651917	0.5801202058792114	-0.11437958478927612	-0.2733857035636902	0.1054072380065918	-0.2062854915857315	-0.5806587934494019	-0.9339638948440552	0.5188627243041992	0.49910229444503784	0.3871822655200958	0.03091100975871086	-0.2733723819255829	0.08123437315225601	0.1739586442708969	0.07750245183706284	-0.2964806854724884	-1.0155351161956787	-0.23164305090904236	-1.2155392169952393	0.7747839093208313	-0.44673430919647217	-0.15566734969615936	-0.392911434173584	0.7746350765228271	-0.12143509835004807	0.558535099029541	-0.5391160249710083	-0.10107512027025223	-0.5925910472869873	0.7869112491607666	-0.23440980911254883	0.3099669814109802	-0.6387351155281067	0.11380112916231155	0.682223379611969	-0.413726806640625	0.4220075309276581	0.14837361872196198	-0.21339671313762665	0.09913698583841324	0.37278807163238525	-0.6121761798858643	-0.46531373262405396	-0.017176542431116104	0.03990718349814415	0.4361610412597656	0.4850192964076996	0.004655187018215656	-0.10553201287984848	-0.6424844861030579	0.7204304933547974	0.6898483037948608	0.11011970788240433	-0.44487518072128296	-0.19339703023433685	-0.21558496356010437	0.47124314308166504	0.12397120893001556	-0.7828180193901062	0.561233401298523	0.3531052768230438	0.2563195824623108	-0.4158807098865509	0.6429485082626343	-0.2828086316585541	-0.06050024554133415	-0.7602263689041138	0.19903209805488586	0.0333963967859745	0.38979291915893555	-0.05657745897769928	0.0027669244445860386	-0.049245357513427734	0.5727038979530334	-0.6187688112258911	-0.09702841937541962	-0.35904231667518616	0.08996814489364624	0.8014296889305115	-0.19390931725502014	-0.002619906095787883	0.4569685459136963	-0.4731350839138031	0.18948863446712494	-0.9255486130714417	-0.6218629479408264	0.4502122104167938	0.03199410066008568	-0.035263147205114365	0.5444843173027039	-0.017551971599459648	0.2917013168334961	0.5355310440063477	-0.5137194991111755	-0.22873039543628693	-0.005803319625556469	0.038629353046417236	0.3156893253326416	0.003571160836145282	0.4640201926231384	-0.9817601442337036	0.30698153376579285	-0.599815309047699	0.34244048595428467	-0.15745550394058228	-0.061405472457408905	-0.2553248107433319	-0.09518890082836151	0.10022804886102676	0.07677428424358368	-0.15098358690738678	0.9131138920783997	0.6403429508209229	-0.38862940669059753	0.5377829670906067	0.42545658349990845	-0.1364990919828415	0.40339070558547974	1.1122379302978516	-0.3661430776119232	0.2780081331729889	-0.2248346507549286	-0.41793981194496155	-0.8467820882797241	-0.3367639482021332	0.7006500363349915	-0.41671445965766907	0.2805432677268982	-0.6954755187034607	0.5751299858093262	-0.6902339458465576	0.26140010356903076	0.48196956515312195	0.5978587865829468	0.3123709261417389	0.041376080363988876	-0.5385982990264893	-0.10682597756385803	0.584289014339447	-0.24920818209648132	-0.4380917251110077	0.6089233756065369	0.9598755240440369	-0.13673682510852814	0.4286808371543884	-0.05029496178030968	0.11509501188993454	-0.9482919573783875	0.2990480661392212	-0.6318419575691223	0.0076841688714921474	0.4578695595264435	-0.14468549191951752	0.3546798825263977	-0.08223546296358109	0.009788459166884422	-0.2755048871040344	0.31800320744514465	-0.1657830774784088	-0.1337413340806961	0.09394434094429016	-0.24264943599700928	-0.2575436234474182	-0.03427298739552498	-0.8170722126960754	-0.15311558544635773	-0.02867758646607399	0.29521772265434265	-0.05161816254258156	0.13567587733268738	0.07478542625904083	0.31026792526245117	-0.5718441605567932	-0.3945184051990509	0.1997588574886322	0.028582140803337097	-0.01819230057299137	-0.5914629101753235	0.7206181287765503	-0.07722011208534241	-0.13316111266613007	0.22790656983852386	-0.028142739087343216	0.409390926361084	-0.32104048132896423	-0.6225956082344055	-0.08358101546764374	-0.8993924260139465	-0.6111859679222107	0.4601019322872162	-0.570992112159729	-0.031361646950244904	0.6510447859764099	0.8437023758888245	-0.47097650170326233	-0.0812797099351883	-0.21291567385196686	0.1144343912601471	-0.10326739400625229	-0.25462040305137634	0.6883811950683594	0.031447555869817734	0.3603368103504181	0.007766919210553169	-0.5305176973342896	0.5827898979187012	-0.2400655597448349	-0.3684677183628082	0.2969464659690857	-0.4596690833568573	-0.6146746873855591	-0.054679207503795624	-0.3876217305660248	0.003589850617572665	0.5614361763000488	0.37504297494888306	-0.00686661945655942	-0.11858353018760681	-0.936834990978241	0.24259667098522186	-0.6603665351867676	-0.32587823271751404	-0.4289100766181946	-0.12259559333324432	0.7917245030403137	0.18906916677951813	-0.2103986144065857	0.1525810956954956	-0.2324206531047821	-0.5365835428237915	-0.11632081866264343	-0.08789737522602081	-0.06940365582704544	0.1895715892314911	0.46144747734069824	0.37842342257499695	0.23125754296779633	0.4119798541069031	-0.6730228662490845	0.39900946617126465	-0.005866360850632191	0.20797044038772583	-0.35038629174232483	0.8527160286903381	-0.3932056427001953	-0.6475751996040344	0.564322829246521	-0.6048637628555298	-0.7256850004196167	-0.5117561221122742	0.03445405140519142	0.19129683077335358	0.8712713718414307	0.3161163926124573	
attore	-0.6005780100822449	-0.7709993124008179	0.15678444504737854	-0.11294291913509369	0.6036227941513062	0.3106362521648407	0.3863653838634491	0.30141714215278625	0.36235475540161133	-0.3736647665500641	-0.20573441684246063	0.13288213312625885	0.021965835243463516	0.03434307873249054	-0.14437931776046753	0.24201065301895142	-0.04873359948396683	0.2797257602214813	-0.33422744274139404	0.1805749535560608	0.2707749605178833	-0.5105875134468079	-0.12645263969898224	-0.0002720545162446797	0.2435937374830246	-0.019265130162239075	0.38633671402931213	0.16523373126983643	-0.16414332389831543	0.23973938822746277	0.4480607509613037	0.04766153544187546	0.9153162837028503	0.5243160724639893	-0.36165690422058105	0.27119648456573486	0.47709840536117554	-0.023321829736232758	-0.2882038950920105	0.07953647524118423	-0.26346325874328613	0.03238009661436081	0.6065517067909241	0.5607078671455383	-0.29983097314834595	-0.5085898637771606	0.06473463773727417	-0.37180113792419434	0.3212108910083771	-0.0037240663077682257	-0.5805583000183105	0.36766305565834045	-0.23573818802833557	0.16291719675064087	0.1972053200006485	0.30996233224868774	0.5483293533325195	-0.8851532936096191	-0.37653854489326477	0.04255130514502525	-0.2689073383808136	-0.002562502399086952	0.12288036197423935	0.26333290338516235	-0.1271718591451645	0.035448942333459854	0.3791687488555908	-0.14983375370502472	-0.3353886008262634	0.11379088461399078	-0.7086264491081238	0.10601341724395752	-0.6381454467773438	-0.5852162837982178	-0.2226947546005249	0.548971951007843	0.34853270649909973	0.5359962582588196	-0.3183262348175049	0.6551140546798706	0.19467417895793915	-0.4234241247177124	0.4468608498573303	-0.6272038817405701	0.21358846127986908	0.8644920587539673	0.48909735679626465	0.05738617107272148	-0.24593918025493622	0.3595737814903259	0.23091551661491394	0.6042340397834778	0.42559483647346497	-0.6629387140274048	0.5706444382667542	0.36738842725753784	0.4311670958995819	-0.6362209916114807	0.07383528351783752	0.36544185876846313	0.3558557331562042	-0.3631380498409271	0.802867591381073	0.029955746605992317	-0.12455753237009048	0.6598193049430847	0.5699827075004578	-0.12482418864965439	-0.07380639761686325	0.050773780792951584	-0.15643441677093506	-0.3503682315349579	-0.0841195210814476	0.23138335347175598	0.08592359721660614	-0.0101217832416296	-0.2388821691274643	0.07578098773956299	-0.10816993564367294	0.6970641016960144	-0.20569728314876556	-0.2868160009384155	0.012995860539376736	0.09816008806228638	0.294190913438797	0.19076049327850342	0.5842107534408569	0.40465840697288513	-0.10472056269645691	0.14516790211200714	0.4851066768169403	0.5005506873130798	0.19736000895500183	-0.007926523685455322	-0.12322573363780975	-0.6723929047584534	0.18529684841632843	0.7667851448059082	0.002285948721691966	-0.36850738525390625	-0.12341128289699554	0.6316574215888977	-0.059283483773469925	-0.14200955629348755	-0.7379786968231201	0.11687581986188889	0.6124765276908875	0.46946829557418823	0.5687512159347534	-0.46841713786125183	-0.6004272699356079	0.5080227851867676	-0.44865745306015015	0.16917036473751068	-0.1879073530435562	-0.7421326637268066	0.5107710957527161	-0.21084952354431152	0.07222811132669449	-0.29533931612968445	0.5159209370613098	-0.021385734900832176	0.5725751519203186	-0.073848657310009	0.22835223376750946	-0.5164406895637512	0.1285221427679062	0.3987104296684265	-0.7417219281196594	-0.15769930183887482	-0.06754866987466812	0.024783825501799583	-0.3946409821510315	0.07811755686998367	-0.1848820298910141	0.01547931507229805	0.10521022975444794	-0.030372953042387962	-0.060090139508247375	0.014014581218361855	-0.09585662931203842	0.18746456503868103	-0.05120481550693512	-0.23021318018436432	-0.18045499920845032	0.20367495715618134	0.09198835492134094	0.3210405707359314	0.2869405150413513	-0.04865974560379982	0.7537768483161926	-0.43425747752189636	0.268332839012146	-0.2935790419578552	0.376216858625412	0.07562293112277985	0.5494043231010437	0.10273715853691101	-0.030902067199349403	0.3830404281616211	0.6035451889038086	-0.09874870628118515	0.27466675639152527	-0.44506070017814636	-0.47095951437950134	0.3519760072231293	-0.034657128155231476	0.17305637896060944	0.14422716200351715	0.017939314246177673	-0.07896403968334198	0.19875308871269226	0.6344360113143921	-0.18107450008392334	0.11391149461269379	0.08688429743051529	0.31403154134750366	0.12149467319250107	-0.2640739977359772	-0.6691229343414307	-0.4089790880680084	0.06034104526042938	-0.025111045688390732	0.010069419629871845	0.31012123823165894	0.4034085273742676	0.6351968050003052	-0.23083579540252686	0.5861854553222656	0.2364930510520935	0.46755146980285645	-0.8132914900779724	-0.21713945269584656	0.31246399879455566	-0.053520627319812775	-0.06288884580135345	-0.6979274749755859	-0.03659718483686447	-0.10163895785808563	0.27348536252975464	-0.051695566624403	-0.5416212677955627	-0.44913962483406067	0.1268835961818695	0.17894838750362396	-0.5782635807991028	0.1284235268831253	0.10877295583486557	0.012656125240027905	-0.021586444228887558	0.292565256357193	0.02578340843319893	-0.1932348757982254	-0.8136354088783264	0.017122095450758934	-0.5082793831825256	0.17112930119037628	0.004722754005342722	0.029036635532975197	0.18610024452209473	0.17196343839168549	0.2614688575267792	0.51969975233078	0.26608189940452576	0.23409563302993774	-0.43625345826148987	0.18027786910533905	0.5094416737556458	0.4017012119293213	-0.44390439987182617	-0.6298023462295532	0.24206963181495667	-0.020937321707606316	0.08662935346364975	-0.3422136902809143	0.24504104256629944	0.08788919448852539	-0.21598589420318604	0.4842965304851532	-0.5120240449905396	-0.10333878546953201	-0.4393908679485321	0.25148338079452515	-0.036829423159360886	-0.20427170395851135	-0.19955651462078094	-0.007451222278177738	0.01425996609032154	-0.20067521929740906	0.045568060129880905	0.5992630124092102	-0.2874791920185089	0.13613735139369965	-0.30075788497924805	0.32269731163978577	0.13838359713554382	-0.08388634026050568	0.4348428249359131	0.07728557288646698	0.23349396884441376	
