entity	wikipedia2vec_entity_vector
politico	0.2629953920841217	-0.11193273961544037	0.12191051244735718	0.2559719979763031	0.38287675380706787	-0.01890379749238491	0.0967869684100151	0.37528425455093384	-0.17763642966747284	-0.309538334608078	-0.2555941939353943	-0.1287969946861267	0.009098951704800129	0.20702265202999115	0.6521312594413757	0.06366903334856033	-0.030528441071510315	-0.49245256185531616	0.059062499552965164	-0.0942867323756218	-0.11689897626638412	0.1782473921775818	0.06782606989145279	-0.1760859340429306	0.143163800239563	0.0006820644484832883	0.155570849776268	0.45019224286079407	0.274064838886261	0.2681499123573303	0.2782781422138214	0.31664183735847473	0.3898347318172455	-0.14382274448871613	-0.11635281145572662	0.1613437682390213	-0.3091389834880829	-0.2847452163696289	-0.030322331935167313	0.1590188890695572	-0.13176359236240387	0.17386510968208313	0.14483928680419922	0.24528099596500397	-0.5193089842796326	0.2515169084072113	-0.1768641471862793	-0.18989337980747223	0.38583022356033325	0.06074104085564613	0.19910860061645508	-0.06962095946073532	-0.2519844174385071	0.06633154302835464	-0.03382572904229164	0.21893823146820068	-0.009244807064533234	0.18817025423049927	-0.30130940675735474	0.12213009595870972	-0.043903522193431854	0.3330422341823578	-0.13632084429264069	0.2225162237882614	-0.11290288716554642	-0.38352611660957336	-0.11489708721637726	0.009925197809934616	-0.3130594491958618	0.02704322151839733	-0.10314702987670898	0.09845468401908875	-0.09203729778528214	0.9183596968650818	-0.09067019820213318	0.047685470432043076	-0.005174313206225634	0.08131641894578934	0.0982358455657959	0.22875361144542694	0.08410577476024628	-0.24726183712482452	0.2902384102344513	-0.6755606532096863	-0.06015613302588463	0.007573636248707771	0.2322787046432495	0.062054961919784546	0.09712215512990952	-0.0864296481013298	0.017759453505277634	0.11384004354476929	0.2655709683895111	-2.771629806375131e-05	0.4303915202617645	-0.0681564211845398	0.06576452404260635	0.6037967801094055	-0.08025091886520386	0.29772940278053284	-0.24026958644390106	0.08721692860126495	-0.2958040237426758	0.04984902963042259	0.4447024166584015	0.04101800546050072	0.17264391481876373	-0.13996067643165588	0.5140295028686523	-0.19805477559566498	-0.2464350461959839	-0.020582085475325584	0.19290485978126526	-0.34241729974746704	0.22118431329727173	-0.31577885150909424	-0.34644830226898193	0.05135436728596687	0.28524062037467957	0.4509309232234955	-0.21237318217754364	0.17137521505355835	0.03864505887031555	-0.07803723961114883	0.23869939148426056	-0.24735940992832184	0.2737371623516083	-0.1871797889471054	0.3536807596683502	0.01579679176211357	-0.47292637825012207	-0.026900991797447205	0.12943366169929504	-0.0013562790118157864	-0.10602565854787827	0.14429335296154022	0.045863088220357895	0.21426424384117126	0.5190626382827759	0.17351529002189636	-0.2604124844074249	-0.11157339811325073	0.155155211687088	0.3488664925098419	0.318093478679657	0.15610188245773315	0.2114732712507248	0.05372890830039978	0.18163344264030457	-0.36158287525177	0.12339027971029282	0.4854219853878021	0.3668837547302246	-0.01365188229829073	-0.0855882316827774	-0.2183344066143036	0.03751732036471367	-0.113822340965271	0.07756643742322922	0.29587793350219727	-0.058612413704395294	-0.27484169602394104	0.14461193978786469	-0.10855971276760101	-0.0275829266756773	-0.02035735547542572	-0.05004377290606499	-0.5607515573501587	-0.41758424043655396	-0.35657522082328796	-0.15236465632915497	0.004299183841794729	-0.10742945224046707	0.05057067051529884	0.05745260417461395	-0.19254274666309357	0.15581166744232178	0.31059688329696655	0.11034657061100006	-0.07987553626298904	0.20772318542003632	0.2999601364135742	0.3567084074020386	-0.34314677119255066	-0.1718851625919342	-0.10391265898942947	-0.19515958428382874	-0.04842180013656616	-0.25743672251701355	0.5425760746002197	0.09665682911872864	0.3455650508403778	0.02484683133661747	-0.01269166637212038	-0.0002989643544424325	0.09618207067251205	-0.2584688067436218	0.17557598650455475	0.2819652259349823	0.15746380388736725	-0.14327991008758545	0.15154555439949036	-0.015285150147974491	0.2744670510292053	0.49655768275260925	0.025152364745736122	0.11936111748218536	-0.23960068821907043	-0.05060867965221405	-0.09645751863718033	-0.13806863129138947	-0.053920090198516846	-0.4261736273765564	0.01566457934677601	-0.038666628301143646	-0.05788307636976242	0.2149190455675125	0.4295136630535126	-0.30275025963783264	0.1827632188796997	-0.1544053852558136	-0.010609226301312447	-0.15335670113563538	-0.2206566035747528	0.048833709210157394	0.11300654709339142	-0.0936785340309143	-0.18151254951953888	-0.10660625994205475	-0.3354145884513855	0.14226755499839783	-0.06709080934524536	0.12341244518756866	-0.10918831080198288	0.24117933213710785	-0.3350210189819336	-0.127052903175354	-0.19904950261116028	0.09467115253210068	-0.3304193913936615	-0.06278625130653381	-0.295065313577652	-0.10927935689687729	0.262712299823761	-0.28808456659317017	0.13810569047927856	0.19326940178871155	-0.29644808173179626	-0.03738606348633766	0.15920305252075195	-0.4113747477531433	-0.06738513708114624	-0.029368121176958084	-0.3375086188316345	0.04652458056807518	-0.23715005815029144	-0.2932080924510956	0.3264268934726715	0.28066036105155945	0.060119420289993286	-0.3535691797733307	-0.2504490613937378	0.07060959935188293	0.43405988812446594	-0.07817533612251282	-0.131565660238266	0.19386246800422668	0.03256963938474655	0.025009959936141968	-0.2748122215270996	-0.12530840933322906	0.09662570059299469	-0.24782885611057281	-0.21997150778770447	0.21900805830955505	0.1412326693534851	-0.0746297836303711	0.12091764807701111	0.0002675425785128027	0.06541740149259567	0.023707211017608643	-0.08180046826601028	0.4407403767108917	-0.0050639500841498375	0.09824684262275696	-0.0989227220416069	-0.10180097818374634	-0.12971170246601105	-0.17284661531448364	0.2735409140586853	-0.27269184589385986	-0.5170153975486755	0.2314435988664627	0.11435694992542267	0.02493727207183838	0.2286195456981659	-0.0861930251121521	0.14190715551376343	-0.22057415544986725	-0.17323245108127594	0.05191464349627495	-0.043700747191905975	0.12599289417266846	0.0717279240489006	0.11765588819980621	-0.043174222111701965	-0.3432697653770447	-0.17924389243125916	0.45632487535476685	0.08532068133354187	-0.3054429888725281	0.11102944612503052	0.001974026206880808	-0.30968424677848816	-0.07335114479064941	0.16663791239261627	0.09387034177780151	-0.4148077666759491	0.38733357191085815	-0.06115739047527313	-0.021215330809354782	-0.1449735313653946	0.007631521672010422	-0.26033440232276917	-0.09533293545246124	0.2294677495956421	-0.20480160415172577	-0.5136043429374695	-0.120423324406147	-0.4162802994251251	0.05598890036344528	-0.2853275537490845	0.12566973268985748	-0.009162013418972492	0.14695650339126587	-0.35652098059654236	-0.18583694100379944	0.06061836704611778	-0.20742645859718323	0.18709509074687958	0.09612756967544556	0.2847745418548584	0.26715773344039917	-0.2729005217552185	0.09481276571750641	-0.07366399466991425	0.13062334060668945	0.18546287715435028	-0.012531112879514694	0.23255568742752075	-0.21406064927577972	-0.273894727230072	-0.3301161229610443	0.3399096429347992	-0.10833223909139633	-0.01856241375207901	-0.21552252769470215	-0.10777078568935394	-0.03609054908156395	-0.006537178531289101	-0.2671145796775818	0.2500283420085907	0.08056943863630295	-0.009766126982867718	0.23755361139774323	0.42269811034202576	-0.23949912190437317	-0.3262784481048584	0.1993039846420288	0.16368335485458374	0.18367435038089752	-0.05669703707098961	0.19368277490139008	0.10367784649133682	0.31007808446884155	-0.2127620279788971	-0.07302495092153549	0.5319550633430481	-0.23280730843544006	-0.1947874128818512	-0.14263176918029785	0.014447209425270557	-0.3168514370918274	-0.36324745416641235	0.024419238790869713	-0.2101259082555771	-0.19808505475521088	0.40910568833351135	-0.060686517506837845	-0.24626199901103973	0.7891539931297302	-0.03225215896964073	-0.05581817403435707	0.21551749110221863	-0.21577121317386627	0.009326435625553131	0.008279788307845592	0.0007908156840130687	0.19474755227565765	-0.16677899658679962	0.2370859980583191	0.06792078167200089	-0.050376810133457184	-0.1688891053199768	-0.24704360961914062	0.4497608244419098	-0.004317431710660458	0.1762433797121048	0.195525661110878	-0.19026504456996918	-0.28393200039863586	0.22607074677944183	0.23402461409568787	-0.2706488370895386	-0.20355430245399475	-0.028870122507214546	0.04678157716989517	0.25240322947502136	-0.045707520097494125	0.0596446692943573	0.01994568668305874	-0.032303906977176666	0.2468319535255432	0.08673388510942459	-0.36299872398376465	-0.03589320927858353	-0.03572171553969383	-0.12438421696424484	0.03771786764264107	-0.3233858048915863	-0.017192058265209198	-0.16637787222862244	-0.07780491560697556	0.12496714293956757	0.0723056048154831	-0.1362839788198471	-0.3802040219306946	-0.21549902856349945	-0.28768548369407654	-0.06145654618740082	-0.36194998025894165	-0.16993407905101776	-0.1320393681526184	0.06783169507980347	0.02109181135892868	-0.4085386097431183	0.011640923097729683	0.35259464383125305	0.4950675964355469	-0.17524106800556183	0.184122696518898	-0.5767185688018799	-0.06608227640390396	0.1126507893204689	-0.18279452621936798	-0.3163706958293915	0.367676705121994	0.42780759930610657	-0.17226825654506683	0.5479444265365601	0.060471005737781525	-0.12674285471439362	0.4257708787918091	-0.3467378318309784	-0.13796235620975494	0.32362478971481323	0.20350044965744019	0.17862018942832947	0.009434320963919163	0.15126919746398926	0.3160402774810791	0.47707971930503845	0.1902729719877243	-0.05875423550605774	-0.14615598320960999	0.11013583093881607	0.02297178842127323	-0.3297329843044281	-0.2239384651184082	0.22453005611896515	0.5161054730415344	-0.07250156998634338	-0.23794467747211456	-0.1461648941040039	0.050356071442365646	-0.0028777841944247484	0.1028716191649437	0.08994149416685104	-0.04917226731777191	-0.10544512420892715	-0.12133738398551941	-0.23854798078536987	-0.024994323030114174	-0.3336058557033539	-0.3421049416065216	-0.22744297981262207	0.4721963405609131	0.09590468555688858	-0.024597711861133575	-0.02980811893939972	
Silvio Berlusconi	0.036995213478803635	-0.3012034595012665	-0.6671810150146484	-0.016159771010279655	-0.8332089185714722	-0.713397741317749	0.30955326557159424	0.07015617936849594	0.5078461170196533	-0.8406349420547485	-0.7168907523155212	-0.4196335971355438	-0.24400019645690918	0.3972780108451843	-0.22506600618362427	0.08830969035625458	-0.3636924922466278	0.006946450099349022	-0.30857762694358826	-0.1066819354891777	0.6311099529266357	0.10339371114969254	0.2141394466161728	0.03968396782875061	-0.0030663292855024338	0.5943078994750977	0.1849127858877182	-0.06495597213506699	-0.8211157917976379	0.1554110050201416	0.11857134103775024	-0.29242247343063354	0.3463458716869354	0.40567490458488464	-0.47300732135772705	0.02221359871327877	-0.42828550934791565	-0.7713605165481567	-0.30564945936203003	0.7243956327438354	-0.22669067978858948	-0.2994411587715149	-0.07973568886518478	0.6310252547264099	0.05944173410534859	0.6228335499763489	1.1959946155548096	-0.5060432553291321	0.2360462099313736	0.6485224962234497	0.6221489310264587	0.3525666892528534	-0.28568294644355774	-0.6984137296676636	-0.22640304267406464	-0.9382221698760986	-0.5244194865226746	-0.05600617080926895	0.13121558725833893	0.24833059310913086	0.36641955375671387	-0.1337868720293045	0.23356926441192627	-0.3582589030265808	-0.14459136128425598	-0.12550948560237885	-0.8760778307914734	-0.5837346315383911	0.15088236331939697	-0.07403960824012756	-0.09684933722019196	0.6431667804718018	0.07644284516572952	0.5219817757606506	0.025808747857809067	-0.23384568095207214	0.6727089285850525	0.1150607094168663	-0.7595106363296509	-0.205173522233963	-0.2727498710155487	0.720187783241272	0.5564258098602295	0.48780766129493713	0.3735927641391754	0.6066439747810364	0.5772172808647156	0.11880799382925034	0.05519458279013634	0.0655650943517685	-0.3178172707557678	0.02814929187297821	-0.06817431002855301	0.2847274839878082	0.28628212213516235	-0.4605376422405243	-0.015981880947947502	0.07934527099132538	-0.15672168135643005	-0.005337235517799854	-0.3127909302711487	0.5669777393341064	-0.7083795666694641	-0.5475824475288391	-0.4898931384086609	0.13636216521263123	-0.006572332698851824	0.2430831491947174	0.15238110721111298	0.5618098974227905	-0.13424493372440338	-0.3956992030143738	0.8629055023193359	-0.7553911209106445	0.4669346511363983	-0.3483082950115204	-0.13272039592266083	-0.5812947750091553	-0.33044883608818054	0.09530816972255707	-0.13487957417964935	1.0292247533798218	0.02571369893848896	0.20286226272583008	0.6874120235443115	0.04153827205300331	-0.14247001707553864	0.07576820999383926	-0.3580416440963745	0.023019250482320786	-0.11327920854091644	-0.3488002121448517	0.30827024579048157	0.00927304569631815	-0.856289803981781	-0.18766577541828156	-0.20819352567195892	0.12566490471363068	0.4274357557296753	-0.4363689124584198	0.5699357390403748	0.3578941524028778	0.593037486076355	0.41063201427459717	-0.571007251739502	0.6701193451881409	0.45655134320259094	0.06856772303581238	0.5471421480178833	-0.10930699855089188	0.13318023085594177	0.7228319644927979	0.43954774737358093	0.09449243545532227	-0.5226314663887024	-0.24220845103263855	0.2790677845478058	-0.112380251288414	-0.6855903267860413	0.3815241754055023	-0.8502519726753235	0.39805296063423157	-0.33010077476501465	-0.24512453377246857	-0.2684631645679474	0.10844169557094574	0.11046528071165085	0.5493507981300354	-0.38188570737838745	0.08599111437797546	-0.7342769503593445	0.014775828458368778	0.44037890434265137	-0.4071061909198761	0.2445993423461914	-0.1480390727519989	-0.41189104318618774	-0.40897107124328613	-0.6745238900184631	0.5405879616737366	-0.5056546926498413	1.1076064109802246	0.5619893074035645	-0.5947298407554626	0.39502647519111633	0.5331124067306519	-0.19443759322166443	-0.4867986738681793	-0.2629655599594116	0.8001604676246643	0.1049535721540451	0.24258556962013245	-0.5130621790885925	-0.2059171199798584	-0.17236819863319397	-0.2751234471797943	-0.05542250722646713	-0.2528476417064667	0.17047876119613647	-1.2959541082382202	0.07296857982873917	-0.02664184384047985	-0.16005411744117737	0.6155134439468384	0.49259379506111145	0.5519306063652039	0.7362228631973267	0.10490153729915619	0.02499687671661377	0.2337917685508728	-0.3445156514644623	0.09353120625019073	-0.019109167158603668	-0.07980500906705856	-0.12575975060462952	0.2747952342033386	0.6381688117980957	0.8749307990074158	-0.7762991189956665	-0.09540922939777374	0.30540040135383606	0.18862448632717133	-0.7017310261726379	-0.01758313551545143	-0.5535932779312134	-0.38961261510849	-0.5431617498397827	-0.16752314567565918	0.2722872197628021	0.5229452252388	-0.2776786983013153	-0.16178107261657715	-0.1772478073835373	0.11775101721286774	-0.255011647939682	-0.279249906539917	0.17846548557281494	-0.03354956954717636	0.2308066487312317	-0.015943925827741623	0.27486830949783325	-0.193221315741539	-0.30617743730545044	0.10794098675251007	0.3954813480377197	-0.6111739873886108	0.3716854453086853	0.23206402361392975	0.20604492723941803	-0.23309972882270813	0.35530349612236023	0.32318902015686035	-0.7419396042823792	-0.7541207075119019	-0.5137801766395569	0.1336195319890976	0.27082130312919617	-0.24530619382858276	0.164656400680542	0.26045912504196167	-0.447223037481308	-0.29651185870170593	-0.11173700541257858	-0.08369779586791992	-0.3525935709476471	0.5546414256095886	-0.36032113432884216	-0.49444249272346497	-0.07045680284500122	-1.0292832851409912	0.9099089503288269	-0.04671022668480873	-0.289511114358902	-0.6292005777359009	0.19676366448402405	0.33283987641334534	0.2704428434371948	0.4810202121734619	0.008974014781415462	0.13398312032222748	-0.516964316368103	-0.2939879894256592	0.7679731845855713	0.2437181919813156	0.46439728140830994	0.11101735383272171	-0.026394089683890343	-0.23091886937618256	0.627474844455719	-0.48953983187675476	0.40278878808021545	-0.05352085456252098	-0.006775503512471914	0.0409993976354599	-0.4463936388492584	0.28833603858947754	0.07228700071573257	0.4946351945400238	0.19004936516284943	0.876265823841095	-0.7334387898445129	1.1578803062438965	-0.3203694522380829	0.43408164381980896	-0.09604217112064362	-0.1991783082485199	0.11089149862527847	-0.2519247233867645	-0.3820604383945465	0.14880822598934174	0.5813291668891907	-0.18506042659282684	-0.10755739361047745	0.039707280695438385	-0.2907187342643738	-0.033659838140010834	-0.487563818693161	-0.03618941083550453	0.16598352789878845	0.0007858905592001975	-0.39901167154312134	0.06460172683000565	-0.27355504035949707	1.0884464979171753	0.12992024421691895	-0.10187332332134247	0.1961318701505661	-0.6240732669830322	-0.07555992156267166	-0.08659100532531738	0.07058560848236084	-0.04323785752058029	0.6392553448677063	0.8086956739425659	0.19510817527770996	0.6333542466163635	-0.3289905786514282	0.18669560551643372	0.9016638994216919	0.046169672161340714	0.14214608073234558	0.5078620314598083	0.10305003076791763	-0.2078731209039688	-0.21493172645568848	0.07435255497694016	0.15293271839618683	0.24807213246822357	0.0974423885345459	-0.1697995513677597	0.36077383160591125	0.7645768523216248	-1.0882189273834229	-0.2743441164493561	-0.24710291624069214	0.581557035446167	0.30614855885505676	-0.1335078477859497	0.19940172135829926	-0.10309366136789322	-0.6484009027481079	0.24517180025577545	0.2852318286895752	-0.8138410449028015	0.45023113489151	-0.15893132984638214	0.19012950360774994	0.03892974555492401	0.4073292016983032	0.5464941263198853	0.09317070990800858	0.26227015256881714	0.29516783356666565	-0.3604871928691864	-0.029833678156137466	-0.4193762540817261	0.273123174905777	0.09150155633687973	0.05314381420612335	0.5530296564102173	-0.10801367461681366	-0.13294945657253265	0.22261320054531097	-0.3319091796875	0.011682987213134766	-0.05068954825401306	-0.041200149804353714	0.6021832227706909	0.08850827068090439	-0.39700034260749817	0.31359419226646423	0.2125132977962494	0.6528671383857727	0.24092788994312286	0.5787109136581421	-0.40084752440452576	0.2262789011001587	-0.42714473605155945	0.30961889028549194	-0.11387158930301666	0.03670034185051918	-0.2564314901828766	-0.6874687671661377	-0.12777934968471527	-0.0850459560751915	-0.33177468180656433	0.04525282233953476	-0.3301468789577484	0.15536408126354218	-0.17635923624038696	-0.5258551836013794	0.7760710120201111	0.029294684529304504	-0.7286834716796875	-0.4538954794406891	0.017000479623675346	-0.31138747930526733	0.4100354313850403	0.06623303890228271	0.46216902136802673	-0.5309537053108215	0.21221719682216644	-0.04088949039578438	0.08550123870372772	-0.13484252989292145	0.4077793061733246	-0.057807549834251404	0.312638521194458	-0.36912044882774353	0.23489627242088318	0.3285928964614868	0.4237138628959656	0.7214633822441101	0.5008437037467957	0.16015271842479706	-0.8907172679901123	0.18441326916217804	0.009143595583736897	0.1589098572731018	-0.07577823102474213	0.10789385437965393	0.09869963675737381	-0.028914861381053925	-0.056495338678359985	0.17293772101402283	-0.34800484776496887	-0.5841019153594971	0.09861443936824799	0.7408349514007568	-0.7683110237121582	0.07580027729272842	-0.06659317761659622	0.03430621325969696	0.7477549314498901	0.14764860272407532	-0.3105158507823944	-0.5995285511016846	0.23307140171527863	0.04954975098371506	0.06669535487890244	0.6998536586761475	-0.053910378366708755	-0.07837263494729996	-0.532556414604187	-0.8649505972862244	-0.9546100497245789	0.46084579825401306	-0.009339923970401287	-0.6152840852737427	-0.20223048329353333	-0.10718745738267899	-0.6561542749404907	-0.09103378653526306	0.4197782576084137	-0.40726739168167114	0.3538651764392853	0.3401505649089813	0.42938917875289917	1.134813666343689	-0.1484505832195282	-0.25347447395324707	-0.39873531460762024	0.27446165680885315	-0.18538327515125275	0.3606226146221161	0.5507503747940063	-0.32710757851600647	-0.08542818576097488	0.15463168919086456	-0.15494152903556824	-0.5684933066368103	-0.09999222308397293	-0.4990684688091278	-0.6718708276748657	-0.2499554306268692	-0.5969493985176086	-0.17033334076404572	-0.06592395901679993	0.18951566517353058	0.6867521405220032	
Barack Obama	-0.11745933443307877	-0.01890161819756031	-0.11792873591184616	-0.2226589173078537	-0.1954060196876526	0.08455020934343338	-0.29842743277549744	0.29128456115722656	0.08251645416021347	-0.23953934013843536	-0.3057396709918976	0.6577266454696655	0.3733237683773041	-0.5228962302207947	-0.3605496883392334	-0.023771323263645172	-0.36832940578460693	-0.2579774558544159	0.044256940484046936	-0.32230836153030396	-0.07391194254159927	0.27818062901496887	-0.6806758046150208	0.022473493590950966	-0.2616614103317261	-0.5485225319862366	-0.06913502514362335	-0.465096116065979	-0.056775450706481934	-0.20291461050510406	-0.13232193887233734	0.033024862408638	0.2147940993309021	-0.2170194834470749	0.4565450847148895	-0.5513838529586792	0.005258265417069197	-0.4660590589046478	-0.831325352191925	0.20748552680015564	-0.7699440121650696	0.6020731329917908	0.3707716763019562	-0.13793790340423584	0.41476142406463623	0.5093839168548584	-0.2810298204421997	-0.45221495628356934	-0.3862764537334442	-0.10596544295549393	-0.22416865825653076	0.16492509841918945	0.23800617456436157	0.022039012983441353	-0.4813440442085266	-0.012314909137785435	0.12032824754714966	0.7015054821968079	-0.4295975863933563	0.3125685453414917	-0.07335442304611206	0.05156364291906357	-0.07227276265621185	0.3155500292778015	0.15829527378082275	-0.6406415700912476	-0.4531387984752655	-0.06709398329257965	0.06535863131284714	0.4499916434288025	0.14663664996623993	-0.4862067997455597	0.1662551611661911	0.7644851207733154	0.43699944019317627	-0.1330091506242752	0.5537181496620178	0.3661155700683594	0.375693678855896	0.21741102635860443	-0.07872425019741058	0.5648016333580017	0.14736558496952057	-0.7443243861198425	-0.11073676496744156	-0.40659189224243164	0.5217365026473999	0.25815388560295105	-1.1837199926376343	-0.04669848456978798	0.39352867007255554	0.6307530403137207	0.20859333872795105	0.028433633968234062	0.04788079485297203	0.05636594817042351	-0.031329475343227386	0.9071805477142334	-0.191210076212883	-0.4480550289154053	-0.19756291806697845	0.32138437032699585	0.32587310671806335	-0.6325185298919678	-0.12986110150814056	-0.1750907152891159	0.5597022771835327	0.661996603012085	-0.3831426799297333	0.40846067667007446	0.23664674162864685	-0.20089367032051086	-0.009255165234208107	-0.7320975065231323	-0.29116523265838623	0.2233138382434845	-0.6438443064689636	0.16054770350456238	0.21795402467250824	-0.3800314664840698	0.40579673647880554	-0.19335639476776123	0.11403582245111465	0.11836410313844681	0.7229570746421814	-0.03678765520453453	-0.44993746280670166	-0.8943778872489929	-0.7314034700393677	-0.09745784103870392	-0.4123012125492096	0.032504498958587646	-0.2910466194152832	0.11863089352846146	-0.7480212450027466	0.2680051028728485	0.4645020067691803	0.04265042021870613	0.6003699898719788	-0.17316243052482605	-0.5159528255462646	-0.34681931138038635	0.5068408846855164	0.27625101804733276	0.0015835260273888707	0.09024540334939957	0.12006594240665436	-0.3310384154319763	0.3045307695865631	-0.6012909412384033	0.2722533941268921	-0.18122723698616028	0.19088153541088104	-0.12324538081884384	-0.7905187010765076	-0.32782238721847534	0.11845828592777252	-0.13341812789440155	-0.09283995628356934	0.7508072853088379	0.196900874376297	-0.020119791850447655	0.021496182307600975	0.47062572836875916	0.15959139168262482	-0.06889139115810394	-0.013638578355312347	-0.18728768825531006	0.12073604762554169	-0.2194274663925171	-0.12187444418668747	-0.44662126898765564	-0.5787003636360168	-0.3428833782672882	-0.0008778492920100689	0.469095379114151	-0.08536633104085922	-0.6030488014221191	-0.018247291445732117	0.7118532657623291	0.15583758056163788	0.7003002762794495	0.18987470865249634	-0.5345010757446289	0.9930390119552612	0.3388471007347107	-0.30956146121025085	-0.6151392459869385	0.699956476688385	0.4220172166824341	0.10478364676237106	-0.06829449534416199	0.06408029794692993	0.3438027501106262	-0.8283110857009888	0.23329362273216248	0.03776092082262039	0.08760617673397064	-0.20337779819965363	0.05537106469273567	0.5585405230522156	-0.27438899874687195	-0.507090151309967	-0.41997796297073364	0.18213827908039093	0.2850293815135956	0.24738198518753052	0.24657516181468964	0.021322183310985565	0.5497182011604309	0.1536823809146881	0.33718129992485046	0.0966339036822319	0.4543161690235138	0.46602433919906616	0.06822206825017929	0.13564495742321014	0.3550632894039154	-0.29957115650177	-0.7039006948471069	0.2171260565519333	-0.10410384833812714	-0.1357397586107254	0.11743025481700897	0.32741257548332214	0.16945026814937592	-0.10044452548027039	0.6764320731163025	0.06691431999206543	-0.8951256275177002	0.31890785694122314	0.18713194131851196	0.4634976089000702	0.39488378167152405	0.15431293845176697	-0.41431283950805664	0.07055197656154633	-0.03420194983482361	-0.17282284796237946	0.3625607192516327	0.09220686554908752	-0.2234506905078888	-0.026244455948472023	0.3428713083267212	-0.031103244051337242	0.2226775735616684	-0.48299261927604675	0.11027569323778152	-0.4427572786808014	0.12088172882795334	0.812017023563385	0.22884899377822876	-0.1750185340642929	0.4277716279029846	-0.5254373550415039	0.3912655711174011	0.14823852479457855	-0.31726914644241333	-0.1824115812778473	-0.6550800800323486	0.450417160987854	0.4441032409667969	0.28672757744789124	0.26889193058013916	-0.3541877269744873	0.6970243453979492	0.4167252480983734	-0.08579623699188232	-0.2299766093492508	0.3598920702934265	0.3736095428466797	-0.21615521609783173	-0.276970237493515	-0.2857981026172638	0.638509213924408	0.14334040880203247	0.337398499250412	0.2544325888156891	0.04944996163249016	0.014205118641257286	-0.6388893723487854	-0.9478824138641357	0.4545590579509735	0.12406984716653824	-0.4157434403896332	0.0014534795191138983	-0.023523472249507904	-0.13701356947422028	-0.18144510686397552	-0.05657343193888664	0.5746620893478394	-0.6282464861869812	-0.677216649055481	0.02268919348716736	-0.4691155254840851	0.5405711531639099	-0.08796075731515884	-0.5070382356643677	0.11466412991285324	0.0663677528500557	-0.03550083190202713	0.5535633563995361	-0.5042681694030762	0.3570214807987213	0.020593026652932167	-0.2518603205680847	0.4103452265262604	-0.6319096088409424	0.5831495523452759	-0.6380857825279236	0.11375643312931061	-0.16114668548107147	-0.2939695417881012	-0.36346396803855896	-0.42950502038002014	0.2757242023944855	0.11002157628536224	-0.4054756164550781	0.2663208246231079	0.05401670187711716	0.09818490594625473	0.47833096981048584	-0.2540663480758667	0.5511288046836853	-0.360889196395874	-0.6533001065254211	-0.08193258941173553	-0.2753690481185913	0.25107425451278687	-0.4459129571914673	0.334926038980484	-0.0803365632891655	-0.30804207921028137	0.10806434601545334	0.20203174650669098	-0.276132732629776	0.40038755536079407	-0.319557249546051	0.0779072493314743	0.12241575121879578	0.04153705760836601	0.3477988839149475	-0.5698075294494629	0.039810534566640854	-0.47400185465812683	0.22684967517852783	0.1268455684185028	0.4922172427177429	-0.2949153184890747	-0.2815221846103668	0.4401302635669708	0.4320993721485138	-0.25995516777038574	-0.14414691925048828	0.0870831310749054	-0.016929475590586662	0.3492759168148041	0.13224902749061584	-0.26907867193222046	-0.03850124403834343	-0.2268226444721222	-0.2376847118139267	0.3455587327480316	-0.2749444842338562	0.5689525604248047	-0.181737020611763	0.5194713473320007	0.11496131867170334	0.25039222836494446	0.5287971496582031	0.4662306606769562	0.4587725102901459	-0.06339108198881149	-0.257926344871521	-0.4510982930660248	-0.5105608105659485	0.34440603852272034	-0.7233484983444214	-0.6652247309684753	-0.234058678150177	-0.24193741381168365	-0.08961677551269531	-0.10973446816205978	-0.23266448080539703	-0.35988619923591614	-0.23151978850364685	0.2667170464992523	-0.10723619163036346	0.574350118637085	-0.511023998260498	0.24255475401878357	-0.07292924076318741	0.31713446974754333	0.6212866902351379	-0.12364314496517181	-0.3461429178714752	0.16320045292377472	0.5858597755432129	0.49868083000183105	-0.42654165625572205	-0.37742775678634644	-0.398777574300766	-0.9456477165222168	-0.34878483414649963	0.252198189496994	0.04944171383976936	0.2455906718969345	0.46431320905685425	0.0714937075972557	0.16702446341514587	-0.20271964371204376	-0.0017653316026553512	0.09021800011396408	-0.6520373225212097	-0.26757532358169556	0.7748071551322937	-0.08529271930456161	-0.11013784259557724	0.44660481810569763	0.48913082480430603	0.5220884084701538	0.1021733209490776	0.057500727474689484	0.05845929682254791	0.07334280759096146	-0.04136236011981964	-0.08202850818634033	0.5642567276954651	-0.07655444741249084	-0.5656277537345886	-0.1402963250875473	0.08399935811758041	0.549812376499176	-0.6969946622848511	-0.470312237739563	0.14363867044448853	-0.047162577509880066	-0.5425335168838501	0.4749709963798523	0.9607992768287659	-0.22222241759300232	0.1577671617269516	0.014928266406059265	-0.19852764904499054	0.5682212710380554	-0.252927303314209	0.33387672901153564	-0.016358541324734688	0.14607273042201996	0.675798237323761	-0.27023643255233765	0.34378206729888916	0.21098628640174866	0.5664886236190796	-0.07384572178125381	-0.26561158895492554	-0.0933881551027298	0.612126350402832	0.7387420535087585	-0.4445260763168335	0.2586999833583832	-0.10347958654165268	0.10863888263702393	0.12367025017738342	0.08258053660392761	-0.522244930267334	0.13940902054309845	-0.4703395664691925	-0.1426115781068802	-0.6983066201210022	-0.43464916944503784	0.11636536568403244	-0.8079109787940979	0.3726610839366913	-0.3219548761844635	-0.3135809898376465	-0.42673513293266296	-0.7602996230125427	0.20657379925251007	-0.16535584628582	0.5567288994789124	-0.11832162737846375	0.4498691260814667	0.17833572626113892	-0.25918325781822205	0.3735774755477905	0.07868242263793945	0.3660046458244324	0.05285223200917244	-0.500167727470398	-0.17077508568763733	-0.6095371842384338	-0.1263965219259262	-0.06517145037651062	-0.4426031708717346	-0.5833694338798523	-0.1728561669588089	-0.08514837920665741	0.1437860131263733	0.7502299547195435	
Hillary Clinton	-0.021395733579993248	0.21520863473415375	-0.09324637055397034	-0.18632462620735168	0.10709203779697418	-0.009389101527631283	-0.23801913857460022	0.6999861001968384	-0.35379815101623535	0.02454887516796589	-0.7060785889625549	0.6850398778915405	0.275912344455719	-0.2970794439315796	-0.07657648622989655	0.20896460115909576	-0.8445450067520142	-0.1820022612810135	-0.14789171516895294	0.025808721780776978	-0.3634794056415558	0.33370673656463623	-0.4918994903564453	0.08047937601804733	-0.43914660811424255	0.19430984556674957	0.6445574760437012	-0.6231712102890015	-0.23355361819267273	0.07386473566293716	0.4818061590194702	-0.217354416847229	0.5227468609809875	0.0878237634897232	-0.3227647542953491	-0.22662611305713654	-0.6123036742210388	-0.39021557569503784	-0.10783206671476364	-0.027364352717995644	-0.06346980482339859	0.5621162056922913	-0.21672746539115906	-0.17750659584999084	0.035015083849430084	-0.3552836775779724	0.22615709900856018	-0.8699951171875	-0.017696751281619072	-0.033423446118831635	-0.12152194231748581	0.3368750214576721	0.1589643359184265	-0.001476898556575179	-0.05491168051958084	0.13936369121074677	0.13946177065372467	0.7803843021392822	-0.29577451944351196	0.8359978795051575	0.3621923625469208	-0.3330061435699463	-0.30964723229408264	0.5785760283470154	0.2368423044681549	-0.40228405594825745	-0.11618424206972122	0.0994715541601181	0.23339523375034332	0.5443141460418701	-0.2491520643234253	-0.16228552162647247	-0.4378312826156616	0.09825506806373596	0.13030223548412323	-1.3586915731430054	0.42609715461730957	0.12298761308193207	0.2871116101741791	0.4305345416069031	-0.285757452249527	0.1098928153514862	0.23259900510311127	-0.15314847230911255	-0.1951448768377304	-0.2501247823238373	-0.04086145758628845	-0.09571778029203415	-0.8818717002868652	0.035510674118995667	0.34254077076911926	0.2756572663784027	0.6055407524108887	0.1755981743335724	0.35974591970443726	0.04440431669354439	0.31836220622062683	0.4706454873085022	0.2294096201658249	0.5170911550521851	-0.2018239051103592	0.255079984664917	0.0636061355471611	-0.6921302676200867	0.3293606638908386	0.1810789555311203	0.353328138589859	0.9549158811569214	-0.08869773894548416	0.2837858498096466	-0.2678579092025757	0.19501328468322754	-0.09774802625179291	-0.32649388909339905	-0.10670354962348938	-0.14663079380989075	-0.9847148060798645	0.9155615568161011	0.010426376946270466	-0.4954470992088318	0.07181332260370255	0.4040408134460449	0.012093599885702133	0.16265042126178741	0.23378758132457733	0.02376406081020832	-0.34865862131118774	-0.17621305584907532	-0.9220600128173828	0.9426590204238892	-0.3487361669540405	-0.06482205539941788	0.27059677243232727	-0.1388549506664276	-1.0199156999588013	-0.22128716111183167	0.23803387582302094	0.019172463566064835	0.6413452625274658	-0.3619786202907562	-0.1359647512435913	0.19176894426345825	0.8980355262756348	0.1979634314775467	-0.38268306851387024	-0.05157006159424782	0.13222582638263702	0.0797845646739006	-0.012537780217826366	-0.6397791504859924	-0.2120921015739441	-0.08210890740156174	-0.30071350932121277	0.09047949314117432	-0.57276850938797	-0.43560659885406494	-0.15945109724998474	0.056238289922475815	-0.60372394323349	0.5490809082984924	0.09980222582817078	-0.09672465920448303	0.16405558586120605	0.4513428509235382	-0.043206166476011276	0.5803879499435425	0.2234335094690323	0.36402428150177	0.03351408243179321	0.13127310574054718	-0.24332916736602783	-0.5097939372062683	-0.320674866437912	-0.06024140119552612	0.08171134442090988	-0.006847734097391367	-0.07367989420890808	-0.4661504924297333	0.41935738921165466	0.46754977107048035	-0.42683249711990356	0.6724088191986084	0.03762923926115036	-1.221799373626709	0.20847919583320618	-0.284527450799942	0.27414023876190186	-0.7793211340904236	-0.19254474341869354	0.5499046444892883	-0.18543699383735657	-0.7538855075836182	-0.08371199667453766	-0.06972269713878632	-0.9863642454147339	-0.43490076065063477	-0.11789865046739578	-0.13345912098884583	-0.02263539843261242	-0.5444760918617249	0.21280264854431152	-0.5146986246109009	-0.7466731667518616	-0.3024297058582306	0.439795583486557	-0.16455644369125366	0.23252630233764648	-0.20446453988552094	0.3958899974822998	-0.38760197162628174	0.1276070475578308	0.17122741043567657	0.15000170469284058	0.15313223004341125	0.4496375620365143	-0.08830966055393219	0.2741813063621521	-0.08022521436214447	0.20205393433570862	-0.8882716298103333	0.07196915149688721	0.2804453372955322	0.4603015184402466	-0.2400084286928177	-0.42226290702819824	0.19713033735752106	-0.5626794695854187	0.2289198487997055	0.4602954685688019	-0.6643712520599365	0.3184393048286438	-0.09404292702674866	0.39000198245048523	0.3371883034706116	0.3564833700656891	-0.12128292769193649	0.28781750798225403	0.2447415590286255	-0.34913915395736694	0.15267981588840485	0.34236013889312744	0.2850048542022705	0.2289344072341919	0.053829941898584366	0.39192119240760803	0.03169100359082222	-0.06711619347333908	-0.2853062152862549	-0.030256934463977814	-0.3785603940486908	0.7680875658988953	0.2961818277835846	-0.03972629830241203	-0.06472629308700562	-0.48001575469970703	-0.6155350208282471	0.11778020858764648	-0.29243651032447815	0.38375627994537354	-0.3833151161670685	0.07987874746322632	0.7190647721290588	-0.11717180907726288	-0.23690618574619293	-0.39017072319984436	0.5487032532691956	0.24439996480941772	-0.4878963828086853	0.3088073134422302	0.5083306431770325	0.3938056528568268	-0.038598399609327316	-0.7152024507522583	-0.299423485994339	0.09275008738040924	0.14323744177818298	-0.02960902452468872	0.1549844890832901	0.5739786624908447	-0.23649059236049652	-0.7896379232406616	-1.0595393180847168	0.026243707165122032	0.2665896713733673	-0.05124818906188011	-0.5010799169540405	-0.2627088725566864	0.24630969762802124	-0.7893834114074707	-0.2588787376880646	0.15680764615535736	-0.7613516449928284	0.38337451219558716	0.05815620720386505	-0.10599252581596375	0.028148068115115166	-0.18660478293895721	0.1584472805261612	0.039750244468450546	0.3411356210708618	-0.2563745677471161	0.16798163950443268	-0.6675221920013428	0.26083070039749146	0.50295090675354	-0.03778250142931938	0.273532509803772	0.11144115775823593	0.11889977008104324	-0.27871203422546387	-0.33835846185684204	-0.26120758056640625	0.15162068605422974	-0.3312426805496216	-0.003982286900281906	0.590471088886261	-0.42679691314697266	-0.6169240474700928	0.29730573296546936	-0.3885028660297394	0.006944786757230759	0.2775408625602722	-0.6303351521492004	0.5651726722717285	0.3109643757343292	-0.4230192005634308	0.0940413549542427	0.37294480204582214	-0.05447499081492424	-0.2137497216463089	0.1735372394323349	-0.42682281136512756	-0.28952252864837646	-0.4241712689399719	-0.7485299706459045	0.10065929591655731	0.1235622987151146	-0.4163965880870819	0.03818953409790993	0.599137544631958	0.11282060295343399	0.5817341804504395	-0.19930338859558105	0.11466111987829208	-0.34085363149642944	-0.019703777506947517	0.1027061939239502	0.39611542224884033	0.42176178097724915	-0.39278942346572876	-0.2629563510417938	0.3306542634963989	0.3334539830684662	0.08961722254753113	0.3242945969104767	-0.017964310944080353	-0.008358494378626347	0.3962019681930542	0.042073603719472885	-0.39947769045829773	0.07652143388986588	0.5155668258666992	0.3493211567401886	-0.42677605152130127	0.044986870139837265	-0.2856343984603882	0.7139484286308289	-0.09876333922147751	0.2622027099132538	0.13425633311271667	0.4129331111907959	-0.110861636698246	-0.036493681371212006	-0.2327629029750824	-0.0970841646194458	-0.6473262310028076	0.4820111393928528	-0.42024344205856323	-0.3906768560409546	-0.707757830619812	-0.4783141314983368	-0.28272324800491333	0.2971677780151367	-0.28655973076820374	0.023366456851363182	0.35623303055763245	0.028115330263972282	0.08208967000246048	0.28961262106895447	-0.2321043759584427	0.5039793252944946	-0.23460280895233154	0.5930191278457642	0.06098192185163498	0.16031454503536224	-0.28859129548072815	-0.2964945435523987	0.25232434272766113	1.1538056135177612	0.18295875191688538	-0.43845584988594055	-0.01400349847972393	-0.4023192822933197	0.040943026542663574	0.3135053515434265	-0.08654462546110153	-0.21994896233081818	0.3930698037147522	0.48227688670158386	0.07857228815555573	-0.299770325422287	0.7593451738357544	0.572940468788147	-0.13626648485660553	0.10037644952535629	0.5016984343528748	-0.5760103464126587	0.2189551740884781	0.18021728098392487	1.3258671760559082	0.322649747133255	-0.06781543046236038	-0.16036295890808105	0.0839662104845047	-0.391573429107666	0.20545193552970886	-0.26545053720474243	0.2722397744655609	-0.22386816143989563	-0.37692156434059143	0.07757958024740219	-0.0734274685382843	0.07547608762979507	-0.1713324785232544	-0.02077697403728962	0.11366569250822067	-0.1927483230829239	-0.7117377519607544	0.36151012778282166	0.9697838425636292	0.061665356159210205	0.17080384492874146	0.029219290241599083	-0.6031268835067749	-0.37472614645957947	-0.4265434145927429	0.14393791556358337	0.3644702136516571	-0.2839967906475067	0.059837739914655685	0.2541913092136383	0.3371986746788025	-0.25588321685791016	0.7307552099227905	0.3984943628311157	-0.3793405592441559	0.47091788053512573	0.33103299140930176	0.5397679805755615	-0.27693769335746765	0.5184304714202881	0.00890663918107748	0.27745524048805237	-0.1445072591304779	0.6145235896110535	-0.3545691967010498	-0.048963893204927444	0.10723415017127991	-0.17162910103797913	-0.8703721165657043	-0.5894797444343567	0.3731308579444885	-0.15197443962097168	-0.3502610921859741	0.21044299006462097	0.4550875127315521	-0.6668610572814941	-0.6586391925811768	0.26441577076911926	-0.018548239022493362	0.5125781893730164	-0.2440810352563858	0.05420195683836937	-0.8121986985206604	0.5090980529785156	0.8666475415229797	0.3972284197807312	-0.518194854259491	-0.14321573078632355	-0.14175547659397125	-0.7215966582298279	-0.18775327503681183	0.525602400302887	-0.5415768027305603	-0.57905113697052	-0.017994437366724014	-0.6403812766075134	-0.07172419875860214	0.20070414245128632	0.6366693377494812	
Vladimir Putin	-0.21563874185085297	-0.34117376804351807	-0.5699347853660583	0.10494498163461685	-0.10934299230575562	-0.3021640479564667	0.23108027875423431	0.3362729251384735	0.05013652890920639	-0.28350797295570374	-0.33612021803855896	0.7186978459358215	-0.08576659113168716	-0.27289891242980957	-0.1273854821920395	0.3397562503814697	-0.1842910796403885	-0.08577412366867065	0.1520630568265915	0.22557885944843292	0.6900858283042908	-0.14458678662776947	0.1585519164800644	0.28662359714508057	0.20717695355415344	0.23059701919555664	-0.2894860804080963	-0.7201784253120422	-0.584737241268158	-0.12181335687637329	-0.38498276472091675	0.0959073007106781	0.7538729906082153	-0.4888571798801422	-0.6712324023246765	-0.18544244766235352	-0.42915183305740356	0.15430688858032227	-1.0594353675842285	0.035779595375061035	0.020471613854169846	0.1933373659849167	0.030452197417616844	0.23180384933948517	-0.4749281406402588	0.29751086235046387	0.4786917269229889	-0.3773164749145508	0.25028443336486816	-0.46569302678108215	-0.1544748693704605	-0.13898563385009766	0.33601611852645874	-0.33291053771972656	-0.19156479835510254	-0.11795472353696823	-0.12779587507247925	0.011340339668095112	0.2614312171936035	0.020311856642365456	-0.19488680362701416	0.13743917644023895	0.11805163323879242	-0.24134325981140137	-0.46314194798469543	-0.5375455021858215	-0.7013745903968811	-0.4972851276397705	0.051418304443359375	-0.027992257848381996	-0.1112837865948677	0.038585636764764786	0.19770540297031403	0.6663497686386108	0.20120280981063843	-0.0018827109597623348	0.7219668626785278	0.5805521011352539	-0.18639180064201355	-0.006183032877743244	0.23374946415424347	0.27509811520576477	-0.013305789791047573	0.02723550982773304	0.6120166182518005	-0.013920878060162067	0.1585732102394104	0.0895661935210228	-0.5894854664802551	0.32254907488822937	0.5774197578430176	0.29330408573150635	0.17789405584335327	-0.3291204869747162	0.12008291482925415	0.01776767708361149	0.5808655619621277	0.2974252700805664	-0.5186489820480347	-0.20549346506595612	-0.12296073883771896	0.19503824412822723	-0.14643894135951996	-0.42916446924209595	0.029953375458717346	0.47391700744628906	0.5820747017860413	0.06554270535707474	-0.08004026114940643	0.8383628726005554	0.4534740149974823	0.09035696089267731	0.33431893587112427	-0.4751380681991577	0.3581048846244812	0.0823519304394722	-0.43631401658058167	0.0858527272939682	-0.5371156930923462	-0.01539108157157898	-0.05370950326323509	0.7329835891723633	0.0164442528039217	-0.16216135025024414	0.11361657828092575	-0.15816940367221832	0.030003758147358894	0.17443223297595978	-1.026595115661621	-0.29584574699401855	0.03909860551357269	-0.7111652493476868	-0.03206412121653557	0.29274851083755493	-0.6464675664901733	0.19336700439453125	-0.32420751452445984	-0.13985979557037354	0.3977409899234772	-0.07901792228221893	0.20293807983398438	-0.1984979808330536	1.1427303552627563	0.6533964276313782	0.5051321983337402	0.46516990661621094	0.12360862642526627	0.17905275523662567	-0.17562715709209442	-0.02155822515487671	0.13321147859096527	0.5752554535865784	0.14651258289813995	-0.3808663487434387	0.17170913517475128	-0.33559420704841614	-0.5321449041366577	-0.23678843677043915	-0.9418626427650452	-0.08565016835927963	0.04023480787873268	-0.16604503989219666	-0.44868865609169006	0.18584781885147095	0.1408642828464508	-0.5682653784751892	-0.02020026557147503	0.08098717778921127	0.1816699504852295	-0.07510217279195786	0.181113138794899	-0.3420034348964691	-0.7591781616210938	-0.5226770639419556	0.07608859241008759	0.12193573266267776	0.05837814509868622	-0.01875186897814274	-0.27964574098587036	0.6954082250595093	0.3818742334842682	0.6659585237503052	-0.08659328520298004	0.08364706486463547	0.5313596129417419	0.29503363370895386	0.264641135931015	-0.09854869544506073	0.13662385940551758	1.1890294551849365	-0.19371478259563446	-0.33391672372817993	-0.07819970697164536	0.23234419524669647	-0.850625216960907	0.1211622878909111	-0.3696759343147278	0.13890978693962097	0.1620609015226364	-0.5132213830947876	0.37419259548187256	0.10792436450719833	-0.5608081221580505	-0.11679080128669739	0.22261425852775574	0.312781423330307	-0.31959986686706543	-0.6448604464530945	0.4543297588825226	0.4935499429702759	-0.19809536635875702	0.14258921146392822	-0.15818290412425995	0.20631074905395508	0.3783048987388611	0.4606511890888214	0.2780320942401886	0.22406205534934998	0.2101535052061081	0.4404352903366089	-0.24204406142234802	0.1279824823141098	-0.33109697699546814	-0.15791161358356476	-0.07471731305122375	0.49411994218826294	0.3974379599094391	-0.5807899236679077	0.7068161964416504	-0.07715854793787003	0.2109936773777008	0.04961346089839935	-0.2653357982635498	0.43557116389274597	-0.19919021427631378	-0.052573319524526596	-0.10928995162248611	0.0007702760049141943	-0.3827892541885376	0.5531030893325806	0.16130615770816803	-0.3224693834781647	-0.20246805250644684	0.5318871736526489	0.12883532047271729	-0.0007971148006618023	0.304802268743515	0.08136698603630066	-0.46869364380836487	-0.031742025166749954	0.4335678517818451	0.14708104729652405	-0.16723483800888062	-0.24353012442588806	-0.4394031763076782	0.11587502062320709	-0.13122355937957764	-0.2654948830604553	0.5808305144309998	-0.27090007066726685	-0.19025912880897522	-0.1512942761182785	-0.31863853335380554	0.3790561854839325	0.005746711511164904	0.6422305703163147	0.008848226629197598	-0.6404919624328613	-0.7880906462669373	-0.08240646123886108	0.5985645651817322	0.10572154074907303	-0.4180634319782257	0.16104677319526672	0.36911898851394653	-0.1570471078157425	-0.6642337441444397	-0.2129434198141098	0.43890371918678284	-0.7286577224731445	-0.5892588496208191	-0.10718010365962982	0.6973651647567749	-0.13920971751213074	-0.22798293828964233	0.09231578558683395	-0.2206953912973404	0.2149428427219391	-0.17550913989543915	-0.526955246925354	0.08786319941282272	-0.6925799250602722	0.00316675566136837	0.10350961983203888	-0.24638468027114868	0.31351858377456665	-0.29949671030044556	0.016354093328118324	-0.14291676878929138	0.3607867956161499	-0.04489246755838394	0.27088943123817444	-0.08154305070638657	0.3064456582069397	0.2563849091529846	-0.3971192538738251	0.11015588045120239	-0.20359250903129578	-0.05323608219623566	0.34536197781562805	0.8712706565856934	-0.25055578351020813	-0.35841572284698486	-0.4351549446582794	-0.3357451558113098	0.09408850967884064	-0.4585433304309845	-0.052533265203237534	0.07808059453964233	-0.07101786136627197	-0.6278651356697083	0.11480951309204102	-0.10818026214838028	0.8694192171096802	-0.20332957804203033	-0.7502567172050476	0.43623003363609314	-0.5176803469657898	-0.12669624388217926	-0.3056795597076416	0.347210556268692	0.13982288539409637	0.5931040048599243	0.0993935838341713	-0.03439502418041229	0.133817657828331	0.27210405468940735	0.4677557945251465	-0.4551423192024231	-0.016690382733941078	-0.2079736292362213	0.17097221314907074	-0.28260093927383423	-0.2649513781070709	-0.305719256401062	0.6611300706863403	0.18308420479297638	0.40952274203300476	0.4297920763492584	0.04526820778846741	-0.34896862506866455	0.7121564149856567	-0.11520205438137054	0.31783053278923035	0.04074787348508835	-0.19087810814380646	-0.030989494174718857	0.7468137741088867	0.25457563996315	0.05260030925273895	-0.8488132953643799	0.401304692029953	-0.3644363582134247	-0.3558279573917389	-0.12631025910377502	-0.25836801528930664	0.039041727781295776	0.2696302533149719	0.34058892726898193	0.13465631008148193	-0.06882225722074509	0.1286078244447708	-0.5629386305809021	-0.35185006260871887	-0.5556132793426514	-0.17740310728549957	0.08379481732845306	0.24934308230876923	-0.3888475298881531	-0.4838177263736725	-0.44204655289649963	-0.13065087795257568	-0.34957316517829895	-0.16476669907569885	-0.3007650375366211	0.05509753152728081	0.34901249408721924	0.14764025807380676	0.4690609276294708	-0.35398247838020325	0.00523764081299305	-0.6298174858093262	0.3406118154525757	0.34501397609710693	-0.17310695350170135	0.4507302939891815	0.49954408407211304	-0.31117984652519226	0.3791726231575012	-0.47387757897377014	-0.6625100374221802	-0.32030248641967773	-0.24154436588287354	0.04052659869194031	0.08963892608880997	-0.6633771657943726	0.7963340878486633	-0.42925238609313965	-0.1960136741399765	-0.5624216198921204	-0.3594967722892761	0.6744279861450195	0.5499861240386963	-0.9233137965202332	-0.6945449709892273	0.23998771607875824	-0.4036766588687897	-0.2361716628074646	-0.17035333812236786	0.5877625942230225	-0.13494673371315002	-0.15593457221984863	0.2061433047056198	0.1642700433731079	-0.21428795158863068	0.20172284543514252	-0.17929603159427643	-0.32167771458625793	-0.30388522148132324	-0.0023868053685873747	0.46684983372688293	-0.25570210814476013	-0.3283347487449646	0.38186752796173096	0.06487403064966202	-0.31250032782554626	0.6115176677703857	-0.36221522092819214	0.42916154861450195	0.5995038747787476	-0.3096773028373718	0.45027241110801697	0.21964991092681885	0.1920081228017807	-0.08251677453517914	-0.17389564216136932	-0.42633992433547974	-0.3981156051158905	0.14943425357341766	-0.5923795104026794	-0.539862334728241	0.04587934911251068	-0.641931414604187	0.27496322989463806	0.43508121371269226	0.3429839313030243	-0.0017716268775984645	0.14134883880615234	0.02361772023141384	-0.3189956843852997	0.36524927616119385	0.20177040994167328	0.5854308605194092	-0.07283475995063782	-0.21584604680538177	-0.07292800396680832	-0.4667622745037079	0.02381768822669983	-0.17583253979682922	-1.4164966344833374	0.20036934316158295	-0.20635852217674255	-0.35747310519218445	0.6503434777259827	-0.7074682712554932	0.16577191650867462	-0.311653733253479	-0.6010878086090088	0.3670530617237091	0.03566987067461014	0.10265905410051346	-0.4946264922618866	0.37430137395858765	-0.35634681582450867	0.17620906233787537	-0.14854460954666138	0.16684676706790924	-0.3372113108634949	0.7399812936782837	0.04632021486759186	-0.28671708703041077	0.6473491787910461	-0.1313599795103073	0.017011858522892	-0.008968872018158436	-0.7053062319755554	-0.8578774333000183	-0.026649093255400658	0.6108997464179993	0.29305028915405273	
scrittore	0.1392708569765091	-0.10020532459020615	0.20092645287513733	0.2691381275653839	0.14377078413963318	0.03895631805062294	0.0876188799738884	0.1216706857085228	-0.21905617415905	0.11582668125629425	-0.03182567283511162	0.04989025741815567	0.014008782804012299	0.07395361363887787	0.2748316526412964	-0.0829099714756012	0.09537949413061142	-0.038386594504117966	-0.05783988535404205	-0.1500171273946762	0.1749606877565384	0.13825546205043793	0.061909426003694534	-0.004765600431710482	-0.024220367893576622	-0.05813945457339287	0.13381174206733704	0.1588456630706787	0.05792999640107155	0.040801819413900375	0.02008005604147911	-0.08327952772378922	0.1912204474210739	0.042714912444353104	0.281569242477417	0.1512930691242218	-0.13434207439422607	-0.22995653748512268	0.0886305570602417	-0.02396015077829361	-0.36336836218833923	0.145193949341774	0.46915510296821594	0.2269936203956604	0.08283621817827225	0.2839631736278534	-0.18791669607162476	-0.11696769297122955	0.04535892605781555	0.13841715455055237	-0.004801881033927202	-0.10383874177932739	-0.010462477803230286	0.31035828590393066	-0.07451317459344864	0.09078662842512131	-0.19453312456607819	0.24806617200374603	-0.07768245041370392	0.21483421325683594	0.4245513677597046	0.24233011901378632	-0.12342207878828049	0.10397131741046906	0.07172859460115433	-0.36937740445137024	0.08300995081663132	-0.0936456099152565	-0.23964940011501312	0.2170930951833725	0.004716420546174049	-0.2577081322669983	0.2897852659225464	0.4606575667858124	-0.06405405700206757	0.055081017315387726	0.04772629588842392	-0.14790552854537964	0.05269293859601021	0.1900227665901184	-0.10989443957805634	-0.2124079316854477	0.2534548044204712	-0.09951948374509811	0.16171397268772125	-0.34493550658226013	0.09313338249921799	-0.09234629571437836	-0.18388631939888	0.010030535981059074	-0.25640368461608887	0.3114376366138458	-0.12300765514373779	0.039794906973838806	0.303452730178833	-0.2716810405254364	0.13240128755569458	0.18079707026481628	0.0459984689950943	0.10938301682472229	-0.24573200941085815	0.01263886783272028	0.18355676531791687	-0.08546391129493713	0.18540048599243164	0.10327110439538956	0.003505124943330884	0.27051886916160583	0.46721675992012024	-0.24220387637615204	-0.23673613369464874	-0.21734486520290375	-0.04266868531703949	-0.15524975955486298	-0.15091286599636078	-0.4805266857147217	-0.33900395035743713	-0.050209712237119675	0.19363927841186523	0.3240636885166168	-0.26408153772354126	0.020899366587400436	0.28723204135894775	0.3603612184524536	0.10087656229734421	0.168756902217865	-0.02859688736498356	-0.15935318171977997	0.3521723747253418	-0.2539104223251343	-0.329672634601593	-0.3233518600463867	0.2425546497106552	0.01763373613357544	-0.0915086418390274	0.08511268347501755	-0.1229957640171051	0.05792390555143356	-0.06238146126270294	-0.2421775460243225	-0.18123191595077515	-0.1290879249572754	-0.07814683765172958	0.1074567437171936	-0.10688874125480652	-0.009459185414016247	0.03617694601416588	0.12238277494907379	0.19518931210041046	-0.18629290163516998	0.1611703783273697	0.1641760617494583	0.4151955246925354	0.07286686450242996	0.08545715361833572	-0.03760587051510811	0.0903979241847992	-0.2651074528694153	0.17975011467933655	0.049289289861917496	0.27296844124794006	0.17410343885421753	-0.23723100125789642	-0.0435209646821022	0.03502678871154785	-0.17606864869594574	0.022999834269285202	-0.1076304093003273	-0.09869315475225449	-0.00668762344866991	-0.12584781646728516	0.06491341441869736	0.0332304984331131	-0.03426403924822807	-0.07479521632194519	0.29540297389030457	0.34011250734329224	-0.009455658495426178	0.06461803615093231	-0.08119819313287735	-0.050294142216444016	-0.013770815916359425	0.19823382794857025	0.10822226107120514	-0.25795891880989075	-0.09003143757581711	0.16203069686889648	0.10965699702501297	-0.24090613424777985	0.24360965192317963	0.13513408601284027	-0.23791247606277466	0.027953993529081345	0.12467026710510254	0.053429894149303436	-0.04587395861744881	-0.25599080324172974	0.07965045422315598	0.04024814814329147	-0.10825835168361664	0.20447184145450592	-0.09267691522836685	-0.07971953600645065	0.12264737486839294	0.5243161916732788	-0.08902458846569061	-0.14250269532203674	-0.13340885937213898	-0.16032852232456207	0.29407212138175964	-0.23819506168365479	0.06279122829437256	-0.40605491399765015	0.16006307303905487	0.039650771766901016	0.024611936882138252	0.14324334263801575	0.06139429658651352	-0.31152328848838806	0.09115558862686157	0.0886446088552475	-0.07060489803552628	-0.19208596646785736	0.06867892295122147	0.08080261945724487	0.029944712296128273	-0.053818464279174805	-0.13606472313404083	-0.048128847032785416	-0.3889630436897278	0.03173152729868889	-0.3311784267425537	-0.4655955135822296	0.021539287641644478	0.2070169746875763	-0.15796978771686554	-0.03406643494963646	-0.29699841141700745	-0.05120285972952843	0.023638462647795677	0.18798057734966278	-0.043746188282966614	-0.19707532227039337	0.03581869602203369	-0.23728081583976746	-0.10857488960027695	0.17438191175460815	-0.020070847123861313	0.13917161524295807	-0.06203170493245125	-0.11738456040620804	-0.3438214957714081	-0.02936670184135437	0.1883520632982254	0.342018723487854	-0.354665607213974	-0.22029949724674225	-0.06806959956884384	0.18301820755004883	0.07178761065006256	-0.04500371590256691	-0.25429973006248474	-0.005983445327728987	0.15426240861415863	0.15882161259651184	0.09628380835056305	0.20327487587928772	-0.07367483526468277	-0.21755234897136688	-0.2466888725757599	-0.148366317152977	0.19788436591625214	-0.13531821966171265	-0.21769475936889648	0.015808144584298134	0.018148250877857208	-0.37142565846443176	-0.21645738184452057	0.017713194712996483	-0.005260571837425232	-0.01417437382042408	0.03716966509819031	0.023263568058609962	0.2193107008934021	0.1198536828160286	-0.20983260869979858	0.021415460854768753	0.06291495263576508	-0.10667842626571655	-0.006537424400448799	0.000801633985247463	-0.2521633207798004	0.3306083381175995	0.02777349390089512	-0.22003720700740814	0.0524197556078434	0.022144513204693794	-0.09865923225879669	-0.2543409466743469	0.1357070803642273	0.06709613651037216	-0.08429530262947083	0.1062566488981247	-0.005723163019865751	-0.1195671558380127	-0.17571710050106049	0.16505379974842072	-0.09630917012691498	0.06923358142375946	0.027591591700911522	-0.2772369384765625	0.07326503098011017	0.20369182527065277	-0.22259818017482758	-0.04569238796830177	0.03153424710035324	0.34765979647636414	0.015490854158997536	0.16021662950515747	-0.09629207849502563	-0.20960813760757446	0.06667371094226837	0.01712479069828987	0.3545045554637909	0.012603766284883022	-0.11612667143344879	-0.13729463517665863	-0.12847790122032166	0.29637616872787476	-0.31191423535346985	0.5722556114196777	-0.00738674309104681	-0.050640445202589035	-0.16601039469242096	-0.1355331987142563	0.06215371936559677	-0.08846985548734665	-0.006866214331239462	-0.18225888907909393	-0.022217556834220886	0.046160515397787094	0.14786569774150848	-0.008081614039838314	-0.16427239775657654	-0.10350604355335236	0.2377626597881317	0.19817672669887543	0.07722479104995728	-0.015408595092594624	0.15760627388954163	-0.3802168667316437	0.06436190009117126	-0.04211417958140373	0.3924982249736786	-0.36291253566741943	0.16269956529140472	-0.12937048077583313	0.042797066271305084	0.07409566640853882	-0.2640930116176605	0.1542683243751526	0.011719310656189919	0.5658645629882812	0.29779374599456787	-0.0017926855944097042	0.28934454917907715	0.05527761951088905	-0.33087554574012756	0.19259369373321533	-0.10241780430078506	0.03352903202176094	-0.007025925908237696	0.30878451466560364	0.13085094094276428	0.11380235105752945	0.028676023706793785	0.16420075297355652	-0.022868342697620392	0.03745625540614128	-0.42857125401496887	-0.011070722714066505	-0.24951620399951935	-0.04106522724032402	-0.0409892275929451	-0.1243811771273613	-0.1661214530467987	-0.3999156653881073	-0.02938690222799778	-0.013468518853187561	-0.24952976405620575	0.37369129061698914	-0.07418074458837509	0.03322743996977806	0.31875333189964294	0.01566566526889801	-0.2981952428817749	0.1473456770181656	0.21142414212226868	0.055594488978385925	-0.03289782628417015	0.09879323095083237	-0.10468484461307526	0.23956458270549774	-0.05317305028438568	-0.10750477761030197	0.14513832330703735	0.044387903064489365	0.03540534898638725	0.10384468734264374	-0.270743727684021	-0.16094902157783508	0.29364871978759766	0.2317231148481369	-0.0025726729072630405	0.06798649579286575	0.14169810712337494	-0.09775365144014359	-0.05367499589920044	0.015289032831788063	0.2574487030506134	0.3215063810348511	-0.21571528911590576	-0.1266576647758484	0.12975046038627625	-0.08336558192968369	-0.2283955216407776	-0.07468005269765854	-0.07959594577550888	0.04818485304713249	-0.19180604815483093	-0.06238875538110733	-0.12009768187999725	-0.06512682884931564	0.04741818085312843	0.15098805725574493	0.0163669865578413	-0.2164154350757599	0.04981249198317528	0.15553537011146545	0.03205890953540802	-0.16093719005584717	0.19727802276611328	0.16300828754901886	-0.11160679906606674	-0.07590527087450027	-0.04856189712882042	-0.05663836747407913	-0.03995881974697113	-0.07917128503322601	-0.37027549743652344	0.02948685549199581	-0.050315264612436295	0.028896639123558998	0.004337784834206104	-0.2846030592918396	-0.35247746109962463	0.05947006121277809	0.0265844464302063	0.022851593792438507	0.03507140651345253	-0.05596963316202164	-0.10353057831525803	-0.15090367197990417	-0.16693739593029022	0.08832965791225433	-0.07183758169412613	0.4462788999080658	-0.3065688908100128	0.002456578891724348	-0.018371248617768288	0.33844444155693054	0.24189983308315277	-0.04902225360274315	-0.08272352069616318	-0.1829720437526703	0.2926807701587677	-0.15209263563156128	-0.10401616245508194	-0.16433453559875488	-0.21519243717193604	0.5011995434761047	0.043368689715862274	-0.2294234186410904	0.0753757655620575	0.08459501713514328	0.04211176559329033	-0.23339155316352844	0.05606747418642044	0.08636787533760071	-0.08104719966650009	-0.17195020616054535	0.1360243558883667	-0.10386057198047638	-0.17985202372074127	-0.22838233411312103	-0.048923786729574203	0.2256678342819214	-0.1290702223777771	0.21318913996219635	-0.12170916795730591	
Sigmund Freud	-1.1176577806472778	-0.022786397486925125	-0.39444077014923096	0.2923997640609741	-0.23764024674892426	-0.2951038181781769	0.06507893651723862	0.09146152436733246	0.3589455187320709	-0.2511045038700104	-0.02359127067029476	0.010586187243461609	-0.451651006937027	-0.4001008868217468	0.3041885793209076	0.11897921562194824	0.244559183716774	-0.40539780259132385	-0.33848944306373596	-0.06581594794988632	-0.4115695059299469	-0.39446359872817993	0.5370132923126221	-0.22144702076911926	-0.5382033586502075	0.13499389588832855	0.4784786105155945	-0.3914354145526886	0.06436558067798615	-0.09425470978021622	-0.6733542084693909	-0.25241872668266296	-0.11541839689016342	-0.26337718963623047	0.0015455919783562422	-0.029446186497807503	-0.0710456371307373	-0.1661444753408432	-0.2805393934249878	-0.057866230607032776	0.42610058188438416	-0.14538457989692688	0.4864737093448639	-0.270929753780365	0.082120880484581	0.6184383034706116	0.7909783124923706	0.6446520686149597	-0.07986801117658615	0.1607206016778946	0.05410365015268326	-0.17073996365070343	-0.3670402467250824	0.16827833652496338	0.27939572930336	0.00045632326509803534	-0.1671881526708603	0.6055804491043091	0.08733633160591125	0.5254421234130859	0.37186717987060547	-0.23960624635219574	-0.5042157769203186	-0.24852927029132843	0.3952142000198364	-0.6127838492393494	0.1507553905248642	-0.4150333106517792	0.4015214443206787	-0.30353471636772156	-0.6102117300033569	-0.28278884291648865	0.048956796526908875	0.6107707023620605	0.6063867807388306	-0.5165318846702576	-0.024905672296881676	-0.7232210040092468	-0.15776407718658447	-0.1330377161502838	-0.6956552863121033	-0.3513280749320984	-0.12198138982057571	0.3596890866756439	-0.4102092981338501	0.25435057282447815	-0.038147952407598495	0.4612944722175598	-0.2133757323026657	-0.5252734422683716	-0.40060487389564514	0.18009690940380096	-0.5090081095695496	-0.5269148945808411	0.3179738223552704	-0.21682626008987427	-0.98422771692276	0.6835812926292419	0.15969310700893402	0.17858627438545227	-0.772003710269928	0.04181091859936714	-0.2339223474264145	0.06401713192462921	-0.11059349030256271	0.08071427047252655	0.8451446294784546	-0.08225194364786148	0.5025410056114197	0.23322553932666779	-0.0618746280670166	-0.23246993124485016	0.08505687862634659	0.6986449360847473	0.048014476895332336	0.2592747211456299	-0.6085371375083923	-0.09701714664697647	0.3387239873409271	0.5841610431671143	-0.27371296286582947	0.193675696849823	1.196608066558838	0.26108217239379883	0.1532745063304901	-0.2162019908428192	-0.3711438775062561	0.04471954330801964	-0.08872876316308975	-0.12215333431959152	-0.2766147255897522	0.12165567278862	0.292732298374176	0.6743666529655457	0.26652991771698	-0.19096115231513977	-0.4259054958820343	0.7472403645515442	-0.7897407412528992	-0.41077086329460144	-0.06580933183431625	-0.2553398311138153	0.25064802169799805	0.2820498049259186	-0.45755597949028015	0.007521847728639841	-0.812154233455658	0.022727681323885918	-0.11199965327978134	-0.05279234051704407	-0.6427416801452637	-0.21807782351970673	0.5171386003494263	-0.1869712471961975	-0.49304771423339844	0.26861706376075745	-0.23367351293563843	-0.8070734739303589	-0.23713985085487366	0.3337135314941406	-0.5768316984176636	0.16148023307323456	-0.04493194818496704	-0.12369576841592789	0.2912721633911133	-0.02092762477695942	-0.014548168517649174	0.17595326900482178	-0.03975994884967804	0.42012500762939453	-0.3673572838306427	-0.032076288014650345	-0.1311512142419815	0.13922399282455444	0.1577947735786438	0.48733586072921753	-0.36206963658332825	0.3794856071472168	0.13767439126968384	-0.011792277917265892	0.2655278742313385	-0.21280895173549652	-0.16240361332893372	-0.7904598712921143	-0.3270060420036316	-0.05797642841935158	0.08961671590805054	-0.45873749256134033	-0.6592097878456116	-0.11757375299930573	0.3384197950363159	0.3856024146080017	0.028110245242714882	-0.02606041170656681	-0.35416051745414734	0.0422886423766613	-0.08971130847930908	0.3120444118976593	0.35708382725715637	0.8023183941841125	-0.3183123767375946	-0.15453289449214935	0.4265410900115967	-0.43714964389801025	-0.09842222183942795	0.056222811341285706	0.4077848494052887	-0.33394262194633484	0.22218742966651917	0.35300710797309875	0.23836630582809448	-0.035290684551000595	-0.3011679947376251	-0.07468972355127335	0.5411916971206665	-0.0012845222372561693	0.024314694106578827	0.4087359607219696	-0.17704860866069794	-0.4302705228328705	-0.21723316609859467	-0.40901389718055725	0.15961618721485138	-0.3658997118473053	0.07780925929546356	0.31907549500465393	-0.9821866750717163	-0.825547456741333	0.06025044247508049	-1.0452075004577637	0.5347373485565186	-0.38075095415115356	-0.20576080679893494	0.3035474121570587	-0.09964501112699509	0.23713475465774536	0.11253386735916138	-0.2956330478191376	0.30007943511009216	-0.1292501986026764	0.22930565476417542	-0.21888943016529083	0.03616698086261749	-0.12813356518745422	0.27056756615638733	0.15355752408504486	0.7195461988449097	0.5898967981338501	-0.14813032746315002	0.3215733468532562	0.29603826999664307	0.3717072010040283	0.19944244623184204	-0.5146895051002502	-0.24768586456775665	0.12139672785997391	0.4119274616241455	0.2592529356479645	0.8230748772621155	-0.1644994169473648	0.30899783968925476	0.9690544009208679	-0.04534585773944855	-0.11123795062303543	-0.05709736421704292	0.41146010160446167	-0.31071317195892334	0.17951415479183197	-0.40924978256225586	-0.1177908256649971	0.7876210808753967	0.14728185534477234	-0.2878829538822174	0.43625953793525696	0.06180591136217117	-0.005732324440032244	0.3338651955127716	-0.09563586115837097	0.47762298583984375	0.17430585622787476	-0.8436650633811951	-0.43100664019584656	0.6591518521308899	0.09580201655626297	0.6179319024085999	-0.4923173189163208	0.3055412173271179	0.2887185513973236	-0.13856206834316254	-0.062439437955617905	0.7122541069984436	0.4789840579032898	0.38478806614875793	0.2336229532957077	0.0565895214676857	0.05052483081817627	-0.03890766203403473	-0.029211172834038734	0.3387814164161682	0.7336199283599854	0.12332039326429367	-0.5739806294441223	0.20040549337863922	0.18712294101715088	0.4063675105571747	0.022968877106904984	0.07012245059013367	-0.09217249602079391	0.5460026264190674	-0.30601829290390015	-0.192273810505867	-0.36771684885025024	0.7561741471290588	0.036651961505413055	0.4055764079093933	-0.2694452702999115	-0.06595686823129654	-0.21134302020072937	-0.18945540487766266	-0.1836058795452118	-0.0505983792245388	0.340585857629776	-0.13484175503253937	0.5390098690986633	0.2685788571834564	-0.41667309403419495	-0.2795448899269104	0.2162155956029892	1.0219779014587402	0.545868992805481	0.6593481302261353	0.34204792976379395	0.11772454530000687	0.576571524143219	0.06529367715120316	-0.5836635231971741	0.37212973833084106	-0.13177192211151123	-0.43598365783691406	0.29624077677726746	-0.03264777362346649	0.026480982080101967	-0.43864962458610535	-0.1274082511663437	0.03822372853755951	-0.0847557857632637	0.6281000971794128	0.8845588564872742	-0.09709522128105164	0.1661749631166458	-0.05813293159008026	-0.17522011697292328	-0.1388971507549286	0.9006642699241638	-0.1417762041091919	0.7641057372093201	-0.0012777860974892974	0.3589944839477539	-0.1831520050764084	-0.22661453485488892	0.2920681834220886	-0.11418166011571884	0.34819862246513367	-0.5297316908836365	0.5953060388565063	-0.5089801549911499	0.45034193992614746	-0.623551070690155	-0.14541655778884888	0.5868081450462341	-0.18758155405521393	-0.41731274127960205	-0.09499302506446838	0.03140422701835632	-0.32330557703971863	-0.5316431522369385	0.08782705664634705	0.1006348729133606	-0.05434997007250786	-0.9317628741264343	-0.30353572964668274	-0.40821629762649536	-0.5052878856658936	-0.6351520419120789	-0.17777816951274872	0.36700448393821716	0.0012393726501613855	0.09408947080373764	-0.04130232334136963	0.0002539583947509527	0.629144549369812	-0.4563175141811371	0.8683250546455383	0.5952571034431458	0.17131981253623962	0.3694759011268616	-0.04232296347618103	0.35280174016952515	0.2633299231529236	0.23156090080738068	-0.06695300340652466	0.29712212085723877	-0.8069993853569031	-0.1341433823108673	-0.3091149628162384	-0.11478161811828613	0.29079902172088623	-0.7094488143920898	0.3513105511665344	0.2834353446960449	-0.017800278961658478	0.9194974899291992	0.5812270045280457	-0.48283037543296814	0.2658340632915497	0.3509676456451416	0.30162736773490906	-1.0083987712860107	-0.765886127948761	0.5224475264549255	0.12077002972364426	0.11305035650730133	-0.7818387150764465	0.07467141002416611	0.12887811660766602	0.16517038643360138	-0.1358250081539154	-0.43665799498558044	0.3066299557685852	0.448621541261673	0.2506830394268036	-0.4266207814216614	-0.0027868167962878942	-0.37448087334632874	0.0997861921787262	-0.8771620988845825	0.3660048544406891	-0.040585268288850784	0.5746045112609863	0.2261473536491394	0.6040459871292114	0.3491435945034027	-0.6643474102020264	0.5288472175598145	-0.33203932642936707	-0.11041774600744247	-0.32251009345054626	-0.12568305432796478	0.5641953945159912	-0.4406002461910248	-0.059268295764923096	0.13549526035785675	0.22039586305618286	0.14969325065612793	0.10622808337211609	0.3842734396457672	-0.8040134906768799	-0.2507009506225586	0.6283401250839233	-0.16750255227088928	0.38298219442367554	0.40531760454177856	-0.17602722346782684	0.3309065103530884	0.049936164170503616	0.09071550518274307	0.07480069994926453	0.05167268216609955	-0.13582009077072144	-0.16129085421562195	0.5877262353897095	-0.414188414812088	-0.15280437469482422	-0.18346184492111206	-0.043916791677474976	1.064091444015503	-0.46629637479782104	0.2177969366312027	-0.14317728579044342	-0.38889890909194946	0.0710194930434227	-0.6622241139411926	0.43297114968299866	-0.5185644030570984	0.25334832072257996	-0.11462711542844772	0.21602822840213776	-0.03683954104781151	0.44650182127952576	-0.033733028918504715	-0.1910882443189621	-0.43715766072273254	0.4304928779602051	0.09505461901426315	-0.5042670369148254	0.08491194248199463	0.1327146291732788	-0.22341550886631012	-0.3108154535293579	-0.46298858523368835	
J.K. Rowling	0.5877405405044556	0.2399953156709671	0.006451176945120096	-0.4934379756450653	-0.7120662927627563	0.01881006360054016	0.14540964365005493	-0.3973572254180908	0.2082236111164093	0.25612425804138184	-0.48512211441993713	0.7318689823150635	0.04043232277035713	-0.12225373834371567	0.42253273725509644	0.2785034477710724	-0.4175395369529724	-0.6060166358947754	0.027319109067320824	-0.010003805160522461	-0.47162172198295593	-0.10261618345975876	-0.339565634727478	0.3792855143547058	0.32962074875831604	0.6187900900840759	-0.2929813861846924	-1.0008511543273926	-0.6402591466903687	0.9437351822853088	-0.6862805485725403	0.5000024437904358	0.1459648460149765	0.41033557057380676	-0.15375417470932007	0.9237988591194153	0.45427075028419495	0.02578090876340866	0.280251681804657	-0.13151603937149048	-0.0835927352309227	0.14661462604999542	0.8368694186210632	0.22108027338981628	1.044597864151001	-0.112558513879776	0.7080990076065063	-0.5186406373977661	0.4215811789035797	0.3652764856815338	0.6253693699836731	-0.18071845173835754	-0.26429158449172974	-0.265004426240921	0.028748497366905212	-0.020456289872527122	-0.5512056350708008	0.5774053335189819	0.07179486751556396	0.18610866367816925	0.4440649449825287	0.6485362648963928	0.8304843902587891	0.3628510534763336	0.2510370910167694	0.14908184111118317	-0.6143708229064941	-0.6067735552787781	0.16488192975521088	0.09618771821260452	0.6768362522125244	-0.1415388137102127	0.608515739440918	0.8419569730758667	-0.4721515476703644	0.0762840136885643	0.4116312563419342	-0.10601028800010681	0.353781521320343	0.6892662048339844	0.013424438424408436	-0.2650156617164612	0.31772544980049133	0.40542763471603394	0.4682077169418335	-0.7882194519042969	0.4766629636287689	-0.9243031144142151	0.17889384925365448	0.19423553347587585	-0.08606602996587753	0.5038000345230103	0.592272937297821	0.47847285866737366	0.31202104687690735	-0.8404383659362793	-0.0853128731250763	0.4238576889038086	0.10286571085453033	0.33593395352363586	0.6129605770111084	0.5978216528892517	-0.2019576132297516	-0.04046882688999176	-0.5875260829925537	-0.05625837668776512	-0.2907668948173523	0.21553173661231995	-0.16356466710567474	0.3458571135997772	-0.2224651575088501	0.9735734462738037	0.5891987681388855	-0.4662383496761322	-0.6491062045097351	-0.15894098579883575	-0.23087728023529053	0.9259083271026611	-0.12050464004278183	0.38597044348716736	-0.2627696692943573	-0.5394043922424316	-0.12173224240541458	0.5661511421203613	-0.5457972288131714	0.8507762551307678	0.3604367673397064	-0.35762184858322144	0.339484840631485	-0.8972139954566956	0.8159222602844238	-0.2583151161670685	0.007313564419746399	-0.5376476049423218	-0.07438776642084122	-0.3394722044467926	-0.21044060587882996	0.9605591297149658	0.1064317375421524	-0.11457791179418564	-0.35558566451072693	-0.3334360122680664	0.07127001881599426	0.38739103078842163	-0.07650953531265259	0.060505859553813934	0.7157299518585205	-0.3789435625076294	1.1889276504516602	-0.1747223436832428	0.26664039492607117	0.637441098690033	1.006412148475647	0.24897123873233795	-0.38525453209877014	-0.09849890321493149	-0.3333025276660919	0.5376481413841248	-0.28048205375671387	0.11486146599054337	-0.1814315766096115	0.19999679923057556	-0.002753080567345023	-0.40601846575737	0.3144211173057556	-0.8274700045585632	0.39231541752815247	0.20950932800769806	-0.12527622282505035	0.24561753869056702	-0.5485475063323975	0.24102382361888885	0.27154701948165894	0.6526200771331787	0.24224163591861725	0.268819659948349	-0.19334076344966888	0.40053772926330566	-0.6313550472259521	-0.3534568250179291	-0.15342190861701965	0.817345917224884	-0.3760504424571991	-0.09644121676683426	-0.3525853753089905	-0.2734023928642273	-0.19571936130523682	0.003747931681573391	-0.03196733444929123	0.6294052004814148	-0.16478665173053741	-0.6992331147193909	-0.10351483523845673	-0.10423203557729721	-0.36335811018943787	-0.16061443090438843	-0.8812828063964844	0.5645641684532166	-0.16325801610946655	-0.5314335823059082	-0.4239968955516815	0.23386552929878235	-0.06665278226137161	-0.19578735530376434	0.6236287951469421	0.2411603033542633	0.8626869916915894	-0.5227809548377991	1.1362797021865845	0.58549964427948	-0.3891981542110443	-0.07798915356397629	-0.5130716562271118	0.06713785976171494	0.24200448393821716	0.6068823337554932	0.20324771106243134	0.7722825407981873	-0.39616963267326355	-0.021957794204354286	-0.038343776017427444	0.23299279808998108	0.18580228090286255	-0.05696507543325424	-0.640146017074585	-0.3317204713821411	-0.39040279388427734	-0.23919376730918884	0.41791611909866333	0.2602822482585907	-0.6037606596946716	0.14892533421516418	0.20861956477165222	0.379774272441864	-0.10764217376708984	0.5396881103515625	-0.2374987006187439	0.36344173550605774	-0.31421324610710144	0.34895840287208557	0.3947898745536804	0.1529199182987213	0.18000905215740204	0.0692521408200264	-0.26317861676216125	-0.03902663663029671	0.6587881445884705	-0.19416803121566772	0.20880348980426788	0.12107576429843903	0.10240191966295242	0.22096489369869232	0.24533000588417053	-0.12861336767673492	-0.7690415978431702	0.18577662110328674	-0.10560866445302963	-0.41512879729270935	0.4426761865615845	-0.2503391206264496	0.37932926416397095	0.9242950081825256	0.44647952914237976	0.9370682835578918	-0.8701431155204773	0.3498903810977936	0.5786282420158386	0.24508312344551086	-0.19032546877861023	0.08480791002511978	0.33372387290000916	0.004501922521740198	-0.04788212850689888	0.5951277017593384	0.13757774233818054	0.9963241815567017	0.06863897293806076	0.027610434219241142	-0.0882778912782669	1.2110810279846191	-0.9351668953895569	-0.11446987092494965	0.24962206184864044	-0.21095257997512817	-0.06193310394883156	-0.047706734389066696	0.46008551120758057	-0.7371366024017334	-0.2571570575237274	0.04562444984912872	0.550296425819397	-0.2946392893791199	0.46730750799179077	0.562203586101532	0.07391799986362457	0.398573100566864	-0.2831411361694336	-0.511306881904602	0.5367777943611145	0.35786646604537964	-0.5479784607887268	0.2613702118396759	0.006939577404409647	-0.2036057412624359	0.4136277735233307	0.13912837207317352	0.3081684112548828	0.37486082315444946	0.20525087416172028	0.14193940162658691	-0.22036492824554443	0.5166744589805603	0.7611597180366516	0.24484622478485107	-0.7279735207557678	0.3592834770679474	-0.27046939730644226	-0.0013104104436933994	-0.1997155249118805	0.7304167747497559	-0.3058260977268219	0.4145398437976837	0.1399734765291214	0.06630109250545502	0.007707422133535147	-0.9522657990455627	-0.029451971873641014	0.20698422193527222	-0.02614441327750683	-0.17911826074123383	0.4072246849536896	0.21879608929157257	-0.25795552134513855	-0.012382617220282555	0.04985303431749344	-0.28517213463783264	-0.2621099650859833	0.7564465403556824	-0.5474733114242554	0.6171863079071045	-0.4553936719894409	0.5014788508415222	-0.22416295111179352	0.6929163336753845	-0.10145246237516403	0.437533974647522	0.2879181504249573	0.6337693929672241	0.12371690571308136	0.3896007835865021	0.011082403361797333	0.15057219564914703	-0.5427057147026062	-0.4453611671924591	-0.6383567452430725	-0.26389798521995544	0.371351033449173	0.6047078967094421	-0.01760009676218033	-0.45691773295402527	-0.9208205938339233	0.08334686607122421	-0.034910619258880615	-0.39600545167922974	0.17983174324035645	-0.5879392027854919	0.12341194599866867	0.026229258626699448	0.7634483575820923	0.06306648254394531	0.0017193902749568224	0.2984771430492401	0.20398882031440735	-0.021331878378987312	-0.14617609977722168	0.5239371657371521	-0.4462006986141205	-0.6787092089653015	0.38725438714027405	-0.16273817420005798	0.3076770007610321	-0.5559680461883545	0.39233073592185974	0.3294336795806885	0.034549530595541	-0.6354074478149414	-0.8326701521873474	-0.3850161135196686	0.4158915579319	0.3076714873313904	-0.1946672797203064	-0.2789044976234436	0.5495414137840271	-0.18808022141456604	-1.2653881311416626	-0.22242093086242676	-0.1998436450958252	-0.139632448554039	0.8577066659927368	-0.36953482031822205	-0.19502165913581848	0.08459679782390594	-0.3501009941101074	0.007271076552569866	-0.8757824897766113	-0.1291692852973938	-0.1956416219472885	-0.19123025238513947	0.3653981685638428	0.041580066084861755	-0.5290224552154541	0.5281208753585815	0.35700586438179016	0.3479527533054352	-0.15639595687389374	0.7976512312889099	-0.002965903142467141	-0.10060658305883408	0.1387212574481964	0.01647259294986725	0.1264178603887558	-0.19903457164764404	-0.4746079444885254	0.8026754260063171	0.08141623437404633	0.03267860412597656	-0.7913193702697754	-0.4537956714630127	-0.14549791812896729	-0.04064498841762543	-0.3852405250072479	-0.0483117438852787	0.26894164085388184	0.564811646938324	-0.02673821523785591	-0.1535993367433548	0.8005213737487793	-0.33633747696876526	0.532434344291687	0.4584912657737732	0.24980078637599945	0.4407286047935486	0.03015960566699505	0.01053158100694418	-0.3517872393131256	0.26175037026405334	0.2506627142429352	-0.15883055329322815	0.830458402633667	-0.07246721535921097	-0.5695164203643799	-0.09308087080717087	-0.3641761541366577	0.09895113855600357	0.5774679780006409	-0.7075110673904419	-0.3870343863964081	-0.1833651065826416	-0.011756602674722672	-0.04920675605535507	-0.6829536557197571	-0.23466655611991882	0.18002383410930634	-0.0006133686983957887	0.519363284111023	-0.26343899965286255	0.02485516481101513	0.15656514465808868	-0.10021653771400452	-0.47921982407569885	0.1280241310596466	-0.6668028831481934	0.190554678440094	1.1234016418457031	-0.41237056255340576	0.083221934735775	-0.4727391302585602	-0.19028258323669434	0.4687771201133728	-0.10284443199634552	0.02396315149962902	-0.5082443952560425	-0.7752628922462463	-0.5559876561164856	0.1164892315864563	-0.10203424841165543	-1.0516035556793213	0.18550336360931396	0.24758639931678772	0.5162822604179382	-0.6090793609619141	-0.06668654084205627	0.3186629116535187	-0.2938517928123474	-0.594755232334137	0.6213489174842834	-0.5508996248245239	-0.08187101036310196	-0.09626340866088867	0.06800287961959839	
Ernest Hemingway	-0.04350699111819267	0.11511685699224472	-0.9243696331977844	-0.7268228530883789	-0.530798614025116	0.6194303631782532	0.1909259408712387	0.32324692606925964	0.372594952583313	0.41933831572532654	-0.44779184460639954	-0.15306010842323303	-0.07965593785047531	0.15088586509227753	-0.24252693355083466	0.21444381773471832	0.5718710422515869	0.1889246255159378	-0.059642914682626724	-0.1912655383348465	0.04520271718502045	0.07109690457582474	-0.21626374125480652	-0.03295529633760452	-0.527675986289978	0.18360234797000885	-0.2343287467956543	-0.3216400444507599	-0.6864888072013855	0.30220720171928406	-0.014480174519121647	1.0568110942840576	0.14205887913703918	0.30908191204071045	0.0834992378950119	0.38378453254699707	-0.22651506960391998	-0.13889624178409576	-0.5107337236404419	0.39149537682533264	0.02924983575940132	-0.13423162698745728	-0.5592765212059021	-0.09107273817062378	0.32608428597450256	0.6012863516807556	0.2631387412548065	0.3011806309223175	-0.13579963147640228	-0.23059584200382233	0.8466282486915588	-0.3565644919872284	0.5278350710868835	-0.18367338180541992	-0.016151901334524155	0.24732547998428345	-0.3415747880935669	0.5039275288581848	-0.13243812322616577	0.7988465428352356	0.41769447922706604	-0.17282257974147797	-0.07906865328550339	-0.29674598574638367	0.4875596761703491	-0.3511124551296234	0.15423065423965454	-0.43543124198913574	0.10309110581874847	0.6964507699012756	-0.45870381593704224	-0.6382939219474792	0.0017247763462364674	0.26714155077934265	0.017989974468946457	-0.08898509293794632	0.46373432874679565	-0.5605795979499817	-0.22784945368766785	-0.13430717587471008	0.4700976610183716	0.4231616258621216	0.3569651246070862	-0.3860640227794647	-0.18255119025707245	-0.6994667649269104	-0.37615472078323364	-0.3922848105430603	-0.18858255445957184	0.45462438464164734	0.011754919774830341	0.6776453256607056	-0.39365413784980774	-0.2945139706134796	-0.41241922974586487	0.08799143135547638	-0.41649848222732544	0.1187550500035286	0.3109053373336792	0.532905638217926	-0.2840839624404907	0.6480723023414612	-0.029379820451140404	0.36756446957588196	0.08836454898118973	0.0868450254201889	-0.03242304176092148	0.49848005175590515	0.2539117634296417	0.6168412566184998	0.09405794739723206	-0.3088798224925995	0.21450437605381012	-0.019926683977246284	-0.12056127190589905	-0.7489570379257202	-0.18946096301078796	-0.2626522183418274	-0.46491801738739014	-0.030636794865131378	-0.10862419754266739	0.6754361391067505	1.4421409368515015	0.5765320658683777	-0.08881227672100067	0.47639432549476624	-0.8198919892311096	0.43676239252090454	-0.01966600865125656	-1.0950052738189697	-0.34871792793273926	-0.6491038799285889	-0.17279666662216187	-0.09613321721553802	-0.804650604724884	0.00010331194789614528	0.13458026945590973	0.6924020648002625	-0.06466741859912872	-0.2909051775932312	0.13609786331653595	0.02517795003950596	0.280929297208786	0.6797686815261841	-0.12515000998973846	0.020242150872945786	0.16067622601985931	0.11350149661302567	-0.557412326335907	0.3760072588920593	-0.1657453179359436	0.11616630852222443	0.589212954044342	-0.07802519202232361	0.010203401558101177	-0.1994389146566391	-0.13750778138637543	-0.6913837194442749	0.14485937356948853	0.4835381805896759	0.380128413438797	0.47041231393814087	-0.4695918560028076	-0.11060436815023422	0.12160266935825348	-0.38250014185905457	-0.6418573260307312	-0.10641083121299744	0.4429762661457062	-0.2686099708080292	-0.04827287420630455	-0.5235099196434021	-0.31564024090766907	0.19683392345905304	-0.4983313977718353	0.09557053446769714	0.2844150960445404	-0.47005319595336914	0.4880918264389038	-0.3366183936595917	0.011265764944255352	0.32213154435157776	0.17024454474449158	-0.4596377909183502	0.07021138072013855	-0.33821266889572144	-1.1322578191757202	-0.1449090540409088	0.4047378897666931	-0.40633687376976013	-0.04264919459819794	-0.29085713624954224	-0.41515636444091797	0.42028936743736267	0.08005823940038681	0.19809962809085846	-0.4570229947566986	0.4157167077064514	0.23601050674915314	-0.8009244799613953	-0.19603416323661804	0.15329807996749878	-0.04700907692313194	0.34006232023239136	0.20318859815597534	-0.30681943893432617	0.2065330147743225	0.15395702421665192	-0.4626635015010834	-0.15449626743793488	-0.13465926051139832	-0.3420473337173462	-0.319921612739563	-0.12831822037696838	-0.36905747652053833	0.11732365190982819	0.058139167726039886	0.734761655330658	-0.13911490142345428	-0.6294329166412354	0.6718601584434509	0.27941104769706726	0.47247421741485596	-0.16694194078445435	-0.3192123770713806	0.17869459092617035	-1.4461958408355713	-0.25209948420524597	0.1539001315832138	-0.2003231942653656	-0.5571472644805908	0.20595617592334747	-0.13364765048027039	-0.05903210863471031	-0.25091639161109924	0.08961726725101471	0.5013699531555176	-0.35001522302627563	0.5737168192863464	-0.34931808710098267	0.2841721177101135	-0.44046634435653687	-0.5351280570030212	0.4393307864665985	0.32464951276779175	0.08094637095928192	0.037031106650829315	0.2922906279563904	-0.01887144148349762	0.00905590783804655	0.029006754979491234	-0.6138483285903931	0.20624156296253204	0.2045961171388626	0.010341431014239788	0.15458150207996368	-0.45812156796455383	0.6217042803764343	0.46021130681037903	0.42286813259124756	-0.7642261981964111	-0.3328232169151306	-0.020063243806362152	-0.42284858226776123	-0.02637898176908493	0.5060378909111023	0.28446677327156067	-0.4113227128982544	-0.48969748616218567	-0.8689230680465698	-0.4059765338897705	0.19163301587104797	0.3767876625061035	-0.590981662273407	0.5920600891113281	-0.2258215993642807	0.25850915908813477	0.2609667181968689	0.17225460708141327	-0.1865786761045456	-0.7473246455192566	0.6494057178497314	0.14641885459423065	0.20166504383087158	0.3670492172241211	-0.3588719069957733	0.22259455919265747	-0.4079972207546234	0.11749143153429031	-0.5984123349189758	0.26904016733169556	0.468220591545105	0.2320396900177002	0.3982856571674347	0.5053948760032654	0.16103523969650269	-0.3959689438343048	0.367063045501709	0.4644283950328827	-0.1632489264011383	-0.9491344690322876	0.016329145058989525	0.2608169615268707	-0.17883919179439545	0.010633575730025768	0.5114562511444092	0.18769000470638275	0.12145418673753738	-0.015444288030266762	-0.2235136479139328	0.5423687696456909	-0.1650177240371704	0.35786938667297363	-0.32126671075820923	-0.2950509786605835	0.33437106013298035	0.11459468305110931	0.367969810962677	0.25908657908439636	0.32737022638320923	0.4615554213523865	0.03550517186522484	-0.359540194272995	0.17590419948101044	0.8436907529830933	-1.3239617347717285	0.04340172931551933	-0.11975003033876419	0.3181307911872864	0.24002717435359955	0.5420823097229004	-0.5495251417160034	-0.27216997742652893	0.15220315754413605	-0.2339903712272644	-0.024535171687602997	-0.4919491708278656	0.21168115735054016	-0.7818253636360168	0.4284803569316864	0.4824199974536896	0.26011568307876587	0.12454670667648315	-0.586125373840332	-0.25961610674858093	-0.09233403205871582	-0.23053918778896332	0.7231589555740356	-0.5379156470298767	-0.588751494884491	-0.15154260396957397	-0.4080956280231476	0.9939412474632263	0.5970824956893921	0.36837038397789	-0.06799225509166718	0.07660718262195587	0.9787915349006653	-0.027074389159679413	-0.3735314905643463	0.2527144253253937	-0.7936119437217712	-0.5233089327812195	0.23280078172683716	0.17410685122013092	-0.2548278868198395	-0.2097812294960022	-0.10816127806901932	0.4040152132511139	0.6379941701889038	0.3366529941558838	0.36591407656669617	0.288025826215744	0.028452446684241295	-0.01563004031777382	-0.11254005134105682	0.5937613844871521	-0.061673134565353394	-0.48291921615600586	0.03754246607422829	-0.0959586352109909	-0.2920738458633423	-0.3581068813800812	0.05744290351867676	-0.3734685778617859	0.17041558027267456	-0.6082585453987122	-0.23599934577941895	0.30407869815826416	-0.5529944896697998	0.6240052580833435	0.2754763066768646	0.38649624586105347	0.2637641131877899	0.4171031415462494	0.29537317156791687	0.051795922219753265	0.9423949718475342	0.04034984111785889	-0.47399088740348816	-0.2016328126192093	0.000146511520142667	0.35544997453689575	-0.31868258118629456	-0.12687702476978302	-0.5663047432899475	-0.5666179060935974	0.3261110782623291	-0.7188026905059814	-0.5172976851463318	0.07404062151908875	0.7859826683998108	0.4739329516887665	-0.731419563293457	-0.07688575237989426	1.205108404159546	-0.35050058364868164	-0.1810835599899292	-0.6909376978874207	0.5021960139274597	0.8295043110847473	0.05999051034450531	-0.6113582849502563	0.26048916578292847	-0.0682077705860138	-0.3103167414665222	-0.5302081108093262	-0.031244542449712753	0.6070113182067871	0.506946325302124	0.21345876157283783	0.5842534899711609	-0.33784058690071106	-0.2158070206642151	-0.007830411195755005	-0.6557045578956604	0.47087836265563965	-0.5112296938896179	0.2827250361442566	0.22294293344020844	-0.1923615038394928	-0.15218685567378998	-0.2849239110946655	0.23406772315502167	0.00021541801106650382	-0.5681843161582947	0.3589041829109192	-0.21470476686954498	0.1368817239999771	-0.7699857354164124	-0.12246817350387573	-0.0864071175456047	-0.5836378931999207	0.24504515528678894	0.1745098978281021	-0.6978273987770081	-0.7073090076446533	-0.3879743814468384	-0.20825132727622986	-0.5089890360832214	0.49950459599494934	0.418260395526886	0.24638086557388306	-0.23829542100429535	0.9344773292541504	-0.3924880921840668	0.11390889436006546	-0.040521156042814255	-0.179117813706398	-0.2886178195476532	0.36998236179351807	0.22543175518512726	-0.9206860661506653	0.010413587093353271	0.18728002905845642	0.32830169796943665	-0.19687090814113617	-0.4427963197231293	-0.07964076101779938	0.3230222165584564	0.2697306275367737	-0.7827988266944885	0.3408219814300537	-0.2531020939350128	-0.14272308349609375	-0.8608568906784058	-0.23379409313201904	0.094598188996315	-0.13460353016853333	-0.23713243007659912	-0.6971353888511658	-0.36753493547439575	0.40612030029296875	-0.28953272104263306	-0.20389483869075775	-0.025242434814572334	-0.19691741466522217	-0.7874837517738342	0.5592052340507507	0.3287523090839386	
